tree
version=v4
num_class=1
num_tree_per_iteration=1
label_index=0
max_feature_idx=4
objective=regression
feature_names=Column_0 Column_1 Column_2 Column_3 Column_4
feature_infos=[0:18] [1:51] [0:1] [0:1] [0:44]
tree_sizes=3092 3056 2985 2938 2945 3039 3042 2948 2965 3094 2931 2842 2866 3013

Tree=0
num_leaves=30
num_cat=0
split_feature=0 4 3 0 4 0 4 0 1 3 2 2 4 0 1 4 1 1 1 0 1 1 1 1 1 4 1 1 4
split_gain=71.8517 45.7317 23.7218 22.341 13.1968 6.04646 5.3383 4.51388 4.46449 4.02064 2.73387 2.72854 2.49996 1.94779 1.87633 1.85195 1.76784 1.62082 1.58992 1.16059 0.998748 0.597134 0.537372 0.37901 0.32695 0.283373 0.11857 0.0417747 0.0350186
threshold=15.500000000000002 2.5000000000000004 1.0000000180025095e-35 11.500000000000002 4.5000000000000009 11.500000000000002 10.500000000000002 16.500000000000004 8.5000000000000018 1.0000000180025095e-35 1.0000000180025095e-35 1.0000000180025095e-35 7.5000000000000009 9.5000000000000018 8.5000000000000018 1.5000000000000002 20.500000000000004 25.500000000000004 3.5000000000000004 12.500000000000002 28.500000000000004 10.500000000000002 10.500000000000002 14.500000000000002 13.500000000000002 1.0000000180025095e-35 2.5000000000000004 33.500000000000007 5.5000000000000009
decision_type=2 2 2 2 2 2 2 2 2 2 2 2 2 2 2 2 2 2 2 2 2 2 2 2 2 2 2 2 2
left_child=1 5 3 13 8 14 16 -6 15 10 -7 28 22 -3 26 -2 -5 -16 -11 21 -8 -20 -13 -12 -10 -23 -1 -14 -4
right_child=4 2 11 6 7 9 20 -9 24 18 23 12 27 -15 17 -17 -18 -19 19 -21 -22 25 -24 -25 -26 -27 -28 -29 -30
leaf_value=-0.055008334471844979 0.0037810887488299466 -0.022556098057158851 0.003480254260508517 0.022278637789935753 0.053756655451329481 -0.025771609225201671 0.073743318800302271 0.094899137848786452 0.051870269908678455 -0.047837558913556802 -0.0072197147042907805 -0.018022524621821592 -0.035754578089407421 0.0044701941672654977 -0.0194532537888495 0.031210185497176586 0.045240556035609981 -0.047266450689065521 -0.022039364145028655 -0.014739708778626249 0.052348006500971253 -0.031148832629946922 -0.0032546728687338094 0.0048539332429747692 0.03937849572895976 -0.04201493017706083 -0.048516890962499448 -0.031184308693635528 -0.00060795394413477475
leaf_weight=17.000000000000004 16.000000000000004 15.000000000000002 11.000000000000002 19 15.000000000000002 20 12.000000000000002 11.999999999999998 10.000000000000002 11.999999999999998 13.000000000000002 11.000000000000002 10.000000000000002 11.999999999999998 11.000000000000002 9.9999999999999982 14.999999999999998 9.9999999999999982 9.9999999999999982 12.999999999999998 9.9999999999999982 12.000000000000002 13.999999999999998 12.999999999999998 10.999999999999998 11.999999999999998 11.999999999999998 9.9999999999999982 9.9999999999999982
leaf_count=17 16 15 11 19 15 20 12 12 10 12 13 11 10 12 11 10 15 10 10 13 10 12 14 13 11 12 12 10 10
internal_value=4.00759e-09 -0.0107553 0.00902419 0.0268145 0.0441839 -0.0297691 0.0448268 0.0720422 0.0281801 -0.0229544 -0.0118736 -0.0133485 -0.0202934 -0.0105444 -0.0440799 0.0143307 0.0324089 -0.0326976 -0.0315937 -0.0274463 0.0640182 -0.0323047 -0.00975253 -0.00118289 0.045327 -0.0365819 -0.0523222 -0.0334694 0.00153349
internal_weight=0 304 149 83 74 155 56 27 47 105 46 66 45 27 50 26 34 21 59 47 22 34 25 26 21 24 29 20 21
internal_count=378 304 149 83 74 155 56 27 47 105 46 66 45 27 50 26 34 21 59 47 22 34 25 26 21 24 29 20 21
is_linear=0
shrinkage=1


Tree=1
num_leaves=30
num_cat=0
split_feature=0 4 3 0 4 0 4 0 1 3 2 2 4 0 2 1 1 1 1 0 1 1 1 1 1 4 1 1 4
split_gain=64.8461 41.2728 21.4089 20.1627 11.9101 5.45693 4.81781 4.07377 4.02921 3.62863 2.46731 2.46251 2.25622 1.75788 1.7423 1.69338 1.59547 1.46279 1.43491 1.04743 0.90137 0.538913 0.484979 0.342056 0.295073 0.255744 0.107009 0.0377017 0.0316043
threshold=15.500000000000002 2.5000000000000004 1.0000000180025095e-35 11.500000000000002 4.5000000000000009 11.500000000000002 10.500000000000002 16.500000000000004 8.5000000000000018 1.0000000180025095e-35 1.0000000180025095e-35 1.0000000180025095e-35 7.5000000000000009 9.5000000000000018 1.0000000180025095e-35 8.5000000000000018 20.500000000000004 25.500000000000004 3.5000000000000004 12.500000000000002 28.500000000000004 10.500000000000002 10.500000000000002 14.500000000000002 13.500000000000002 1.0000000180025095e-35 2.5000000000000004 33.500000000000007 5.5000000000000009
decision_type=2 2 2 2 2 2 2 2 2 2 2 2 2 2 2 2 2 2 2 2 2 2 2 2 2 2 2 2 2
left_child=1 5 3 13 8 15 16 -6 14 10 -7 28 22 -3 -2 26 -5 -17 -11 21 -8 -20 -13 -12 -10 -23 -1 -14 -4
right_child=4 2 11 6 7 9 20 -9 24 18 23 12 27 -15 -16 17 -18 -19 19 -21 -22 25 -24 -25 -26 -27 -28 -29 -30
leaf_value=-0.052257921853486225 0.0016310325807093508 -0.021428297354529297 0.0033062380484559315 0.021164701315329264 0.051068817153573025 -0.024483032412827017 0.070056147749225278 0.090154174963633218 0.049276751950383169 -0.045445684902369977 -0.0068587334325107222 -0.017121401835571631 -0.033966853618621812 0.0042466802309112008 0.02759456299245357 -0.018480595031922509 0.042978524379432205 -0.044903133511543278 -0.020937400162220003 -0.01400272737328823 0.049730602204799655 -0.029591394697005544 -0.0030919433172260013 0.0046112332206506004 0.037409566749225964 -0.039914187230169776 -0.046091051388066268 -0.029625096917152406 -0.000577559694647789
leaf_weight=17.000000000000004 14 15.000000000000002 11.000000000000002 19 15.000000000000002 20 12.000000000000002 11.999999999999998 10.000000000000002 11.999999999999998 13.000000000000002 11.000000000000002 10.000000000000002 11.999999999999998 12 11.000000000000002 14.999999999999998 9.9999999999999982 9.9999999999999982 12.999999999999998 9.9999999999999982 12.000000000000002 13.999999999999998 12.999999999999998 10.999999999999998 11.999999999999998 11.999999999999998 9.9999999999999982 9.9999999999999982
leaf_count=17 14 15 11 19 15 20 12 12 10 12 13 11 10 12 12 11 15 10 10 13 10 12 14 13 11 12 12 10 10
internal_value=0 -0.0102175 0.00857298 0.0254738 0.0419747 -0.0282806 0.0425855 0.0684401 0.0267711 -0.0218067 -0.01128 -0.012681 -0.0192787 -0.0100172 0.0136142 -0.0418759 0.0307884 -0.0310628 -0.030014 -0.026074 0.0608173 -0.0306894 -0.00926491 -0.00112375 0.0430606 -0.0347528 -0.0497061 -0.031796 0.00145681
internal_weight=0 304 149 83 74 155 56 27 47 105 46 66 45 27 26 50 34 21 59 47 22 34 25 26 21 24 29 20 21
internal_count=378 304 149 83 74 155 56 27 47 105 46 66 45 27 26 50 34 21 59 47 22 34 25 26 21 24 29 20 21
is_linear=0
shrinkage=0.05


Tree=2
num_leaves=29
num_cat=0
split_feature=0 4 3 0 4 0 4 0 1 3 1 1 2 2 4 0 1 1 1 1 0 1 1 1 1 1 4 1
split_gain=58.5236 37.2487 19.3215 18.1969 10.7489 4.92488 4.34808 3.67658 3.63636 3.27484 2.24499 4.96989 2.22675 1.74594 1.68808 1.58649 1.52828 1.43991 1.32017 1.295 0.945308 0.813486 0.509084 0.486369 0.308706 0.266303 0.230809 0.096576
threshold=15.500000000000002 2.5000000000000004 1.0000000180025095e-35 11.500000000000002 4.5000000000000009 11.500000000000002 10.500000000000002 16.500000000000004 8.5000000000000018 1.0000000180025095e-35 19.500000000000004 7.5000000000000009 1.0000000180025095e-35 1.0000000180025095e-35 1.5000000000000002 9.5000000000000018 8.5000000000000018 20.500000000000004 25.500000000000004 3.5000000000000004 12.500000000000002 28.500000000000004 34.500000000000007 10.500000000000002 14.500000000000002 13.500000000000002 1.0000000180025095e-35 2.5000000000000004
decision_type=2 2 2 2 2 2 2 2 2 2 2 2 2 2 2 2 2 2 2 2 2 2 2 2 2 2 2 2
left_child=1 5 3 15 8 16 17 -6 14 12 11 -4 -7 -12 -2 -3 27 -5 -18 -11 23 -8 -15 -21 -14 -10 -25 -1
right_child=4 2 10 6 7 9 21 -9 25 19 13 -13 24 22 -16 -17 18 -19 -20 20 -22 -23 -24 26 -26 -27 -28 -29
leaf_value=-0.049645025239271272 0.0028613905655220147 -0.020356881891687707 -0.026835745877840295 0.020106467134074161 0.048515376995007187 -0.023258881065994504 0.066553341411054109 0.085646466662486403 0.046812915503978716 -0.043173400809367497 -0.0038510408562918508 0.016822774615138768 -0.0065157961745101649 -0.033897446095943438 0.029048850238323209 0.0040343465128292646 -0.01755656620318239 0.040829598070898407 -0.042657975554466251 -0.01989053085446358 -0.013302591156501037 0.047244071960449219 -0.020156682043203287 -0.028111825006393087 0.0043806709922277016 0.035539088872346011 -0.037918478933473429 -0.043786497522766393
leaf_weight=17.000000000000004 16.000000000000004 15.000000000000002 11.000000000000002 19 15.000000000000002 20 12.000000000000002 11.999999999999998 10.000000000000002 11.999999999999998 11.999999999999998 15.999999999999998 13.000000000000002 13.000000000000002 9.9999999999999982 11.999999999999998 11.000000000000002 14.999999999999998 9.9999999999999982 9.9999999999999982 12.999999999999998 9.9999999999999982 13.999999999999998 12.000000000000002 12.999999999999998 10.999999999999998 11.999999999999998 11.999999999999998
leaf_count=17 16 15 11 19 15 20 12 12 10 12 12 16 13 13 10 12 11 15 10 10 13 10 14 12 13 11 12 12
internal_value=0 -0.00970664 0.00814433 0.0242001 0.0398759 -0.0268666 0.0404562 0.0650181 0.0254326 -0.0207164 -0.012047 -0.00096403 -0.010716 -0.0197198 0.0129335 -0.00951634 -0.0397821 0.029249 -0.0295096 -0.0285133 -0.0247703 0.0577764 -0.0267726 -0.029155 -0.00106756 0.0409076 -0.0330152 -0.0472208
internal_weight=0 304 149 83 74 155 56 27 47 105 66 27 46 39 26 27 50 34 21 59 47 22 27 34 26 21 24 29
internal_count=378 304 149 83 74 155 56 27 47 105 66 27 46 39 26 27 50 34 21 59 47 22 27 34 26 21 24 29
is_linear=0
shrinkage=0.05


Tree=3
num_leaves=29
num_cat=0
split_feature=0 4 3 0 4 0 4 0 1 3 2 2 2 4 0 1 1 1 4 1 1 1 1 2 1 1 4 4
split_gain=52.8176 33.617 17.4377 16.4227 9.70086 4.4447 3.92414 3.31811 3.30353 2.95554 2.08014 2.02854 2.00964 1.88418 1.4318 1.37927 1.30487 1.19145 1.18636 0.734171 0.692535 0.425604 0.278607 0.235788 0.0871599 0.0661048 0.0323574 0.02739
threshold=15.500000000000002 2.5000000000000004 1.0000000180025095e-35 11.500000000000002 4.5000000000000009 11.500000000000002 10.500000000000002 16.500000000000004 9.5000000000000018 1.0000000180025095e-35 1.0000000180025095e-35 1.0000000180025095e-35 1.0000000180025095e-35 7.5000000000000009 9.5000000000000018 8.5000000000000018 17.500000000000004 25.500000000000004 1.0000000180025095e-35 28.500000000000004 9.5000000000000018 10.500000000000002 14.500000000000002 1.0000000180025095e-35 2.5000000000000004 10.500000000000002 13.500000000000002 5.5000000000000009
decision_type=2 2 2 2 2 2 2 2 2 2 2 2 2 2 2 2 2 2 2 2 2 2 2 2 2 2 2 2
left_child=1 5 3 14 8 15 16 -6 11 12 27 -2 -7 21 -3 24 -5 -17 23 -8 -20 -12 -14 -11 -1 -25 -15 -4
right_child=4 2 10 6 7 9 19 -9 -10 18 13 -13 22 26 -16 17 -18 -19 20 -21 -22 -23 -24 25 -26 -27 -28 -29
leaf_value=-0.047162775695323934 0.0011804772571971018 -0.019339037338892615 0.0032710171558640207 0.017991364369963243 0.046089609613021207 -0.022095937673002483 0.063225674753387751 0.081364146620035174 0.041770409354392218 -0.026036503230436492 -0.015717336603186343 0.027183951189120609 -0.006190006664166082 -0.030958410985767834 0.0038326291600242258 -0.01667873681607571 0.037581782327855334 -0.040525076985359197 -0.045397347211837753 0.044881868436932565 -0.028624081984162331 -0.0025747066363692285 0.0041616369898502641 -0.014512235224246975 -0.041597173207749923 -0.020261357370764017 -0.02693613275885582 -0.00034457582980394362
leaf_weight=17.000000000000004 15 15.000000000000002 11.000000000000002 17 15.000000000000002 20 12.000000000000002 11.999999999999998 17 12.999999999999998 11.000000000000002 15 13.000000000000002 10.000000000000002 11.999999999999998 11.000000000000002 17 9.9999999999999982 10.000000000000002 9.9999999999999982 15.999999999999998 13.999999999999998 12.999999999999998 10.000000000000002 11.999999999999998 9.9999999999999982 9.9999999999999982 9.9999999999999982
leaf_count=17 15 15 11 17 15 20 12 12 17 13 11 15 13 10 12 11 17 10 10 10 16 14 13 10 12 10 10 10
internal_value=0 -0.00922131 0.00773711 0.0229901 0.0378821 -0.0255233 0.0384334 0.0617672 0.0241609 -0.0196805 -0.0114446 0.0141822 -0.0101802 -0.0175085 -0.00904052 -0.037793 0.0277866 -0.0280341 -0.0270876 0.0548876 -0.0350753 -0.00835746 -0.00101418 -0.0207943 -0.0448598 -0.0173868 -0.0289473 0.00154931
internal_weight=0 304 149 83 74 155 56 27 47 105 66 30 46 45 27 50 34 21 59 22 26 25 26 33 29 20 20 21
internal_count=378 304 149 83 74 155 56 27 47 105 66 30 46 45 27 50 34 21 59 22 26 25 26 33 29 20 20 21
is_linear=0
shrinkage=0.05


Tree=4
num_leaves=29
num_cat=0
split_feature=0 4 3 0 4 0 4 0 1 3 1 1 4 4 1 1 1 1 1 1 1 1 0 1 1 1 4 0
split_gain=47.6679 30.3393 15.7375 14.8215 8.75502 4.01134 3.54154 2.9946 2.98539 2.66737 1.94713 4.45178 1.81627 1.53946 1.45971 2.49489 1.33023 1.24479 1.21323 1.1864 1.08436 1.07529 0.828576 0.66259 0.44225 0.259639 0.19416 0.0878128
threshold=15.500000000000002 2.5000000000000004 1.0000000180025095e-35 11.500000000000002 4.5000000000000009 11.500000000000002 10.500000000000002 16.500000000000004 8.5000000000000018 1.0000000180025095e-35 19.500000000000004 7.5000000000000009 1.5000000000000002 1.5000000000000002 34.500000000000007 41.500000000000007 34.500000000000007 8.5000000000000018 9.5000000000000018 20.500000000000004 3.5000000000000004 25.500000000000004 12.500000000000002 28.500000000000004 10.500000000000002 13.500000000000002 1.0000000180025095e-35 10.500000000000002
decision_type=2 2 2 2 2 2 2 2 2 2 2 2 2 2 2 2 2 2 2 2 2 2 2 2 2 2 2 2
left_child=1 5 3 16 8 17 19 -6 13 12 11 -4 18 -2 -12 -16 -3 27 -7 -5 -11 -19 24 -8 -22 -10 -26 -1
right_child=4 2 10 6 7 9 23 -9 25 20 14 -13 -14 -15 15 -17 -18 21 -20 -21 22 -23 -24 -25 26 -27 -28 -29
leaf_value=-0.044767627865076071 0.0020092099119210613 -0.020105632057843298 -0.025036899203603909 0.018098467693198474 0.043785128220915792 -0.023117378763854505 0.060064390984674282 0.077295938879251486 0.042805494442582116 -0.039148213648392514 -0.028466397834320863 0.016283312463201582 0.0091797513887286186 0.027017314136028293 0.0073695279319177954 -0.027137600183486939 0.0021059927131448475 -0.01584480070847679 -0.0046451923553831875 0.036909028167525927 -0.017578934580087663 -0.038498823046684269 -0.01157182392019492 0.042637774571776393 -0.025596914160996673 0.031673613867976451 -0.034591350836368905 -0.039097206497734238
leaf_weight=18 16.000000000000004 13.000000000000002 11.000000000000002 19 15.000000000000002 20 12.000000000000002 11.999999999999998 10.000000000000002 11.999999999999998 18 15.999999999999998 9.9999999999999982 9.9999999999999982 11.000000000000002 9.9999999999999982 13.999999999999998 11.000000000000002 15.999999999999998 14.999999999999998 9.9999999999999982 9.9999999999999982 12.999999999999998 9.9999999999999982 12.000000000000002 10.999999999999998 11.999999999999998 11.000000000000002
leaf_count=18 16 13 11 19 15 20 12 12 10 12 18 16 10 10 11 10 14 11 16 15 10 10 13 10 12 11 12 11
internal_value=0 -0.00876024 0.00735026 0.0218406 0.035988 -0.0242471 0.0365117 0.0586788 0.0229529 -0.0186965 -0.0108724 -0.000550848 -0.00967116 0.0116277 -0.0180181 -0.00906244 -0.00858849 -0.0359034 -0.0149075 0.0263972 -0.0257332 -0.0266324 -0.0223081 0.0521432 -0.0264132 0.0369745 -0.0300941 -0.0426168
internal_weight=0 304 149 83 74 155 56 27 47 105 66 27 46 26 39 21 27 50 36 34 59 21 47 22 34 21 24 29
internal_count=378 304 149 83 74 155 56 27 47 105 66 27 46 26 39 21 27 50 36 34 59 21 47 22 34 21 24 29
is_linear=0
shrinkage=0.05


Tree=5
num_leaves=30
num_cat=0
split_feature=0 4 4 3 0 0 4 3 1 0 1 2 2 1 1 4 4 0 4 1 0 1 1 1 1 1 1 4 1
split_gain=43.401 20.2812 18.7875 8.30783 9.99415 6.25706 4.95333 3.29723 5.21889 3.18025 2.76026 1.81519 1.51374 1.35208 1.32409 1.25823 2.51081 1.15593 0.868347 0.663125 0.584325 0.516159 0.509303 0.479011 0.2665 0.260226 0.180165 0.137638 0.074656
threshold=13.500000000000002 4.5000000000000009 2.5000000000000004 1.0000000180025095e-35 10.500000000000002 15.500000000000002 13.500000000000002 1.0000000180025095e-35 6.5000000000000009 16.500000000000004 9.5000000000000018 1.0000000180025095e-35 1.0000000180025095e-35 19.500000000000004 7.5000000000000009 9.5000000000000018 18.500000000000004 11.500000000000002 1.0000000180025095e-35 34.500000000000007 11.500000000000002 14.500000000000002 13.500000000000002 13.500000000000002 13.500000000000002 18.500000000000004 37.500000000000007 6.5000000000000009 10.500000000000002
decision_type=2 2 2 2 2 2 2 2 2 2 2 2 2 2 2 2 2 2 2 2 2 2 2 2 2 2 2 2 2
left_child=2 5 7 4 26 14 22 8 20 15 11 -7 -5 -14 -2 -3 -17 28 24 -15 -1 -16 -6 -20 -19 -10 -4 -24 -9
right_child=1 9 3 12 6 10 -8 17 25 -11 -12 -13 13 19 21 16 -18 18 23 -21 -22 -23 27 -25 -26 -27 -28 -29 -30
leaf_value=-0.03912902973019159 -0.015766171891899671 0.057713275551795944 -0.019843991101952264 -0.00077820172947314049 0.0089773528440855437 0.00038484332772592702 0.058415615092962982 -0.041588429408147921 0.004648921033159629 0.073431138942639029 0.037901762478491842 0.024982888822754221 -0.0042920649051666265 -0.035285378620028486 0.0098042607152213634 0.019680229049514636 0.05429727263748646 -0.016949173305457563 -0.040888316805164006 -0.018159227044536517 -0.02382855129738649 -0.0055766627658158548 0.026514006930996065 -0.026443245542362673 -0.027235880009830002 -0.0051751526502462541 -0.01035279765725136 0.019040088355541232 -0.036588786542415618
leaf_weight=13.000000000000002 17 10.000000000000002 10.000000000000002 18 9.9999999999999982 15 9.9999999999999982 16.000000000000004 14.000000000000002 11.999999999999998 17 15 10.999999999999998 10.000000000000002 12.000000000000002 11.000000000000002 9.9999999999999982 17.000000000000004 12.000000000000002 12.999999999999998 11.999999999999998 9.9999999999999982 11.000000000000002 10.999999999999998 9.9999999999999982 12.999999999999998 9.9999999999999982 13.999999999999998 13.999999999999998
leaf_count=13 17 10 10 18 10 15 10 16 14 12 17 15 11 10 12 11 10 17 12 13 12 10 11 11 10 13 10 14 14
internal_value=0 0.0235385 -0.0121946 0.00239344 0.0143104 0.00951983 0.027381 -0.025125 -0.0153233 0.0515759 0.0218052 0.0126839 -0.0125028 -0.0187099 -0.00528565 0.0431157 0.0361645 -0.0314961 -0.0268406 -0.0256054 -0.0317848 0.00281293 0.018514 -0.0339798 -0.0207591 -8.11885e-05 -0.0150984 0.0223286 -0.0392553
internal_weight=0 129 249 117 65 86 45 132 52 43 47 30 52 34 39 31 21 80 50 23 25 22 35 23 27 27 20 25 30
internal_count=378 129 249 117 65 86 45 132 52 43 47 30 52 34 39 31 21 80 50 23 25 22 35 23 27 27 20 25 30
is_linear=0
shrinkage=0.05


Tree=6
num_leaves=30
num_cat=0
split_feature=0 4 4 3 0 0 4 3 1 0 1 2 2 1 1 4 4 0 4 1 0 1 1 1 1 1 1 4 1
split_gain=39.1694 18.3038 16.9557 7.49782 9.01972 5.647 4.47038 2.97575 4.71005 2.87017 2.49113 1.63821 1.36615 1.22026 1.19499 1.13556 2.266 1.04322 0.783683 0.59847 0.527354 0.465833 0.459646 0.432457 0.240517 0.234854 0.162599 0.124218 0.0677037
threshold=13.500000000000002 4.5000000000000009 2.5000000000000004 1.0000000180025095e-35 10.500000000000002 15.500000000000002 13.500000000000002 1.0000000180025095e-35 6.5000000000000009 16.500000000000004 9.5000000000000018 1.0000000180025095e-35 1.0000000180025095e-35 19.500000000000004 7.5000000000000009 9.5000000000000018 18.500000000000004 11.500000000000002 1.0000000180025095e-35 34.500000000000007 11.500000000000002 14.500000000000002 13.500000000000002 14.500000000000002 13.500000000000002 18.500000000000004 37.500000000000007 6.5000000000000009 6.5000000000000009
decision_type=2 2 2 2 2 2 2 2 2 2 2 2 2 2 2 2 2 2 2 2 2 2 2 2 2 2 2 2 2
left_child=2 5 7 4 26 14 22 8 20 15 11 -7 -5 -14 -2 -3 -17 28 24 -15 -1 -16 -6 -20 -19 -10 -4 -24 -9
right_child=1 9 3 12 6 10 -8 17 25 -11 -12 -13 13 19 21 16 -18 18 23 -21 -22 -23 27 -25 -26 -27 -28 -29 -30
leaf_value=-0.037172578103267219 -0.014977863825419369 0.054827611427754143 -0.018851792020723221 -0.00073929172423150809 0.0085284851700998844 0.00036560106401642162 0.055494835539720955 -0.039831784846527225 0.0044164748563032055 0.069759583224852886 0.036006674422499017 0.023733744273583091 -0.0040774614634838972 -0.033521109819412219 0.0093140476693709656 0.01869621733415194 0.051582408584654328 -0.016101715143989111 -0.038294019779333693 -0.017251265278229348 -0.022637123242020607 -0.0052978289965540173 0.025188306414268224 -0.024463647352531554 -0.025874086283147336 -0.0049163944446123566 -0.0098351578041911136 0.018088084033557349 -0.035070624761283399
leaf_weight=13.000000000000002 17 10.000000000000002 10.000000000000002 18 9.9999999999999982 15 9.9999999999999982 14.000000000000002 14.000000000000002 11.999999999999998 17 15 10.999999999999998 10.000000000000002 12.000000000000002 11.000000000000002 9.9999999999999982 17.000000000000004 13.000000000000002 12.999999999999998 11.999999999999998 9.9999999999999982 11.000000000000002 9.9999999999999982 9.9999999999999982 12.999999999999998 9.9999999999999982 13.999999999999998 15.999999999999998
leaf_count=13 17 10 10 18 10 15 10 14 14 12 17 15 11 10 12 11 10 17 13 13 12 10 11 10 10 13 10 14 16
internal_value=0 0.0223616 -0.0115849 0.00227377 0.0135949 0.00904384 0.026012 -0.0238688 -0.0145571 0.0489971 0.020715 0.0120497 -0.0118776 -0.0177744 -0.00502137 0.04096 0.0343563 -0.0299213 -0.0254986 -0.0243251 -0.0301956 0.00267229 0.0175883 -0.0322808 -0.0197211 -7.71289e-05 -0.0143435 0.0212122 -0.0372925
internal_weight=0 129 249 117 65 86 45 132 52 43 47 30 52 34 39 31 21 80 50 23 25 22 35 23 27 27 20 25 30
internal_count=378 129 249 117 65 86 45 132 52 43 47 30 52 34 39 31 21 80 50 23 25 22 35 23 27 27 20 25 30
is_linear=0
shrinkage=0.05


Tree=7
num_leaves=29
num_cat=0
split_feature=0 4 4 3 0 0 4 1 3 0 1 2 2 1 1 4 4 4 0 0 1 1 1 1 4 3 1 4
split_gain=35.3504 16.5192 15.3025 6.76678 8.1403 5.09642 4.03452 2.74052 4.47574 2.59033 2.24825 1.47848 1.23295 1.10128 1.08036 1.02484 2.04507 0.951393 1.47661 0.575288 0.560968 0.540119 0.414831 0.211956 0.188614 0.17023 0.146746 0.112107
threshold=13.500000000000002 4.5000000000000009 2.5000000000000004 1.0000000180025095e-35 10.500000000000002 15.500000000000002 13.500000000000002 6.5000000000000009 1.0000000180025095e-35 16.500000000000004 9.5000000000000018 1.0000000180025095e-35 1.0000000180025095e-35 19.500000000000004 8.5000000000000018 9.5000000000000018 18.500000000000004 1.0000000180025095e-35 10.500000000000002 11.500000000000002 14.500000000000002 34.500000000000007 13.500000000000002 18.500000000000004 1.0000000180025095e-35 1.0000000180025095e-35 37.500000000000007 6.5000000000000009
decision_type=2 2 2 2 2 2 2 2 2 2 2 2 2 2 2 2 2 2 2 2 2 2 2 2 2 2 2 2
left_child=2 5 7 4 26 14 22 17 23 15 11 -7 -5 -14 -2 -3 -17 18 -1 -10 -16 -15 -6 -9 -21 -20 -4 -24
right_child=1 9 3 12 6 10 -8 8 19 -11 -12 -13 13 21 20 16 -18 -19 25 24 -22 -23 27 -25 -26 -27 -28 -29
leaf_value=-0.040118963963219095 -0.013308395798269071 0.052086231047287573 -0.01790920257568359 -0.00070232732428444759 0.0081020608125254509 0.00034732061438262461 0.052720093186944733 0.0041956505438845064 -0.033317092154175047 0.066271606087684634 0.034206341464510737 0.022547056848804155 -0.0038735889575698158 -0.031845055222511284 0.011714716684073206 0.017761407115242694 0.04900328855961561 -0.041188310179859404 -0.01572957330693801 -0.017615058844288187 -0.0050329379644244911 -0.01638870216332949 0.023928890478881915 -0.0046705753757403448 -0.025419318946660496 -0.023607580282259732 -0.0093433997035026559 0.017183679714798929
leaf_weight=13.999999999999998 19 10.000000000000002 10.000000000000002 18 9.9999999999999982 15 9.9999999999999982 14.000000000000002 15.999999999999998 11.999999999999998 17 15 10.999999999999998 10.000000000000002 10.000000000000002 11.000000000000002 9.9999999999999982 15.999999999999998 12.000000000000002 15.000000000000002 9.9999999999999982 12.999999999999998 11.000000000000002 12.999999999999998 15.999999999999998 15.999999999999998 9.9999999999999982 13.999999999999998
leaf_count=14 19 10 10 18 10 15 10 14 16 12 17 15 11 10 10 11 10 16 12 15 10 13 11 13 16 16 10 14
internal_value=0 0.0212435 -0.0110057 0.00216008 0.0129152 0.00859165 0.0247114 -0.0226753 -0.0162971 0.0465472 0.0196792 0.0114472 -0.0112838 -0.0168857 -0.0047703 0.038912 0.0326385 -0.030813 -0.0268605 -0.0256172 0.00334089 -0.0231089 0.0167089 -7.3273e-05 -0.0216431 -0.0202313 -0.0136263 0.0201516
internal_weight=0 129 249 117 65 86 45 132 74 43 47 30 52 34 39 31 21 58 42 47 20 23 35 27 31 28 20 25
internal_count=378 129 249 117 65 86 45 132 74 43 47 30 52 34 39 31 21 58 42 47 20 23 35 27 31 28 20 25
is_linear=0
shrinkage=0.05


Tree=8
num_leaves=29
num_cat=0
split_feature=0 4 4 3 0 0 4 1 3 0 1 4 2 4 1 4 4 4 0 0 4 1 1 1 4 3 1 4
split_gain=31.9037 14.9085 13.8105 6.10702 7.34662 4.59951 3.64115 2.47332 4.03936 2.33777 2.02904 1.38135 1.11274 1.00795 0.983323 0.924918 1.84567 0.858632 1.33264 0.520031 0.400498 0.374385 0.19129 0.187767 0.303644 0.153633 0.132438 0.101176
threshold=13.500000000000002 4.5000000000000009 2.5000000000000004 1.0000000180025095e-35 10.500000000000002 15.500000000000002 13.500000000000002 6.5000000000000009 1.0000000180025095e-35 16.500000000000004 9.5000000000000018 1.5000000000000002 1.0000000180025095e-35 7.5000000000000009 7.5000000000000009 9.5000000000000018 18.500000000000004 1.0000000180025095e-35 10.500000000000002 10.500000000000002 2.5000000000000004 13.500000000000002 18.500000000000004 21.500000000000004 1.0000000180025095e-35 1.0000000180025095e-35 37.500000000000007 6.5000000000000009
decision_type=2 2 2 2 2 2 2 2 2 2 2 2 2 2 2 2 2 2 2 2 2 2 2 2 2 2 2 2
left_child=2 5 7 4 26 14 21 17 22 15 11 -7 -5 -14 -2 -3 -17 18 -1 -10 -16 -6 -9 24 -21 -20 -4 -23
right_child=1 9 3 12 6 10 -8 8 19 -11 -12 -13 13 -15 20 16 -18 -19 25 23 -22 27 -24 -25 -26 -27 -28 -29
leaf_value=-0.038113015517592434 -0.013563550351297155 0.049481919966638074 -0.017013741526752706 -0.00066721085458993918 0.0076969578210264447 0.0021146043824652825 0.050084088109433655 0.0039858685606824493 -0.032018179992834732 0.062958024938901277 0.032496023545151249 0.024015167619412147 -0.0063523314644893013 -0.02369065919989034 -0.0049427818600088344 0.0168733355843208 0.046553123337216673 -0.039128893683664505 -0.014943093620240683 -0.01160793639719486 0.0086057111310462158 0.022732445563782341 -0.0044370467846210192 -0.025680053575585289 -0.023929535169154408 -0.022427201305981727 -0.0088762298226356517 0.016324495830174004
leaf_weight=13.999999999999998 17 10.000000000000002 10.000000000000002 18 9.9999999999999982 18.000000000000004 9.9999999999999982 14.000000000000002 14.999999999999998 11.999999999999998 17 11.999999999999998 14.999999999999998 19 10.000000000000002 11.000000000000002 9.9999999999999982 15.999999999999998 12.000000000000002 10.000000000000002 11.999999999999998 11.000000000000002 12.999999999999998 11.999999999999998 9.9999999999999982 15.999999999999998 9.9999999999999982 13.999999999999998
leaf_count=14 17 10 10 18 10 18 10 14 15 12 17 12 15 19 10 11 10 16 12 10 12 11 13 12 10 16 10 14
internal_value=0 0.0201813 -0.0104554 0.00205208 0.0122694 0.00816207 0.0234758 -0.0215415 -0.0154823 0.0442198 0.0186953 0.0108748 -0.0107196 -0.0160414 -0.00453179 0.0369664 0.0310066 -0.0292724 -0.0255175 -0.0243363 0.00244731 0.0158734 -6.96092e-05 -0.0207355 -0.0177687 -0.0192197 -0.012945 0.019144
internal_weight=0 129 249 117 65 86 45 132 74 43 47 30 52 34 39 31 21 58 42 47 22 35 27 32 20 28 20 25
internal_count=378 129 249 117 65 86 45 132 74 43 47 30 52 34 39 31 21 58 42 47 22 35 27 32 20 28 20 25
is_linear=0
shrinkage=0.05


Tree=9
num_leaves=30
num_cat=0
split_feature=0 4 4 3 0 0 4 1 3 0 1 4 2 1 1 4 4 4 0 4 1 1 0 1 1 1 4 3 1
split_gain=28.7931 13.455 12.464 5.51159 6.63032 4.15106 3.32232 2.23217 3.64552 2.10984 1.85 1.30368 1.00424 0.929746 0.887975 0.834738 1.66572 0.774916 1.2027 0.56354 0.493422 0.475576 0.469328 0.304323 0.172639 0.16946 0.274038 0.138653 0.119525
threshold=13.500000000000002 4.5000000000000009 2.5000000000000004 1.0000000180025095e-35 10.500000000000002 15.500000000000002 10.500000000000002 6.5000000000000009 1.0000000180025095e-35 16.500000000000004 8.5000000000000018 1.5000000000000002 1.0000000180025095e-35 19.500000000000004 8.5000000000000018 9.5000000000000018 18.500000000000004 1.0000000180025095e-35 10.500000000000002 6.5000000000000009 14.500000000000002 34.500000000000007 10.500000000000002 13.500000000000002 18.500000000000004 21.500000000000004 1.0000000180025095e-35 1.0000000180025095e-35 37.500000000000007
decision_type=2 2 2 2 2 2 2 2 2 2 2 2 2 2 2 2 2 2 2 2 2 2 2 2 2 2 2 2 2
left_child=2 5 7 4 28 14 19 17 24 15 11 -7 -5 -14 -2 -3 -17 18 -1 -6 -16 -15 -10 -12 -9 26 -24 -20 -4
right_child=1 9 3 12 6 10 -8 8 22 -11 23 -13 13 21 20 16 -18 -19 27 -21 -22 -23 25 -25 -26 -27 -28 -29 -30
leaf_value=-0.036207364872097969 -0.012045824370886152 0.047007822096347796 -0.016163055375218387 -0.0006338503522177537 0.018688052125713402 -6.0168997151777141e-06 0.041515179748336475 0.0037865753086017704 -0.030417271753152217 0.059810123220086102 0.035111154307378448 0.023007483109831812 -0.0032834817401387476 -0.029154960364103307 0.010901922732591626 0.016029669970951291 0.044225466866046198 -0.037172449473291638 -0.014195939898490901 0.0048588618349570505 -0.0048051213286817076 -0.014651477652100418 -0.011027539148926731 0.02305939366448332 -0.0042151935971700234 -0.024396050690362853 -0.022733058016747239 -0.021305841254070403 -0.0084324188157916067
leaf_weight=13.999999999999998 19 10.000000000000002 10.000000000000002 18 17.000000000000004 16.000000000000004 14.999999999999998 14.000000000000002 14.999999999999998 11.999999999999998 10.000000000000002 9.9999999999999982 10.999999999999998 10.000000000000002 10.000000000000002 11.000000000000002 9.9999999999999982 15.999999999999998 12.000000000000002 12.999999999999998 9.9999999999999982 12.999999999999998 10.000000000000002 10.999999999999998 12.999999999999998 11.999999999999998 9.9999999999999982 15.999999999999998 9.9999999999999982
leaf_count=14 19 10 10 18 17 16 15 14 15 12 10 10 11 10 10 11 10 16 12 13 10 13 10 11 13 12 10 16 10
internal_value=0 0.0191723 -0.00993262 0.00194948 0.0116559 0.00775396 0.022302 -0.0204645 -0.0147082 0.0420089 0.0177605 0.00884533 -0.0101836 -0.0152393 -0.0043052 0.035118 0.0294562 -0.0278087 -0.0242416 0.0126954 0.0030484 -0.0209573 -0.0231195 0.0287983 -6.61282e-05 -0.0196987 -0.0168803 -0.0182587 -0.0122977
internal_weight=0 129 249 117 65 86 45 132 74 43 47 26 52 34 39 31 21 58 42 30 20 23 47 21 27 32 20 28 20
internal_count=378 129 249 117 65 86 45 132 74 43 47 26 52 34 39 31 21 58 42 30 20 23 47 21 27 32 20 28 20
is_linear=0
shrinkage=0.05


Tree=10
num_leaves=29
num_cat=0
split_feature=0 4 4 3 0 0 4 1 3 0 1 2 2 4 1 4 4 4 0 1 4 1 2 1 1 1 4 3
split_gain=25.9858 12.1431 11.2488 4.97421 5.98387 3.74633 3.04111 2.01733 3.40203 1.90413 1.70022 1.32414 0.906331 0.839916 0.812392 0.753351 1.50331 0.734551 1.35146 0.504237 0.368422 0.337923 0.13492 0.906129 0.127861 0.107872 0.0863472 0.083288
threshold=13.500000000000002 4.5000000000000009 2.5000000000000004 1.0000000180025095e-35 10.500000000000002 15.500000000000002 13.500000000000002 5.5000000000000009 1.0000000180025095e-35 16.500000000000004 9.5000000000000018 1.0000000180025095e-35 1.0000000180025095e-35 7.5000000000000009 6.5000000000000009 9.5000000000000018 18.500000000000004 1.0000000180025095e-35 10.500000000000002 10.500000000000002 2.5000000000000004 13.500000000000002 1.0000000180025095e-35 18.500000000000004 18.500000000000004 37.500000000000007 6.5000000000000009 1.0000000180025095e-35
decision_type=2 2 2 2 2 2 2 2 2 2 2 2 2 2 2 2 2 2 2 2 2 2 2 2 2 2 2 2
left_child=2 5 7 4 25 14 21 17 24 15 11 -7 -5 -14 -2 -3 -17 18 -1 -10 -16 -6 -21 -24 -9 -4 -23 -20
right_child=1 9 3 12 6 10 -8 8 19 -11 -12 -13 13 -15 20 16 -18 -19 27 22 -22 26 23 -25 -26 -27 -28 -29
leaf_value=-0.036365617854663961 -0.012742094346322119 0.044657431542873369 -0.01535490214824676 -0.00060215781753261883 0.0064710094779729848 -0.00079081280156970016 0.045504125566221777 0.0027704344845066462 -0.01310369602094094 0.056819616382320727 0.029505574340959462 0.020218245287736258 -0.0056327295551697422 -0.021459964702003884 -0.0046806150539354828 0.015228186259892848 0.042014193870127205 -0.036356691680848596 -0.013486141835649806 -0.021104346215724948 0.0079877293047805626 0.020661421187899324 -0.037710962376811277 -0.018212401444235676 -0.0040044339803548962 -0.0080107976123690618 0.014741666481963227 -0.019262695885621583
leaf_weight=12.999999999999998 15.999999999999998 10.000000000000002 10.000000000000002 18 9.9999999999999982 15 9.9999999999999982 15.000000000000002 11.999999999999998 11.999999999999998 17 15 14.999999999999998 19 11.000000000000002 11.000000000000002 9.9999999999999982 14.999999999999998 12 14.999999999999998 11.999999999999998 11.000000000000002 11.000000000000002 12.999999999999998 12.999999999999998 9.9999999999999982 13.999999999999998 13
leaf_count=13 16 10 10 18 10 15 10 15 12 12 17 15 15 19 11 11 10 15 12 15 12 11 11 13 13 10 14 13
internal_value=0 0.0182136 -0.00943599 0.001852 0.0110731 0.00736626 0.0211869 -0.0194412 -0.0143784 0.0399084 0.0168725 0.00971372 -0.00967441 -0.0144774 -0.00408994 0.0333621 0.0279834 -0.0269878 -0.0232895 -0.0220665 0.00192896 0.0142391 -0.0248243 -0.0271492 -0.00037504 -0.0116828 0.0173464 -0.0164899
internal_weight=0 129 249 117 65 86 45 132 79 43 47 30 52 34 39 31 21 53 38 51 23 35 39 24 28 20 25 25
internal_count=378 129 249 117 65 86 45 132 79 43 47 30 52 34 39 31 21 53 38 51 23 35 39 24 28 20 25 25
is_linear=0
shrinkage=0.05


Tree=11
num_leaves=28
num_cat=0
split_feature=0 4 4 3 0 0 1 3 4 0 1 2 1 1 1 1 1 4 4 0 4 1 0 4 1 1 1
split_gain=23.4522 10.9591 10.152 4.48922 5.45469 3.38107 1.86111 3.04441 1.73516 1.71848 1.53445 1.19504 1.15553 0.831014 1.70836 2.0625 0.733184 0.679899 1.35674 0.608167 0.85159 0.440339 0.413248 0.332501 0.261408 0.168038 0.0780135
threshold=13.500000000000002 4.5000000000000009 2.5000000000000004 1.0000000180025095e-35 11.500000000000002 15.500000000000002 7.5000000000000009 1.0000000180025095e-35 10.500000000000002 16.500000000000004 9.5000000000000018 1.0000000180025095e-35 34.500000000000007 41.500000000000007 34.500000000000007 19.500000000000004 6.5000000000000009 9.5000000000000018 18.500000000000004 11.500000000000002 1.0000000180025095e-35 20.500000000000004 11.500000000000002 2.5000000000000004 18.500000000000004 21.500000000000004 2.5000000000000004
decision_type=2 2 2 2 2 2 2 2 2 2 2 2 2 2 2 2 2 2 2 2 2 2 2 2 2 2 2
left_child=2 5 6 4 12 16 19 24 21 17 11 -7 -4 14 15 -5 -2 -3 -19 26 -21 -6 -9 -18 -8 -24 -1
right_child=1 9 3 13 8 10 7 22 -10 -11 -12 -13 -14 -15 -16 -17 23 18 -20 20 -22 -23 25 -25 -26 -27 -28
leaf_value=-0.032357522380976549 -0.012104989681392909 0.042424559965729698 -0.017398108341372925 -0.0012436644713345328 0.0086486443447378932 -0.00075127214503784966 0.0064295918680727475 -0.027429931312799458 0.037545219207039252 0.053978636488318445 0.028030296987580028 0.019207333102822303 0.0033035880752972195 -0.022144484966993335 0.0119324604049325 -0.027089675200673253 -0.0044465844434770658 0.014466777376153248 0.039913485050201418 -0.014057735575451738 -0.03034107069341609 0.021930883436774216 -0.014418390883426916 0.0075883427013953529 -0.0038042124647360582 -0.022183733302253216 -0.026953549073501067
leaf_weight=17.000000000000004 15.999999999999998 10.000000000000002 13.000000000000002 19 13.000000000000002 15 12.000000000000002 14.999999999999998 12.999999999999998 11.999999999999998 17 15 13.999999999999998 9.9999999999999982 9.9999999999999982 12.999999999999998 11.000000000000002 11.000000000000002 9.9999999999999982 21 12.999999999999998 11.999999999999998 19.000000000000004 11.999999999999998 12.999999999999998 10.999999999999998 10.999999999999998
leaf_count=17 16 10 13 19 13 15 12 15 13 12 17 15 14 10 10 13 11 11 10 21 13 12 19 12 13 11 11
internal_value=0 0.017303 -0.00896419 0.0017594 0.0105195 0.00699795 -0.0184692 -0.0128817 0.0227287 0.037913 0.0160289 0.00922803 -0.0066639 -0.00919069 -0.00610645 -0.0117436 -0.00388544 0.031694 0.0265843 -0.0247776 -0.0202837 0.0150241 -0.0206538 0.00183251 0.00110801 -0.0172657 -0.0302345
internal_weight=0 129 249 117 65 86 132 70 38 43 47 30 27 52 42 32 39 31 21 62 34 25 45 23 25 30 28
internal_count=378 129 249 117 65 86 132 70 38 43 47 30 27 52 42 32 39 31 21 62 34 25 45 23 25 30 28
is_linear=0
shrinkage=0.05


Tree=12
num_leaves=28
num_cat=0
split_feature=0 4 4 3 0 0 4 1 3 0 1 4 2 1 1 4 4 0 4 4 1 0 1 1 1 1 1
split_gain=21.1656 9.89063 9.16218 4.05152 5.02026 3.05141 2.56055 1.67965 2.74758 1.55093 1.38484 1.12328 0.788957 0.718304 0.665096 0.613609 1.22446 0.54887 0.76856 0.477832 0.423472 0.374032 0.357814 0.235921 0.160618 0.0756163 0.0704072
threshold=13.500000000000002 4.5000000000000009 2.5000000000000004 1.0000000180025095e-35 10.500000000000002 15.500000000000002 10.500000000000002 7.5000000000000009 1.0000000180025095e-35 16.500000000000004 9.5000000000000018 1.5000000000000002 1.0000000180025095e-35 19.500000000000004 8.5000000000000018 9.5000000000000018 18.500000000000004 11.500000000000002 1.0000000180025095e-35 6.5000000000000009 14.500000000000002 10.500000000000002 34.500000000000007 18.500000000000004 21.500000000000004 37.500000000000007 2.5000000000000004
decision_type=2 2 2 2 2 2 2 2 2 2 2 2 2 2 2 2 2 2 2 2 2 2 2 2 2 2 2
left_child=2 5 7 4 25 14 19 17 23 15 11 -7 -5 -14 -2 -3 -17 26 -19 -6 -16 -10 -15 -9 -23 -4 -1
right_child=1 9 3 12 6 10 -8 8 21 -11 -12 -13 13 22 20 16 -18 18 -20 -21 -22 24 -24 -25 -26 -27 -28
leaf_value=-0.030739646136541572 -0.010390292137469117 0.040303331315517416 -0.013924268502742046 -0.00026671082402269044 0.016341715678572653 0.00086699227233313827 0.036124514105419323 0.0061081120666737349 -0.02640428143952574 0.051279703776041664 0.026628781438750384 0.020616083778440954 -0.0027035468681292103 -0.025348867122083896 0.009948572292923924 0.013743438436226408 0.037917810529470443 -0.013354848706651302 -0.028824017655390961 0.0036075037689163136 -0.0046025714650750156 -0.01369747164610185 -0.012768568012576836 -0.0036140020077045153 -0.021086383230673772 -0.0077754367887973783 -0.025605871189724318
leaf_weight=17.000000000000004 19 10.000000000000002 10.000000000000002 18 17.000000000000004 18.000000000000004 14.999999999999998 12.000000000000002 13.999999999999998 11.999999999999998 17 11.999999999999998 10.999999999999998 10.000000000000002 10.000000000000002 11.000000000000002 9.9999999999999982 21 12.999999999999998 12.999999999999998 9.9999999999999982 19.000000000000004 12.999999999999998 12.999999999999998 11.999999999999998 9.9999999999999982 10.999999999999998
leaf_count=17 19 10 10 18 17 18 15 12 14 12 17 12 11 10 10 11 10 21 13 13 10 19 13 13 12 10 11
internal_value=0 0.0164378 -0.00851598 0.00167143 0.0099935 0.00664805 0.0192572 -0.0175457 -0.0122376 0.0360173 0.0152274 0.00876663 -0.00873115 -0.0132123 -0.00369117 0.0301093 0.025255 -0.0235388 -0.0192695 0.0108236 0.002673 -0.0196211 -0.0182383 0.00105261 -0.0165577 -0.0108499 -0.0287228
internal_weight=0 129 249 117 65 86 45 132 70 43 47 30 52 34 39 31 21 62 34 30 20 45 23 25 31 20 28
internal_count=378 129 249 117 65 86 45 132 70 43 47 30 52 34 39 31 21 62 34 30 20 45 23 25 31 20 28
is_linear=0
shrinkage=0.05


Tree=13
num_leaves=29
num_cat=0
split_feature=0 4 4 0 3 0 4 1 3 2 0 1 0 4 1 1 4 4 4 0 0 1 4 1 4 1 3 4
split_gain=19.1019 8.9263 8.26887 3.69335 4.72558 2.7539 2.7085 1.52103 2.44763 1.51478 1.39971 1.25895 1.22818 1.09385 0.751378 0.606148 0.592186 0.545211 0.540194 0.852544 0.352657 0.318742 0.286872 0.185435 0.139348 0.123846 0.122905 0.0357026
threshold=13.500000000000002 4.5000000000000009 2.5000000000000004 9.5000000000000018 1.0000000180025095e-35 15.500000000000002 13.500000000000002 6.5000000000000009 1.0000000180025095e-35 1.0000000180025095e-35 16.500000000000004 8.5000000000000018 11.500000000000002 1.5000000000000002 19.500000000000004 6.5000000000000009 12.500000000000002 13.500000000000002 1.0000000180025095e-35 10.500000000000002 10.500000000000002 13.500000000000002 2.5000000000000004 18.500000000000004 1.0000000180025095e-35 18.500000000000004 1.0000000180025095e-35 10.500000000000002
decision_type=2 2 2 2 2 2 2 2 2 2 2 2 2 2 2 2 2 2 2 2 2 2 2 2 2 2 2 2
left_child=2 5 7 17 6 15 12 18 25 -6 16 13 -5 -7 -11 -2 -3 -4 19 -1 -10 -13 -17 -14 -22 -9 -21 -16
right_child=1 10 3 4 9 11 -8 8 20 14 -12 21 23 -15 27 22 -18 -19 -20 26 24 -23 -24 -25 -26 -27 -28 -29
leaf_value=-0.029827073003564564 -0.01098022588994354 0.02191266387235373 -0.025494852140545837 -0.0036021427674727009 0.0070814675465226172 -0.00099615284416358901 0.03971664071083069 0.0033440023926751949 -0.025134915858507158 -0.0011880115419626233 0.048715718463063246 0.03003215303644537 0.01215685385589798 0.020084055289626122 -0.020086456094868477 -0.004139935631643641 0.035741143239041172 -0.0096869985262552916 -0.03054896458052099 -0.010890370079626637 -0.012331095623473327 0.01769819056445902 0.0070387615822255613 0.02015806549627866 -0.018942986823180144 -0.0034333021594927862 -0.017584329517558218 -0.015861377287656072
leaf_weight=13.999999999999998 15.999999999999998 16.000000000000004 10.000000000000002 10.999999999999998 14.999999999999998 16.000000000000004 9.9999999999999982 14.000000000000002 14.999999999999998 10.000000000000002 11.999999999999998 10.000000000000002 15.000000000000002 9.9999999999999982 10.000000000000002 11.000000000000002 14.999999999999998 11.999999999999998 15.999999999999998 12.000000000000002 14.999999999999998 10.999999999999998 11.999999999999998 13.999999999999998 17 12.999999999999998 15.999999999999998 9.9999999999999982
leaf_count=14 16 16 10 11 15 16 10 14 15 10 12 10 15 10 10 11 15 12 16 12 15 11 12 14 17 13 16 10
internal_value=0 0.0156159 -0.00809018 0.00158786 0.00586286 0.00631565 0.0164422 -0.0166684 -0.0119167 -0.00589192 0.0342165 0.014466 0.0106236 0.00711162 -0.0123786 -0.00350661 0.0286039 -0.0168724 -0.022731 -0.0197527 -0.018809 0.0235715 0.00169243 0.0160195 -0.0158437 8.08558e-05 -0.0147155 -0.0179739
internal_weight=0 129 249 117 95 86 50 132 74 45 43 47 40 26 30 39 31 22 58 42 47 21 23 29 32 27 28 20
internal_count=378 129 249 117 95 86 50 132 74 45 43 47 40 26 30 39 31 22 58 42 47 21 23 29 32 27 28 20
is_linear=0
shrinkage=0.05


end of trees

feature_importances:
Column_1=147
Column_4=107
Column_0=83
Column_3=33
Column_2=25

parameters:
[boosting: gbdt]
[objective: regression]
[metric: l2]
[tree_learner: serial]
[device_type: cpu]
[data: ]
[valid: ]
[num_iterations: 10000]
[learning_rate: 0.05]
[num_leaves: 63]
[num_threads: 0]
[deterministic: 0]
[force_col_wise: 0]
[force_row_wise: 0]
[histogram_pool_size: -1]
[max_depth: -1]
[min_data_in_leaf: 10]
[min_sum_hessian_in_leaf: 0.001]
[bagging_fraction: 0.9]
[pos_bagging_fraction: 1]
[neg_bagging_fraction: 1]
[bagging_freq: 0]
[bagging_seed: 6673]
[feature_fraction: 0.9]
[feature_fraction_bynode: 1]
[feature_fraction_seed: 15745]
[extra_trees: 0]
[extra_seed: 2589]
[early_stopping_round: 0]
[first_metric_only: 0]
[max_delta_step: 0]
[lambda_l1: 0]
[lambda_l2: 0]
[linear_lambda: 0]
[min_gain_to_split: 0]
[drop_rate: 0.1]
[max_drop: 50]
[skip_drop: 0.5]
[xgboost_dart_mode: 0]
[uniform_drop: 0]
[drop_seed: 30119]
[top_rate: 0.2]
[other_rate: 0.1]
[min_data_per_group: 100]
[max_cat_threshold: 32]
[cat_l2: 10]
[cat_smooth: 10]
[max_cat_to_onehot: 4]
[top_k: 20]
[monotone_constraints: ]
[monotone_constraints_method: basic]
[monotone_penalty: 0]
[feature_contri: ]
[forcedsplits_filename: ]
[refit_decay_rate: 0.9]
[cegb_tradeoff: 1]
[cegb_penalty_split: 0]
[cegb_penalty_feature_lazy: ]
[cegb_penalty_feature_coupled: ]
[path_smooth: 0]
[interaction_constraints: ]
[verbosity: -1]
[saved_feature_importance_type: 0]
[linear_tree: 0]
[max_bin: 255]
[max_bin_by_feature: ]
[min_data_in_bin: 3]
[bin_construct_sample_cnt: 200000]
[data_random_seed: 58]
[is_enable_sparse: 1]
[enable_bundle: 1]
[use_missing: 1]
[zero_as_missing: 0]
[feature_pre_filter: 1]
[pre_partition: 0]
[two_round: 0]
[header: 0]
[label_column: ]
[weight_column: ]
[group_column: ]
[ignore_column: ]
[categorical_feature: ]
[forcedbins_filename: ]
[precise_float_parser: 0]
[parser_config_file: ]
[objective_seed: 5206]
[num_class: 1]
[is_unbalance: 0]
[scale_pos_weight: 1]
[sigmoid: 1]
[boost_from_average: 1]
[reg_sqrt: 0]
[alpha: 0.9]
[fair_c: 1]
[poisson_max_delta_step: 0.7]
[tweedie_variance_power: 1.5]
[lambdarank_truncation_level: 30]
[lambdarank_norm: 1]
[label_gain: ]
[eval_at: ]
[multi_error_top_k: 1]
[auc_mu_weights: ]
[num_machines: 1]
[local_listen_port: 12400]
[time_out: 120]
[machine_list_filename: ]
[machines: ]
[gpu_platform_id: -1]
[gpu_device_id: -1]
[gpu_use_dp: 0]
[num_gpu: 1]

end of parameters

pandas_categorical:null
