tree
version=v4
num_class=1
num_tree_per_iteration=1
label_index=0
max_feature_idx=4
objective=regression
feature_names=Column_0 Column_1 Column_2 Column_3 Column_4
feature_infos=[0:18] [1:51] [0:1] [0:1] [0:44]
tree_sizes=656 648 642 646 649 649 645 643 651 645 646 648 566 649 566 641 645 651 566 653 559 646 569 652 561 653 652 649 643 651 652 570 650 573 570 567 657 571 653 650 566 654 655 662 572 655 654 566 656 656 658 658 659 658 570 659 655 655 571 659 655 663 657 658 655 655 572 567 656 665 662 572 659 575 574 575 654 663 656 658 570 659 667 661 664 656 573 572 658 577 574 663

Tree=0
num_leaves=6
num_cat=0
split_feature=0 3 0 1 1
split_gain=64.7482 33.8499 22.8285 5.95198 2.93672
threshold=15.500000000000002 1.0000000180025095e-35 11.500000000000002 7.5000000000000009 21.500000000000004
decision_type=2 2 2 2 2
left_child=1 2 -1 -3 -5
right_child=-2 3 -4 4 -6
leaf_value=-0.019113144914669193 0.043791770439606553 -0.038748981417701035 0.022434277537966708 -0.0096581380785043768 -0.026128527483864537
leaf_weight=51 69 55 94 50 59
leaf_count=51 69 55 94 50 59
internal_value=-3.65877e-10 -0.00977875 0.00782105 -0.0253395 -0.0185733
internal_weight=0 309 145 164 109
internal_count=378 309 145 164 109
is_linear=0
shrinkage=1


Tree=1
num_leaves=6
num_cat=0
split_feature=4 3 3 4 1
split_gain=56.9638 28.8 8.93141 1.21893 0.432648
threshold=2.5000000000000004 1.0000000180025095e-35 1.0000000180025095e-35 9.5000000000000018 9.5000000000000018
decision_type=2 2 2 2 2
left_child=2 3 -1 -2 -4
right_child=1 -3 4 -5 -6
leaf_value=-0.0068763224657491925 0.030907825463347968 -0.0047581862989966184 -0.031553108964500753 0.041363293696194889 -0.025206372336484491
leaf_weight=84 63 73 58 50 50
leaf_count=84 63 73 58 50 50
internal_value=0 0.0197205 -0.0191042 0.0355341 -0.0286148
internal_weight=0 186 192 113 108
internal_count=378 186 192 113 108
is_linear=0
shrinkage=0.05


Tree=2
num_leaves=6
num_cat=0
split_feature=0 1 3 1 1
split_gain=58.0062 22.3572 23.551 12.976 1.94373
threshold=13.500000000000002 5.5000000000000009 1.0000000180025095e-35 9.5000000000000018 20.500000000000004
decision_type=2 2 2 2 2
left_child=1 -1 -3 -2 -4
right_child=3 2 4 -5 -6
leaf_value=-0.040455518189770313 0.01203570678519706 0.012933480017067445 -0.014750345279641737 0.044784325156666221 -0.028356724302723724
leaf_weight=59 60 93 52 61 53
leaf_count=59 60 93 52 61 53
internal_value=0 -0.0134396 -0.00538945 0.0285453 -0.0216183
internal_weight=0 257 198 121 105
internal_count=378 257 198 121 105
is_linear=0
shrinkage=0.05


Tree=3
num_leaves=6
num_cat=0
split_feature=0 4 3 0 1
split_gain=53.648 38.3782 13.2456 8.61694 2.08484
threshold=15.500000000000002 2.5000000000000004 1.0000000180025095e-35 11.500000000000002 7.5000000000000009
decision_type=2 2 2 2 2
left_child=1 3 -3 -1 -5
right_child=-2 2 -4 4 -6
leaf_value=-0.043375175192952156 0.039861694924479385 0.022287431111076981 -0.0073972760035437264 -0.025683937366469761 -0.011695275784127023
leaf_weight=50 69 84 68 50 57
leaf_count=50 69 84 68 50 57
internal_value=0 -0.00890116 0.00900743 -0.0262394 -0.018232
internal_weight=0 309 152 157 107
internal_count=378 309 152 157 107
is_linear=0
shrinkage=0.05


Tree=4
num_leaves=6
num_cat=0
split_feature=4 3 3 4 1
split_gain=45.0161 22.0195 6.93998 1.02414 0.322345
threshold=2.5000000000000004 1.0000000180025095e-35 1.0000000180025095e-35 9.5000000000000018 9.5000000000000018
decision_type=2 2 2 2 2
left_child=2 3 -1 -2 -4
right_child=1 -3 4 -5 -6
leaf_value=-0.0062041807254510266 0.027117619338253192 -0.0038732029282334841 -0.02790273868254033 0.036701350066112352 -0.022424472592771055
leaf_weight=84 63 73 58 50 50
leaf_count=84 63 73 58 50 50
internal_value=0 0.0175308 -0.016983 0.0313582 -0.0253665
internal_weight=0 186 192 113 108
internal_count=378 186 192 113 108
is_linear=0
shrinkage=0.05


Tree=5
num_leaves=6
num_cat=0
split_feature=4 3 3 4 1
split_gain=40.6271 19.8726 6.26333 0.92429 0.290916
threshold=2.5000000000000004 1.0000000180025095e-35 1.0000000180025095e-35 9.5000000000000018 9.5000000000000018
decision_type=2 2 2 2 2
left_child=2 3 -1 -2 -4
right_child=1 -3 4 -5 -6
leaf_value=-0.0058939716989351888 0.025761738820149312 -0.003679543063969492 -0.026507601585160898 0.034866282101720568 -0.02130324900895357
leaf_weight=84 63 73 58 50 50
leaf_count=84 63 73 58 50 50
internal_value=0 0.0166543 -0.0161338 0.0297903 -0.0240982
internal_weight=0 186 192 113 108
internal_count=378 186 192 113 108
is_linear=0
shrinkage=0.05


Tree=6
num_leaves=6
num_cat=0
split_feature=0 4 0 1 1
split_gain=46.8742 28.2236 7.82036 4.79468 1.79921
threshold=15.500000000000002 2.5000000000000004 11.500000000000002 25.500000000000004 7.5000000000000009
decision_type=2 2 2 2 2
left_child=1 2 -1 -3 -4
right_child=-2 3 4 -5 -6
leaf_value=-0.039513329491019253 0.037260238722344678 0.014816887461956654 -0.022483155127614739 -0.0030994940259860774 -0.0094880348561625742
leaf_weight=50 69 86 50 66 57
leaf_count=50 69 86 50 66 57
internal_value=0 -0.00832025 -0.0231888 0.00703741 -0.0155605
internal_weight=0 309 157 152 107
internal_count=378 309 157 152 107
is_linear=0
shrinkage=0.05


Tree=7
num_leaves=6
num_cat=0
split_feature=0 4 4 0 3
split_gain=42.9525 17.2889 12.385 5.97124 5.56932
threshold=13.500000000000002 2.5000000000000004 2.5000000000000004 11.500000000000002 1.0000000180025095e-35
decision_type=2 2 2 2 2
left_child=1 3 -2 -1 -3
right_child=2 4 -4 -5 -6
leaf_value=-0.037537663489580153 0.0073295142302023516 0.011814064207250502 0.039411457688189475 -0.015808779776616152 -0.009764844702591223
leaf_weight=50 56 67 65 86 54
leaf_count=50 56 67 65 86 54
internal_value=0 -0.011565 0.0245636 -0.0237973 0.00218381
internal_weight=0 257 121 136 121
internal_count=378 257 121 136 121
is_linear=0
shrinkage=0.05


Tree=8
num_leaves=6
num_cat=0
split_feature=4 3 3 4 1
split_gain=30.5158 16.4607 5.20409 0.879974 0.264088
threshold=2.5000000000000004 1.0000000180025095e-35 1.0000000180025095e-35 9.5000000000000018 9.5000000000000018
decision_type=2 2 2 2 2
left_child=2 3 -1 -2 -4
right_child=1 -3 4 -5 -6
leaf_value=-0.0046488177918252499 0.02245827138863711 -0.0040723069307030731 -0.023538098100508595 0.031341869565658272 -0.018579516120254994
leaf_weight=84 63 73 58 50 50
leaf_count=84 63 73 58 50 50
internal_value=0 0.0144338 -0.0139827 0.0263891 -0.0212425
internal_weight=0 186 192 113 108
internal_count=378 186 192 113 108
is_linear=0
shrinkage=0.05


Tree=9
num_leaves=6
num_cat=0
split_feature=0 4 0 1 1
split_gain=38.9632 20.6763 6.28372 4.22065 1.62417
threshold=15.500000000000002 2.5000000000000004 11.500000000000002 25.500000000000004 7.5000000000000009
decision_type=2 2 2 2 2
left_child=1 2 -1 -3 -4
right_child=-2 3 4 -5 -6
leaf_value=-0.034945012152194976 0.033970826161026528 0.012858082617221531 -0.020051347755827009 -0.0039516221661346426 -0.0077045116840101973
leaf_weight=50 69 86 50 66 57
leaf_count=50 69 86 50 66 57
internal_value=0 -0.00758572 -0.0203119 0.00555913 -0.0134741
internal_weight=0 309 157 152 107
internal_count=378 309 157 152 107
is_linear=0
shrinkage=0.05


Tree=10
num_leaves=6
num_cat=0
split_feature=0 4 0 1 1
split_gain=35.1643 18.6604 5.67106 3.80913 1.46582
threshold=15.500000000000002 2.5000000000000004 11.500000000000002 25.500000000000004 7.5000000000000009
decision_type=2 2 2 2 2
left_child=1 2 -1 -3 -4
right_child=-2 3 4 -5 -6
leaf_value=-0.033197761133313179 0.032272284958457603 0.012215178916609825 -0.019048780389246532 -0.0037540408302888725 -0.0073192854558950977
leaf_weight=50 69 86 50 66 57
leaf_count=50 69 86 50 66 57
internal_value=0 -0.00720643 -0.0192963 0.00528118 -0.0128004
internal_weight=0 309 157 152 107
internal_count=378 309 157 152 107
is_linear=0
shrinkage=0.05


Tree=11
num_leaves=6
num_cat=0
split_feature=3 2 4 4 1
split_gain=23.7084 19.1115 5.4472 3.55143 0.20906
threshold=1.0000000180025095e-35 1.0000000180025095e-35 3.5000000000000004 2.5000000000000004 9.5000000000000018
decision_type=2 2 2 2 2
left_child=1 -1 -3 4 -2
right_child=3 2 -4 -5 -6
leaf_value=-0.010709801069571681 -0.020864427797817466 0.01021845765446998 0.030835608195694576 -0.0045449043432735422 -0.016452604424208404
leaf_weight=63 58 53 81 73 50
leaf_count=63 58 53 81 73 50
internal_value=0 0.0120028 0.0226811 -0.0130638 -0.0188219
internal_weight=0 197 134 181 108
internal_count=378 197 134 181 108
is_linear=0
shrinkage=0.05


Tree=12
num_leaves=5
num_cat=0
split_feature=0 0 3 1
split_gain=31.8266 11.359 15.0159 8.61508
threshold=13.500000000000002 11.500000000000002 1.0000000180025095e-35 9.5000000000000018
decision_type=2 2 2 2
left_child=1 -1 -3 -2
right_child=3 2 -4 -5
leaf_value=-0.024397269082831199 0.0076919977491100638 0.016278968899242695 -0.014328567123990141 0.034376049187935152
leaf_weight=89 60 66 102 61
leaf_count=89 60 66 102 61
internal_value=0 -0.00995509 -0.00230418 0.0211443
internal_weight=0 257 168 121
internal_count=378 257 168 121
is_linear=0
shrinkage=0.05


Tree=13
num_leaves=6
num_cat=0
split_feature=0 1 3 1 1
split_gain=29.2092 14.8874 13.0333 4.50868 2.05337
threshold=15.500000000000002 6.5000000000000009 1.0000000180025095e-35 24.500000000000004 21.500000000000004
decision_type=2 2 2 2 2
left_child=1 -1 3 -3 -4
right_child=-2 2 4 -5 -6
leaf_value=-0.024384156872847063 0.029412963516686277 0.022231812849477457 -0.0047043819134970286 0.0019729293232678244 -0.018133537865922613
leaf_weight=85 69 57 55 53 59
leaf_count=85 69 57 55 53 59
internal_value=0 -0.00656794 0.000192673 0.0124707 -0.0116546
internal_weight=0 309 224 110 114
internal_count=378 309 224 110 114
is_linear=0
shrinkage=0.05


Tree=14
num_leaves=5
num_cat=0
split_feature=0 0 3 4
split_gain=26.6665 10.1944 12.572 8.66992
threshold=13.500000000000002 11.500000000000002 1.0000000180025095e-35 2.5000000000000004
decision_type=2 2 2 2
left_child=1 -1 -3 -2
right_child=3 2 -4 -5
leaf_value=-0.022794217846534227 0.0049350586936010854 0.015139446706708635 -0.012866755884583565 0.031777350120246413
leaf_weight=89 56 66 102 65
leaf_count=89 56 66 102 65
internal_value=0 -0.00911242 -0.00186432 0.0193545
internal_weight=0 257 168 121
internal_count=378 257 168 121
is_linear=0
shrinkage=0.05


Tree=15
num_leaves=6
num_cat=0
split_feature=0 4 0 1 1
split_gain=24.6758 13.5109 3.86743 2.69116 1.04897
threshold=15.500000000000002 2.5000000000000004 11.500000000000002 25.500000000000004 7.5000000000000009
decision_type=2 2 2 2 2
left_child=1 2 -1 -3 -4
right_child=-2 3 4 -5 -6
leaf_value=-0.0278040440666955 0.027034230937209466 0.010417287576764953 -0.01624552201293409 -0.0030054376968605954 -0.0063230077360282872
leaf_weight=50 69 86 50 66 57
leaf_count=50 69 86 50 66 57
internal_value=0 -0.00603677 -0.0163241 0.004589 -0.0109597
internal_weight=0 309 157 152 107
internal_count=378 309 157 152 107
is_linear=0
shrinkage=0.05


Tree=16
num_leaves=6
num_cat=0
split_feature=0 1 0 4 1
split_gain=22.2699 12.5367 10.9849 6.88272 0.472456
threshold=15.500000000000002 6.5000000000000009 10.500000000000002 2.5000000000000004 23.500000000000004
decision_type=2 2 2 2 2
left_child=1 -1 -3 -4 -5
right_child=-2 2 3 4 -6
leaf_value=-0.022084129488862615 0.025682519354682038 -0.019176913321846064 -0.0062381007533986125 0.017681072446950049 0.010994177941232921
leaf_weight=85 69 54 64 56 50
leaf_count=85 69 54 64 56 50
internal_value=0 -0.00573493 0.000469005 0.00670947 0.0145269
internal_weight=0 309 224 170 106
internal_count=378 309 224 170 106
is_linear=0
shrinkage=0.05


Tree=17
num_leaves=6
num_cat=0
split_feature=4 3 1 3 4
split_gain=16.2491 10.1414 3.87871 3.03025 0.863569
threshold=2.5000000000000004 1.0000000180025095e-35 3.5000000000000004 1.0000000180025095e-35 9.5000000000000018
decision_type=2 2 2 2 2
left_child=2 4 -1 -4 -2
right_child=1 -3 3 -5 -6
leaf_value=-0.020744218537583948 0.016022478598391728 -0.0039932379339604751 0.0035515584187074145 -0.01181475648342015 0.024822877496480943
leaf_weight=60 63 73 55 77 50
leaf_count=60 63 73 55 77 50
internal_value=0 0.0105325 -0.0102034 -0.00541213 0.0199165
internal_weight=0 186 192 132 113
internal_count=378 186 192 132 113
is_linear=0
shrinkage=0.05


Tree=18
num_leaves=5
num_cat=0
split_feature=0 0 3 1
split_gain=20.0193 8.03779 10.2426 6.64155
threshold=13.500000000000002 11.500000000000002 1.0000000180025095e-35 9.5000000000000018
decision_type=2 2 2 2
left_child=1 -1 -3 -2
right_child=3 2 -4 -5
leaf_value=-0.020044150151144927 0.0049581766997774442 0.013888425008256242 -0.011390448389711845 0.028387350763087391
leaf_weight=89 60 66 102 61
leaf_count=89 60 66 102 61
internal_value=0 -0.0078954 -0.00145946 0.0167696
internal_weight=0 257 168 121
internal_count=378 257 168 121
is_linear=0
shrinkage=0.05


Tree=19
num_leaves=6
num_cat=0
split_feature=0 4 3 0 2
split_gain=18.48 9.60215 4.37878 2.88512 0.812267
threshold=15.500000000000002 2.5000000000000004 1.0000000180025095e-35 11.500000000000002 1.0000000180025095e-35
decision_type=2 2 2 2 2
left_child=1 3 -3 -1 -5
right_child=-2 2 -4 4 -6
leaf_value=-0.023812125556170943 0.023395355588392074 0.011369164985427191 -0.0056984990943045192 -0.01391477243602276 -0.0051832726421324835
leaf_weight=50 69 84 68 50 57
leaf_count=50 69 84 68 50 57
internal_value=0 -0.00522421 0.00373363 -0.0138968 -0.00926341
internal_weight=0 309 152 157 107
internal_count=378 309 152 157 107
is_linear=0
shrinkage=0.05


Tree=20
num_leaves=5
num_cat=0
split_feature=0 1 0 4
split_gain=16.6782 9.7516 8.61437 6.4547
threshold=15.500000000000002 3.5000000000000004 10.500000000000002 3.5000000000000004
decision_type=2 2 2 2
left_child=1 -1 -3 -4
right_child=-2 2 3 -5
leaf_value=-0.024264976251180528 0.022225587512029039 -0.017812298225431605 -0.004893773101797008 0.013207551014457584
leaf_weight=54 69 58 99 98
leaf_count=54 69 58 99 98
internal_value=0 -0.004963 -0.000875517 0.00411095
internal_weight=0 309 255 197
internal_count=378 309 255 197
is_linear=0
shrinkage=0.05


Tree=21
num_leaves=6
num_cat=0
split_feature=0 1 3 4 4
split_gain=15.3362 6.59192 6.71518 6.35527 2.11781
threshold=13.500000000000002 5.5000000000000009 1.0000000180025095e-35 2.5000000000000004 2.5000000000000004
decision_type=2 2 2 2 2
left_child=1 -1 -3 -2 -4
right_child=3 2 4 -5 -6
leaf_value=-0.021580021973241562 0.0023322156135691329 0.0072447934748745106 -0.01810608101249845 0.0253137433840535 -0.0038983037065276334
leaf_weight=59 56 93 54 65 51
leaf_count=59 56 93 54 65 51
internal_value=0 -0.0069105 -0.00253927 0.0146777 -0.0112052
internal_weight=0 257 198 121 105
internal_count=378 257 198 121 105
is_linear=0
shrinkage=0.05


Tree=22
num_leaves=5
num_cat=0
split_feature=0 0 3 4
split_gain=14.0943 8.20871 9.77906 0.693064
threshold=15.500000000000002 11.500000000000002 1.0000000180025095e-35 2.5000000000000004
decision_type=2 2 2 2
left_child=1 -1 -3 -4
right_child=-2 2 3 -5
leaf_value=-0.017375183586826486 0.020431485808575931 0.012825737285744796 -0.011963976529051564 -0.0045324416034110094
leaf_weight=89 69 94 67 59
leaf_count=89 69 94 67 59
internal_value=0 -0.00456237 0.000620995 -0.00848413
internal_weight=0 309 220 126
internal_count=378 309 220 126
is_linear=0
shrinkage=0.05


Tree=23
num_leaves=6
num_cat=0
split_feature=1 3 1 1 4
split_gain=12.0216 10.6834 5.37569 2.16537 0.229126
threshold=6.5000000000000009 1.0000000180025095e-35 16.500000000000004 26.500000000000004 1.0000000180025095e-35
decision_type=2 2 2 2 2
left_child=4 3 -3 -2 -1
right_child=1 2 -4 -5 -6
leaf_value=-0.016482747388309456 0.019412801874394696 0.0070439981627994433 -0.014053462564738262 0.0068721812116828837 -0.011855056019113311
leaf_weight=54 92 52 72 55 53
leaf_count=54 92 52 72 55 53
internal_value=0 0.0056029 -0.00520614 0.0147207 -0.0141905
internal_weight=0 271 124 147 107
internal_count=378 271 124 147 107
is_linear=0
shrinkage=0.05


Tree=24
num_leaves=5
num_cat=0
split_feature=0 4 0 1
split_gain=12.5208 11.0031 5.11772 1.60241
threshold=11.500000000000002 3.5000000000000004 12.500000000000002 6.5000000000000009
decision_type=2 2 2 2
left_child=-1 3 -3 -2
right_child=1 2 -4 -5
leaf_value=-0.016398104551258716 -0.0090076334308001344 0.00617752069044703 0.026744016760637698 0.00089723864304167879
leaf_weight=89 70 60 61 98
leaf_count=89 70 60 61 98
internal_value=0 0.00504994 0.0165458 -0.00322979
internal_weight=0 289 121 168
internal_count=378 289 121 168
is_linear=0
shrinkage=0.05


Tree=25
num_leaves=6
num_cat=0
split_feature=0 1 0 3 1
split_gain=11.8989 7.07279 6.27587 8.19271 1.29147
threshold=15.500000000000002 3.5000000000000004 10.500000000000002 1.0000000180025095e-35 16.500000000000004
decision_type=2 2 2 2 2
left_child=1 -1 -3 -4 -5
right_child=-2 2 3 4 -6
leaf_value=-0.020630406465864295 0.018772930633175471 -0.015167207797539646 0.014893303362292831 -0.00032181716981410447 -0.011210965259738689
leaf_weight=54 69 58 88 56 53
leaf_count=54 69 58 88 56 53
internal_value=0 -0.00419201 -0.000710942 0.00354522 -0.00561654
internal_weight=0 309 255 197 109
internal_count=378 309 255 197 109
is_linear=0
shrinkage=0.05


Tree=26
num_leaves=6
num_cat=0
split_feature=1 3 1 4 4
split_gain=9.76601 8.72594 4.55786 1.7118 0.143754
threshold=6.5000000000000009 1.0000000180025095e-35 16.500000000000004 3.5000000000000004 1.0000000180025095e-35
decision_type=2 2 2 2 2
left_child=4 3 -3 -2 -1
right_child=1 2 -4 -5 -6
leaf_value=-0.014605785261287732 0.0064122641791722603 0.0065611031551200613 -0.012865350599167869 0.017522931646729644 -0.010940251101405835
leaf_weight=54 56 52 72 91 53
leaf_count=54 56 52 72 91 53
internal_value=0 0.00504998 -0.00471877 0.0132903 -0.0127901
internal_weight=0 271 124 147 107
internal_count=378 271 124 147 107
is_linear=0
shrinkage=0.05


Tree=27
num_leaves=6
num_cat=0
split_feature=0 0 4 1 1
split_gain=10.5485 6.10111 6.75303 1.26076 0.216252
threshold=15.500000000000002 10.500000000000002 3.5000000000000004 7.5000000000000009 21.500000000000004
decision_type=2 2 2 2 2
left_child=1 -1 3 -3 -4
right_child=-2 2 4 -5 -6
leaf_value=-0.017050143562095322 0.017675580723089692 -0.012529392819851638 0.0072279393775388605 -0.0029459787734054232 0.011833296264879979
leaf_weight=69 69 64 50 74 52
leaf_count=69 69 64 50 74 52
internal_value=0 -0.00394697 -0.000179813 -0.00739046 0.00957577
internal_weight=0 309 240 138 102
internal_count=378 309 240 138 102
is_linear=0
shrinkage=0.05


Tree=28
num_leaves=6
num_cat=0
split_feature=0 4 0 1 4
split_gain=9.56244 4.51728 4.35275 4.07884 2.24811
threshold=13.500000000000002 2.5000000000000004 10.500000000000002 7.5000000000000009 2.5000000000000004
decision_type=2 2 2 2 2
left_child=2 -2 -1 -4 -5
right_child=1 -3 3 4 -6
leaf_value=-0.016197636364486772 0.0011817048129159958 0.02055709594430832 -0.012141278125040357 -0.0045312759776910154 0.0090389898769851589
leaf_weight=69 56 65 61 51 76
leaf_count=69 56 65 61 51 76
internal_value=0 0.01159 -0.00545676 -0.00151463 0.00358951
internal_weight=0 121 257 188 127
internal_count=378 121 257 188 127
is_linear=0
shrinkage=0.05


Tree=29
num_leaves=6
num_cat=0
split_feature=0 1 3 1 1
split_gain=8.92144 5.30555 4.65151 1.79695 1.11406
threshold=15.500000000000002 3.5000000000000004 1.0000000180025095e-35 13.500000000000002 24.500000000000004
decision_type=2 2 2 2 2
left_child=1 -1 4 -4 -3
right_child=-2 2 3 -5 -6
leaf_value=-0.017867181028338598 0.016255351824119038 0.010623530974017754 0.00028683954082867681 -0.011666011510462296 0.00098432017455123513
leaf_weight=54 69 69 51 82 53
leaf_count=54 69 69 51 82 53
internal_value=0 -0.00362984 -0.000614869 -0.00708259 0.006436
internal_weight=0 309 255 133 122
internal_count=378 309 255 133 122
is_linear=0
shrinkage=0.05


Tree=30
num_leaves=6
num_cat=0
split_feature=1 3 1 4 4
split_gain=7.68702 6.96238 3.93852 1.33182 0.0696694
threshold=6.5000000000000009 1.0000000180025095e-35 16.500000000000004 3.5000000000000004 1.0000000180025095e-35
decision_type=2 2 2 2 2
left_child=4 3 -3 -2 -1
right_child=1 2 -4 -5 -6
leaf_value=-0.012611369364539214 0.0057741828994559395 0.0062399287564823269 -0.011818487915701958 0.015574409360683952 -0.010059561158688564
leaf_weight=54 56 52 72 91 53
leaf_count=54 56 52 72 91 53
internal_value=0 0.00448033 -0.0042456 0.011841 -0.0113474
internal_weight=0 271 124 147 107
internal_count=378 271 124 147 107
is_linear=0
shrinkage=0.05


Tree=31
num_leaves=5
num_cat=0
split_feature=0 4 3 2
split_gain=8.18059 7.46197 7.9101 0.922691
threshold=11.500000000000002 3.5000000000000004 1.0000000180025095e-35 1.0000000180025095e-35
decision_type=2 2 2 2
left_child=-1 3 -3 -2
right_child=1 2 -4 -5
leaf_value=-0.013254710169132339 -0.006862791410336893 0.024646862625292892 -0.0011773713559915242 0.00059105750243429857
leaf_weight=89 75 69 52 93
leaf_count=89 75 69 52 93
internal_value=0 0.0040819 0.0135488 -0.00273655
internal_weight=0 289 121 168
internal_count=378 289 121 168
is_linear=0
shrinkage=0.05


Tree=32
num_leaves=6
num_cat=0
split_feature=0 0 4 1 1
split_gain=7.56352 4.47205 4.72605 0.793353 0.214344
threshold=15.500000000000002 10.500000000000002 3.5000000000000004 7.5000000000000009 21.500000000000004
decision_type=2 2 2 2 2
left_child=1 -1 3 -3 -4
right_child=-2 2 4 -5 -6
leaf_value=-0.014560444825801298 0.014967202939821976 -0.010225643147714437 0.0057067882092669614 -0.0026234820661311213 0.010291790689986487
leaf_weight=69 69 64 50 74 52
leaf_count=69 69 64 50 74 52
internal_value=0 -0.00334219 -0.000116943 -0.00614912 0.00804424
internal_weight=0 309 240 138 102
internal_count=378 309 240 138 102
is_linear=0
shrinkage=0.05


Tree=33
num_leaves=5
num_cat=0
split_feature=0 0 4 2
split_gain=6.82607 4.03603 4.26526 0.581814
threshold=15.500000000000002 10.500000000000002 3.5000000000000004 1.0000000180025095e-35
decision_type=2 2 2 2
left_child=1 -1 3 -3
right_child=-2 2 -4 -5
leaf_value=-0.01383242273055341 0.014218842778084934 -0.0090882188330094031 0.0076420284780290204 -0.0025951129721774571
leaf_weight=69 69 69 102 69
leaf_count=69 69 69 102 69
internal_value=0 -0.00317508 -0.000111096 -0.00584167
internal_weight=0 309 240 138
internal_count=378 309 240 138
is_linear=0
shrinkage=0.05


Tree=34
num_leaves=5
num_cat=0
split_feature=0 1 1 3
split_gain=6.23757 3.64638 2.90096 3.19748
threshold=13.500000000000002 9.5000000000000018 7.5000000000000009 1.0000000180025095e-35
decision_type=2 2 2 2
left_child=2 -2 -1 -4
right_child=1 -3 3 -5
leaf_value=-0.012454507659929686 0.00060883775974313427 0.017968975285404042 0.0061270315605489647 -0.0072551472411005501
leaf_weight=78 60 61 85 94
leaf_count=78 60 61 85 94
internal_value=0 0.00936064 -0.00440715 -0.000900481
internal_weight=0 121 257 179
internal_count=378 121 257 179
is_linear=0
shrinkage=0.05


Tree=35
num_leaves=5
num_cat=0
split_feature=0 3 4 1
split_gain=5.92966 6.02501 6.70384 1.96114
threshold=11.500000000000002 1.0000000180025095e-35 3.5000000000000004 16.500000000000004
decision_type=2 2 2 2
left_child=-1 2 -2 -3
right_child=1 3 -4 -5
leaf_value=-0.011284776119609478 0.00047781473848146285 0.00074150753573755206 0.021938238592575428 -0.011336653536461572
leaf_weight=89 77 89 69 54
leaf_count=89 77 89 69 54
internal_value=0 0.00347524 0.0106201 -0.00381948
internal_weight=0 289 146 143
internal_count=378 289 146 143
is_linear=0
shrinkage=0.05


Tree=36
num_leaves=6
num_cat=0
split_feature=4 0 3 4 4
split_gain=5.49154 2.96647 1.51096 0.30449 0.0124723
threshold=10.500000000000002 15.500000000000002 1.0000000180025095e-35 2.5000000000000004 1.5000000000000002
decision_type=2 2 2 2 2
left_child=1 2 3 -1 -4
right_child=-2 -3 4 -5 -6
leaf_value=-0.0030359716292043203 0.01347585129477675 0.0073078002499338867 -0.0088559926183034605 0.0022274510585702958 -0.0079220833510837765
leaf_weight=61 63 60 78 50 66
leaf_count=61 63 60 78 50 66
internal_value=0 -0.00269517 -0.00504881 -0.000665061 -0.00842795
internal_weight=0 315 255 111 144
internal_count=378 315 255 111 144
is_linear=0
shrinkage=0.05


Tree=37
num_leaves=5
num_cat=0
split_feature=1 0 3 0
split_gain=5.48132 7.83568 2.18221 0.0351137
threshold=6.5000000000000009 12.500000000000002 1.0000000180025095e-35 12.500000000000002
decision_type=2 2 2 2
left_child=3 2 -2 -1
right_child=1 -3 -4 -5
leaf_value=-0.010479409723861695 0.0032332862869313946 0.014989837687556642 -0.0080426901597012261 -0.0086677957923625999
leaf_weight=54 82 99 90 53
leaf_count=54 82 99 90 53
internal_value=0 0.00378333 -0.00266693 -0.00958207
internal_weight=0 271 172 107
internal_count=378 271 172 107
is_linear=0
shrinkage=0.05


Tree=38
num_leaves=6
num_cat=0
split_feature=0 4 3 4 1
split_gain=5.11982 4.80164 5.39047 0.695985 0.0370277
threshold=11.500000000000002 3.5000000000000004 1.0000000180025095e-35 1.5000000000000002 7.5000000000000009
decision_type=2 2 2 2 2
left_child=-1 3 -3 4 -2
right_child=1 2 -4 -5 -6
leaf_value=-0.010485892121685313 -0.0056993442368419734 0.019984873151069213 -0.001333294944309343 0.0019143407107404774 -0.003820692849586959
leaf_weight=89 51 69 52 63 54
leaf_count=89 51 69 52 63 54
internal_value=0 0.00322922 0.0108233 -0.00224036 -0.00473318
internal_weight=0 289 121 168 105
internal_count=378 289 121 168 105
is_linear=0
shrinkage=0.05


Tree=39
num_leaves=6
num_cat=0
split_feature=1 0 1 1 0
split_gain=4.73674 6.6839 1.7595 0.135607 0.0247073
threshold=6.5000000000000009 12.500000000000002 15.500000000000002 33.500000000000007 12.500000000000002
decision_type=2 2 2 2 2
left_child=4 2 -2 -4 -1
right_child=1 -3 3 -5 -6
leaf_value=-0.0096602367996065711 0.0046495199102129601 0.013867151976746478 -0.0077419966097985364 -0.004292495910444164 -0.008140600347487292
leaf_weight=54 58 99 58 56 53
leaf_count=54 58 99 58 56 53
internal_value=0 0.00351699 -0.00244037 -0.00604751 -0.00890752
internal_weight=0 271 172 114 107
internal_count=378 271 172 114 107
is_linear=0
shrinkage=0.05


Tree=40
num_leaves=5
num_cat=0
split_feature=0 1 3 1
split_gain=4.45062 4.44959 4.55145 1.52751
threshold=10.500000000000002 6.5000000000000009 1.0000000180025095e-35 19.500000000000004
decision_type=2 2 2 2
left_child=-1 -2 3 -3
right_child=1 2 -4 -5
leaf_value=-0.011481249210951122 -0.0066510385267421332 0.0078727106160048632 -0.00128986848296948 0.019375377993478819
leaf_weight=69 92 62 101 54
leaf_count=69 92 62 101 54
internal_value=0 0.00256377 0.00647051 0.0132274
internal_weight=0 309 217 116
internal_count=378 309 217 116
is_linear=0
shrinkage=0.05


Tree=41
num_leaves=6
num_cat=0
split_feature=4 1 1 1 3
split_gain=4.27679 2.52796 4.49779 2.24197 0.688289
threshold=10.500000000000002 3.5000000000000004 16.500000000000004 7.5000000000000009 1.0000000180025095e-35
decision_type=2 2 2 2 2
left_child=1 -1 3 -3 -4
right_child=-2 2 4 -5 -6
leaf_value=-0.010996114671119113 0.011892356890224158 -0.0023177733760988946 -0.0037428526728249647 0.010596219678095469 -0.011842539466710555
leaf_weight=67 63 54 51 89 54
leaf_count=67 63 54 51 89 54
internal_value=0 -0.00237847 -5.03179e-05 0.00571961 -0.00790841
internal_weight=0 315 248 143 105
internal_count=378 315 248 143 105
is_linear=0
shrinkage=0.05


Tree=42
num_leaves=6
num_cat=0
split_feature=0 0 3 1 1
split_gain=4.07334 2.52614 2.47206 3.28171 0.734264
threshold=15.500000000000002 10.500000000000002 1.0000000180025095e-35 13.500000000000002 13.500000000000002
decision_type=2 2 2 2 2
left_child=1 -1 3 -3 -4
right_child=-2 2 4 -5 -6
leaf_value=-0.010884115433630845 0.010983836513174618 -0.0033834861415737078 -0.00094262238990543709 0.013974595696864918 -0.0084295425313309982
leaf_weight=69 69 53 66 56 65
leaf_count=69 69 53 66 56 65
internal_value=0 -0.0024527 -2.86698e-05 0.00553443 -0.00465751
internal_weight=0 309 240 109 131
internal_count=378 309 240 109 131
is_linear=0
shrinkage=0.05


Tree=43
num_leaves=6
num_cat=0
split_feature=4 0 3 4 4
split_gain=3.84878 1.77558 0.89209 0.112107 0.0302079
threshold=10.500000000000002 15.500000000000002 1.0000000180025095e-35 2.5000000000000004 1.0000000180025095e-35
decision_type=2 2 2 2 2
left_child=1 2 3 -1 -4
right_child=-2 -3 4 -5 -6
leaf_value=-0.0021474458800140222 0.011281593077416932 0.0054825768807980546 -0.0057918827844269834 0.0010462755295448005 -0.007268434405079122
leaf_weight=61 63 60 58 50 86
leaf_count=61 63 60 58 50 86
internal_value=0 -0.00225632 -0.00407724 -0.000708833 -0.00667371
internal_weight=0 315 255 111 144
internal_count=378 315 255 111 144
is_linear=0
shrinkage=0.05


Tree=44
num_leaves=5
num_cat=0
split_feature=0 4 3 2
split_gain=3.60475 3.9461 3.15567 0.656253
threshold=10.500000000000002 3.5000000000000004 1.0000000180025095e-35 1.0000000180025095e-35
decision_type=2 2 2 2
left_child=-1 3 -3 -2
right_child=1 2 -4 -5
leaf_value=-0.010332754979068685 -0.0056323921221286752 0.0155123587916789 -0.00038283461757566571 0.00041166765050605896
leaf_weight=69 86 76 53 94
leaf_count=69 86 76 53 94
internal_value=0 0.00230731 0.00898178 -0.00247605
internal_weight=0 309 129 180
internal_count=378 309 129 180
is_linear=0
shrinkage=0.05


Tree=45
num_leaves=6
num_cat=0
split_feature=0 1 0 3 1
split_gain=3.32733 2.08786 1.78083 2.29825 0.907937
threshold=15.500000000000002 3.5000000000000004 10.500000000000002 1.0000000180025095e-35 16.500000000000004
decision_type=2 2 2 2 2
left_child=1 -1 -3 -4 -5
right_child=-2 2 3 4 -6
leaf_value=-0.011148056621163117 0.0099271936031679331 -0.0080261137698785061 0.007952253164628267 0.0015287550216141557 -0.0076014199276577751
leaf_weight=54 69 58 88 56 53
leaf_count=54 69 58 88 56 53
internal_value=0 -0.00221675 -0.000325417 0.00194179 -0.00291069
internal_weight=0 309 255 197 109
internal_count=378 309 255 197 109
is_linear=0
shrinkage=0.05


Tree=46
num_leaves=6
num_cat=0
split_feature=4 1 1 1 1
split_gain=3.32084 1.94212 3.76776 1.97244 0.0285656
threshold=10.500000000000002 3.5000000000000004 16.500000000000004 7.5000000000000009 30.000000000000004
decision_type=2 2 2 2 2
left_child=1 -1 3 -3 -4
right_child=-2 2 4 -5 -6
leaf_value=-0.0096492504721868849 0.010479319278180363 -0.0023130786674166169 -0.0064147907040583403 0.0097998234117665228 -0.0080642692112135438
leaf_weight=67 63 54 52 89 53
leaf_count=67 63 54 52 89 53
internal_value=0 -0.00209586 -5.52312e-05 0.00522572 -0.00724738
internal_weight=0 315 248 143 105
internal_count=378 315 248 143 105
is_linear=0
shrinkage=0.05


Tree=47
num_leaves=5
num_cat=0
split_feature=0 1 3 1
split_gain=2.95317 2.89228 2.80455 1.3249
threshold=10.500000000000002 6.5000000000000009 1.0000000180025095e-35 19.500000000000004
decision_type=2 2 2 2
left_child=-1 -2 3 -3
right_child=1 2 -4 -5
leaf_value=-0.0093523916833109458 -0.005340878321768959 0.005555197663394915 -0.00085358455970809596 0.016267881621779116
leaf_weight=69 92 62 101 54
leaf_count=69 92 62 101 54
internal_value=0 0.0020884 0.00523814 0.0105421
internal_weight=0 309 217 116
internal_count=378 309 217 116
is_linear=0
shrinkage=0.05


Tree=48
num_leaves=6
num_cat=0
split_feature=4 1 1 1 3
split_gain=2.87826 1.628 3.48819 1.70242 0.286359
threshold=10.500000000000002 3.5000000000000004 16.500000000000004 7.5000000000000009 1.0000000180025095e-35
decision_type=2 2 2 2 2
left_child=1 -1 3 -3 -4
right_child=-2 2 4 -5 -6
leaf_value=-0.0088668139679218411 0.0097560579962437111 -0.0020054260096340269 -0.0043162244171196336 0.0092478650467721427 -0.0095406418200582269
leaf_weight=67 63 54 51 89 54
leaf_count=67 63 54 51 89 54
internal_value=0 -0.00195121 -8.28835e-05 0.00499837 -0.00700307
internal_weight=0 315 248 143 105
internal_count=378 315 248 143 105
is_linear=0
shrinkage=0.05


Tree=49
num_leaves=6
num_cat=0
split_feature=0 0 4 4 1
split_gain=2.77716 1.65957 1.61918 0.202732 0.114816
threshold=15.500000000000002 10.500000000000002 3.5000000000000004 1.0000000180025095e-35 21.500000000000004
decision_type=2 2 2 2 2
left_child=1 -1 3 -3 -4
right_child=-2 2 4 -5 -6
leaf_value=-0.0088591208869584614 0.0090694130243112649 -0.0015305386477848515 0.0030057454369962215 -0.0053734922561341448 0.006361452013684008
leaf_weight=69 69 64 50 74 52
leaf_count=69 69 64 50 74 52
internal_value=0 -0.00202521 -6.04588e-05 -0.00359125 0.0047165
internal_weight=0 309 240 138 102
internal_count=378 309 240 138 102
is_linear=0
shrinkage=0.05


Tree=50
num_leaves=6
num_cat=0
split_feature=4 4 0 4 2
split_gain=2.53887 1.13119 1.40846 0.539305 0.0439723
threshold=10.500000000000002 1.5000000000000002 13.500000000000002 4.5000000000000009 1.0000000180025095e-35
decision_type=2 2 2 2 2
left_child=1 4 3 -3 -1
right_child=-2 2 -4 -5 -6
leaf_value=-0.0058056486248061426 0.0091628291278279244 0.00097340947227939122 0.0068805167104102798 -0.0061936681821512492 -0.0040644238788921103
leaf_weight=82 63 53 63 52 65
leaf_count=82 63 53 63 52 65
internal_value=0 -0.00183257 0.000970194 -0.002576 -0.00503572
internal_weight=0 315 168 105 147
internal_count=378 315 168 105 147
is_linear=0
shrinkage=0.05


Tree=51
num_leaves=6
num_cat=0
split_feature=0 0 4 4 1
split_gain=2.40814 1.4938 1.38907 0.208323 0.0913118
threshold=15.500000000000002 10.500000000000002 3.5000000000000004 1.0000000180025095e-35 21.500000000000004
decision_type=2 2 2 2 2
left_child=1 -1 3 -3 -4
right_child=-2 2 4 -5 -6
leaf_value=-0.0083694871488040785 0.0084453958760697303 -0.0012031792226480321 0.0028770551048219206 -0.0050987614922829577 0.0058696421096101408
leaf_weight=69 69 64 50 74 52
leaf_count=69 69 64 50 74 52
internal_value=0 -0.00188587 -2.18236e-05 -0.00329211 0.00440269
internal_weight=0 309 240 138 102
internal_count=378 309 240 138 102
is_linear=0
shrinkage=0.05


Tree=52
num_leaves=6
num_cat=0
split_feature=1 0 1 3 0
split_gain=2.19542 3.54563 1.11575 0.628276 0.00569942
threshold=6.5000000000000009 12.500000000000002 15.500000000000002 1.0000000180025095e-35 12.500000000000002
decision_type=2 2 2 2 2
left_child=4 2 -2 -4 -1
right_child=1 -3 3 -5 -6
leaf_value=-0.0057027043498776575 0.0037012233880573311 0.0099327569932681561 -0.0010394604739433686 -0.0084643436515511108 -0.0064325693889327774
leaf_weight=54 58 99 56 58 53
leaf_count=54 58 99 56 58 53
internal_value=0 0.00239436 -0.0019446 -0.00481703 -0.00606423
internal_weight=0 271 172 114 107
internal_count=378 271 172 114 107
is_linear=0
shrinkage=0.05


Tree=53
num_leaves=6
num_cat=0
split_feature=4 4 0 4 2
split_gain=2.18715 0.91671 1.09814 0.527745 0.0273939
threshold=10.500000000000002 1.5000000000000002 13.500000000000002 4.5000000000000009 1.0000000180025095e-35
decision_type=2 2 2 2 2
left_child=1 4 3 -3 -1
right_child=-2 2 -4 -5 -6
leaf_value=-0.0051921431145562635 0.0085045002722403118 0.0012021035254704503 0.0060409761588310915 -0.0058877503356108305 -0.0038178111551902616
leaf_weight=82 63 53 63 52 65
leaf_count=82 63 53 63 52 65
internal_value=0 -0.0017009 0.000822202 -0.00230906 -0.00458445
internal_weight=0 315 168 105 147
internal_count=378 315 168 105 147
is_linear=0
shrinkage=0.05


Tree=54
num_leaves=5
num_cat=0
split_feature=0 1 3 1
split_gain=2.03362 1.90913 2.13709 1.18356
threshold=10.500000000000002 6.5000000000000009 1.0000000180025095e-35 19.500000000000004
decision_type=2 2 2 2
left_child=-1 -2 3 -3
right_child=1 2 -4 -5
leaf_value=-0.0077609318221642555 -0.0043029173241887729 0.0042086352549132802 -0.0010256088707632947 0.014333774675442666
leaf_weight=69 92 62 101 54
leaf_count=69 92 62 101 54
internal_value=0 0.00173302 0.00429204 0.00892206
internal_weight=0 309 217 116
internal_count=378 309 217 116
is_linear=0
shrinkage=0.05


Tree=55
num_leaves=6
num_cat=0
split_feature=4 1 1 1 3
split_gain=1.88916 1.47763 3.57783 0.450171 0.168542
threshold=10.500000000000002 16.500000000000004 7.5000000000000009 3.5000000000000004 1.0000000180025095e-35
decision_type=2 2 2 2 2
left_child=1 2 3 -1 -3
right_child=-2 4 -4 -5 -6
leaf_value=-0.0074944694901802654 0.0079039440919009465 -0.0043624723951021828 0.0084504102068963683 -0.0013594318319250036 -0.0083705579672284699
leaf_weight=67 63 51 89 54 54
leaf_count=67 63 51 89 54 54
internal_value=0 -0.00158079 0.000840703 -0.00475652 -0.00642377
internal_weight=0 315 210 121 105
internal_count=378 315 210 121 105
is_linear=0
shrinkage=0.05


Tree=56
num_leaves=6
num_cat=0
split_feature=0 0 3 1 2
split_gain=1.85221 1.14998 1.25644 1.80676 1.39109
threshold=15.500000000000002 10.500000000000002 1.0000000180025095e-35 13.500000000000002 1.0000000180025095e-35
decision_type=2 2 2 2 2
left_child=1 -1 3 -3 -4
right_child=-2 2 4 -5 -6
leaf_value=-0.007342670659072347 0.0074066904780920595 -0.0026693763709978533 0.0027383249134502628 0.0102101822300548 -0.0077015597581569298
leaf_weight=69 69 53 55 56 76
leaf_count=69 69 53 55 56 76
internal_value=0 -0.00165392 -1.84059e-05 0.00394764 -0.0033184
internal_weight=0 309 240 109 131
internal_count=378 309 240 109 131
is_linear=0
shrinkage=0.05


Tree=57
num_leaves=6
num_cat=0
split_feature=4 1 1 1 1
split_gain=1.68448 1.34647 3.21081 0.417054 0.00266524
threshold=10.500000000000002 16.500000000000004 7.5000000000000009 3.5000000000000004 30.000000000000004
decision_type=2 2 2 2 2
left_child=1 2 3 -1 -3
right_child=-2 4 -4 -5 -6
leaf_value=-0.0071188686079338695 0.007463489729349339 -0.0058614199300511529 0.0080276665241154049 -0.0012138029517329953 -0.0063652601233630812
leaf_weight=67 63 52 89 54 53
leaf_count=67 63 52 89 54 53
internal_value=0 -0.0014927 0.000818823 -0.00448355 -0.00611574
internal_weight=0 315 210 121 105
internal_count=378 315 210 121 105
is_linear=0
shrinkage=0.05


Tree=58
num_leaves=5
num_cat=0
split_feature=4 3 1 1
split_gain=1.5478 1.27469 0.546428 0.166914
threshold=1.5000000000000002 1.0000000180025095e-35 21.500000000000004 5.5000000000000009
decision_type=2 2 2 2
left_child=3 2 -2 -1
right_child=1 -3 -4 -5
leaf_value=-0.0059294787253747934 0.0026190816048931864 -0.0018521926540415734 0.0089855341155690924 -0.0025313046637428817
leaf_weight=64 70 96 65 83
leaf_count=64 70 96 65 83
internal_value=0 0.00255232 0.00568441 -0.00401078
internal_weight=0 231 135 147
internal_count=378 231 135 147
is_linear=0
shrinkage=0.05


Tree=59
num_leaves=6
num_cat=0
split_feature=4 1 1 1 3
split_gain=1.42248 1.28413 2.84104 0.365795 0.0923151
threshold=10.500000000000002 16.500000000000004 7.5000000000000009 3.5000000000000004 1.0000000180025095e-35
decision_type=2 2 2 2 2
left_child=1 2 3 -1 -3
right_child=-2 4 -4 -5 -6
leaf_value=-0.0065700962818957473 0.006858540545143778 -0.0043609259467498928 0.0076667125263575765 -0.0010398170410620947 -0.0073272530748336416
leaf_weight=67 63 51 89 54 54
leaf_count=67 63 51 89 54 54
internal_value=0 -0.00137171 0.000885671 -0.00410204 -0.00588647
internal_weight=0 315 210 121 105
internal_count=378 315 210 121 105
is_linear=0
shrinkage=0.05


Tree=60
num_leaves=6
num_cat=0
split_feature=0 4 3 1 1
split_gain=1.63266 1.75359 1.5887 0.507709 0.570438
threshold=10.500000000000002 3.5000000000000004 1.0000000180025095e-35 13.500000000000002 5.5000000000000009
decision_type=2 2 2 2 2
left_child=-1 3 -3 4 -2
right_child=1 2 -4 -5 -6
leaf_value=-0.0069538687527908585 -0.0028025336177662425 0.01063583993512255 -0.00064239670645515874 -0.0057464853596856016 0.0039757185374145153
leaf_weight=69 73 76 53 53 54
leaf_count=69 73 76 53 53 54
internal_value=0 0.00155281 0.00600215 -0.00163589 7.95578e-05
internal_weight=0 309 129 180 127
internal_count=378 309 129 180 127
is_linear=0
shrinkage=0.05


Tree=61
num_leaves=6
num_cat=0
split_feature=0 0 3 2 4
split_gain=1.50802 0.929281 0.953005 1.35918 0.742505
threshold=15.500000000000002 10.500000000000002 1.0000000180025095e-35 1.0000000180025095e-35 3.5000000000000004
decision_type=2 2 2 2 2
left_child=1 -1 4 -4 -3
right_child=-2 2 3 -5 -6
leaf_value=-0.006606175292931173 0.0066831626807865897 -0.00058271292031609589 0.0030907023435627875 -0.0072287437334460653 0.0076738810754284478
leaf_weight=69 69 56 55 76 53
leaf_count=69 69 56 55 76 53
internal_value=0 -0.00149236 -2.21338e-05 -0.00289615 0.00343196
internal_weight=0 309 240 131 109
internal_count=378 309 240 131 109
is_linear=0
shrinkage=0.05


Tree=62
num_leaves=6
num_cat=0
split_feature=0 0 4 1 1
split_gain=1.36099 0.838676 0.705614 0.291256 0.0597635
threshold=15.500000000000002 10.500000000000002 3.5000000000000004 10.500000000000002 21.500000000000004
decision_type=2 2 2 2 2
left_child=1 -1 3 -3 -4
right_child=-2 2 4 -5 -6
leaf_value=-0.006275866592329914 0.0063490044615784856 -0.00033721188262391549 0.0018981793224811555 -0.0049708694235111282 0.0043192156733801732
leaf_weight=69 69 78 50 60 52
leaf_count=69 69 78 50 60 52
internal_value=0 -0.00141774 -2.10271e-05 -0.00235185 0.00313243
internal_weight=0 309 240 138 102
internal_count=378 309 240 138 102
is_linear=0
shrinkage=0.05


Tree=63
num_leaves=6
num_cat=0
split_feature=0 0 4 1 1
split_gain=1.22829 0.756905 0.636817 0.262858 0.0539365
threshold=15.500000000000002 10.500000000000002 3.5000000000000004 10.500000000000002 21.500000000000004
decision_type=2 2 2 2 2
left_child=1 -1 3 -3 -4
right_child=-2 2 4 -5 -6
leaf_value=-0.0059620731393806642 0.0060315541113200397 -0.00032035151096538477 0.0018032704712823034 -0.0047223261231556539 0.0041032547453561654
leaf_weight=69 69 78 50 60 52
leaf_count=69 69 78 50 60 52
internal_value=0 -0.00134685 -1.99759e-05 -0.00223425 0.00297581
internal_weight=0 309 240 138 102
internal_count=378 309 240 138 102
is_linear=0
shrinkage=0.05


Tree=64
num_leaves=6
num_cat=0
split_feature=1 0 1 3 1
split_gain=1.22673 1.74968 0.665319 0.997891 0.370717
threshold=3.5000000000000004 12.500000000000002 13.500000000000002 1.0000000180025095e-35 11.500000000000002
decision_type=2 2 2 2 2
left_child=-1 2 -2 -4 -3
right_child=1 4 3 -5 -6
leaf_value=-0.0061367885824709914 0.0028487861033921181 0.00323105285409838 0.00075593024111268205 -0.0079062676919040408 0.0087663834822959592
leaf_weight=67 57 60 66 67 61
leaf_count=67 57 60 66 67 61
internal_value=0 0.00132207 -0.00167078 -0.00360773 0.00602159
internal_weight=0 311 190 133 121
internal_count=378 311 190 133 121
is_linear=0
shrinkage=0.05


Tree=65
num_leaves=6
num_cat=0
split_feature=4 1 1 1 1
split_gain=1.12139 1.028 2.41765 0.247639 0.000396326
threshold=10.500000000000002 16.500000000000004 7.5000000000000009 3.5000000000000004 30.000000000000004
decision_type=2 2 2 2 2
left_child=1 2 3 -1 -3
right_child=-2 4 -4 -5 -6
leaf_value=-0.0058299492113292224 0.0060895773290198241 -0.0053554686860969435 0.0070572193711996084 -0.0012796752344540977 -0.0051611782438209597
leaf_weight=67 63 52 89 54 53
leaf_count=67 63 52 89 54 53
internal_value=0 -0.00121792 0.000801826 -0.00379925 -0.0052574
internal_weight=0 315 210 121 105
internal_count=378 315 210 121 105
is_linear=0
shrinkage=0.05


Tree=66
num_leaves=5
num_cat=0
split_feature=0 3 2 1
split_gain=1.04306 1.08564 2.22411 1.69646
threshold=11.500000000000002 1.0000000180025095e-35 1.0000000180025095e-35 14.500000000000002
decision_type=2 2 2 2
left_child=-1 3 -3 -2
right_child=1 2 -4 -5
leaf_value=-0.004732947729023048 -0.00040500925504602495 0.0058014099691378876 -0.0068649251102691601 0.01042429715056311
leaf_weight=89 80 59 84 66
leaf_count=89 80 59 84 66
internal_value=0 0.00145755 -0.00163895 0.00449043
internal_weight=0 289 143 146
internal_count=378 289 143 146
is_linear=0
shrinkage=0.05


Tree=67
num_leaves=5
num_cat=0
split_feature=1 1 4 1
split_gain=0.99785 1.03463 0.676985 0.214368
threshold=3.5000000000000004 30.000000000000004 1.5000000000000002 16.500000000000004
decision_type=2 2 2 2
left_child=-1 2 -2 -4
right_child=1 -3 3 -5
leaf_value=-0.0055347688754137829 -0.0005739132615636631 -0.0033984843511875211 0.0068444641230368548 0.0028986603449114036
leaf_weight=67 83 88 79 61
leaf_count=67 83 88 79 61
internal_value=0 0.00119238 0.00300402 0.00512522
internal_weight=0 311 223 140
internal_count=378 311 223 140
is_linear=0
shrinkage=0.05


Tree=68
num_leaves=6
num_cat=0
split_feature=4 1 1 1 1
split_gain=0.980472 0.940416 2.07552 0.191958 0.0038125
threshold=10.500000000000002 16.500000000000004 7.5000000000000009 3.5000000000000004 30.000000000000004
decision_type=2 2 2 2 2
left_child=1 2 3 -1 -3
right_child=-2 4 -4 -5 -6
leaf_value=-0.0052580304607165174 0.0056941199633810252 -0.0053065719405332445 0.0065888790068415444 -0.001251843702737932 -0.0047039706626783992
leaf_weight=67 63 52 89 54 53
leaf_count=67 63 52 89 54 53
internal_value=0 -0.00113882 0.000792965 -0.00347015 -0.0050024
internal_weight=0 315 210 121 105
internal_count=378 315 210 121 105
is_linear=0
shrinkage=0.05


Tree=69
num_leaves=6
num_cat=0
split_feature=0 0 3 2 4
split_gain=0.917605 0.570911 0.704659 1.20795 0.464491
threshold=15.500000000000002 10.500000000000002 1.0000000180025095e-35 1.0000000180025095e-35 3.5000000000000004
decision_type=2 2 2 2 2
left_child=1 -1 4 -4 -3
right_child=-2 2 3 -5 -6
leaf_value=-0.0051723791137877582 0.0052132271716128229 -0.00021694383800162804 0.0031608839468522509 -0.0065675234248996463 0.0063134620827183414
leaf_weight=69 69 56 55 76 53
leaf_count=69 69 56 55 76 53
internal_value=0 -0.00116412 -1.17439e-05 -0.00248308 0.00295839
internal_weight=0 309 240 131 109
internal_count=378 309 240 131 109
is_linear=0
shrinkage=0.05


Tree=70
num_leaves=6
num_cat=0
split_feature=4 1 1 1 3
split_gain=0.873266 0.828705 1.88527 0.177189 0.0124339
threshold=10.500000000000002 16.500000000000004 7.5000000000000009 3.5000000000000004 1.0000000180025095e-35
decision_type=2 2 2 2 2
left_child=1 2 3 -1 -3
right_child=-2 4 -4 -5 -6
leaf_value=-0.0050420937031062686 0.0053738097933727124 -0.0041417387478491835 0.0062625548582565917 -0.0011931071019110583 -0.0052303825565441341
leaf_weight=67 63 51 89 54 54
leaf_count=67 63 51 89 54 54
internal_value=0 -0.00107476 0.000738663 -0.00332436 -0.00470161
internal_weight=0 315 210 121 105
internal_count=378 315 210 121 105
is_linear=0
shrinkage=0.05


Tree=71
num_leaves=5
num_cat=0
split_feature=0 1 0 3
split_gain=0.806662 0.74266 0.94839 0.861548
threshold=10.500000000000002 6.5000000000000009 12.500000000000002 1.0000000180025095e-35
decision_type=2 2 2 2
left_child=-1 -2 3 -3
right_child=1 2 -4 -5
leaf_value=-0.0048879247626114264 -0.0026731466535357355 0.004556756232883416 0.0062962924713513462 -0.0040676302172299198
leaf_weight=69 92 51 99 67
leaf_count=69 92 51 99 67
internal_value=0 0.00109148 0.00268754 -0.000340141
internal_weight=0 309 217 118
internal_count=378 309 217 118
is_linear=0
shrinkage=0.05


Tree=72
num_leaves=6
num_cat=0
split_feature=4 1 1 1 1
split_gain=0.767731 0.756288 1.61962 0.153138 0.00814032
threshold=10.500000000000002 16.500000000000004 7.5000000000000009 3.5000000000000004 30.000000000000004
decision_type=2 2 2 2 2
left_child=1 2 3 -1 -3
right_child=-2 4 -4 -5 -6
leaf_value=-0.0046381508559683584 0.0050386426948188321 -0.0049169485743802326 0.0058445819010016289 -0.0010599047697959815 -0.0040364151838112551
leaf_weight=67 63 52 89 54 53
leaf_count=67 63 52 89 54 53
internal_value=0 -0.00100773 0.000724652 -0.00304125 -0.00447249
internal_weight=0 315 210 121 105
internal_count=378 315 210 121 105
is_linear=0
shrinkage=0.05


Tree=73
num_leaves=5
num_cat=0
split_feature=4 3 1 1
split_gain=0.732019 0.599966 0.666632 0.124359
threshold=1.5000000000000002 1.0000000180025095e-35 21.500000000000004 10.500000000000002
decision_type=2 2 2 2
left_child=3 2 -2 -1
right_child=1 -3 -4 -5
leaf_value=-0.0016008914395287219 0.00051830397586205177 -0.0012665047529784111 0.0075502289659701866 -0.0045856405478461012
leaf_weight=90 70 96 65 57
leaf_count=90 70 96 65 57
internal_value=0 0.00175525 0.00390405 -0.00275824
internal_weight=0 231 135 147
internal_count=378 231 135 147
is_linear=0
shrinkage=0.05


Tree=74
num_leaves=5
num_cat=0
split_feature=4 3 1 1
split_gain=0.660647 0.541469 0.601635 0.112234
threshold=1.5000000000000002 1.0000000180025095e-35 21.500000000000004 10.500000000000002
decision_type=2 2 2 2
left_child=3 2 -2 -1
right_child=1 -3 -4 -5
leaf_value=-0.0015208468003483078 0.00049238897261342834 -0.0012031795049551874 0.0071727179846941286 -0.004356358380857529
leaf_weight=90 70 96 65 57
leaf_count=90 70 96 65 57
internal_value=0 0.00166748 0.00370884 -0.00262033
internal_weight=0 231 135 147
internal_count=378 231 135 147
is_linear=0
shrinkage=0.05


Tree=75
num_leaves=5
num_cat=0
split_feature=0 1 0 3
split_gain=0.750623 0.578914 0.797673 0.698458
threshold=10.500000000000002 6.5000000000000009 12.500000000000002 1.0000000180025095e-35
decision_type=2 2 2 2
left_child=-1 -2 3 -3
right_child=1 2 -4 -5
leaf_value=-0.0047150867532236851 -0.0022709090919227535 0.0040944634553264176 0.0057716532234064859 -0.0036708462052047254
leaf_weight=69 92 51 99 67
leaf_count=69 92 51 99 67
internal_value=0 0.00105288 0.00246205 -0.000314653
internal_weight=0 309 217 118
internal_count=378 309 217 118
is_linear=0
shrinkage=0.05


Tree=76
num_leaves=6
num_cat=0
split_feature=0 4 0 1 1
split_gain=0.677437 0.909508 2.22367 1.04256 0.16426
threshold=10.500000000000002 1.5000000000000002 14.500000000000002 15.500000000000002 8.5000000000000018
decision_type=2 2 2 2 2
left_child=-1 4 3 -3 -2
right_child=1 2 -4 -5 -6
leaf_value=-0.0044793325435856122 -0.00086999740287865281 -0.0052398877645857996 0.011382205239006956 0.0035109498441316094 -0.0046948382779955864
leaf_weight=69 64 61 57 77 50
leaf_count=69 64 61 57 77 50
internal_value=0 0.00100024 0.00307434 -0.000357174 -0.00254756
internal_weight=0 309 195 138 114
internal_count=378 309 195 138 114
is_linear=0
shrinkage=0.05


Tree=77
num_leaves=6
num_cat=0
split_feature=0 4 0 3 3
split_gain=0.611387 0.820831 2.00686 1.12211 0.216707
threshold=10.500000000000002 1.5000000000000002 14.500000000000002 1.0000000180025095e-35 1.0000000180025095e-35
decision_type=2 2 2 2 2
left_child=-1 4 3 -3 -2
right_child=1 2 -4 -5 -6
leaf_value=-0.0042553657903740914 -0.0048431038244755248 0.0041693603943871414 0.010813094939415653 -0.0048479910562003875 -0.0004587679421381345
leaf_weight=69 51 69 57 69 63
leaf_count=69 51 69 57 69 63
internal_value=0 0.000950227 0.00292062 -0.000339315 -0.00242018
internal_weight=0 309 195 138 114
internal_count=378 309 195 138 114
is_linear=0
shrinkage=0.05


Tree=78
num_leaves=6
num_cat=0
split_feature=0 4 0 3 0
split_gain=0.55274 0.736875 1.76234 1.45546 0.152839
threshold=11.500000000000002 1.5000000000000002 14.500000000000002 1.0000000180025095e-35 12.500000000000002
decision_type=2 2 2 2 2
left_child=-1 4 3 -3 -2
right_child=1 2 -4 -5 -6
leaf_value=-0.00344539186237066 -0.00046231240711428905 0.0053462972212582824 0.010272440099435155 -0.0053752994470631903 -0.0042818961106240753
leaf_weight=89 55 60 57 67 50
leaf_count=89 55 60 57 67 50
internal_value=0 0.00106104 0.00296827 -0.000309978 -0.00228116
internal_weight=0 289 184 127 105
internal_count=378 289 184 127 105
is_linear=0
shrinkage=0.05


Tree=79
num_leaves=6
num_cat=0
split_feature=4 4 4 0 0
split_gain=0.517235 0.743849 0.686167 0.203445 0.129904
threshold=10.500000000000002 5.5000000000000009 1.5000000000000002 12.500000000000002 12.500000000000002
decision_type=2 2 2 2 2
left_child=1 2 4 -4 -1
right_child=-2 -3 3 -5 -6
leaf_value=-0.00093040486615266382 0.0041357392291834078 -0.0062293362223877101 0.0052800250305026254 0.0010738129566969545 -0.0040678012808784848
leaf_weight=97 63 53 57 58 50
leaf_count=97 63 53 57 58 50
internal_value=0 -0.000827148 0.000265661 0.00315863 -0.00199755
internal_weight=0 315 262 115 147
internal_count=378 315 262 115 147
is_linear=0
shrinkage=0.05


Tree=80
num_leaves=5
num_cat=0
split_feature=1 1 1 1
split_gain=0.522107 0.863541 0.773295 0.601065
threshold=3.5000000000000004 16.500000000000004 34.500000000000007 7.5000000000000009
decision_type=2 2 2 2
left_child=-1 3 -3 -2
right_child=1 2 -4 -5
leaf_value=-0.0040035618211962838 -0.00062800928933063043 -0.0045319521067237172 0.0025306278973137243 0.0059659136109985415
leaf_weight=67 54 96 65 96
leaf_count=67 54 96 65 96
internal_value=0 0.000862504 -0.0016806 0.0035921
internal_weight=0 311 161 150
internal_count=378 311 161 150
is_linear=0
shrinkage=0.05


Tree=81
num_leaves=6
num_cat=0
split_feature=4 1 1 1 1
split_gain=0.472176 0.724511 1.2268 0.122993 0.0156123
threshold=10.500000000000002 16.500000000000004 7.5000000000000009 3.5000000000000004 30.000000000000004
decision_type=2 2 2 2 2
left_child=1 2 3 -1 -3
right_child=-2 4 -4 -5 -6
leaf_value=-0.0038033835367480319 0.0039514929353673426 -0.0047970132642568882 0.0053613014236678566 -0.00059660893489813644 -0.0035775770960410815
leaf_weight=67 63 52 89 54 53
leaf_count=67 63 52 89 54 53
internal_value=0 -0.000790299 0.000905296 -0.00237226 -0.00418149
internal_weight=0 315 210 121 105
internal_count=378 315 210 121 105
is_linear=0
shrinkage=0.05


Tree=82
num_leaves=6
num_cat=0
split_feature=0 4 3 4 3
split_gain=0.506488 0.623941 0.536226 0.130266 0.187206
threshold=10.500000000000002 3.5000000000000004 1.0000000180025095e-35 1.5000000000000002 1.0000000180025095e-35
decision_type=2 2 2 2 2
left_child=-1 3 -3 4 -2
right_child=1 2 -4 -5 -6
leaf_value=-0.0038731421809643507 -0.0043125947108766174 0.0062109274299521205 -0.00034137609994636391 0.00073061372068795297 -0.00023760205570844906
leaf_weight=69 51 76 53 66 63
leaf_count=69 51 76 53 66 63
internal_value=0 0.000864876 0.0035189 -0.00103717 -0.00206063
internal_weight=0 309 129 180 114
internal_count=378 309 129 180 114
is_linear=0
shrinkage=0.05


Tree=83
num_leaves=6
num_cat=0
split_feature=0 4 4 1 3
split_gain=0.457105 0.563107 0.511786 0.37993 0.219712
threshold=10.500000000000002 3.5000000000000004 7.5000000000000009 13.500000000000002 1.0000000180025095e-35
decision_type=2 2 2 2 2
left_child=-1 3 -3 4 -2
right_child=1 2 -4 -5 -6
leaf_value=-0.0036794847085822265 -0.0015324676624284342 0.0069959859685464337 0.00062785745736815648 -0.0045412135907923279 0.0026280403929582288
leaf_weight=69 65 55 74 53 62
leaf_count=69 65 55 74 53 62
internal_value=0 0.000821633 0.00334295 -0.000985312 0.000498647
internal_weight=0 309 129 180 127
internal_count=378 309 129 180 127
is_linear=0
shrinkage=0.05


Tree=84
num_leaves=6
num_cat=0
split_feature=0 4 0 3 3
split_gain=0.412538 0.52692 1.63597 0.885308 0.158326
threshold=10.500000000000002 1.5000000000000002 14.500000000000002 1.0000000180025095e-35 1.0000000180025095e-35
decision_type=2 2 2 2 2
left_child=-1 4 3 -3 -2
right_child=1 2 -4 -5 -6
leaf_value=-0.0034955107360619356 -0.0039908441397653637 0.0034206917198995749 0.009485189566846219 -0.0045888505201192873 -0.00024332632347645743
leaf_weight=69 51 69 57 69 63
leaf_count=69 51 69 57 69 63
internal_value=0 0.000780551 0.00235925 -0.000584079 -0.00191985
internal_weight=0 309 195 138 114
internal_count=378 309 195 138 114
is_linear=0
shrinkage=0.05


Tree=85
num_leaves=6
num_cat=0
split_feature=4 4 4 0 0
split_gain=0.40164 0.785684 0.513684 0.226803 0.123299
threshold=10.500000000000002 5.5000000000000009 1.5000000000000002 12.500000000000002 12.500000000000002
decision_type=2 2 2 2 2
left_child=1 2 4 -4 -1
right_child=-2 -3 3 -5 -6
leaf_value=-0.00052430901830036614 0.0036444132715197546 -0.0062809082415868651 0.00513719601164523 0.00069608535810277382 -0.0035809008674696089
leaf_weight=97 63 53 57 58 50
leaf_count=97 63 53 57 58 50
internal_value=0 -0.000728883 0.000394237 0.00289733 -0.00156397
internal_weight=0 315 262 115 147
internal_count=378 315 262 115 147
is_linear=0
shrinkage=0.05


Tree=86
num_leaves=5
num_cat=0
split_feature=1 1 0 1
split_gain=0.408549 0.793662 0.894928 0.0983397
threshold=30.000000000000004 7.5000000000000009 12.500000000000002 3.5000000000000004
decision_type=2 2 2 2
left_child=1 3 -3 -1
right_child=-2 2 -4 -5
leaf_value=-0.0034654680854960609 -0.0029840358595141551 -5.4037004398802914e-05 0.0072912751805445514 -0.00059803760679507701
leaf_weight=67 88 96 73 54
leaf_count=67 88 96 73 54
internal_value=0 0.0009055 0.00311879 -0.00218579
internal_weight=0 290 169 121
internal_count=378 290 169 121
is_linear=0
shrinkage=0.05


Tree=87
num_leaves=5
num_cat=0
split_feature=1 1 0 1
split_gain=0.368716 0.71628 0.807672 0.0887516
threshold=30.000000000000004 7.5000000000000009 12.500000000000002 3.5000000000000004
decision_type=2 2 2 2
left_child=1 3 -3 -1
right_child=-2 2 -4 -5
leaf_value=-0.0032921947158330968 -0.0028348340523238718 -5.1335201715119186e-05 0.0069267115121936966 -0.0005681357018787552
leaf_weight=67 88 96 73 54
leaf_count=67 88 96 73 54
internal_value=0 0.000860225 0.00296285 -0.0020765
internal_weight=0 290 169 121
internal_count=378 290 169 121
is_linear=0
shrinkage=0.05


Tree=88
num_leaves=6
num_cat=0
split_feature=4 4 4 0 0
split_gain=0.36588 0.733117 0.430776 0.242424 0.131473
threshold=10.500000000000002 5.5000000000000009 1.5000000000000002 12.500000000000002 12.500000000000002
decision_type=2 2 2 2 2
left_child=1 2 4 -4 -1
right_child=-2 -3 3 -5 -6
leaf_value=-0.00033044397792558083 0.0034783889068796905 -0.0060587549160392787 0.0049971510018957293 0.00040564001056140871 -0.0034867233261466029
leaf_weight=97 63 53 57 58 50
leaf_count=97 63 53 57 58 50
internal_value=0 -0.000695678 0.000389219 0.00268143 -0.00140401
internal_weight=0 315 262 115 147
internal_count=378 315 262 115 147
is_linear=0
shrinkage=0.05


Tree=89
num_leaves=5
num_cat=0
split_feature=1 1 1 4
split_gain=0.347144 0.641827 0.451293 0.130139
threshold=30.000000000000004 7.5000000000000009 16.500000000000004 1.0000000180025095e-35
decision_type=2 2 2 2
left_child=1 3 -3 -1
right_child=-2 2 -4 -5
leaf_value=-0.00029185439886835715 -0.002750657767914659 0.0050781385771794399 -0.00013795703368848318 -0.0035714963466295458
leaf_weight=60 88 96 73 61
leaf_count=60 88 96 73 61
internal_value=0 0.000834682 0.00282503 -0.00194523
internal_weight=0 290 169 121
internal_count=378 290 169 121
is_linear=0
shrinkage=0.05


Tree=90
num_leaves=5
num_cat=0
split_feature=0 1 0 1
split_gain=0.335732 0.28352 0.18486 0.171914
threshold=10.500000000000002 19.500000000000004 14.500000000000002 10.500000000000002
decision_type=2 2 2 2
left_child=-1 2 3 -2
right_child=1 -3 -4 -5
leaf_value=-0.0031533705846716964 -6.9940035042076647e-05 0.0028460447161087715 0.0018642662202182692 -0.0036962456033364233
leaf_weight=69 91 103 64 51
leaf_count=69 91 103 64 51
internal_value=0 0.000704151 -0.000366796 -0.00137235
internal_weight=0 309 206 142
internal_count=378 309 206 142
is_linear=0
shrinkage=0.05


Tree=91
num_leaves=6
num_cat=0
split_feature=1 1 0 3 0
split_gain=0.320487 0.583964 1.14432 0.557403 0.0881403
threshold=30.000000000000004 6.5000000000000009 12.500000000000002 1.0000000180025095e-35 12.500000000000002
decision_type=2 2 2 2 2
left_child=1 4 3 -3 -1
right_child=-2 2 -4 -5 -6
leaf_value=-0.00071056366400120579 -0.0026429381893566728 0.0029306999333202841 0.0071050318635594197 -0.0043635867265137762 -0.0035807777257671337
leaf_weight=54 88 50 78 55 53
leaf_count=54 88 50 78 55 53
internal_value=0 0.000801995 0.00251765 -0.000890117 -0.00213226
internal_weight=0 290 183 105 107
internal_count=378 290 183 105 107
is_linear=0
shrinkage=0.05


end of trees

feature_importances:
Column_1=150
Column_0=110
Column_4=96
Column_3=66
Column_2=11

parameters:
[boosting: gbdt]
[objective: regression]
[metric: l2]
[tree_learner: serial]
[device_type: cpu]
[data: ]
[valid: ]
[num_iterations: 10000]
[learning_rate: 0.05]
[num_leaves: 15]
[num_threads: 0]
[deterministic: 0]
[force_col_wise: 0]
[force_row_wise: 0]
[histogram_pool_size: -1]
[max_depth: -1]
[min_data_in_leaf: 50]
[min_sum_hessian_in_leaf: 0.001]
[bagging_fraction: 0.5]
[pos_bagging_fraction: 1]
[neg_bagging_fraction: 1]
[bagging_freq: 0]
[bagging_seed: 10961]
[feature_fraction: 0.8]
[feature_fraction_bynode: 1]
[feature_fraction_seed: 53]
[extra_trees: 0]
[extra_seed: 11644]
[early_stopping_round: 0]
[first_metric_only: 0]
[max_delta_step: 0]
[lambda_l1: 0]
[lambda_l2: 0]
[linear_lambda: 0]
[min_gain_to_split: 0]
[drop_rate: 0.1]
[max_drop: 50]
[skip_drop: 0.5]
[xgboost_dart_mode: 0]
[uniform_drop: 0]
[drop_seed: 30626]
[top_rate: 0.2]
[other_rate: 0.1]
[min_data_per_group: 100]
[max_cat_threshold: 32]
[cat_l2: 10]
[cat_smooth: 10]
[max_cat_to_onehot: 4]
[top_k: 20]
[monotone_constraints: ]
[monotone_constraints_method: basic]
[monotone_penalty: 0]
[feature_contri: ]
[forcedsplits_filename: ]
[refit_decay_rate: 0.9]
[cegb_tradeoff: 1]
[cegb_penalty_split: 0]
[cegb_penalty_feature_lazy: ]
[cegb_penalty_feature_coupled: ]
[path_smooth: 0]
[interaction_constraints: ]
[verbosity: -1]
[saved_feature_importance_type: 0]
[linear_tree: 0]
[max_bin: 255]
[max_bin_by_feature: ]
[min_data_in_bin: 3]
[bin_construct_sample_cnt: 200000]
[data_random_seed: 4071]
[is_enable_sparse: 1]
[enable_bundle: 1]
[use_missing: 1]
[zero_as_missing: 0]
[feature_pre_filter: 1]
[pre_partition: 0]
[two_round: 0]
[header: 0]
[label_column: ]
[weight_column: ]
[group_column: ]
[ignore_column: ]
[categorical_feature: ]
[forcedbins_filename: ]
[precise_float_parser: 0]
[parser_config_file: ]
[objective_seed: 602]
[num_class: 1]
[is_unbalance: 0]
[scale_pos_weight: 1]
[sigmoid: 1]
[boost_from_average: 1]
[reg_sqrt: 0]
[alpha: 0.9]
[fair_c: 1]
[poisson_max_delta_step: 0.7]
[tweedie_variance_power: 1.5]
[lambdarank_truncation_level: 30]
[lambdarank_norm: 1]
[label_gain: ]
[eval_at: ]
[multi_error_top_k: 1]
[auc_mu_weights: ]
[num_machines: 1]
[local_listen_port: 12400]
[time_out: 120]
[machine_list_filename: ]
[machines: ]
[gpu_platform_id: -1]
[gpu_device_id: -1]
[gpu_use_dp: 0]
[num_gpu: 1]

end of parameters

pandas_categorical:null
