tree
version=v4
num_class=1
num_tree_per_iteration=1
label_index=0
max_feature_idx=74
objective=regression
feature_names=Column_0 Column_1 Column_2 Column_3 Column_4 Column_5 Column_6 Column_7 Column_8 Column_9 Column_10 Column_11 Column_12 Column_13 Column_14 Column_15 Column_16 Column_17 Column_18 Column_19 Column_20 Column_21 Column_22 Column_23 Column_24 Column_25 Column_26 Column_27 Column_28 Column_29 Column_30 Column_31 Column_32 Column_33 Column_34 Column_35 Column_36 Column_37 Column_38 Column_39 Column_40 Column_41 Column_42 Column_43 Column_44 Column_45 Column_46 Column_47 Column_48 Column_49 Column_50 Column_51 Column_52 Column_53 Column_54 Column_55 Column_56 Column_57 Column_58 Column_59 Column_60 Column_61 Column_62 Column_63 Column_64 Column_65 Column_66 Column_67 Column_68 Column_69 Column_70 Column_71 Column_72 Column_73 Column_74
feature_infos=[1:51] [0:44] [2.5648330432542319:13.938128440977062] [2.4984564781188965:14.572712182998657] [2.5594561100006104:14.254879236221313] [2.4507160186767578:14.127846956253052] [2.4007439613342285:14.681843996047974] [2.5229709148406982:14.059770822525024] [2.5280747413635254:14.223459482192993] [2.3031110763549805:14.755701303482056] [2.4556503295898438:14.013845682144165] [2.4215567111968994:13.919450998306274] [2.4667081832885742:13.930566072463989] [2.4127269678229801:13.802608429875516] [2.4127269678229801:13.802608429875516] [2.4127269678229801:13.802608429875516] [2.4568846823521273:14.085256219990022] [2.4568846823521273:14.085256219990022] [2.4568846823521273:14.085256219990022] [2.6250637387141071:14.05574585244854] [2.6250637387141071:14.05574585244854] [2.6250637387141071:14.05574585244854] [2.3525176797691194:14.225534722304507] [2.633382807085844:15.020488211158384] [2.7142752345290924:13.389684138028267] [2.820884064416155:12.901126758504679] [2.9355120691665397:12.004275470662995] [2.6676269166141928:13.647909674657356] [2.597762751186024:13.528715998005348] [2.3686246303909564:16.627437949553396] [2.1170227963256933:14.21739234501751] [2.8692949370649172:12.553260630491504] [3.0122404228939343:12.319559303015279] [2.275001759929232:17.460996421608915] [2.98438852866059:12.76916791555924] [2.4841560034257251:16.516631494545283] [2.8900001049041744:11.880954224901815] [2.8145277334770378:12.344708968467222] [3.030490490495954:15.399514334731066] [2.9829843034714689:12.073086232259458] [2.9729267720513231:11.52770423118405] [2.9535270233888271:11.755588067530448] [2.0110188783217717:16.852060969513342] [2.9386567230881235:12.680855657257473] [2.9149933101290122:12.464392848369426] [2.8723653034715979:11.421750594834165] [1.8140263532135141:16.699058773911631] [2.638571466718401:15.528571265084404] [2.638571466718401:15.528571265084404] [2.638571466718401:15.528571265084404] [2.9285979960588611:12.245734370865687] [2.6033104253943002:17.34072451710291] [1.6335023732259217:15.872961668346949] [2.4734178307681867:16.311569320157744] [1.5:17.053765307683275] [1.5:17.053765307683275] [2.344134525174046:18.372655573853478] [2.478000020980835:17.575999832153322] [2.3187803064567198:21.708396290462701] [1.3654486575207565:13.411823486611739] [2.1833333174387612:20.219999949137371] [4.0038125209510325:13.679545359178023] [4.0038125209510325:13.679545359178023] [1.5:21.293823922385474] [3.2553846377592821:16.954999764760334] [3.2553846377592821:16.954999764760334] [2.9411538747640757:20.683333079020183] [2.9411538747640757:20.683333079020183] [2.9411538747640757:20.683333079020183] [2.9411538747640757:20.683333079020183] [-1:18] [0:19] [-1:1] [0:0.20000000000000001] [0:56]
tree_sizes=885 881 884 1046 1050 802 968 881 966 880 974 888 891 975 889 892 896 972

Tree=0
num_leaves=9
num_cat=0
split_feature=26 2 3 41 3 66 25 52
split_gain=160.591 39.0387 14.0387 5.92008 4.29262 1.49807 1.4128 1.25634
threshold=6.8850393993343815 4.2987910508006477 8.1644641160964984 3.6909104627625382 5.1440162658691415 5.258134416098236 3.3883020032093039 3.8175111282439107
decision_type=2 2 2 2 2 2 2 2
left_child=1 3 -2 6 -3 -6 -1 -5
right_child=2 4 -4 7 5 -7 -8 -9
leaf_value=-0.080116903816753876 0.073496366472549549 -0.020008346411182727 0.15333814336314661 -0.037494925556177144 0.030766212988137295 0.0038987777791234493 -0.10876244441564667 -0.063688201390406124
leaf_weight=36 40 58 49 30 36 49 33 47
leaf_count=36 40 58 49 30 36 49 33 47
internal_value=2.2624e-09 -0.036171 0.117454 -0.0725449 0.000966012 0.0152779 -0.0938169 -0.053483
internal_weight=0 289 89 146 143 85 69 77
internal_count=378 289 89 146 143 85 69 77
is_linear=0
shrinkage=1


Tree=1
num_leaves=9
num_cat=0
split_feature=37 2 50 37 55 4 40 11
split_gain=126.174 23.716 22.5893 3.52694 2.82961 2.29949 3.30869 1.51471
threshold=6.1618007280695988 4.2987910508006477 7.2295025157817863 3.5772924473380616 6.6754359535816077 5.3866388797760019 4.8033713544046668 3.9267022609710698
decision_type=2 2 2 2 2 2 2 2
left_child=1 3 4 -1 -2 6 -3 -5
right_child=2 5 -4 7 -6 -7 -8 -9
leaf_value=-0.08664231929635885 0.067708363545437661 0.0017090882029798299 0.13411287199015973 -0.043524193168351696 0.024959591130027547 0.013784523871505545 -0.041164694627126061 -0.069391002267059923
leaf_weight=51 30 45 54 56 32 42 30 38
leaf_count=51 30 45 54 56 32 42 30 38
internal_value=0 -0.038443 0.086828 -0.0654688 0.0456445 -0.00494942 -0.0154404 -0.053981
internal_weight=0 262 116 145 62 117 75 94
internal_count=378 262 116 145 62 117 75 94
is_linear=0
shrinkage=0.1


Tree=2
num_leaves=9
num_cat=0
split_feature=26 31 32 16 4 65 24 48
split_gain=107.926 26.4771 10.2778 3.15927 3.11081 4.62052 2.18769 2.18271
threshold=6.8850393993343815 4.5649557933551099 8.9570897714150171 3.5494820037298229 5.3866388797760019 5.0625490366599557 5.8826994103291286 3.8121428319386079
decision_type=2 2 2 2 2 2 2 2
left_child=1 3 -2 -1 5 -3 -6 -5
right_child=2 4 -4 7 6 -7 -8 -9
leaf_value=-0.078423251042950837 0.071443640223126215 0.0088048767213794316 0.14277015179395677 -0.030155419483780862 0.035351975411450597 -0.041599581317014751 -0.0016975254619804522 -0.060628520599321313
leaf_weight=53 58 44 31 40 34 31 30 57
leaf_count=53 58 44 31 40 34 31 30 57
internal_value=0 -0.0296526 0.0962877 -0.0587898 0.00179042 -0.012029 0.017985 -0.0480623
internal_weight=0 289 89 150 139 75 64 97
internal_count=378 289 89 150 139 75 64 97
is_linear=0
shrinkage=0.1


Tree=3
num_leaves=11
num_cat=0
split_feature=13 28 38 3 41 24 48 60 24 56
split_gain=84.6484 23.8312 11.3484 2.665 4.61554 2.23243 1.83545 1.82692 1.77353 1.08789
threshold=6.7042647468947179 4.3165686732433963 6.9310042996548455 5.1440162658691415 4.7004589379575652 3.6639975796527202 3.905714307512556 6.4466665983200082 9.1762121187661716 3.6170617895810651
decision_type=2 2 2 2 2 2 2 2 2 2
left_child=1 5 -2 4 -3 9 -7 -5 -4 -1
right_child=2 3 8 7 -6 6 -8 -9 -10 -11
leaf_value=-0.057405330406294933 0.033683540094643832 0.013974218704970554 0.092030899869578506 0.025935994645503044 -0.038571752543960301 -0.026724869836912014 -0.058961658438324543 -0.0046290340113707565 0.12613781204912811 -0.082746129715815187
leaf_weight=36 30 32 31 48 35 33 38 33 30 32
leaf_count=36 30 32 31 48 35 33 38 33 30 32
internal_value=0 -0.0266467 0.0840395 0.00127928 -0.0134752 -0.0563808 -0.0439784 0.0134836 0.108805 -0.0693304
internal_weight=0 287 91 148 67 139 71 81 61 68
internal_count=378 287 91 148 67 139 71 81 61 68
is_linear=0
shrinkage=0.1


Tree=4
num_leaves=11
num_cat=0
split_feature=13 10 38 24 23 8 41 41 38 8
split_gain=68.5652 16.9122 9.19222 3.47305 3.08609 1.83858 1.75475 3.30568 1.33785 0.784819
threshold=6.7042647468947179 4.7206616401672372 6.9310042996548455 3.6639975796527202 9.2516134459341668 3.8399465084075932 4.9041706768580875 5.8399807118520668 3.5729763175845135 4.1821208000183114
decision_type=2 2 2 2 2 2 2 2 2 2
left_child=1 3 -2 8 -4 -5 -3 -8 -1 -7
right_child=2 6 4 5 -6 9 7 -9 -10 -11
leaf_value=-0.049161895073768572 0.030315186105047666 0.019374905123698469 0.075797485800520079 -0.050230606155736102 0.12078869947542747 -0.010319598819760065 -0.028309244510125033 0.015224043355398887 -0.076691301707779214 -0.033008221400280799
leaf_weight=41 30 49 31 35 30 31 33 37 31 30
leaf_count=41 30 49 31 35 30 31 33 37 31 30
internal_value=0 -0.023982 0.0756356 -0.0444125 0.0979243 -0.0319607 0.00486097 -0.00529879 -0.0610148 -0.0214779
internal_weight=0 287 91 168 61 96 119 70 72 61
internal_count=378 287 91 168 61 96 119 70 72 61
is_linear=0
shrinkage=0.1


Tree=5
num_leaves=8
num_cat=0
split_feature=13 31 27 3 60 59 48
split_gain=55.5378 15.5222 7.87572 2.10716 2.21655 1.91091 1.91367
threshold=6.7042647468947179 4.5649557933551099 7.8043942026148523 5.1440162658691415 5.9083333810170506 3.6195761698670856 3.905714307512556
decision_type=2 2 2 2 2 2 2
left_child=1 5 -2 -3 -5 -1 -7
right_child=2 3 -4 4 -6 6 -8
leaf_value=-0.058643145920200784 0.040835554559705591 -0.011941903514640504 0.099847920966290304 0.031163367228834213 -0.0022214127704501155 -0.020572798477951439 -0.048972822758084053
leaf_weight=55 49 57 42 37 43 46 49
leaf_count=55 49 57 42 37 43 46 49
internal_value=0 -0.0215838 0.068072 0.00275062 0.013219 -0.0438093 -0.0352212
internal_weight=0 287 91 137 80 150 95
internal_count=378 287 91 137 80 150 95
is_linear=0
shrinkage=0.1


Tree=6
num_leaves=10
num_cat=0
split_feature=13 2 38 41 23 11 38 67 38
split_gain=44.9856 12.2576 6.75537 2.30532 2.25234 1.68953 1.51263 2.91782 1.20005
threshold=6.7042647468947179 4.2987910508006477 6.9310042996548455 3.6909104627625382 9.2516134459341668 3.9267022609710698 5.6329214246248815 4.8771132738127783 3.5729763175845135
decision_type=2 2 2 2 2 2 2 2 2
left_child=1 3 -2 8 -4 -5 7 -3 -1
right_child=2 6 4 5 -6 -7 -8 -9 -10
leaf_value=-0.041442462912975597 0.022413279954344036 0.016177435974989617 0.061469108298901592 -0.015348363084097703 0.099905281662940992 -0.045405502055655238 0.015154403103336406 -0.020890083960774873 -0.068045517249653742
leaf_weight=39 30 35 31 45 30 32 52 54 30
leaf_count=39 30 35 31 45 30 32 52 54 30
internal_value=0 -0.0194254 0.0612648 -0.0397348 0.0803721 -0.0278396 0.00160408 -0.00631297 -0.053009
internal_weight=0 287 91 146 61 77 141 89 69
internal_count=378 287 91 146 61 77 141 89 69
is_linear=0
shrinkage=0.1


Tree=7
num_leaves=9
num_cat=0
split_feature=25 25 13 57 48 34 50 13
split_gain=37.3377 10.1967 4.73192 2.25355 2.35994 1.70907 1.6582 1.63016
threshold=5.2686297468526435 7.3302542414059815 4.9811666235284315 4.6980000019073502 3.905714307512556 8.72590644861741 3.6111382714309106 5.9053491442114767
decision_type=2 2 2 2 2 2 2 2
left_child=2 7 3 4 6 -3 -1 -2
right_child=1 5 -4 -5 -6 -7 -8 -9
leaf_value=-0.046130690693807527 0.0043110047200960776 0.052675524568573266 0.0059815929548160457 -0.014078117688895081 -0.058425541387663954 0.08643020321925482 -0.018963667177507339 0.030105797468437528
leaf_weight=39 49 30 37 46 45 30 53 49
leaf_count=39 49 30 37 46 45 30 53 49
internal_value=0 0.037086 -0.0266345 -0.033229 -0.0396593 0.0695529 -0.0304801 0.0172084
internal_weight=0 158 220 183 137 60 92 98
internal_count=378 158 220 183 137 60 92 98
is_linear=0
shrinkage=0.1


Tree=8
num_leaves=10
num_cat=0
split_feature=37 28 23 41 41 34 36 39 29
split_gain=30.8544 8.46649 4.9575 3.5092 2.2998 2.18884 1.87975 1.09454 1.15965
threshold=6.4649104499384258 4.3165686732433963 9.2516134459341668 4.9041706768580875 5.4092518187765757 4.4313370121014222 7.1228988440718917 3.7696719239494731 3.7219106478845312
decision_type=2 2 2 2 2 2 2 2 2
left_child=1 7 6 5 -5 -3 -2 -1 -9
right_child=2 3 -4 4 -6 -7 -8 8 -10
leaf_value=-0.046581591037558573 0.017570762573741378 -0.003595219776034355 0.079877550329171848 -0.032108876677720173 0.004929122483978669 0.03275300421047251 0.049812935315298318 -0.016426389590772087 -0.039391256101015543
leaf_weight=51 40 30 31 38 30 37 33 43 45
leaf_count=51 40 30 31 38 30 37 33 43 45
internal_value=0 -0.0176017 0.0463737 0.000235118 -0.0157686 0.0164777 0.032146 -0.0349252 -0.0281698
internal_weight=0 274 104 135 68 67 73 139 88
internal_count=378 274 104 135 68 67 73 139 88
is_linear=0
shrinkage=0.1


Tree=9
num_leaves=9
num_cat=0
split_feature=4 45 28 47 54 53 47 50
split_gain=24.516 6.86854 3.55127 3.10372 2.5562 1.58041 1.10514 1.64636
threshold=5.3866388797760019 7.3281242023540321 4.3165686732433963 5.1607143197740841 6.4058412477169471 9.554464799389093 3.905714307512556 3.6111382714309106
decision_type=2 2 2 2 2 2 2 2
left_child=2 4 6 -4 -2 -3 7 -1
right_child=1 5 3 -5 -6 -7 -8 -9
leaf_value=-0.040046494971546866 0.032281401262777613 0.040956522509335513 0.011736749931393814 -0.026517383803270369 -0.0011107891296538023 0.073153010085225109 -0.042217207497063744 -0.01175665210466832
leaf_weight=36 41 31 48 38 52 30 54 48
leaf_count=36 41 31 48 38 52 30 54 48
internal_value=0 0.0307144 -0.0211162 -0.00516624 0.0136105 0.0567909 -0.031056 -0.0238809
internal_weight=0 154 224 86 93 61 138 84
internal_count=378 154 224 86 93 61 138 84
is_linear=0
shrinkage=0.1


Tree=10
num_leaves=10
num_cat=0
split_feature=37 45 2 58 27 38 54 27 43
split_gain=20.8702 4.3836 3.83213 3.50022 2.71613 2.15073 1.47863 1.03719 1.11329
threshold=6.1618007280695988 6.5557037804527551 4.2987910508006477 4.5018054821185798 7.8043942026148523 5.1469965723067572 4.228408957152241 3.8729652032709363 3.3346344737433671
decision_type=2 2 2 2 2 2 2 2 2
left_child=2 -2 6 -4 -3 -5 7 8 -1
right_child=1 4 3 5 -6 -7 -8 -9 -10
leaf_value=-0.027303499004670551 0.0090212772259624999 0.029342177041939328 0.024852933384039821 -0.031190186496147562 0.067487580557353807 0.0011954013096249624 -0.0095534800024899211 -0.019249655894542996 -0.052710629701066547
leaf_weight=35 41 35 34 37 40 46 38 38 34
leaf_count=35 41 35 34 37 40 46 38 38 34
internal_value=0 0.0353134 -0.0156349 -0.00217136 0.0496864 -0.0132415 -0.0264986 -0.0325165 -0.039823
internal_weight=0 116 262 117 75 83 145 107 69
internal_count=378 116 262 117 75 83 145 107 69
is_linear=0
shrinkage=0.1


Tree=11
num_leaves=9
num_cat=0
split_feature=26 26 63 64 63 1 56 49
split_gain=19.383 4.47674 3.50577 2.00772 1.82319 3.69576 1.37497 1.1312
threshold=6.8850393993343815 4.2648699109690069 7.6317835641476597 4.7325973857654065 4.3514679501819353 2.5000000000000004 3.6170617895810651 3.905714307512556
decision_type=2 2 2 2 2 2 2 2
left_child=1 6 -2 -3 -5 -6 -1 -8
right_child=2 3 -4 4 5 -7 7 -9
leaf_value=-0.012322088670399455 0.06604830370402745 0.019778693584459172 0.025200767009095716 -0.027076324228854743 -0.027300447423476728 0.014905311006231834 -0.022099670804128415 -0.045315402082903966
leaf_weight=45 34 35 55 34 32 59 41 43
leaf_count=45 34 35 55 34 32 59 41 43
internal_value=0 -0.0125664 0.0408054 -0.00139089 -0.00731837 6.37256e-05 -0.0264275 -0.0339839
internal_weight=0 289 89 160 125 91 129 84
internal_count=378 289 89 160 125 91 129 84
is_linear=0
shrinkage=0.1


Tree=12
num_leaves=9
num_cat=0
split_feature=26 26 26 58 60 66 62 52
split_gain=15.7002 3.62616 2.19097 1.76536 2.18138 2.05071 1.03305 0.833981
threshold=6.8850393993343815 4.2648699109690069 8.4160210200203256 4.446918491478967 5.1850000619888315 5.3405588449216372 4.0806010524958731 3.8071578262884196
decision_type=2 2 2 2 2 2 2 2
left_child=1 6 -2 -3 -5 -6 7 -1
right_child=2 3 -4 4 5 -7 -8 -9
leaf_value=-0.010300483778119089 0.022224014353317521 0.015284207029997008 0.053701545470734927 -0.026382123356367033 0.021951546069354781 -0.011956950379646428 -0.037895736174116769 -0.029717827829960231
leaf_weight=55 48 46 41 41 31 42 37 37
leaf_count=55 48 46 41 41 31 42 37 37
internal_value=0 -0.0113097 0.0367249 -0.0012518 -0.00792422 0.00244255 -0.0237847 -0.0181096
internal_weight=0 289 89 160 114 73 129 92
internal_count=378 289 89 160 114 73 129 92
is_linear=0
shrinkage=0.1


Tree=13
num_leaves=10
num_cat=0
split_feature=45 45 53 2 0 35 35 53 53
split_gain=11.8301 4.15797 2.66942 1.86943 1.67894 1.53448 1.65939 0.936633 0.407451
threshold=4.8211607096643929 7.3281242023540321 6.4086256640319297 5.8227740452274004 3.5000000000000004 4.4614203103239651 4.0785314828202148 9.554464799389093 3.7235567424008589
decision_type=2 2 2 2 2 2 2 2 2
left_child=4 2 3 -2 -1 6 8 -3 -6
right_child=1 7 -4 -5 5 -7 -8 -9 -10
leaf_value=-0.032653194066940575 0.0061388249535984539 0.027485978229378816 -0.015288637992408542 0.037272943998686969 -0.021572868272455206 -0.031285641402486832 0.013547604266674288 0.052080866371591886 -0.0074352325158233345
leaf_weight=51 54 32 36 30 36 31 31 30 47
leaf_count=51 54 32 36 30 36 31 31 30 47
internal_value=0 0.0183586 0.00749412 0.0172582 -0.0170473 -0.0115583 -0.00619389 0.0393867 -0.0135672
internal_weight=0 182 120 84 196 145 114 62 83
internal_count=378 182 120 84 196 145 114 62 83
is_linear=0
shrinkage=0.1


Tree=14
num_leaves=9
num_cat=0
split_feature=26 63 28 67 36 29 48 26
split_gain=10.6032 3.15523 3.10598 1.93302 1.68251 1.73063 1.01876 1.31555
threshold=6.8850393993343815 7.6317835641476597 4.3165686732433963 4.8771132738127783 5.1737995354780422 5.7193394131714372 3.905714307512556 3.50096187414022
decision_type=2 2 2 2 2 2 2 2
left_child=2 -2 6 -4 -5 -6 7 -1
right_child=1 -3 3 4 5 -7 -8 -9
leaf_value=-0.028312366795452206 0.054128198042128456 0.015376577417958868 0.019510399829596282 -0.020748229806675858 0.01977138558320482 -0.013181394684749347 -0.030643723099069167 -0.0028165580080822109
leaf_weight=34 34 55 40 46 34 30 55 50
leaf_count=34 34 55 40 46 34 30 55 50
internal_value=0 0.0301806 -0.00929436 0.000685218 -0.0061603 0.00432477 -0.0200637 -0.0131363
internal_weight=0 89 289 150 110 64 139 84
internal_count=378 89 289 150 110 64 139 84
is_linear=0
shrinkage=0.1


Tree=15
num_leaves=9
num_cat=0
split_feature=37 50 24 30 37 34 66 9
split_gain=7.995 2.05522 1.74961 1.1476 1.1312 2.22823 1.21262 0.585317
threshold=6.1618007280695988 7.0688253841467095 3.6639975796527202 3.4098633195840429 5.2430760094452689 4.4313370121014222 4.8771132738127783 4.0856535434722909
decision_type=2 2 2 2 2 2 2 2
left_child=2 -2 3 -1 5 6 7 -4
right_child=1 -3 4 -5 -6 -7 -8 -9
leaf_value=-0.010327003296050762 0.0085460419720440207 0.035167392558450326 -0.011831862057248753 -0.035576827664368059 -0.019588530203327539 0.014688204697750765 -0.02605990793090314 0.0079218973902364567
leaf_weight=36 58 58 30 36 40 58 32 30
leaf_count=36 58 58 30 36 40 58 32 30
internal_value=0 0.0218567 -0.00967702 -0.0229519 -0.00464653 -0.000662001 -0.0103393 -0.00195498
internal_weight=0 116 262 72 190 150 92 60
internal_count=378 116 262 72 190 150 92 60
is_linear=0
shrinkage=0.1


Tree=16
num_leaves=9
num_cat=0
split_feature=26 26 66 64 52 71 56 38
split_gain=7.16565 1.87309 1.73655 1.18145 1.18789 1.3537 0.975747 0.823062
threshold=6.8850393993343815 3.9064932172139755 8.9363565351954097 4.5136514179745246 4.1671438430938919 13.500000000000002 3.6170617895810651 4.6325437550845843
decision_type=2 2 2 2 2 2 2 2
left_child=1 6 -2 -3 -5 7 -1 -6
right_child=2 3 -4 4 5 -7 -8 -9
leaf_value=-0.0073578582882570728 0.041759202862158423 0.016345904593666395 0.013298215319947251 -0.023218307513743638 -0.0048399796709418302 -0.013890061988586597 -0.027521218355312679 0.01567839416877731
leaf_weight=42 36 30 53 30 34 51 56 46
leaf_count=42 36 30 53 30 34 51 56 46
internal_value=0 -0.00764061 0.0248105 -0.00187392 -0.00526892 -0.00115837 -0.0188798 0.00695809
internal_weight=0 289 89 191 161 131 98 80
internal_count=378 289 89 191 161 131 98 80
is_linear=0
shrinkage=0.1


Tree=17
num_leaves=10
num_cat=0
split_feature=26 28 41 41 42 45 8 8 2
split_gain=6.12184 2.76529 1.47777 2.6041 2.21328 1.33729 1.03556 1.79656 0.806836
threshold=8.4160210200203256 4.3165686732433963 4.9041706768580875 5.3439534199524985 6.3467326025520849 4.6653235495271774 4.0848088264465341 3.7255223989486699 3.434905949491649
decision_type=2 2 2 2 2 2 2 2 2
left_child=1 6 5 -4 -5 -3 7 8 -1
right_child=-2 2 3 4 -6 -7 -8 -9 -10
leaf_value=-0.010897331061876483 0.036485315877489925 0.0026357250435179789 -0.025967431782434387 0.023107723080802983 -0.0078345629019785749 0.030878949190179507 -0.03170279964338988 0.0083457173554908129 -0.032069058244427046
leaf_weight=45 41 38 36 41 53 30 30 34 30
leaf_count=45 41 38 36 41 53 30 30 34 30
internal_value=0 -0.00443887 0.00315093 -0.00309725 0.00566154 0.015096 -0.0152502 -0.010722 -0.019366
internal_weight=0 337 198 130 94 68 139 109 75
internal_count=378 337 198 130 94 68 139 109 75
is_linear=0
shrinkage=0.1


end of trees

feature_importances:
Column_26=12
Column_41=9
Column_38=8
Column_2=6
Column_13=6
Column_37=6
Column_24=5
Column_28=5
Column_45=5
Column_48=5
Column_3=4
Column_8=4
Column_50=4
Column_53=4
Column_66=4
Column_4=3
Column_23=3
Column_25=3
Column_27=3
Column_34=3
Column_52=3
Column_56=3
Column_60=3
Column_63=3
Column_11=2
Column_29=2
Column_31=2
Column_35=2
Column_36=2
Column_47=2
Column_54=2
Column_58=2
Column_64=2
Column_67=2
Column_0=1
Column_1=1
Column_9=1
Column_10=1
Column_16=1
Column_30=1
Column_32=1
Column_39=1
Column_40=1
Column_42=1
Column_43=1
Column_49=1
Column_55=1
Column_57=1
Column_59=1
Column_62=1
Column_65=1
Column_71=1

parameters:
[boosting: gbdt]
[objective: regression]
[metric: l2]
[tree_learner: serial]
[device_type: cpu]
[data: ]
[valid: ]
[num_iterations: 10000]
[learning_rate: 0.1]
[num_leaves: 31]
[num_threads: 0]
[deterministic: 0]
[force_col_wise: 0]
[force_row_wise: 0]
[histogram_pool_size: -1]
[max_depth: -1]
[min_data_in_leaf: 30]
[min_sum_hessian_in_leaf: 0.001]
[bagging_fraction: 1]
[pos_bagging_fraction: 1]
[neg_bagging_fraction: 1]
[bagging_freq: 0]
[bagging_seed: 21187]
[feature_fraction: 0.5]
[feature_fraction_bynode: 1]
[feature_fraction_seed: 30770]
[extra_trees: 0]
[extra_seed: 27351]
[early_stopping_round: 0]
[first_metric_only: 0]
[max_delta_step: 0]
[lambda_l1: 0]
[lambda_l2: 0]
[linear_lambda: 0]
[min_gain_to_split: 0]
[drop_rate: 0.1]
[max_drop: 50]
[skip_drop: 0.5]
[xgboost_dart_mode: 0]
[uniform_drop: 0]
[drop_seed: 3778]
[top_rate: 0.2]
[other_rate: 0.1]
[min_data_per_group: 100]
[max_cat_threshold: 32]
[cat_l2: 10]
[cat_smooth: 10]
[max_cat_to_onehot: 4]
[top_k: 20]
[monotone_constraints: ]
[monotone_constraints_method: basic]
[monotone_penalty: 0]
[feature_contri: ]
[forcedsplits_filename: ]
[refit_decay_rate: 0.9]
[cegb_tradeoff: 1]
[cegb_penalty_split: 0]
[cegb_penalty_feature_lazy: ]
[cegb_penalty_feature_coupled: ]
[path_smooth: 0]
[interaction_constraints: ]
[verbosity: -1]
[saved_feature_importance_type: 0]
[linear_tree: 0]
[max_bin: 255]
[max_bin_by_feature: ]
[min_data_in_bin: 3]
[bin_construct_sample_cnt: 200000]
[data_random_seed: 4084]
[is_enable_sparse: 1]
[enable_bundle: 1]
[use_missing: 1]
[zero_as_missing: 0]
[feature_pre_filter: 1]
[pre_partition: 0]
[two_round: 0]
[header: 0]
[label_column: ]
[weight_column: ]
[group_column: ]
[ignore_column: ]
[categorical_feature: ]
[forcedbins_filename: ]
[precise_float_parser: 0]
[parser_config_file: ]
[objective_seed: 9093]
[num_class: 1]
[is_unbalance: 0]
[scale_pos_weight: 1]
[sigmoid: 1]
[boost_from_average: 1]
[reg_sqrt: 0]
[alpha: 0.9]
[fair_c: 1]
[poisson_max_delta_step: 0.7]
[tweedie_variance_power: 1.5]
[lambdarank_truncation_level: 30]
[lambdarank_norm: 1]
[label_gain: ]
[eval_at: ]
[multi_error_top_k: 1]
[auc_mu_weights: ]
[num_machines: 1]
[local_listen_port: 12400]
[time_out: 120]
[machine_list_filename: ]
[machines: ]
[gpu_platform_id: -1]
[gpu_device_id: -1]
[gpu_use_dp: 0]
[num_gpu: 1]

end of parameters

pandas_categorical:null
