tree
version=v4
num_class=1
num_tree_per_iteration=1
label_index=0
max_feature_idx=14
objective=regression
feature_names=Column_0 Column_1 Column_2 Column_3 Column_4 Column_5 Column_6 Column_7 Column_8 Column_9 Column_10 Column_11 Column_12 Column_13 Column_14
feature_infos=[0:18] [1:51] [0:1] [0:1] [0:44] [-1:18] [0:19] [1:19] [-1:1] [0:0.20000000000000001] [0:18] [0:18] [0:56] [0:47] [0:1]
tree_sizes=874 967 884 959 972 803 972

Tree=0
num_leaves=9
num_cat=0
split_feature=12 9 12 5 1 1 0 1
split_gain=92.6738 40.855 17.5692 12.4043 5.81346 3.83512 2.03022 0.581988
threshold=15.500000000000002 0.06458333333333334 22.500000000000004 11.500000000000002 7.5000000000000009 4.5000000000000009 12.500000000000002 14.500000000000002
decision_type=2 2 2 2 2 2 2 2
left_child=3 2 6 5 -5 -1 -2 -7
right_child=1 -3 -4 4 -6 7 -8 -9
leaf_value=-0.20476719659356471 0.05440074000205776 -0.046956506648190947 0.24221357415317332 -0.10188987518574492 0.017318709407657108 -0.10189163760816748 0.11830208109709571 -0.1368600963384986
leaf_weight=32 30 59 53 30 36 32 59 47
leaf_count=32 30 59 53 30 36 32 59 47
internal_value=1.28919e-09 0.092929 0.15105 -0.10553 -0.036867 -0.146356 0.0967623 -0.122696
internal_weight=0 201 142 177 66 111 89 79
internal_count=378 201 142 177 66 111 89 79
is_linear=0
shrinkage=1


Tree=1
num_leaves=10
num_cat=0
split_feature=8 7 0 4 4 13 13 0 4
split_gain=57.3388 22.2988 16.7385 7.70699 6.38097 4.98273 3.10497 2.99179 1.84478
threshold=1.0000000180025095e-35 15.500000000000002 15.500000000000002 2.5000000000000004 2.5000000000000004 2.0750000000000006 2.5147058823529416 11.500000000000002 1.0000000180025095e-35
decision_type=2 2 2 2 2 2 2 2 2
left_child=1 4 3 -2 7 -5 -6 -1 -9
right_child=2 -3 -4 5 6 -7 -8 8 -10
leaf_value=-0.15590693974910783 -0.020560546871274711 0.077250452190637586 0.2178070376048217 0.15116119725363597 -0.083058123527602723 0.043659648649832787 0.00079878256901314395 -0.067609929382944342 -0.12752153403399621
leaf_weight=43 32 40 37 35 33 34 38 52 34
leaf_count=43 32 40 37 35 33 34 38 52 34
internal_value=0 -0.0590666 0.102725 0.0605657 -0.0863301 0.0981894 -0.038177 -0.112833 -0.0912959
internal_weight=0 240 138 101 200 69 71 129 86
internal_count=378 240 138 101 200 69 71 129 86
is_linear=0
shrinkage=0.2


Tree=2
num_leaves=9
num_cat=0
split_feature=8 0 4 6 1 0 9 14
split_gain=36.6968 13.6139 14.9067 13.4471 5.36972 3.54886 4.35988 0.70941
threshold=1.0000000180025095e-35 11.500000000000002 3.5000000000000004 15.500000000000002 6.5000000000000009 11.500000000000002 0.080128205128205135 0.29166666666666669
decision_type=2 2 2 2 2 2 2 2
left_child=3 -2 -3 4 7 -6 -7 -1
right_child=1 2 -4 -5 5 6 -8 -9
leaf_value=-0.093785041518682666 -0.034526296200290803 0.036287363020703199 0.18590774013448441 0.063635066926882075 -0.10058310646563769 0.030220539721886854 -0.057071896965305013 -0.13347488579250152
leaf_weight=43 31 50 57 37 32 37 60 31
leaf_count=43 31 50 57 37 32 37 60 31
internal_value=0 0.0821797 0.115992 -0.0472533 -0.0674645 -0.042828 -0.0237748 -0.110412
internal_weight=0 138 107 240 203 129 97 74
internal_count=378 138 107 240 203 129 97 74
is_linear=0
shrinkage=0.2


Tree=3
num_leaves=10
num_cat=0
split_feature=5 1 5 4 4 7 5 1 1
split_gain=30.806 18.5008 10.6135 4.49938 3.17249 1.1182 1.10172 0.90057 0.511704
threshold=11.500000000000002 6.5000000000000009 15.500000000000002 3.5000000000000004 2.5000000000000004 10.500000000000002 13.500000000000002 5.5000000000000009 17.500000000000004
decision_type=2 2 2 2 2 2 2 2 2
left_child=4 6 3 -3 7 -6 -2 -1 -9
right_child=1 2 -4 -5 5 -7 -8 8 -10
leaf_value=-0.11370594209858349 -0.06556366345175775 0.016343534412709148 0.17589748869990796 0.098400447068315078 -0.060496795465869294 -0.0096075686888817038 -0.013082252248568694 -0.054839045951763789 -0.091479681353385175
leaf_weight=35 32 55 41 52 31 39 32 30 31
leaf_count=35 32 55 41 52 31 39 32 30 31
internal_value=0 0.0505229 0.0893751 0.0562217 -0.0645232 -0.0321442 -0.039323 -0.0881328 -0.0734597
internal_weight=0 212 148 107 166 70 64 96 61
internal_count=378 212 148 107 166 70 64 96 61
is_linear=0
shrinkage=0.2


Tree=4
num_leaves=10
num_cat=0
split_feature=5 12 9 4 4 14 4 5 14
split_gain=19.7158 16.8663 3.79004 4.72517 2.03039 1.2278 0.563555 0.347664 0.21989
threshold=11.500000000000002 22.500000000000004 0.069047619047619066 1.5000000000000002 2.5000000000000004 0.02409988385598142 1.0000000180025095e-35 13.500000000000002 0.07417582417582419
decision_type=2 2 2 2 2 2 2 2 2
left_child=4 2 3 -2 6 -6 8 -5 -1
right_child=1 -3 -4 7 5 -7 -8 -9 -10
leaf_value=-0.070744147102038066 -0.017399314727823616 0.14330709968142363 -0.052216215152293445 0.04296305520880607 -0.04865447215037421 0.0048700699334343275 -0.090289014396775114 0.071030539505910581 -0.046529020667076114
leaf_weight=30 59 49 32 31 40 30 36 41 30
leaf_count=30 59 49 32 31 40 30 36 41 30
internal_value=0 0.0404183 0.00948852 0.0245614 -0.0516185 -0.0257154 -0.0705062 0.0589459 -0.0586366
internal_weight=0 212 163 131 166 70 96 72 60
internal_count=378 212 163 131 166 70 96 72 60
is_linear=0
shrinkage=0.2


Tree=5
num_leaves=8
num_cat=0
split_feature=5 1 5 1 1 1 5
split_gain=13.2029 5.66585 6.13903 1.63355 1.56618 0.751937 0.519486
threshold=15.500000000000002 6.5000000000000009 11.500000000000002 14.500000000000002 19.500000000000004 34.500000000000007 11.500000000000002
decision_type=2 2 2 2 2 2 2
left_child=1 6 3 -3 -4 -5 -1
right_child=-2 2 4 5 -6 -7 -8
leaf_value=-0.074342240999604389 0.087796925432209322 0.0083217913228454017 0.012675692601728121 -0.06368333647345624 0.061122347794327084 -0.026976061699797917 -0.043922536219767438
leaf_weight=43 58 33 56 41 51 49 47
leaf_count=43 58 33 56 41 51 49 47
internal_value=0 -0.0159132 0.000734147 -0.0297417 0.0357671 -0.0436983 -0.0584564
internal_weight=0 320 230 123 107 90 90
internal_count=378 320 230 123 107 90 90
is_linear=0
shrinkage=0.2


Tree=6
num_leaves=10
num_cat=0
split_feature=8 4 5 1 1 4 1 4 4
split_gain=9.50749 6.42322 2.4311 2.38261 3.94732 1.05227 0.784572 0.682029 0.193618
threshold=1.0000000180025095e-35 13.500000000000002 9.5000000000000018 6.5000000000000009 16.500000000000004 2.5000000000000004 16.500000000000004 1.0000000180025095e-35 3.5000000000000004
decision_type=2 2 2 2 2 2 2 2 2
left_child=2 5 -1 7 -5 -2 -7 -4 -6
right_child=1 -3 3 4 8 6 -8 -9 -10
leaf_value=-0.068398582612777634 -0.0047209591012109418 0.12369827369848888 -0.024234805236521523 0.040791859373188855 -0.042394912507264848 0.05830424228502859 0.013994564070846094 -0.062382590053351339 -0.020831987675693303
leaf_weight=41 44 30 38 57 31 31 33 37 36
leaf_count=41 44 30 38 57 31 31 33 37 36
internal_value=0 0.0418296 -0.024052 -0.0149153 0.00210437 0.0190882 0.0354571 -0.0430544 -0.0308089
internal_weight=0 138 240 199 124 108 64 75 67
internal_count=378 138 240 199 124 108 64 75 67
is_linear=0
shrinkage=0.2


end of trees

feature_importances:
Column_1=14
Column_4=13
Column_5=10
Column_0=5
Column_8=3
Column_9=3
Column_12=3
Column_14=3
Column_7=2
Column_13=2
Column_6=1

parameters:
[boosting: gbdt]
[objective: regression]
[metric: l2]
[tree_learner: serial]
[device_type: cpu]
[data: ]
[valid: ]
[num_iterations: 10000]
[learning_rate: 0.2]
[num_leaves: 63]
[num_threads: 0]
[deterministic: 0]
[force_col_wise: 0]
[force_row_wise: 0]
[histogram_pool_size: -1]
[max_depth: -1]
[min_data_in_leaf: 30]
[min_sum_hessian_in_leaf: 0.001]
[bagging_fraction: 1]
[pos_bagging_fraction: 1]
[neg_bagging_fraction: 1]
[bagging_freq: 0]
[bagging_seed: 21187]
[feature_fraction: 0.5]
[feature_fraction_bynode: 1]
[feature_fraction_seed: 30770]
[extra_trees: 0]
[extra_seed: 27351]
[early_stopping_round: 0]
[first_metric_only: 0]
[max_delta_step: 0]
[lambda_l1: 0]
[lambda_l2: 0]
[linear_lambda: 0]
[min_gain_to_split: 0]
[drop_rate: 0.1]
[max_drop: 50]
[skip_drop: 0.5]
[xgboost_dart_mode: 0]
[uniform_drop: 0]
[drop_seed: 3778]
[top_rate: 0.2]
[other_rate: 0.1]
[min_data_per_group: 100]
[max_cat_threshold: 32]
[cat_l2: 10]
[cat_smooth: 10]
[max_cat_to_onehot: 4]
[top_k: 20]
[monotone_constraints: ]
[monotone_constraints_method: basic]
[monotone_penalty: 0]
[feature_contri: ]
[forcedsplits_filename: ]
[refit_decay_rate: 0.9]
[cegb_tradeoff: 1]
[cegb_penalty_split: 0]
[cegb_penalty_feature_lazy: ]
[cegb_penalty_feature_coupled: ]
[path_smooth: 0]
[interaction_constraints: ]
[verbosity: -1]
[saved_feature_importance_type: 0]
[linear_tree: 0]
[max_bin: 255]
[max_bin_by_feature: ]
[min_data_in_bin: 3]
[bin_construct_sample_cnt: 200000]
[data_random_seed: 4084]
[is_enable_sparse: 1]
[enable_bundle: 1]
[use_missing: 1]
[zero_as_missing: 0]
[feature_pre_filter: 1]
[pre_partition: 0]
[two_round: 0]
[header: 0]
[label_column: ]
[weight_column: ]
[group_column: ]
[ignore_column: ]
[categorical_feature: ]
[forcedbins_filename: ]
[precise_float_parser: 0]
[parser_config_file: ]
[objective_seed: 9093]
[num_class: 1]
[is_unbalance: 0]
[scale_pos_weight: 1]
[sigmoid: 1]
[boost_from_average: 1]
[reg_sqrt: 0]
[alpha: 0.9]
[fair_c: 1]
[poisson_max_delta_step: 0.7]
[tweedie_variance_power: 1.5]
[lambdarank_truncation_level: 30]
[lambdarank_norm: 1]
[label_gain: ]
[eval_at: ]
[multi_error_top_k: 1]
[auc_mu_weights: ]
[num_machines: 1]
[local_listen_port: 12400]
[time_out: 120]
[machine_list_filename: ]
[machines: ]
[gpu_platform_id: -1]
[gpu_device_id: -1]
[gpu_use_dp: 0]
[num_gpu: 1]

end of parameters

pandas_categorical:null
