tree
version=v4
num_class=1
num_tree_per_iteration=1
label_index=0
max_feature_idx=6
objective=regression
feature_names=Column_0 Column_1 Column_2 Column_3 Column_4 Column_5 Column_6
feature_infos=[1:51] [0:44] [-1:18] [0:19] [-1:1] [0:0.16666666666666666] [0:56]
tree_sizes=1054 892 899 878 969 881 882 885 965 965 883 1055 882 966 902 886 976 987 986 809 900 885 979 972 978 892 980 905 904 1001 988 994 994 909 988 834

Tree=0
num_leaves=11
num_cat=0
split_feature=4 3 3 1 0 1 1 1 0 0
split_gain=76.1954 30.0742 23.7287 14.9509 12.4445 6.08672 5.00156 3.05349 1.53151 1.20429
threshold=1.0000000180025095e-35 15.500000000000002 16.500000000000004 2.5000000000000004 6.5000000000000009 2.5000000000000004 10.500000000000002 7.5000000000000009 15.500000000000002 2.5000000000000004
decision_type=2 2 2 2 2 2 2 2 2 2
left_child=1 4 3 -2 9 8 -5 -7 -6 -1
right_child=2 -3 -4 6 5 7 -8 -9 -10 -11
leaf_value=-0.096557135504160008 -0.023880345349834783 0.044396653062650636 0.12576535632981667 0.035181113571992946 -0.037428263463294954 0.014154723617174325 0.090466841671852372 -0.029616456220785625 -0.068131528312103853 -0.070651155798606508
leaf_weight=34 31 41 39 36 33 30 30 34 32 38
leaf_count=34 31 41 39 36 33 30 30 34 32 38
internal_value=9.01757e-10 -0.0336574 0.0598903 0.0334045 -0.0495788 -0.0309896 0.060311 -0.00909872 -0.0525437 -0.0828845
internal_weight=0 242 136 97 201 129 66 64 65 72
internal_count=378 242 136 97 201 129 66 64 65 72
is_linear=0
shrinkage=1


Tree=1
num_leaves=9
num_cat=0
split_feature=6 4 6 2 2 6 6 1
split_gain=79.6251 32.9576 17.1293 11.2072 8.76828 0.892091 0.839068 0.360676
threshold=15.500000000000002 1.0000000180025095e-35 22.500000000000004 11.500000000000002 13.500000000000002 19.500000000000004 10.500000000000002 1.0000000180025095e-35
decision_type=2 2 2 2 2 2 2 2
left_child=3 4 -3 6 5 -2 -1 -8
right_child=1 2 -4 -5 -6 -7 7 -9
leaf_value=-0.083202047792211589 -0.0075440003564863495 0.047162350763877231 0.13132611470563071 -0.016540464398972058 0.037815439432031583 -0.030624519737766073 -0.056809870029489201 -0.071014690676178688
leaf_weight=36 33 57 42 59 45 34 33 39
leaf_count=36 33 57 42 59 45 34 33 39
internal_value=0 0.0408316 0.0828682 -0.0515896 0.00367419 -0.0192565 -0.0707368 -0.0645041
internal_weight=0 211 99 167 112 67 108 72
internal_count=378 211 99 167 112 67 108 72
is_linear=0
shrinkage=0.1


Tree=2
num_leaves=9
num_cat=0
split_feature=2 4 2 3 5 4 4 3
split_gain=65.1814 21.4402 8.00215 6.62744 3.77209 1.11032 0.50914 0.183508
threshold=11.500000000000002 1.0000000180025095e-35 15.500000000000002 15.500000000000002 0.087121212121212141 1.0000000180025095e-35 -1.0000000180025095e-35 13.500000000000002
decision_type=2 2 2 2 2 2 2 2
left_child=4 3 -3 7 5 6 -1 -2
right_child=1 2 -4 -5 -6 -7 -8 -9
leaf_value=-0.032488076440058654 -0.0099979178319054285 0.047828629652538632 0.10480390657217076 0.036175442178074911 -0.07414210924976751 -0.021452690133204066 -0.048058806857360262 -0.020793396234512332
leaf_weight=30 31 67 39 41 38 30 70 32
leaf_count=30 31 67 39 41 38 30 70 32
internal_value=0 0.0371416 0.0687912 0.00488336 -0.046427 -0.0383257 -0.0433876 -0.0154813
internal_weight=0 210 106 104 168 130 100 63
internal_count=378 210 106 104 168 130 100 63
is_linear=0
shrinkage=0.1


Tree=3
num_leaves=9
num_cat=0
split_feature=2 1 1 2 2 1 5 1
split_gain=52.7969 32.978 9.59242 7.21553 5.46614 2.50822 0.717307 0.546074
threshold=11.500000000000002 4.5000000000000009 2.5000000000000004 15.500000000000002 13.500000000000002 1.5000000000000002 0.087121212121212141 8.5000000000000018
decision_type=2 2 2 2 2 2 2 2
left_child=2 3 6 5 -3 -2 -1 -4
right_child=1 4 7 -5 -6 -7 -8 -9
leaf_value=-0.056473438299969952 -0.02568106609761861 0.05767081883900306 -0.0044437222182750705 0.040522149988473991 0.11220725345425309 0.0065225702548480551 -0.075078890770673756 -0.022027255491794726
leaf_weight=67 51 34 33 39 40 46 30 38
leaf_count=67 51 34 33 39 40 46 30 38
internal_value=0 0.0334275 -0.0417843 0.00419609 0.08715 -0.0104092 -0.0622277 -0.0138546
internal_weight=0 210 168 136 74 97 97 71
internal_count=378 210 168 136 74 97 97 71
is_linear=0
shrinkage=0.1


Tree=4
num_leaves=10
num_cat=0
split_feature=2 1 1 3 2 5 3 2 2
split_gain=42.7655 26.7122 7.76986 6.76051 4.42757 1.96066 0.72946 0.507189 0.125728
threshold=11.500000000000002 4.5000000000000009 2.5000000000000004 16.500000000000004 13.500000000000002 0.06458333333333334 11.500000000000002 10.500000000000002 12.500000000000002
decision_type=2 2 2 2 2 2 2 2 2
left_child=2 3 6 5 -3 8 -1 -4 -2
right_child=1 4 7 -5 -6 -7 -8 -9 -10
leaf_value=-0.064240788858310846 0.0052451266336344914 0.051903737029608557 -0.022069911081944744 0.041650966597454889 0.10098652747925373 -0.028906997950638044 -0.046873872897223286 -0.0050285862386226657 -0.0034428862971253695
leaf_weight=51 31 34 31 35 40 34 46 40 36
leaf_count=51 31 34 31 35 40 34 46 40 36
internal_value=0 0.0300847 -0.0376059 0.00377648 0.078435 -0.00934835 -0.0560049 -0.0124692 0.000576941
internal_weight=0 210 168 136 74 101 97 71 67
internal_count=378 210 168 136 74 101 97 71 67
is_linear=0
shrinkage=0.1


Tree=5
num_leaves=9
num_cat=0
split_feature=2 1 1 3 2 3 1 2
split_gain=34.64 21.6369 6.29359 5.68316 3.58633 0.590863 0.434756 0.322864
threshold=11.500000000000002 4.5000000000000009 2.5000000000000004 15.500000000000002 13.500000000000002 11.500000000000002 8.5000000000000018 12.500000000000002
decision_type=2 2 2 2 2 2 2 2
left_child=2 3 5 7 -3 -1 -4 -2
right_child=1 4 6 -5 -6 -7 -8 -9
leaf_value=-0.057816709782563008 -0.0082634593910452993 0.046713362930013852 -0.0028251664882356473 0.02746470695475868 0.090887872469611469 -0.042186485664190164 -0.018514450394401426 -0.021133007306073395
leaf_weight=51 44 34 33 57 40 46 38 35
leaf_count=51 44 34 33 57 40 46 38 35
internal_value=0 0.0270762 -0.0338453 0.00339883 0.0705915 -0.0504044 -0.0112222 -0.0139652
internal_weight=0 210 168 136 74 97 71 79
internal_count=378 210 168 136 74 97 71 79
is_linear=0
shrinkage=0.1


Tree=6
num_leaves=9
num_cat=0
split_feature=2 0 2 0 5 0 0 0
split_gain=28.0584 23.2879 9.08455 3.99269 2.46691 2.18749 1.75778 0.726122
threshold=11.500000000000002 6.5000000000000009 15.500000000000002 6.5000000000000009 0.057189542483660136 19.500000000000004 14.500000000000002 34.500000000000007
decision_type=2 2 2 2 2 2 2 2
left_child=3 -2 4 -1 5 -3 -5 -8
right_child=1 2 -4 6 -6 -7 7 -9
leaf_value=-0.056340674996714704 -0.027676940749048213 0.02180281103721687 0.083819904978471735 -0.0019065412857076703 0.0065407579531893134 0.056453264092928494 -0.038197915548724787 -0.020193429624972246
leaf_weight=44 61 35 44 34 32 38 42 48
leaf_count=44 61 35 44 34 32 38 42 48
internal_value=0 0.0243686 0.0456759 -0.0304608 0.0296917 0.03984 -0.0212776 -0.0285955
internal_weight=0 210 149 168 105 73 124 90
internal_count=378 210 149 168 105 73 124 90
is_linear=0
shrinkage=0.1


Tree=7
num_leaves=9
num_cat=0
split_feature=2 1 1 3 1 1 2 3
split_gain=22.7273 15.3747 4.80167 4.22706 3.19071 1.79026 0.411812 0.407645
threshold=11.500000000000002 4.5000000000000009 2.5000000000000004 16.500000000000004 10.500000000000002 1.5000000000000002 10.500000000000002 11.500000000000002
decision_type=2 2 2 2 2 2 2 2
left_child=2 3 7 5 -3 -2 -4 -1
right_child=1 4 6 -5 -6 -7 -8 -9
leaf_value=-0.048035288642288426 -0.020581288728016345 0.039469101483700801 -0.01630524031577572 0.031921270292784486 0.081135874920908152 0.006152410063204234 -0.00094959654146805402 -0.035052656771048261
leaf_weight=51 55 40 31 35 34 46 40 46
leaf_count=51 55 40 31 35 34 46 40 46
internal_value=0 0.0219318 -0.0274147 0.00197268 0.0586133 -0.00840554 -0.00765417 -0.0418786
internal_weight=0 210 168 136 74 101 71 97
internal_count=378 210 168 136 74 101 71 97
is_linear=0
shrinkage=0.1


Tree=8
num_leaves=10
num_cat=0
split_feature=2 1 5 1 2 2 1 1 2
split_gain=19.5804 10.7373 6.63249 5.49881 3.60031 1.20933 0.338741 0.285827 0.206125
threshold=15.500000000000002 1.5000000000000002 0.069047619047619066 2.5000000000000004 11.500000000000002 11.500000000000002 4.5000000000000009 4.5000000000000009 10.500000000000002
decision_type=2 2 2 2 2 2 2 2 2
left_child=1 5 4 -2 -3 8 -6 -4 -1
right_child=3 2 7 -5 6 -7 -8 -9 -10
leaf_value=-0.044805880910471871 0.020624572746455669 -0.0057124858092078394 -0.02432115762635614 0.080217481474392116 0.025726584895164707 -0.019782030586080225 0.039314579183972159 -0.011884585519631704 -0.03469748644288196
leaf_weight=38 30 34 33 32 32 51 43 42 43
leaf_count=38 30 34 33 32 32 51 43 42 43
internal_value=0 -0.0100813 0.00553153 0.0513822 0.0212803 -0.0318447 0.033517 -0.0173567 -0.0394397
internal_weight=0 316 184 62 109 132 75 75 81
internal_count=378 316 184 62 109 132 75 75 81
is_linear=0
shrinkage=0.1


Tree=9
num_leaves=10
num_cat=0
split_feature=6 3 0 0 6 0 0 0 6
split_gain=20.5608 6.95526 5.26645 2.6964 1.67747 1.35401 1.93195 0.537121 0.0326591
threshold=16.500000000000004 16.500000000000004 7.5000000000000009 25.500000000000004 13.500000000000002 31.500000000000004 9.5000000000000018 3.5000000000000004 20.500000000000004
decision_type=2 2 2 2 2 2 2 2 2
left_child=2 5 7 4 -4 6 -2 -1 -8
right_child=1 -3 3 -5 -6 -7 8 -9 -10
leaf_value=-0.04861318042336886 -0.0018528344482183455 0.055533639490421796 -0.010477905981242657 -0.028708202347514179 0.020239819650305437 -0.0030573883979785736 0.026894271882871787 -0.032185251057586253 0.031560397545496624
leaf_weight=48 30 51 40 42 32 41 30 34 30
leaf_count=48 30 51 40 42 32 41 30 34 30
internal_value=0 0.0242028 -0.0224741 -0.00857181 0.00317442 0.0120054 0.0188673 -0.0418016 0.0292273
internal_weight=0 182 196 114 72 131 90 82 60
internal_count=378 182 196 114 72 131 90 82 60
is_linear=0
shrinkage=0.1


Tree=10
num_leaves=9
num_cat=0
split_feature=6 2 0 2 1 6 0 0
split_gain=16.6542 6.5157 4.26582 3.51653 2.69431 2.35984 0.843124 0.435068
threshold=16.500000000000004 13.500000000000002 7.5000000000000009 11.500000000000002 6.5000000000000009 22.500000000000004 21.500000000000004 3.5000000000000004
decision_type=2 2 2 2 2 2 2 2
left_child=2 5 7 6 -3 -2 -4 -1
right_child=1 4 3 -5 -6 -7 -8 -9
leaf_value=-0.043751863006036729 -0.0094770544250163125 0.027797368671572592 -0.0090302084339782592 0.015281068599073307 0.064065890567320774 0.022561761287924573 -0.030807650834321978 -0.028966726079199687
leaf_weight=48 56 54 32 42 33 39 40 34
leaf_count=48 56 54 32 42 33 39 40 34
internal_value=0 0.0217826 -0.0202267 -0.00771463 0.0415544 0.00367572 -0.0211288 -0.0376214
internal_weight=0 182 196 114 87 95 72 82
internal_count=378 182 196 114 87 95 72 82
is_linear=0
shrinkage=0.1


Tree=11
num_leaves=11
num_cat=0
split_feature=4 0 5 3 3 0 0 0 0 5
split_gain=12.2635 5.60057 4.86946 3.42671 1.6365 2.11242 1.26544 0.993755 0.494698 0.413729
threshold=1.0000000180025095e-35 3.5000000000000004 0.057189542483660136 16.500000000000004 12.500000000000002 19.500000000000004 16.500000000000004 8.5000000000000018 34.500000000000007 0.06458333333333334
decision_type=2 2 2 2 2 2 2 2 2 2
left_child=1 9 -3 4 -2 -6 7 -4 -8 -1
right_child=3 2 6 -5 5 -7 8 -9 -10 -11
leaf_value=-0.031606054620727179 -0.0054490598997411627 0.025637825195700292 -0.016656626250848853 0.049060565333526873 0.0051602143301245048 0.04067680655103742 -0.030994009028969184 0.0072121830002681636 -0.014153263763044821 -0.048079378288239244
leaf_weight=31 30 41 33 39 34 33 37 37 33 30
leaf_count=31 30 41 33 39 34 33 37 37 33 30
internal_value=0 -0.0135028 -0.00467129 0.024027 0.013962 0.0226535 -0.0135475 -0.00404026 -0.0230548 -0.0397077
internal_weight=0 242 181 136 97 67 140 70 70 61
internal_count=378 242 181 136 97 67 140 70 70 61
is_linear=0
shrinkage=0.1


Tree=12
num_leaves=9
num_cat=0
split_feature=6 2 0 2 1 6 0 0
split_gain=12.2853 4.65486 2.81471 2.43572 1.87921 1.85827 0.614208 0.172852
threshold=16.500000000000004 13.500000000000002 7.5000000000000009 11.500000000000002 6.5000000000000009 22.500000000000004 21.500000000000004 3.5000000000000004
decision_type=2 2 2 2 2 2 2 2
left_child=2 5 7 6 -3 -2 -4 -1
right_child=1 4 3 -5 -6 -7 -8 -9
leaf_value=-0.035366042940101282 -0.0082674716403874169 0.023931058087489673 -0.0080463730497285727 0.011929573718502763 0.054220620192813151 0.020163407735526565 -0.026633781958371402 -0.0260467341498417
leaf_weight=48 56 54 32 42 33 39 40 34
leaf_count=48 56 54 32 42 33 39 40 34
internal_value=0 0.0187085 -0.0173722 -0.00720871 0.0354202 0.00340415 -0.0183727 -0.0315019
internal_weight=0 182 196 114 87 95 72 82
internal_count=378 182 196 114 87 95 72 82
is_linear=0
shrinkage=0.1


Tree=13
num_leaves=10
num_cat=0
split_feature=6 3 0 0 0 0 6 0 6
split_gain=9.95111 3.48247 2.27991 1.51668 1.1466 1.27304 1.12834 0.14001 0.000496162
threshold=16.500000000000004 16.500000000000004 7.5000000000000009 25.500000000000004 31.500000000000004 9.5000000000000018 13.500000000000002 3.5000000000000004 20.500000000000004
decision_type=2 2 2 2 2 2 2 2 2
left_child=2 4 7 6 5 -2 -4 -1 -7
right_child=1 -3 3 -5 -6 8 -8 -9 -10
leaf_value=-0.03182943854092931 -0.002298318532605966 0.039007326731042867 -0.0088752234168350697 -0.021589887975936847 -0.0056543897178660081 0.022643481534129633 0.016317826272279491 -0.023442060357261013 0.023218611377912264
leaf_weight=48 30 51 40 42 41 30 32 34 30
leaf_count=48 30 51 40 42 41 30 32 34 30
internal_value=0 0.0168377 -0.015635 -0.00648784 0.00820674 0.0145213 0.00232169 -0.0283517 0.022931
internal_weight=0 182 196 114 131 90 72 82 60
internal_count=378 182 196 114 131 90 72 82 60
is_linear=0
shrinkage=0.1


Tree=14
num_leaves=9
num_cat=0
split_feature=4 1 3 1 2 1 1 2
split_gain=7.77785 6.48026 1.69117 0.934549 0.729782 0.845355 0.569732 0.48668
threshold=1.0000000180025095e-35 12.500000000000002 15.500000000000002 1.5000000000000002 9.5000000000000018 4.5000000000000009 1.0000000180025095e-35 12.500000000000002
decision_type=2 2 2 2 2 2 2 2
left_child=2 3 4 -2 -1 6 -6 -5
right_child=1 -3 -4 7 5 -7 -8 -9
leaf_value=-0.026432221046671634 -0.0073090877214615994 0.056943040664362558 0.0077560008321775177 0.0051107069994840359 -0.0090479872574837049 0.00014116601397593819 -0.023125723202042939 0.021923425387252463
leaf_weight=41 33 34 41 36 58 45 57 33
leaf_count=41 33 34 41 36 58 45 57 33
internal_value=0 0.0191347 -0.0107534 0.00653195 -0.0145289 -0.0114787 -0.0160256 0.0131516
internal_weight=0 136 242 102 201 160 115 69
internal_count=378 136 242 102 201 160 115 69
is_linear=0
shrinkage=0.1


Tree=15
num_leaves=9
num_cat=0
split_feature=6 4 6 1 2 2 1 6
split_gain=6.6998 4.89604 5.56742 3.22372 1.31775 0.77718 0.81091 0.429543
threshold=16.500000000000004 1.0000000180025095e-35 26.500000000000004 8.5000000000000018 13.500000000000002 9.5000000000000018 1.5000000000000002 12.500000000000002
decision_type=2 2 2 2 2 2 2 2
left_child=5 3 -3 4 -2 -1 7 -7
right_child=1 2 -4 -5 -6 6 -8 -9
leaf_value=-0.02404083920286057 -0.0036138775572180748 0.012522045988589525 0.065907328402002655 -0.027027624343155011 0.025344136595782458 -0.0071889432863547252 0.0028856402938254181 -0.01975726620212459
leaf_weight=47 30 56 30 33 33 52 40 57
leaf_count=47 30 56 30 33 33 52 40 57
internal_value=0 0.0138158 0.0311448 -0.00170804 0.0115546 -0.012829 -0.00929237 -0.0137614
internal_weight=0 182 86 96 63 196 149 109
internal_count=378 182 86 96 63 196 149 109
is_linear=0
shrinkage=0.1


Tree=16
num_leaves=10
num_cat=0
split_feature=6 4 6 1 2 6 2 1 2
split_gain=5.42684 3.96579 4.50961 2.61122 1.06738 0.639392 0.561349 0.339007 0.779116
threshold=16.500000000000004 1.0000000180025095e-35 26.500000000000004 8.5000000000000018 13.500000000000002 13.500000000000002 12.500000000000002 1.0000000180025095e-35 10.500000000000002
decision_type=2 2 2 2 2 2 2 2 2
left_child=5 3 -3 4 -2 7 -7 8 -1
right_child=1 2 -4 -5 -6 6 -8 -9 -10
leaf_value=-0.02430682686919516 -0.0032524894426266358 0.011269841875348774 0.059316596326728671 -0.024324861789743107 0.022809723173409249 0.0047358571719895637 -0.012689803893628874 -0.023684455922398814 -0.0045098795369267466
leaf_weight=33 30 56 30 33 33 36 38 39 50
leaf_count=33 30 56 30 33 33 36 38 39 50
internal_value=0 0.0124343 0.0280303 -0.00153723 0.0103991 -0.0115461 -0.00421246 -0.0159944 -0.012381
internal_weight=0 182 86 96 63 196 74 122 83
internal_count=378 182 86 96 63 196 74 122 83
is_linear=0
shrinkage=0.1


Tree=17
num_leaves=10
num_cat=0
split_feature=6 4 6 6 6 4 3 4 3
split_gain=4.59618 3.91317 1.6603 1.78934 1.54678 1.07393 0.378282 0.284679 0.183706
threshold=22.500000000000004 1.0000000180025095e-35 13.500000000000002 19.500000000000004 17.500000000000004 1.0000000180025095e-35 13.500000000000002 -1.0000000180025095e-35 11.500000000000002
decision_type=2 2 2 2 2 2 2 2 2
left_child=2 -2 7 4 5 6 -4 -1 -9
right_child=1 -3 3 -5 -6 -7 -8 8 -10
leaf_value=-0.02029098105065677 -0.0048518240638077267 0.042435574367465007 -0.0015373842612675884 -0.020843235595384615 0.02048709435064508 0.01199320273375825 -0.016454442979439217 -0.016115590737899765 -0.0060054812126043369
leaf_weight=49 30 42 34 32 46 38 34 32 41
leaf_count=49 30 42 34 32 46 38 34 32 41
internal_value=0 0.0227325 -0.00534882 0.000649143 0.00517385 -0.00147151 -0.00899591 -0.0143949 -0.0104373
internal_weight=0 72 306 184 152 106 68 122 73
internal_count=378 72 306 184 152 106 68 122 73
is_linear=0
shrinkage=0.1


Tree=18
num_leaves=10
num_cat=0
split_feature=2 5 1 1 2 1 1 4 4
split_gain=4.14255 1.83592 1.5575 1.54117 1.45958 0.458179 0.825022 0.134724 0.0245705
threshold=15.500000000000002 0.057189542483660136 2.5000000000000004 2.5000000000000004 11.500000000000002 6.5000000000000009 1.5000000000000002 -1.0000000180025095e-35 1.0000000180025095e-35
decision_type=2 2 2 2 2 2 2 2 2
left_child=1 2 8 -2 -4 6 7 -3 -1
right_child=3 5 4 -5 -6 -7 -8 -9 -10
leaf_value=-0.0060009960386463827 0.0073505778455485908 -0.018998413524891379 -0.00445539690554142 0.038899551253416577 0.023445205441676081 -0.022046529348282256 0.00025574598735797087 -0.010734689221991335 -0.0098936269300118583
leaf_weight=34 30 47 30 32 50 34 56 34 31
leaf_count=34 30 47 30 32 50 34 56 34 31
internal_value=0 -0.00463703 0.00364043 0.0236339 0.0129825 -0.0116559 -0.00907725 -0.0155297 -0.00785748
internal_weight=0 316 145 62 80 171 137 81 65
internal_count=378 316 145 62 80 171 137 81 65
is_linear=0
shrinkage=0.1


Tree=19
num_leaves=8
num_cat=0
split_feature=0 2 2 0 3 0 1
split_gain=5.21747 4.48478 1.46878 1.3966 1.13643 0.525683 0.269426
threshold=6.5000000000000009 11.500000000000002 15.500000000000002 14.500000000000002 13.500000000000002 34.500000000000007 1.0000000180025095e-35
decision_type=2 2 2 2 2 2 2
left_child=6 3 4 -2 -3 -5 -1
right_child=1 2 -4 5 -6 -7 -8
leaf_value=-0.014295500536089795 0.010502904212540564 0.023462688118219378 0.034316070748239079 -0.021456923927845702 0.0026322335241870448 -0.0061376547033432875 -0.024463985706582512
leaf_weight=57 34 50 44 42 55 48 48
leaf_count=57 34 50 44 42 55 48 48
internal_value=0 0.00728614 0.0189786 -0.00676371 0.0125515 -0.0132866 -0.018944
internal_weight=0 273 149 124 105 90 105
internal_count=378 273 149 124 105 90 105
is_linear=0
shrinkage=0.1


Tree=20
num_leaves=9
num_cat=0
split_feature=5 1 1 2 1 1 3 2
split_gain=2.79943 2.23562 1.00084 0.610578 0.410845 0.607316 0.0634857 0.00923544
threshold=0.057189542483660136 13.500000000000002 1.5000000000000002 12.500000000000002 6.5000000000000009 1.5000000000000002 12.500000000000002 12.500000000000002
decision_type=2 2 2 2 2 2 2 2
left_child=1 2 7 -4 5 6 -2 -1
right_child=4 -3 3 -5 -6 -7 -8 -9
leaf_value=-0.0047225082770754132 -0.014928639493882657 0.0326465160045172 0.0017570746773853899 0.017092831119575918 -0.019221262250314744 0.0010894639335414728 -0.0093775420155572265 -0.0070349169493232281
leaf_weight=39 45 31 50 54 34 56 38 31
leaf_count=39 45 31 50 54 34 56 38 31
internal_value=0 0.0079056 0.00349774 0.00971987 -0.00936791 -0.00695774 -0.0123872 -0.00574657
internal_weight=0 205 174 104 173 139 83 70
internal_count=378 205 174 104 173 139 83 70
is_linear=0
shrinkage=0.1


Tree=21
num_leaves=9
num_cat=0
split_feature=0 2 0 2 3 0 0 6
split_gain=4.0022 3.2616 1.16748 1.07041 0.931785 0.416806 0.22085 0.680979
threshold=6.5000000000000009 11.500000000000002 14.500000000000002 15.500000000000002 13.500000000000002 37.500000000000007 3.5000000000000004 12.500000000000002
decision_type=2 2 2 2 2 2 2 2
left_child=6 2 -2 4 -3 -4 7 -1
right_child=1 3 5 -5 -6 -7 -8 -9
leaf_value=-0.008989939366777739 0.010186625047422508 0.020746035992167892 -0.0066312727410843507 0.029446068668568678 0.0018841058219021018 -0.02095253624382519 -0.010625535334484319 -0.029389780873639717
leaf_weight=30 34 50 59 44 55 31 39 36
leaf_count=30 34 50 59 44 55 31 39 36
internal_value=0 0.00638141 -0.00560023 0.0163527 0.010866 -0.0115642 -0.0165917 -0.0201171
internal_weight=0 273 124 149 105 90 105 66
internal_count=378 273 124 149 105 90 105 66
is_linear=0
shrinkage=0.1


Tree=22
num_leaves=10
num_cat=0
split_feature=0 0 5 1 0 0 0 1 0
split_gain=3.24178 2.51409 2.25623 1.12399 1.68637 0.907072 0.270268 0.22926 0.0674331
threshold=6.5000000000000009 40.500000000000007 0.057189542483660136 12.500000000000002 16.500000000000004 14.500000000000002 10.500000000000002 1.0000000180025095e-35 25.500000000000004
decision_type=2 2 2 2 2 2 2 2 2
left_child=7 2 3 4 6 -4 -2 -1 -7
right_child=1 -3 5 -5 -6 8 -8 -9 -10
leaf_value=-0.01064452764071655 0.016537183901715664 -0.020136352512054145 0.0097643825761042548 0.034761043712496761 -0.0021895200141112915 -0.012848558454143425 0.029540363989177754 -0.02002448895170043 -0.0062527087456997373
leaf_weight=57 31 33 40 30 44 31 33 48 31
leaf_count=57 31 33 40 30 44 31 33 48 31
internal_value=0 0.00574327 0.00930172 0.0176375 0.012881 -0.00197612 0.0232419 -0.0149325 -0.00955063
internal_weight=0 273 240 138 108 102 64 105 62
internal_count=378 273 240 138 108 102 64 105 62
is_linear=0
shrinkage=0.1


Tree=23
num_leaves=10
num_cat=0
split_feature=0 0 6 3 0 0 0 3 6
split_gain=2.62585 2.10812 1.71496 0.801172 0.656678 2.18641 0.830871 0.232969 0.348533
threshold=6.5000000000000009 31.500000000000004 13.500000000000002 12.500000000000002 22.500000000000004 16.500000000000004 9.5000000000000018 14.500000000000002 12.500000000000002
decision_type=2 2 2 2 2 2 2 2 2
left_child=7 2 -2 -3 5 6 -4 8 -1
right_child=1 3 4 -5 -6 -7 -8 -9 -10
leaf_value=-0.010608218784611195 -0.0055248582897362147 0.0012177090662030075 0.0086852933396585289 -0.019184832860666672 0.027397172599050564 -0.010334633002358099 0.029667933888571418 -0.0069180509592923854 -0.02494506165230026
leaf_weight=39 49 39 32 38 38 31 46 36 30
leaf_count=39 49 39 32 38 38 31 46 36 30
internal_value=0 0.00516895 0.0106768 -0.00885108 0.0160774 0.012131 0.0210597 -0.0134393 -0.0168416
internal_weight=0 273 196 77 147 109 78 105 69
internal_count=378 273 196 77 147 109 78 105 69
is_linear=0
shrinkage=0.1


Tree=24
num_leaves=10
num_cat=0
split_feature=0 0 5 6 0 0 0 0 6
split_gain=2.12693 1.80154 1.67891 2.0086 0.911358 0.657227 0.200044 0.0625658 0.0174571
threshold=6.5000000000000009 40.500000000000007 0.057189542483660136 22.500000000000004 16.500000000000004 14.500000000000002 2.5000000000000004 25.500000000000004 15.500000000000002
decision_type=2 2 2 2 2 2 2 2 2
left_child=6 2 3 4 -2 -4 -1 -7 -8
right_child=1 -3 5 -5 -6 7 8 -9 -10
leaf_value=-0.0175487216721039 0.015835802494456954 -0.017255273967219348 0.0079293922602664685 0.032787243983448421 -0.0038066156716509304 -0.01168841751021964 -0.0070503774427754032 -0.005335066840052605 -0.010359984802392622
leaf_weight=41 51 33 40 43 44 31 34 31 30
leaf_count=41 51 33 40 43 44 31 34 31 30
internal_value=0 0.00465205 0.00766431 0.014855 0.00673826 -0.00206424 -0.0120953 -0.00851174 -0.00860176
internal_weight=0 273 240 138 95 102 105 62 64
internal_count=378 273 240 138 95 102 105 62 64
is_linear=0
shrinkage=0.1


Tree=25
num_leaves=9
num_cat=0
split_feature=0 3 5 6 0 0 3 6
split_gain=1.72282 1.66117 1.32863 1.15777 0.81406 0.355448 0.186743 0.28958
threshold=6.5000000000000009 10.500000000000002 0.057189542483660136 22.500000000000004 16.500000000000004 16.500000000000004 14.500000000000002 12.500000000000002
decision_type=2 2 2 2 2 2 2 2
left_child=6 -2 3 5 -4 -3 7 -1
right_child=1 2 4 -5 -6 -7 -8 -9
leaf_value=-0.0082501452463941694 -0.013141626764326762 0.01340329470234186 0.009793966702307531 0.02810425168524186 -0.0084214102792537823 0.00025843584703074562 -0.0050473029259592295 -0.021318348071848355
leaf_weight=39 46 48 42 42 59 36 36 30
leaf_count=39 46 48 42 42 59 36 36 30
internal_value=0 0.00418685 0.00769834 0.0145479 -0.000846699 0.00776978 -0.0108858 -0.013932
internal_weight=0 273 227 126 101 84 105 69
internal_count=378 273 227 126 101 84 105 69
is_linear=0
shrinkage=0.1


Tree=26
num_leaves=10
num_cat=0
split_feature=0 0 1 1 1 0 6 0 1
split_gain=1.39548 1.32923 1.10003 1.34415 1.32792 1.05104 1.09129 0.164699 0.655598
threshold=6.5000000000000009 40.500000000000007 15.500000000000002 8.5000000000000018 3.5000000000000004 16.500000000000004 14.500000000000002 3.5000000000000004 1.0000000180025095e-35
decision_type=2 2 2 2 2 2 2 2 2
left_child=7 2 3 4 5 6 -2 8 -1
right_child=1 -3 -4 -5 -6 -7 -8 -9 -10
leaf_value=-0.0034618813145373553 -0.0010571087528837891 -0.015049603498173934 0.024267693099876246 -0.013224310922975602 0.020905053017374414 -0.0094923428658928201 0.024041384831070902 -0.0046450529307222521 -0.023431779831016977
leaf_weight=35 41 33 30 38 52 49 30 39 31
leaf_count=35 41 33 30 38 52 49 30 39 31
internal_value=0 0.00376816 0.0063556 0.00379673 0.0075572 0.00177313 0.00954789 -0.00979722 -0.0128417
internal_weight=0 273 240 210 172 120 71 105 66
internal_count=378 273 240 210 172 120 71 105 66
is_linear=0
shrinkage=0.1


Tree=27
num_leaves=9
num_cat=0
split_feature=2 5 3 3 3 3 4 5
split_gain=1.15682 0.84944 0.900702 0.386629 0.205738 0.17467 0.0115986 0.00695384
threshold=9.5000000000000018 0.057189542483660136 12.500000000000002 16.500000000000004 14.500000000000002 14.500000000000002 1.0000000180025095e-35 0.095454545454545472
decision_type=2 2 2 2 2 2 2 2
left_child=7 3 -3 4 6 -4 -2 -1
right_child=1 2 5 -5 -6 -7 -8 -9
leaf_value=-0.011525725393245617 0.0054667402803897855 0.010346337859260125 -0.01093379871217885 0.014735264420460227 -0.0018459051847457887 -0.0024177873758850872 0.0078124347990730179 -0.013661404146302132
leaf_weight=30 35 36 69 48 39 37 53 31
leaf_count=30 35 36 69 48 39 37 53 31
internal_value=0 0.00242674 -0.00331987 0.0070897 0.00420004 -0.00796123 0.00687949 -0.0126111
internal_weight=0 317 142 175 127 106 88 61
internal_count=378 317 142 175 127 106 88 61
is_linear=0
shrinkage=0.1


Tree=28
num_leaves=9
num_cat=0
split_feature=6 5 6 6 2 2 6 5
split_gain=1.02942 0.760838 0.829533 1.48374 0.127087 0.177927 0.58458 0.0803508
threshold=16.500000000000004 0.06458333333333334 26.500000000000004 19.500000000000004 9.5000000000000018 12.500000000000002 13.500000000000002 0.080128205128205135
decision_type=2 2 2 2 2 2 2 2
left_child=4 2 3 -2 -1 6 7 -6
right_child=1 -3 -4 -5 5 -7 -8 -9
leaf_value=-0.0095625672390327807 0.016173023732307442 -0.004409411790865389 0.023310697811768588 -0.0090976690175011751 -0.0027975632356026688 -0.0095046398327930989 0.0098257763194851584 -0.0091887740728755791
leaf_weight=47 52 55 33 42 37 38 32 42
leaf_count=47 52 55 33 42 37 38 32 42
internal_value=0 0.00541555 0.00967046 0.00488186 -0.00502873 -0.00359859 -0.0015767 -0.00619542
internal_weight=0 182 127 94 196 149 111 79
internal_count=378 182 127 94 196 149 111 79
is_linear=0
shrinkage=0.1


Tree=29
num_leaves=10
num_cat=0
split_feature=6 6 6 4 1 6 2 1 4
split_gain=0.868845 1.15089 1.33804 0.662613 0.222925 0.179013 0.391459 0.302008 0.0447937
threshold=22.500000000000004 19.500000000000004 17.500000000000004 1.0000000180025095e-35 2.5000000000000004 14.500000000000002 11.500000000000002 1.0000000180025095e-35 -1.0000000180025095e-35
decision_type=2 2 2 2 2 2 2 2 2
left_child=1 2 4 -2 5 6 7 8 -1
right_child=3 -3 -4 -5 -6 -7 -8 -9 -10
leaf_value=-0.0053923858038615437 -0.0014671272798053301 -0.020271079512895085 0.015328056703362129 0.017991442679028427 0.002686572916960965 -0.011183063821816767 0.0042185033064173613 -0.014408739736037596 -1.3795476406812667e-05
leaf_weight=32 30 32 46 42 48 37 46 35 30
leaf_count=32 30 32 46 42 48 37 46 35 30
internal_value=0 -0.00232558 -0.000229753 0.00988371 -0.00336861 -0.00498332 -0.0033792 -0.00698223 -0.00278984
internal_weight=0 306 274 72 228 180 143 97 62
internal_count=378 306 274 72 228 180 143 97 62
is_linear=0
shrinkage=0.1


Tree=30
num_leaves=10
num_cat=0
split_feature=3 1 1 3 5 1 5 2 1
split_gain=0.845168 0.869516 0.752491 0.661193 1.7834 0.824772 0.265336 0.105855 0.0875934
threshold=10.500000000000002 1.5000000000000002 1.0000000180025095e-35 12.500000000000002 0.06458333333333334 7.5000000000000009 1.0000000180025095e-35 14.500000000000002 1.5000000000000002
decision_type=2 2 2 2 2 2 2 2 2
left_child=8 2 6 -3 5 7 -2 -5 -1
right_child=1 3 -4 4 -6 -7 -8 -9 -10
leaf_value=-0.0070357657590648165 -0.0057410229574001975 0.019882733087676269 -0.018001552849947925 0.014610143347332875 -0.010377187628684373 0.0010925412798921267 0.0051426048196541764 0.022878449177369475 -0.014557119803503155
leaf_weight=32 42 30 31 30 58 45 48 32 30
leaf_count=32 42 30 31 30 58 45 48 32 30
internal_value=0 0.00209449 -0.00456468 0.00622659 0.00374365 0.0113979 6.35785e-05 0.0188777 -0.0106751
internal_weight=0 316 121 195 165 107 90 62 62
internal_count=378 316 121 195 165 107 90 62 62
is_linear=0
shrinkage=0.1


Tree=31
num_leaves=10
num_cat=0
split_feature=2 2 1 6 5 6 1 1 5
split_gain=0.726492 0.464498 0.445351 0.358174 0.312552 0.442002 0.268478 0.0362878 0.000323249
threshold=15.500000000000002 9.5000000000000018 1.5000000000000002 12.500000000000002 0.057189542483660136 18.500000000000004 2.5000000000000004 7.5000000000000009 0.095454545454545472
decision_type=2 2 2 2 2 2 2 2 2
left_child=1 8 3 -3 7 -6 -2 -4 -1
right_child=6 2 4 -5 5 -7 -8 -9 -10
leaf_value=-0.0095467473884734023 0.0031009999189215401 0.00048035813423876578 0.010085932170160307 -0.011498754091250401 0.0052808426399814324 -0.0096872454125653297 0.016268849387415685 0.0056505608771528519 -0.010007207272874734
leaf_weight=30 30 52 39 48 47 34 32 35 31
leaf_count=30 30 52 39 48 47 34 32 35 31
internal_value=0 -0.00194188 -6.66954e-05 -0.00526962 0.00329003 -0.00100206 0.00989731 0.00798812 -0.00978075
internal_weight=0 316 255 100 155 81 62 74 61
internal_count=378 316 255 100 155 81 62 74 61
is_linear=0
shrinkage=0.1


Tree=32
num_leaves=10
num_cat=0
split_feature=2 2 3 1 4 1 1 1 2
split_gain=0.588458 0.376244 0.585178 0.389341 0.335055 0.268274 0.217467 0.0954963 0.194858
threshold=15.500000000000002 9.5000000000000018 12.500000000000002 1.5000000000000002 1.0000000180025095e-35 3.5000000000000004 2.5000000000000004 1.0000000180025095e-35 11.500000000000002
decision_type=2 2 2 2 2 2 2 2 2
left_child=1 -1 3 -3 7 -6 -2 -4 -9
right_child=6 2 4 -5 5 -7 -8 8 -10
leaf_value=-0.0088026764054523147 0.0027909003058448436 0.0011829348144734779 -0.0015656601126876571 0.01603403389453888 -0.0044619817472994336 0.0082632460706942787 0.014641964428301436 -0.013635432854708699 -0.0039455426400717428
leaf_weight=61 30 41 31 31 30 37 32 36 49
leaf_count=61 30 41 31 31 30 37 32 36 49
internal_value=0 -0.00174769 -6.00259e-05 0.00757716 -0.00306482 0.00256538 0.00890758 -0.00631675 -0.0080495
internal_weight=0 316 255 72 183 67 62 116 85
internal_count=378 316 255 72 183 67 62 116 85
is_linear=0
shrinkage=0.1


Tree=33
num_leaves=9
num_cat=0
split_feature=6 6 6 4 6 6 1 3
split_gain=0.600829 1.16742 0.842519 0.379533 0.136866 0.128574 0.18002 0.26971
threshold=22.500000000000004 19.500000000000004 17.500000000000004 1.0000000180025095e-35 16.500000000000004 14.500000000000002 1.0000000180025095e-35 11.500000000000002
decision_type=2 2 2 2 2 2 2 2
left_child=1 2 4 -2 5 6 7 -1
right_child=3 -3 -4 -5 -6 -7 -8 -9
leaf_value=-0.0058653377399251272 -0.00037149228776494665 -0.020007871952839196 0.012522261468288692 0.014355226960920155 0.0037498393357964233 -0.0079954946517116487 -0.0063396221716079462 0.0050987972534800828
leaf_weight=37 30 32 46 42 32 45 57 57
leaf_count=37 30 32 46 42 32 45 57 57
internal_value=0 -0.0019339 0.000176924 0.00821909 -0.0023138 -0.00330378 -0.00190559 0.000783127
internal_weight=0 306 274 72 228 196 151 94
internal_count=378 306 274 72 228 196 151 94
is_linear=0
shrinkage=0.1


Tree=34
num_leaves=10
num_cat=0
split_feature=2 3 3 1 1 1 1 1 1
split_gain=0.442067 0.291763 0.536571 0.450056 0.282091 0.592021 0.196124 0.166707 0.0888523
threshold=15.500000000000002 10.500000000000002 12.500000000000002 1.5000000000000002 1.5000000000000002 7.5000000000000009 3.5000000000000004 2.5000000000000004 1.5000000000000002
decision_type=2 2 2 2 2 2 2 2 2
left_child=1 8 3 -3 -4 6 -6 -2 -1
right_child=7 2 4 -5 5 -7 -8 -9 -10
leaf_value=-0.0039996027597226204 0.0023650666667769352 0.00055498319519002267 -0.0085682570330514497 0.016672937031835318 0.00074245001860829283 -0.0090122916398847359 0.010905805405448466 0.012741227205970063 -0.011574809254767995
leaf_weight=32 30 41 59 30 43 47 34 32 30
leaf_count=32 30 41 59 30 43 47 34 32 30
internal_value=0 -0.00151478 -1.35422e-05 0.00736539 -0.00287641 -0.000168185 0.00523017 0.0077205 -0.00766503
internal_weight=0 316 254 71 183 124 77 62 62
internal_count=378 316 254 71 183 124 77 62 62
is_linear=0
shrinkage=0.1


Tree=35
num_leaves=8
num_cat=0
split_feature=2 3 3 4 4 2 5
split_gain=0.358074 0.236328 0.434623 0.265033 0.0546234 0.0320361 0.0482714
threshold=15.500000000000002 10.500000000000002 12.500000000000002 1.0000000180025095e-35 -1.0000000180025095e-35 11.500000000000002 0.069047619047619066
decision_type=2 2 2 2 2 2 2
left_child=1 -1 4 5 -3 -4 -7
right_child=-2 2 3 -5 -6 6 -8
leaf_value=-0.0068985225392445438 0.0069484538593960381 0.00944189835871969 -0.0074242500426741883 0.0024186758173337739 0.0038939381742642987 -0.0069523371095138219 -0.0015690138149592613
leaf_weight=62 62 35 49 67 36 31 36
leaf_count=62 62 35 49 67 36 31 36
internal_value=0 -0.0013633 -1.21878e-05 -0.00258876 0.00662885 -0.00548099 -0.00405981
internal_weight=0 316 254 183 71 116 67
internal_count=378 316 254 183 71 116 67
is_linear=0
shrinkage=0.1


end of trees

feature_importances:
Column_1=67
Column_0=60
Column_2=54
Column_6=47
Column_3=36
Column_4=21
Column_5=21

parameters:
[boosting: gbdt]
[objective: regression]
[metric: l2]
[tree_learner: serial]
[device_type: cpu]
[data: ]
[valid: ]
[num_iterations: 10000]
[learning_rate: 0.1]
[num_leaves: 95]
[num_threads: 0]
[deterministic: 0]
[force_col_wise: 0]
[force_row_wise: 0]
[histogram_pool_size: -1]
[max_depth: -1]
[min_data_in_leaf: 30]
[min_sum_hessian_in_leaf: 0.001]
[bagging_fraction: 1]
[pos_bagging_fraction: 1]
[neg_bagging_fraction: 1]
[bagging_freq: 0]
[bagging_seed: 21187]
[feature_fraction: 0.5]
[feature_fraction_bynode: 1]
[feature_fraction_seed: 30770]
[extra_trees: 0]
[extra_seed: 27351]
[early_stopping_round: 0]
[first_metric_only: 0]
[max_delta_step: 0]
[lambda_l1: 0]
[lambda_l2: 0]
[linear_lambda: 0]
[min_gain_to_split: 0]
[drop_rate: 0.1]
[max_drop: 50]
[skip_drop: 0.5]
[xgboost_dart_mode: 0]
[uniform_drop: 0]
[drop_seed: 3778]
[top_rate: 0.2]
[other_rate: 0.1]
[min_data_per_group: 100]
[max_cat_threshold: 32]
[cat_l2: 10]
[cat_smooth: 10]
[max_cat_to_onehot: 4]
[top_k: 20]
[monotone_constraints: ]
[monotone_constraints_method: basic]
[monotone_penalty: 0]
[feature_contri: ]
[forcedsplits_filename: ]
[refit_decay_rate: 0.9]
[cegb_tradeoff: 1]
[cegb_penalty_split: 0]
[cegb_penalty_feature_lazy: ]
[cegb_penalty_feature_coupled: ]
[path_smooth: 0]
[interaction_constraints: ]
[verbosity: -1]
[saved_feature_importance_type: 0]
[linear_tree: 0]
[max_bin: 255]
[max_bin_by_feature: ]
[min_data_in_bin: 3]
[bin_construct_sample_cnt: 200000]
[data_random_seed: 4084]
[is_enable_sparse: 1]
[enable_bundle: 1]
[use_missing: 1]
[zero_as_missing: 0]
[feature_pre_filter: 1]
[pre_partition: 0]
[two_round: 0]
[header: 0]
[label_column: ]
[weight_column: ]
[group_column: ]
[ignore_column: ]
[categorical_feature: ]
[forcedbins_filename: ]
[precise_float_parser: 0]
[parser_config_file: ]
[objective_seed: 9093]
[num_class: 1]
[is_unbalance: 0]
[scale_pos_weight: 1]
[sigmoid: 1]
[boost_from_average: 1]
[reg_sqrt: 0]
[alpha: 0.9]
[fair_c: 1]
[poisson_max_delta_step: 0.7]
[tweedie_variance_power: 1.5]
[lambdarank_truncation_level: 30]
[lambdarank_norm: 1]
[label_gain: ]
[eval_at: ]
[multi_error_top_k: 1]
[auc_mu_weights: ]
[num_machines: 1]
[local_listen_port: 12400]
[time_out: 120]
[machine_list_filename: ]
[machines: ]
[gpu_platform_id: -1]
[gpu_device_id: -1]
[gpu_use_dp: 0]
[num_gpu: 1]

end of parameters

pandas_categorical:null
