tree
version=v4
num_class=1
num_tree_per_iteration=1
label_index=0
max_feature_idx=82
objective=regression
feature_names=Column_0 Column_1 Column_2 Column_3 Column_4 Column_5 Column_6 Column_7 Column_8 Column_9 Column_10 Column_11 Column_12 Column_13 Column_14 Column_15 Column_16 Column_17 Column_18 Column_19 Column_20 Column_21 Column_22 Column_23 Column_24 Column_25 Column_26 Column_27 Column_28 Column_29 Column_30 Column_31 Column_32 Column_33 Column_34 Column_35 Column_36 Column_37 Column_38 Column_39 Column_40 Column_41 Column_42 Column_43 Column_44 Column_45 Column_46 Column_47 Column_48 Column_49 Column_50 Column_51 Column_52 Column_53 Column_54 Column_55 Column_56 Column_57 Column_58 Column_59 Column_60 Column_61 Column_62 Column_63 Column_64 Column_65 Column_66 Column_67 Column_68 Column_69 Column_70 Column_71 Column_72 Column_73 Column_74 Column_75 Column_76 Column_77 Column_78 Column_79 Column_80 Column_81 Column_82
feature_infos=[0:18] [1:51] [0:1] [0:1] [0:44] [2.5648330432542319:13.938128440977062] [2.4984564781188965:14.572712182998657] [2.5594561100006104:14.254879236221313] [2.4507160186767578:14.127846956253052] [2.4007439613342285:14.681843996047974] [2.5229709148406982:14.059770822525024] [2.5280747413635254:14.223459482192993] [2.3031110763549805:14.755701303482056] [2.4556503295898438:14.013845682144165] [2.4215567111968994:13.919450998306274] [2.4667081832885742:13.930566072463989] [2.4127269678229801:13.856026420281468] [2.4127269678229801:13.856026420281468] [2.4127269678229801:13.856026420281468] [2.4568846823521273:14.085256219990022] [2.4568846823521273:14.085256219990022] [2.4568846823521273:14.085256219990022] [2.6250637387141071:14.05574585244854] [2.6250637387141071:14.05574585244854] [2.6250637387141071:14.05574585244854] [2.3525176797691194:14.225534722304507] [2.633382807085844:15.020488211158384] [2.7142752345290924:13.389684138028267] [2.820884064416155:12.901126758504679] [2.9355120691665397:12.004275470662995] [2.6676269166141928:13.647909674657356] [2.597762751186024:13.528715998005348] [2.3686246303909564:16.627437949553396] [2.1170227963256933:14.21739234501751] [2.8692949370649172:12.553260630491504] [3.0122404228939343:12.319559303015279] [2.275001759929232:17.460996421608915] [2.98438852866059:12.76916791555924] [2.4841560034257251:16.516631494545283] [2.8900001049041744:11.880954224901815] [2.8145277334770378:12.344708968467222] [3.030490490495954:15.399514334731066] [2.9829843034714689:12.073086232259458] [2.9729267720513231:11.52770423118405] [2.9535270233888271:11.755588067530448] [2.0110188783217717:16.852060969513342] [2.9386567230881235:12.680855657257473] [2.9149933101290122:12.464392848369426] [2.8723653034715979:11.421750594834165] [1.8140263532135141:16.699058773911631] [2.638571466718401:15.528571265084404] [2.638571466718401:15.528571265084404] [2.638571466718401:15.528571265084404] [3.0673180196118377:12.245734370865687] [2.5590723633484824:19.232607363938957] [1.6335023732259217:15.872961668346949] [2.4734178307681867:16.311569320157744] [1.5:17.053765307683275] [1.5:17.053765307683275] [2.344134525174046:18.372655573853478] [2.478000020980835:17.575999832153322] [2.3187803064567198:21.708396290462701] [1.3654486575207565:13.560217976076071] [2.1899999777475991:20.219999949137371] [4.0038125209510325:13.679545359178023] [4.0038125209510325:13.679545359178023] [1.5:21.293823922385474] [3.2553846377592821:16.954999764760334] [3.2553846377592821:16.954999764760334] [2.9543333609898883:20.683333079020183] [2.9543333609898883:20.683333079020183] [2.9543333609898883:20.683333079020183] [2.9543333609898883:20.683333079020183] [-1:18] [0:19] [1:19] [-1:1] [0:0.20000000000000001] [0:18] [0:18] [0:56] [0:47] [0:1]
tree_sizes=968 878 878 881 964

Tree=0
num_leaves=10
num_cat=0
split_feature=46 6 37 16 44 69 26 14 59
split_gain=157.557 29.4456 22.9175 6.29602 4.06029 3.19007 4.28743 1.48443 1.43393
threshold=6.1567072380612737 4.2101099491119394 8.1488859803051064 6.7222214759982144 3.6909104627625382 5.3405588449216372 4.9141820426611291 3.9284505844116215 3.6151192156684613
decision_type=2 2 2 2 2 2 2 2 2
left_child=1 4 3 -2 8 6 -3 -6 -1
right_child=2 5 -4 -5 7 -7 -8 -9 -10
leaf_value=-0.1556764211031367 0.056290091838929114 -0.036869990336035677 0.30755526793630372 0.17130459272521023 -0.089855499957566115 -0.063403797267798212 0.055759540534222725 -0.14848908572646888 -0.21252736933398794
leaf_weight=36 32 41 42 47 39 36 39 31 35
leaf_count=36 32 41 42 47 39 36 39 31 35
internal_value=1.28919e-09 -0.0885989 0.188181 0.124716 -0.150002 -0.0139619 0.00828691 -0.115822 -0.183702
internal_weight=0 257 121 79 141 116 80 70 71
internal_count=378 257 121 79 141 116 80 70 71
is_linear=0
shrinkage=1


Tree=1
num_leaves=9
num_cat=0
split_feature=46 5 5 48 46 69 48 32
split_gain=100.836 19.4016 17.9786 2.78406 2.77441 2.23418 2.48903 1.86754
threshold=6.1567072380612737 4.2825735009108294 7.7578892981553222 6.0917239383830912 3.5652721163065486 5.3405588449216372 4.8211607096643929 3.7382986649109777
decision_type=2 2 2 2 2 2 2 2
left_child=1 4 3 -2 -1 6 -3 -6
right_child=2 5 -4 -5 7 -7 -8 -9
leaf_value=-0.15617209936563786 0.032478800068298973 -0.021109788322990593 0.23089221607379873 0.11666131140382002 -0.06657014543690333 -0.051138282364563026 0.050939006654216967 -0.12365393645416659
leaf_weight=52 30 44 58 33 41 34 34 52
leaf_count=52 30 44 58 33 41 34 34 52
internal_value=0 -0.0708791 0.150545 0.0765744 -0.119175 -0.00835363 0.0102961 -0.098488
internal_weight=0 257 121 63 145 112 78 93
internal_count=378 257 121 63 145 112 78 93
is_linear=0
shrinkage=0.2


Tree=2
num_leaves=9
num_cat=0
split_feature=7 29 5 29 29 43 19 63
split_gain=66.8134 16.6722 7.9103 3.33853 2.32108 2.96336 0.923188 0.896476
threshold=5.3798372745513925 8.3932010288298109 3.9927875926658039 6.8693297776140243 4.2648699109690069 4.797458383850115 3.5494820037298229 6.5183332761128758
decision_type=2 2 2 2 2 2 2 2
left_child=2 3 6 7 -4 -6 -1 -2
right_child=1 -3 4 -5 5 -7 -8 -9
leaf_value=-0.1263852022588253 0.051972829699516304 0.20299471636613209 -0.079833319211999584 0.10068254022548595 0.021105713852096437 -0.056096945541935998 -0.090063581453113439 0.0052685719824606377
leaf_weight=55 35 45 30 45 43 37 57 31
leaf_count=55 35 45 30 45 43 37 57 31
internal_value=0 0.100307 -0.0704858 0.0586765 -0.0323913 -0.0146005 -0.1079 0.030036
internal_weight=0 156 222 111 110 80 112 66
internal_count=378 156 222 111 110 80 112 66
is_linear=0
shrinkage=0.2


Tree=3
num_leaves=9
num_cat=0
split_feature=40 25 29 67 60 48 62 54
split_gain=46.137 9.12548 7.75085 2.83256 2.8898 1.36589 1.29604 1.73886
threshold=6.1618007280695988 4.2067453595630395 8.3932010288298109 4.7325973857654065 5.2020000219345102 6.5645626354689215 3.6081005100105537 3.7701280463429883
decision_type=2 2 2 2 2 2 2 2
left_child=1 6 5 -3 -5 -2 -1 -8
right_child=2 3 -4 4 -6 -7 7 -9
leaf_value=-0.10856219774040465 0.038346734293107247 0.038391701817615996 0.17237001735240567 -0.070261886750200869 0.000694821184051448 0.093066877147389787 -0.031030413171937388 -0.092051481915281175
leaf_weight=52 37 36 43 38 58 36 31 47
leaf_count=52 37 36 43 38 58 36 31 47
internal_value=0 -0.0464929 0.10501 -0.00945114 -0.0273922 0.065332 -0.0841046 -0.0677995
internal_weight=0 262 116 132 96 73 130 78
internal_count=378 262 116 132 96 73 130 78
is_linear=0
shrinkage=0.2


Tree=4
num_leaves=10
num_cat=0
split_feature=29 34 30 30 44 48 50 50 44
split_gain=27.5825 8.23321 5.27251 2.06624 2.9618 2.60639 1.80017 2.6771 1.0318
threshold=6.8693297776140243 4.5649557933551099 7.58522394743623 5.195181823485707 5.4092518187765757 4.7265532343329761 3.8121428319386079 3.4085714306150168 3.7487391540442236
decision_type=2 2 2 2 2 2 2 2 2
left_child=1 6 -2 5 -5 -3 7 -1 -8
right_child=2 3 -4 4 -6 -7 8 -9 -10
leaf_value=-0.081731955846771606 0.047271428617338344 -0.0087430538982152944 0.14355985505263444 -0.062003635289147499 0.020093883237300013 0.073950765906803079 -0.11128774899989367 -0.0085595771008067662 -0.063617986014911115
leaf_weight=36 45 30 46 32 39 31 32 45 42
leaf_count=36 45 30 46 32 39 31 32 45 42
internal_value=0 -0.0304215 0.0959447 0.00628581 -0.0169078 0.0332817 -0.0616819 -0.0410806 -0.0842319
internal_weight=0 287 91 132 71 61 155 81 74
internal_count=378 287 91 132 71 61 155 81 74
is_linear=0
shrinkage=0.2


end of trees

feature_importances:
Column_29=5
Column_48=4
Column_5=3
Column_44=3
Column_46=3
Column_30=2
Column_50=2
Column_69=2
Column_6=1
Column_7=1
Column_14=1
Column_16=1
Column_19=1
Column_25=1
Column_26=1
Column_32=1
Column_34=1
Column_37=1
Column_40=1
Column_43=1
Column_54=1
Column_59=1
Column_60=1
Column_62=1
Column_63=1
Column_67=1

parameters:
[boosting: gbdt]
[objective: regression]
[metric: l2]
[tree_learner: serial]
[device_type: cpu]
[data: ]
[valid: ]
[num_iterations: 10000]
[learning_rate: 0.2]
[num_leaves: 31]
[num_threads: 0]
[deterministic: 0]
[force_col_wise: 0]
[force_row_wise: 0]
[histogram_pool_size: -1]
[max_depth: -1]
[min_data_in_leaf: 30]
[min_sum_hessian_in_leaf: 0.001]
[bagging_fraction: 1]
[pos_bagging_fraction: 1]
[neg_bagging_fraction: 1]
[bagging_freq: 0]
[bagging_seed: 21187]
[feature_fraction: 0.5]
[feature_fraction_bynode: 1]
[feature_fraction_seed: 30770]
[extra_trees: 0]
[extra_seed: 27351]
[early_stopping_round: 0]
[first_metric_only: 0]
[max_delta_step: 0]
[lambda_l1: 0]
[lambda_l2: 0]
[linear_lambda: 0]
[min_gain_to_split: 0]
[drop_rate: 0.1]
[max_drop: 50]
[skip_drop: 0.5]
[xgboost_dart_mode: 0]
[uniform_drop: 0]
[drop_seed: 3778]
[top_rate: 0.2]
[other_rate: 0.1]
[min_data_per_group: 100]
[max_cat_threshold: 32]
[cat_l2: 10]
[cat_smooth: 10]
[max_cat_to_onehot: 4]
[top_k: 20]
[monotone_constraints: ]
[monotone_constraints_method: basic]
[monotone_penalty: 0]
[feature_contri: ]
[forcedsplits_filename: ]
[refit_decay_rate: 0.9]
[cegb_tradeoff: 1]
[cegb_penalty_split: 0]
[cegb_penalty_feature_lazy: ]
[cegb_penalty_feature_coupled: ]
[path_smooth: 0]
[interaction_constraints: ]
[verbosity: -1]
[saved_feature_importance_type: 0]
[linear_tree: 0]
[max_bin: 255]
[max_bin_by_feature: ]
[min_data_in_bin: 3]
[bin_construct_sample_cnt: 200000]
[data_random_seed: 4084]
[is_enable_sparse: 1]
[enable_bundle: 1]
[use_missing: 1]
[zero_as_missing: 0]
[feature_pre_filter: 1]
[pre_partition: 0]
[two_round: 0]
[header: 0]
[label_column: ]
[weight_column: ]
[group_column: ]
[ignore_column: ]
[categorical_feature: ]
[forcedbins_filename: ]
[precise_float_parser: 0]
[parser_config_file: ]
[objective_seed: 9093]
[num_class: 1]
[is_unbalance: 0]
[scale_pos_weight: 1]
[sigmoid: 1]
[boost_from_average: 1]
[reg_sqrt: 0]
[alpha: 0.9]
[fair_c: 1]
[poisson_max_delta_step: 0.7]
[tweedie_variance_power: 1.5]
[lambdarank_truncation_level: 30]
[lambdarank_norm: 1]
[label_gain: ]
[eval_at: ]
[multi_error_top_k: 1]
[auc_mu_weights: ]
[num_machines: 1]
[local_listen_port: 12400]
[time_out: 120]
[machine_list_filename: ]
[machines: ]
[gpu_platform_id: -1]
[gpu_device_id: -1]
[gpu_use_dp: 0]
[num_gpu: 1]

end of parameters

pandas_categorical:null
