tree
version=v4
num_class=1
num_tree_per_iteration=1
label_index=0
max_feature_idx=4
objective=regression
feature_names=Column_0 Column_1 Column_2 Column_3 Column_4
feature_infos=[0:18] [1:51] [0:1] [0:1] [0:39]
tree_sizes=1307 1469 1472 1468 1477 1469 1304 1384 1380 1476 1393 1557 1391 1399 1304 1312 1313 1403 1314 1403 1227 1318 1317 1225 1321 1417 1318 1499 1321 1404 1413 1409 1490 1238 1417 1243 1240 1325 1424 1323 1420 1240 1242 1424 1415 1428 1408 1433 1419 1432 1428 1420 1331 1434 1517 1346 1520 1344 1520 1340 1519 1340 1525 1342 1522 1335 1437 1432 1335

Tree=0
num_leaves=14
num_cat=0
split_feature=0 4 3 0 1 4 3 1 0 4 1 1 4
split_gain=63.6201 47.4202 20.3204 17.3371 11.3077 10.1882 6.29775 5.37287 2.87777 2.68737 1.85888 1.27444 1.13512
threshold=15.500000000000002 2.5000000000000004 1.0000000180025095e-35 10.500000000000002 7.5000000000000009 10.500000000000002 1.0000000180025095e-35 6.5000000000000009 11.500000000000002 6.5000000000000009 21.500000000000004 18.500000000000004 1.0000000180025095e-35
decision_type=2 2 2 2 2 2 2 2 2 2 2 2 2
left_child=1 6 3 -3 -2 11 7 -1 -8 -6 -4 -5 -10
right_child=4 2 10 5 9 -7 8 -9 12 -11 -12 -13 -14
leaf_value=-0.031910203995587173 0.01480728805925027 -0.010048661098679671 -0.001169794303641289 0.01682351328826771 0.047520448373403974 0.068109931944662944 -0.049517691031909221 -0.0032596406590922802 -0.024992206330929575 0.072526626883376133 -0.017585016077965813 0.034673173599161965 -0.038259778101312578
leaf_weight=30 20 23 34 20 21 22 29 36 38 22 35 20 28
leaf_count=30 20 23 34 20 21 22 29 36 38 22 35 20 28
internal_value=4.00863e-09 -0.00917352 0.0106622 0.0270263 0.0458676 0.0407799 -0.0281469 -0.0162826 -0.0363894 0.0603143 -0.00949636 0.0257483 -0.0306209
internal_weight=0 315 154 85 63 62 161 66 95 43 69 40 66
internal_count=378 315 154 85 63 62 161 66 95 43 69 40 66
is_linear=0
shrinkage=1


Tree=1
num_leaves=16
num_cat=0
split_feature=0 4 3 0 1 4 3 1 1 4 2 4 1 1 1
split_gain=57.4171 42.7967 18.3391 15.6467 10.2052 9.19481 5.68372 4.84901 2.78337 2.42536 1.84924 1.93512 1.15018 0.534176 0.251401
threshold=15.500000000000002 2.5000000000000004 1.0000000180025095e-35 10.500000000000002 7.5000000000000009 10.500000000000002 1.0000000180025095e-35 6.5000000000000009 3.5000000000000004 6.5000000000000009 1.0000000180025095e-35 6.5000000000000009 18.500000000000004 10.500000000000002 18.500000000000004
decision_type=2 2 2 2 2 2 2 2 2 2 2 2 2 2 2
left_child=1 6 3 -3 -2 12 7 -1 -8 -6 -4 -12 -5 -10 -15
right_child=4 2 10 5 9 -7 8 -9 13 -11 11 -13 -14 14 -16
leaf_value=-0.030314698560008159 0.014066919260658324 -0.0095462321668215427 0.0029425596310333774 0.015982333580031993 0.045144422565187727 0.064704429832371804 -0.048151994841518227 -0.0030966621668388448 -0.022768979892134666 0.06890029135075483 -0.0051043941676616675 -0.025436947647143493 0.032939510345458986 -0.036102464693513789 -0.028702743914133563
leaf_weight=30 20 23 22 20 21 22 27 36 22 22 25 22 20 22 24
leaf_count=30 20 23 22 20 21 22 27 36 22 22 25 22 20 22 24
internal_value=0 -0.00871485 0.0101291 0.025675 0.0435742 0.0387409 -0.0267395 -0.0154685 -0.0345699 0.0572986 -0.00902154 -0.0146218 0.0244609 -0.029177 -0.0322417
internal_weight=0 315 154 85 63 62 161 66 95 43 69 47 40 68 46
internal_count=378 315 154 85 63 62 161 66 95 43 69 47 40 68 46
is_linear=0
shrinkage=0.05


Tree=2
num_leaves=16
num_cat=0
split_feature=0 4 3 0 1 4 0 3 4 1 1 2 4 1 4
split_gain=51.819 38.624 16.5511 14.1212 9.2102 8.29831 5.53741 4.42176 2.18888 1.82989 1.68987 1.66894 1.74645 1.03804 1.00809
threshold=15.500000000000002 2.5000000000000004 1.0000000180025095e-35 10.500000000000002 7.5000000000000009 10.500000000000002 11.500000000000002 1.0000000180025095e-35 6.5000000000000009 8.5000000000000018 7.5000000000000009 1.0000000180025095e-35 6.5000000000000009 18.500000000000004 1.0000000180025095e-35
decision_type=2 2 2 2 2 2 2 2 2 2 2 2 2 2 2
left_child=1 6 3 -3 -2 13 9 10 -6 -1 -8 -4 -13 -5 -9
right_child=4 2 11 5 8 -7 7 14 -10 -11 -12 12 -14 -15 -16
leaf_value=-0.048047032559083575 0.013363573723472655 -0.0090689198397423919 0.0027954315597360784 0.015183217022567988 0.042887200344176521 0.061469209058718249 -0.017926257047802211 -0.022114914957139839 0.065455278889699417 -0.028854985195009605 0.0015729662254452704 -0.004849174857139588 -0.02416510070589456 0.031292535886168482 -0.034618102958691971
leaf_weight=27 20 23 22 20 21 22 20 38 22 23 25 25 22 20 28
leaf_count=27 20 23 22 20 21 22 20 38 22 23 25 25 22 20 28
internal_value=0 -0.00827911 0.00962266 0.0243912 0.0413955 0.0368038 -0.0254025 -0.0191791 0.0544337 -0.0392187 -0.00709336 -0.00857047 -0.0138907 0.0232379 -0.0274193
internal_weight=0 315 154 85 63 62 161 111 43 50 45 69 47 40 66
internal_count=378 315 154 85 63 62 161 111 43 50 45 69 47 40 66
is_linear=0
shrinkage=0.05


Tree=3
num_leaves=16
num_cat=0
split_feature=0 4 3 0 1 4 0 3 4 1 1 1 1 1 1
split_gain=46.7666 34.8582 14.9373 12.7443 8.31221 7.48923 4.99752 3.99064 1.97547 1.65147 1.54418 1.5251 0.945267 0.936832 0.267357
threshold=15.500000000000002 2.5000000000000004 1.0000000180025095e-35 10.500000000000002 7.5000000000000009 10.500000000000002 11.500000000000002 1.0000000180025095e-35 6.5000000000000009 8.5000000000000018 21.500000000000004 7.5000000000000009 5.5000000000000009 18.500000000000004 16.500000000000004
decision_type=2 2 2 2 2 2 2 2 2 2 2 2 2 2 2
left_child=1 6 3 -3 -2 13 9 11 -6 -1 -4 -8 -9 -5 -14
right_child=4 2 10 5 8 -7 7 12 -10 -11 -12 -13 14 -15 -16
leaf_value=-0.045644681210871098 0.012695395327173174 -0.008615474491987539 -0.00055285564021152615 0.01442405626177788 0.040742840511458267 0.058395749669183386 -0.017029944863170384 -0.034510668367147446 0.062182511727918277 -0.027412236741055612 -0.015514197285686222 0.0014943178966641427 -0.018259224194722871 0.029727908878121524 -0.026086694882251321
leaf_weight=27 20 23 34 20 21 22 20 22 22 23 35 25 24 20 20
leaf_count=27 20 23 34 20 21 22 20 22 22 23 35 25 24 20 20
internal_value=0 -0.00786515 0.00914153 0.0231716 0.0393258 0.0349636 -0.0241324 -0.0182201 0.051712 -0.0372578 -0.00814194 -0.00673869 -0.0260483 0.022076 -0.0218172
internal_weight=0 315 154 85 63 62 161 111 43 50 69 45 66 40 44
internal_count=378 315 154 85 63 62 161 111 43 50 69 45 66 40 44
is_linear=0
shrinkage=0.05


Tree=4
num_leaves=16
num_cat=0
split_feature=0 4 3 0 1 4 0 3 4 2 4 1 1 4 1
split_gain=42.2069 31.4595 13.4809 11.5018 7.50177 6.75903 4.51026 3.60155 1.78286 1.51421 1.50845 1.49045 1.37641 0.902751 0.84549
threshold=15.500000000000002 2.5000000000000004 1.0000000180025095e-35 10.500000000000002 7.5000000000000009 10.500000000000002 11.500000000000002 1.0000000180025095e-35 6.5000000000000009 1.0000000180025095e-35 6.5000000000000009 8.5000000000000018 7.5000000000000009 1.0000000180025095e-35 18.500000000000004
decision_type=2 2 2 2 2 2 2 2 2 2 2 2 2 2 2
left_child=1 6 3 -3 -2 14 11 12 -6 -4 -11 -1 -8 -9 -5
right_child=4 2 9 5 8 -7 7 13 -10 10 -12 -13 -14 -15 -16
leaf_value=-0.04336244643286423 0.012060624649748206 -0.0081847005118818386 0.0030913392589850862 0.013702853538561613 0.038705699358667647 0.055475960875099352 -0.016178447771817445 -0.019726313850352249 0.059073388779705222 -0.0043995375335216524 -0.022351151129061525 -0.026041625206277747 0.0014196018651127817 -0.031558233798880668 0.028241513050161305
leaf_weight=27 20 23 22 20 21 22 20 38 22 25 22 23 25 28 20
leaf_count=27 20 23 22 20 21 22 20 38 22 25 22 23 25 28 20
internal_value=0 -0.00747189 0.00868445 0.0220131 0.0373595 0.0332155 -0.0229258 -0.0173091 0.0491264 -0.00773484 -0.0128024 -0.0353949 -0.00640175 -0.0247459 0.0209722
internal_weight=0 315 154 85 63 62 161 111 43 69 47 50 45 66 40
internal_count=378 315 154 85 63 62 161 111 43 69 47 50 45 66 40
is_linear=0
shrinkage=0.05


Tree=5
num_leaves=16
num_cat=0
split_feature=0 4 3 0 1 4 3 1 0 4 2 1 1 1 1
split_gain=38.0917 28.3922 12.1665 10.3803 6.77034 6.10002 4.10734 3.3423 2.09975 1.60903 1.36657 1.36744 0.849303 0.763055 0.238419
threshold=15.500000000000002 2.5000000000000004 1.0000000180025095e-35 10.500000000000002 7.5000000000000009 10.500000000000002 1.0000000180025095e-35 6.5000000000000009 11.500000000000002 6.5000000000000009 1.0000000180025095e-35 21.500000000000004 5.5000000000000009 18.500000000000004 16.500000000000004
decision_type=2 2 2 2 2 2 2 2 2 2 2 2 2 2 2
left_child=1 6 3 -3 -2 13 7 -1 -8 -6 -4 -12 -10 -5 -14
right_child=4 2 10 5 9 -7 8 -9 12 -11 11 -13 14 -15 -16
leaf_value=-0.024523839801549915 0.011457594148814679 -0.0077754655974390718 0.0029367723586884412 0.013017710837593769 0.036770413319269821 0.052702163227579812 -0.039650137928025478 -0.0019267227190236252 -0.031529911757785488 0.056119717589833522 -0.0038133138325065377 -0.020874283851488776 -0.016138098158019906 0.026829437222331765 -0.023529825433215593
leaf_weight=30 20 23 22 20 21 22 29 36 22 22 24 23 24 20 20
leaf_count=30 20 23 22 20 21 22 29 36 22 22 24 23 24 20 20
internal_value=0 -0.0070983 0.00825023 0.0209124 0.0354915 0.0315547 -0.0217795 -0.0121981 -0.028436 0.0466701 -0.0073481 -0.0121623 -0.0235086 0.0199236 -0.019498
internal_weight=0 315 154 85 63 62 161 66 95 43 69 47 66 40 44
internal_count=378 315 154 85 63 62 161 66 95 43 69 47 66 40 44
is_linear=0
shrinkage=0.05


Tree=6
num_leaves=14
num_cat=0
split_feature=0 4 3 0 1 4 0 3 4 1 1 1 4
split_gain=34.3778 25.624 10.9803 9.38126 6.11024 3.87074 3.81852 3.02066 1.45215 1.28022 1.23564 1.09569 0.80842
threshold=15.500000000000002 2.5000000000000004 1.0000000180025095e-35 11.500000000000002 7.5000000000000009 10.500000000000002 11.500000000000002 1.0000000180025095e-35 6.5000000000000009 8.5000000000000018 21.500000000000004 7.5000000000000009 1.0000000180025095e-35
decision_type=2 2 2 2 2 2 2 2 2 2 2 2 2
left_child=1 6 3 -3 -2 -5 9 11 -6 -1 -4 -8 -9
right_child=4 2 10 5 8 -7 7 12 -10 -11 -12 -13 -14
leaf_value=-0.03954795692805891 0.010884714303538205 -0.003833276864939502 -0.00019199934733264587 0.021557435623577072 0.034931893912809237 0.048568626298081313 -0.014256319068372251 -0.017583079353942977 0.053313732790676027 -0.023495103378334773 -0.01357543343944209 0.001444957748055458 -0.028779767795432627
leaf_weight=27 20 28 34 36 21 21 20 38 22 23 35 25 28
leaf_count=27 20 28 34 36 21 21 20 38 22 23 35 25 28
internal_value=0 -0.00674338 0.00783772 0.0198668 0.0337169 0.0315089 -0.0206905 -0.0155225 0.0443366 -0.0321636 -0.0069807 -0.00553339 -0.0223332
internal_weight=0 315 154 85 63 57 161 111 43 50 69 45 66
internal_count=378 315 154 85 63 57 161 111 43 50 69 45 66
is_linear=0
shrinkage=0.05


Tree=7
num_leaves=15
num_cat=0
split_feature=0 4 4 3 0 0 3 1 1 1 1 1 4 1
split_gain=31.2963 16.352 13.8996 6.55397 6.31062 5.47088 3.55153 4.05687 2.11169 1.73594 1.24997 1.21064 0.700971 0.367423
threshold=13.500000000000002 2.5000000000000004 4.5000000000000009 1.0000000180025095e-35 10.500000000000002 15.500000000000002 1.0000000180025095e-35 6.5000000000000009 7.5000000000000009 20.500000000000004 3.5000000000000004 20.500000000000004 10.500000000000002 13.500000000000002
decision_type=2 2 2 2 2 2 2 2 2 2 2 2 2 2
left_child=1 6 5 4 -3 -2 7 -1 -7 -6 -8 -5 -4 -12
right_child=2 3 12 11 9 8 10 -9 -10 -11 13 -13 -14 -15
leaf_value=-0.026713001138220234 -0.0044890790652388178 -0.0071950281848726068 0.038336547517350744 -0.0010095135153581701 0.01424429329461418 0.010340478643774987 -0.037680152264268449 0.0010776467364409874 0.033317017229273917 0.034189722547307615 -0.01938670985400677 -0.016075878503421941 0.051415933873504405 -0.027373496672286519
leaf_weight=24 39 23 21 24 20 20 24 29 20 24 24 30 20 36
leaf_count=24 39 23 21 24 20 20 24 29 20 24 24 30 20 36
internal_value=0 -0.00981187 0.0210955 0.00358222 0.0140292 0.0088364 -0.0216417 -0.0115068 0.0218287 0.0251236 -0.0280363 -0.00937972 0.0447167 -0.0241788
internal_weight=0 258 120 121 67 79 137 53 40 44 84 54 41 60
internal_count=378 258 120 121 67 79 137 53 40 44 84 54 41 60
is_linear=0
shrinkage=0.05


Tree=8
num_leaves=15
num_cat=0
split_feature=0 4 4 3 0 0 3 1 1 1 1 1 4 1
split_gain=28.245 14.7577 12.5444 5.91495 5.69533 4.93747 3.20525 3.66132 1.9058 1.56669 1.1281 1.0926 0.632627 0.3316
threshold=13.500000000000002 2.5000000000000004 4.5000000000000009 1.0000000180025095e-35 10.500000000000002 15.500000000000002 1.0000000180025095e-35 6.5000000000000009 7.5000000000000009 20.500000000000004 3.5000000000000004 20.500000000000004 10.500000000000002 13.500000000000002
decision_type=2 2 2 2 2 2 2 2 2 2 2 2 2 2
left_child=1 6 5 4 -3 -2 7 -1 -7 -6 -8 -5 -4 -12
right_child=2 3 12 11 9 8 10 -9 -10 -11 13 -13 -14 -15
leaf_value=-0.02537735076621175 -0.0042646249135335291 -0.006835277005017776 0.036419720025289627 -0.00095903777206937473 0.013532078876160087 0.0098234542459249494 -0.035796144907362763 0.0010237641632556917 0.03165116510819644 0.032480236499880751 -0.01841737429300944 -0.015272084089616937 0.048845137413591144 -0.026004822001171608
leaf_weight=24 39 23 21 24 20 20 24 29 20 24 24 30 20 36
leaf_count=24 39 23 21 24 20 20 24 29 20 24 24 30 20 36
internal_value=0 -0.00932127 0.0200407 0.00340311 0.0133277 0.00839458 -0.0205596 -0.0109315 0.0207373 0.0238674 -0.0266345 -0.00891073 0.0424809 -0.0229698
internal_weight=0 258 120 121 67 79 137 53 40 44 84 54 41 60
internal_count=378 258 120 121 67 79 137 53 40 44 84 54 41 60
is_linear=0
shrinkage=0.05


Tree=9
num_leaves=16
num_cat=0
split_feature=0 4 3 0 1 0 4 3 2 4 4 1 1 1 1
split_gain=25.7013 18.8569 8.18777 7.03089 4.60481 3.17292 3.11883 2.23992 1.25281 1.24312 1.17472 0.936763 0.783768 0.710707 0.179271
threshold=15.500000000000002 2.5000000000000004 1.0000000180025095e-35 11.500000000000002 7.5000000000000009 11.500000000000002 10.500000000000002 1.0000000180025095e-35 1.0000000180025095e-35 6.5000000000000009 6.5000000000000009 8.5000000000000018 7.5000000000000009 5.5000000000000009 16.500000000000004
decision_type=2 2 2 2 2 2 2 2 2 2 2 2 2 2 2
left_child=1 5 3 -3 -2 11 -5 12 -4 -10 -6 -1 -7 -9 -15
right_child=4 2 8 6 10 7 -8 13 9 -11 -12 -13 -14 14 -16
leaf_value=-0.03457016718608362 0.0093322816491127024 -0.0034522775119902303 0.0037291789935393772 0.01821117748202394 0.029913584306736348 -0.011859993226826191 0.042457303307240922 -0.026286827091296969 -0.0030996072590351105 -0.019396123323928229 0.046446507965976547 -0.020838476101989332 0.0014196103289723398 -0.012366859366496404 -0.018776462720707061
leaf_weight=27 20 28 22 36 21 20 21 22 25 22 22 23 25 24 20
leaf_count=27 20 28 22 36 21 20 21 22 25 22 22 23 25 24 20
internal_value=0 -0.00583065 0.00667779 0.0170652 0.0291532 -0.0177952 0.027144 -0.0130843 -0.0061183 -0.0107278 0.0383723 -0.0282536 -0.00448244 -0.0189492 -0.0152803
internal_weight=0 315 154 85 63 161 57 111 69 47 43 50 45 66 44
internal_count=378 315 154 85 63 161 57 111 69 47 43 50 45 66 44
is_linear=0
shrinkage=0.05


Tree=10
num_leaves=15
num_cat=0
split_feature=0 4 4 3 0 0 3 1 1 1 0 1 4 4
split_gain=23.2784 11.9807 10.3366 4.8465 4.69519 3.99139 2.74124 3.0953 1.5535 1.37744 1.01014 0.945054 0.570316 0.488324
threshold=13.500000000000002 2.5000000000000004 4.5000000000000009 1.0000000180025095e-35 10.500000000000002 15.500000000000002 1.0000000180025095e-35 7.5000000000000009 7.5000000000000009 20.500000000000004 11.500000000000002 20.500000000000004 10.500000000000002 1.0000000180025095e-35
decision_type=2 2 2 2 2 2 2 2 2 2 2 2 2 2
left_child=1 6 5 4 -3 -2 7 -1 -7 -6 -8 -5 -4 -12
right_child=2 3 12 11 9 8 10 -9 -10 -11 13 -13 -14 -15
leaf_value=-0.021997477665830118 -0.0037600210402160884 -0.0063208990851822107 0.032808675228928524 -0.00074834067684908709 0.011864930563606322 0.0088656672928482307 -0.031757038009577784 0.0021733077311957326 0.028572928701760248 0.029631828067067545 -0.016079227425037854 -0.014059900281329949 0.044606317766010761 -0.025579123141748525
leaf_weight=26 39 23 21 24 20 20 29 27 20 24 31 30 20 24
leaf_count=26 39 23 21 24 20 20 29 27 20 24 31 30 20 24
internal_value=0 -0.00846217 0.0181937 0.00300268 0.0119863 0.00762191 -0.0185881 -0.00968406 0.0187193 0.021556 -0.0242061 -0.00814365 0.0385636 -0.0202246
internal_weight=0 258 120 121 67 79 137 53 40 44 84 54 41 55
internal_count=378 258 120 121 67 79 137 53 40 44 84 54 41 55
is_linear=0
shrinkage=0.05


Tree=11
num_leaves=17
num_cat=0
split_feature=0 4 3 0 4 1 0 3 2 4 4 1 1 1 1 1
split_gain=21.12 15.3678 6.71824 5.78733 3.98088 3.79975 2.66732 1.87117 1.13615 1.12423 1.00474 0.79405 0.652303 0.615044 0.426878 0.156706
threshold=15.500000000000002 2.5000000000000004 1.0000000180025095e-35 10.500000000000002 10.500000000000002 7.5000000000000009 11.500000000000002 1.0000000180025095e-35 1.0000000180025095e-35 6.5000000000000009 6.5000000000000009 5.5000000000000009 5.5000000000000009 7.5000000000000009 18.500000000000004 16.500000000000004
decision_type=2 2 2 2 2 2 2 2 2 2 2 2 2 2 2 2
left_child=1 6 3 -3 14 -2 11 13 -4 -10 -7 -1 -9 -8 -5 -14
right_child=5 2 8 4 -6 10 7 12 9 -11 -12 -13 15 -15 -16 -17
leaf_value=-0.032502498963604805 0.0084223844204097988 -0.0060048544865466012 0.0037932827687737619 0.0088007802190259096 0.040445813621309674 0.026979174323025202 -0.010440681795589627 -0.024157380458729512 -0.0027198840379714967 -0.018217520195652138 0.042269246822053741 -0.019859992243625502 -0.010888883681036533 0.0013230319172143935 0.019131297282874587 -0.016881526109063998
leaf_weight=23 20 23 22 20 22 21 20 22 25 22 22 27 24 25 20 20
leaf_count=23 20 23 22 20 22 21 20 22 25 22 22 27 24 25 20 20
internal_value=0 -0.0052855 0.00600654 0.0154157 0.0233621 0.0264275 -0.0160866 -0.0117672 -0.0055845 -0.0099741 0.034802 -0.0256755 -0.0171277 -0.00390529 0.013966 -0.0136128
internal_weight=0 315 154 85 62 63 161 111 69 47 43 50 66 45 40 44
internal_count=378 315 154 85 62 63 161 111 69 47 43 50 66 45 40 44
is_linear=0
shrinkage=0.05


Tree=12
num_leaves=15
num_cat=0
split_feature=0 4 4 3 0 0 3 1 1 1 0 1 4 4
split_gain=19.1958 9.72042 8.50175 3.96746 3.80258 3.21809 2.35073 2.64189 1.26651 1.16004 0.84726 0.816634 0.50872 0.328886
threshold=13.500000000000002 2.5000000000000004 4.5000000000000009 1.0000000180025095e-35 10.500000000000002 15.500000000000002 1.0000000180025095e-35 5.5000000000000009 7.5000000000000009 20.500000000000004 10.500000000000002 20.500000000000004 10.500000000000002 1.0000000180025095e-35
decision_type=2 2 2 2 2 2 2 2 2 2 2 2 2 2
left_child=1 6 5 4 -3 -2 7 -1 -7 -6 -8 -5 -4 -12
right_child=2 3 12 11 9 8 10 -9 -10 -11 13 -13 -14 -15
leaf_value=-0.021309084592022652 -0.0032863185287286076 -0.0057046122216295615 0.029559844829851675 -0.00056790439411997802 0.010489368468988687 0.008001265572384 -0.029947465534011525 0.0012146895130475364 0.02579532344825566 0.026794024320164075 -0.015703144568750368 -0.012942022557059923 0.040702190566807989 -0.023211836531758311
leaf_weight=23 39 23 21 24 20 20 24 30 20 24 35 30 20 25
leaf_count=23 39 23 21 24 20 20 24 30 20 24 35 30 20 25
internal_value=0 -0.00768436 0.0165214 0.00264254 0.0107707 0.00693374 -0.0168052 -0.00855978 0.0168983 0.0193828 -0.0220077 -0.00744241 0.0349951 -0.0188318
internal_weight=0 258 120 121 67 79 137 53 40 44 84 54 41 60
internal_count=378 258 120 121 67 79 137 53 40 44 84 54 41 60
is_linear=0
shrinkage=0.05


Tree=13
num_leaves=15
num_cat=0
split_feature=0 4 3 0 1 0 4 3 2 4 1 1 1 1
split_gain=17.3593 12.5246 5.51302 4.79263 3.22125 2.2577 2.23024 1.55345 1.03013 1.01557 0.688758 0.598385 0.489563 0.137226
threshold=15.500000000000002 2.5000000000000004 1.0000000180025095e-35 11.500000000000002 9.5000000000000018 11.500000000000002 10.500000000000002 1.0000000180025095e-35 1.0000000180025095e-35 6.5000000000000009 8.5000000000000018 5.5000000000000009 7.5000000000000009 16.500000000000004
decision_type=2 2 2 2 2 2 2 2 2 2 2 2 2 2
left_child=1 5 3 -3 -2 10 -5 12 -4 -10 -1 -9 -7 -13
right_child=4 2 8 6 -6 7 -8 11 9 -11 -12 13 -14 -15
leaf_value=-0.028781024752943602 0.012101454731697839 -0.003013941453874785 0.0038318053268912161 0.014693211444399721 0.034739275366970988 -0.0092361539462581278 0.035196431400254372 -0.022185998129795985 -0.0023828218430280686 -0.017112467780878601 -0.017006518805156585 -0.0095376112498343005 0.0012591596394777298 -0.015145431156270206
leaf_weight=27 30 28 22 36 33 20 21 22 25 22 23 24 25 20
leaf_count=27 30 28 22 36 33 20 21 22 25 22 23 24 25 20
internal_value=0 -0.00479187 0.00540224 0.0139258 0.0239594 -0.0145428 0.022247 -0.0105689 -0.00509776 -0.00927755 -0.0233648 -0.0154531 -0.00340542 -0.0120866
internal_weight=0 315 154 85 63 161 57 111 69 47 50 66 45 44
internal_count=378 315 154 85 63 161 57 111 69 47 50 66 45 44
is_linear=0
shrinkage=0.05


Tree=14
num_leaves=14
num_cat=0
split_feature=0 1 4 3 0 0 4 1 1 1 3 4 1
split_gain=15.8211 7.98153 7.21607 5.78198 3.05922 2.52674 2.11947 1.9294 1.89074 1.02385 0.827755 0.428484 0.179436
threshold=13.500000000000002 6.5000000000000009 4.5000000000000009 1.0000000180025095e-35 10.500000000000002 15.500000000000002 2.5000000000000004 20.500000000000004 22.500000000000004 7.5000000000000009 1.0000000180025095e-35 10.500000000000002 16.500000000000004
decision_type=2 2 2 2 2 2 2 2 2 2 2 2 2
left_child=1 10 5 4 -3 -2 12 -6 -8 -7 -1 -4 -5
right_child=2 3 11 6 7 9 8 -9 -10 -11 -12 -13 -14
leaf_value=-0.015083028349850534 -0.0028899732714471145 -0.0055027282691650818 0.027030386757992565 -0.014079368393868209 0.0047475547130064423 0.0069961292296648022 0.0091454776749014862 0.022534622614001555 -0.011137773312576531 0.022994971740990879 -0.026292017090599987 0.03725635854061693 -0.020021224773868366
leaf_weight=28 39 31 21 24 30 20 20 31 27 20 40 20 27
leaf_count=28 39 31 21 24 30 20 20 31 27 20 40 20 27
internal_value=0 -0.00697627 0.014999 -0.00171512 0.00728712 0.00616599 -0.0101662 0.0137869 -0.0025066 0.0149956 -0.0216766 0.0320187 -0.0172251
internal_weight=0 258 120 190 92 79 98 61 47 40 68 41 51
internal_count=378 258 120 190 92 79 98 61 47 40 68 41 51
is_linear=0
shrinkage=0.05


Tree=15
num_leaves=14
num_cat=0
split_feature=0 4 4 0 3 1 3 1 0 1 4 1 4
split_gain=14.2786 7.22206 6.5125 3.23161 3.77377 2.30898 1.7429 2.03132 0.721923 0.717636 0.386707 0.34523 0.306138
threshold=13.500000000000002 2.5000000000000004 4.5000000000000009 9.5000000000000018 1.0000000180025095e-35 8.5000000000000018 1.0000000180025095e-35 7.5000000000000009 10.500000000000002 20.500000000000004 10.500000000000002 20.500000000000004 1.0000000180025095e-35
decision_type=2 2 2 2 2 2 2 2 2 2 2 2 2
left_child=1 6 5 -3 9 -2 7 -1 -8 -5 -4 -6 -10
right_child=2 3 10 4 11 -7 8 -9 12 -11 -12 -13 -14
leaf_value=-0.017364531587092922 -0.0025828155933413656 -0.014153394801542164 0.025678867256889743 0.0094099960375941642 0.00054380226394404535 0.014514616246406847 -0.026297946910684308 0.0022161812142089564 -0.013018842382090431 0.021428801685019774 0.035393541520461445 -0.008028617144251864 -0.020263200066983702
leaf_weight=26 40 24 21 23 23 39 24 27 35 27 20 24 25
leaf_count=26 40 24 21 23 23 39 24 27 35 27 20 24 25
internal_value=0 -0.00662746 0.014249 0.00227394 0.00633843 0.00585769 -0.0144893 -0.00738945 -0.0189689 0.0159002 0.0304177 -0.0038336 -0.0160373
internal_weight=0 258 120 121 97 79 137 53 84 50 41 47 60
internal_count=378 258 120 121 97 79 137 53 84 50 41 47 60
is_linear=0
shrinkage=0.05


Tree=16
num_leaves=14
num_cat=0
split_feature=0 4 3 0 1 0 1 0 1 0 1 4 1
split_gain=13.3622 9.47736 4.91833 4.64186 2.51439 2.49018 1.61489 1.00045 0.859509 0.673432 0.547145 0.527425 0.374315
threshold=15.500000000000002 3.5000000000000004 1.0000000180025095e-35 11.500000000000002 6.5000000000000009 16.500000000000004 13.500000000000002 10.500000000000002 21.500000000000004 11.500000000000002 20.500000000000004 1.0000000180025095e-35 22.500000000000004
decision_type=2 2 2 2 2 2 2 2 2 2 2 2 2
left_child=1 4 3 -3 9 -2 -6 -8 -5 -1 -4 -11 -9
right_child=5 2 10 8 6 -7 7 12 -10 11 -12 -13 -14
leaf_value=-0.025383761152625084 0.013482889063307087 -0.0027604359909892085 0.00059297828433605348 0.016222681020874354 0.0012528308271430432 0.034130098306290484 -0.020786544764414432 -0.01213533733971417 0.029709955773971699 -0.010641302164919951 -0.0091720520547823991 -0.021206546965099517 -0.0035533844182888668
leaf_weight=25 40 25 26 21 40 23 20 24 27 27 32 21 27
leaf_count=25 40 25 26 21 40 23 20 24 27 27 32 21 27
internal_value=0 -0.00420415 0.0060744 0.0147101 -0.011522 0.0210208 -0.00678205 -0.0113087 0.0238093 -0.0187294 -0.00479462 -0.0152636 -0.00759195
internal_weight=0 315 131 73 184 63 111 71 48 73 58 48 51
internal_count=378 315 131 73 184 63 111 71 48 73 58 48 51
is_linear=0
shrinkage=0.05


Tree=17
num_leaves=15
num_cat=0
split_feature=3 2 4 0 0 1 4 1 0 2 0 1 1 4
split_gain=12.1417 9.65775 6.20125 3.99169 3.97918 3.75459 2.92976 1.77289 1.56612 1.29319 0.929331 0.703887 0.372055 0.137795
threshold=1.0000000180025095e-35 1.0000000180025095e-35 15.500000000000002 11.500000000000002 14.500000000000002 3.5000000000000004 1.5000000000000002 7.5000000000000009 10.500000000000002 1.0000000180025095e-35 14.500000000000002 28.500000000000004 18.500000000000004 2.5000000000000004
decision_type=2 2 2 2 2 2 2 2 2 2 2 2 2 2
left_child=1 7 3 -3 5 -2 -5 -1 -7 -10 12 13 -8 -11
right_child=4 2 -4 6 -6 8 10 -9 9 11 -12 -13 -14 -15
leaf_value=-0.014276925382957989 -0.028895960309143577 -0.0085677152144766986 0.038630035430192951 0.0019805493212684436 0.009966537194407505 -0.02050007422424286 0.012572032246971504 0.0024799640109348631 0.0021017294772195097 -0.0089424868082178047 0.030599259412847458 -0.017555409647701754 0.022100894365991868 -0.0036948767236687921
leaf_weight=38 28 21 25 27 23 23 20 27 33 29 20 21 21 22
leaf_count=38 28 21 25 27 23 23 20 27 33 29 20 21 21 22
internal_value=0 0.00849892 0.0161705 0.0110192 -0.00944851 -0.012311 0.0156934 -0.00731637 -0.00868303 -0.00609453 0.021763 -0.00985115 0.0174527 -0.00667881
internal_weight=0 199 134 109 179 156 88 65 128 105 61 72 41 51
internal_count=378 199 134 109 179 156 88 65 128 105 61 72 41 51
is_linear=0
shrinkage=0.05


Tree=18
num_leaves=14
num_cat=0
split_feature=0 4 0 3 1 1 1 4 0 0 4 1 4
split_gain=11.2976 7.86256 3.93467 4.67184 2.30442 2.0799 1.86301 1.17623 0.811507 0.629318 0.454044 0.367614 0.261256
threshold=15.500000000000002 3.5000000000000004 9.5000000000000018 1.0000000180025095e-35 9.5000000000000018 7.5000000000000009 13.500000000000002 10.500000000000002 11.500000000000002 11.500000000000002 1.0000000180025095e-35 22.500000000000004 5.5000000000000009
decision_type=2 2 2 2 2 2 2 2 2 2 2 2 2
left_child=1 5 -3 7 -2 9 -7 -4 -8 -1 -11 -10 -5
right_child=4 2 3 12 -6 6 8 -9 11 10 -12 -13 -14
leaf_value=-0.023031254313313043 0.0092992695886641753 -0.013791853089986201 0.013323931119489965 0.0026275970041751864 0.02844640552207376 0.0037043381920632197 -0.018777148217140213 0.027879613309936681 -0.011526956354888778 -0.0093240321886822065 -0.018621231995833418 -0.0029455446996367895 -0.0046438037231564524
leaf_weight=26 30 22 35 21 33 34 21 23 24 29 24 26 30
leaf_count=26 30 22 35 21 33 34 21 23 24 29 24 26 30
internal_value=0 -0.00386574 0.00549629 0.0093893 0.0193287 -0.0105311 -0.00592004 0.019096 -0.0105289 -0.0166597 -0.0135341 -0.00706462 -0.0016497
internal_weight=0 315 131 109 63 184 105 58 71 79 53 50 51
internal_count=378 315 131 109 63 184 105 58 71 79 53 50 51
is_linear=0
shrinkage=0.05


Tree=19
num_leaves=15
num_cat=0
split_feature=3 2 4 0 0 1 4 1 0 2 0 1 1 4
split_gain=10.2583 8.23849 5.37012 3.36203 3.28832 3.20274 2.51729 1.46814 1.32323 1.19337 0.768433 0.6424 0.327963 0.110358
threshold=1.0000000180025095e-35 1.0000000180025095e-35 15.500000000000002 11.500000000000002 14.500000000000002 3.5000000000000004 1.5000000000000002 7.5000000000000009 10.500000000000002 1.0000000180025095e-35 14.500000000000002 28.500000000000004 18.500000000000004 2.5000000000000004
decision_type=2 2 2 2 2 2 2 2 2 2 2 2 2 2
left_child=1 7 3 -3 5 -2 -5 -1 -7 -10 12 13 -8 -11
right_child=4 2 -4 6 -6 8 10 -9 9 11 -12 -13 -14 -15
leaf_value=-0.013129220844405754 -0.026604719726102694 -0.0078719880165798329 0.035797809324227277 0.0016825728480600649 0.0089645297307035209 -0.018798319217951401 0.011517880391329527 0.0021196229469582994 0.0023166640887432029 -0.0081608162349860736 0.028054686151444914 -0.016525692058106264 0.020464312480319116 -0.0034646219150586566
leaf_weight=38 28 21 25 27 23 23 20 27 33 29 20 21 21 22
leaf_count=38 28 21 25 27 23 23 20 27 33 29 20 21 21 22
internal_value=0 0.00781198 0.0148975 0.0101038 -0.00868483 -0.011287 0.0143935 -0.00679509 -0.00793622 -0.0055569 0.0200197 -0.00916562 0.0161002 -0.00613501
internal_weight=0 199 134 109 179 156 88 65 128 105 61 72 41 51
internal_count=378 199 134 109 179 156 88 65 128 105 61 72 41 51
is_linear=0
shrinkage=0.05


Tree=20
num_leaves=13
num_cat=0
split_feature=0 1 4 0 3 0 1 1 4 3 1 4
split_gain=9.55641 6.56025 4.09052 4.4782 2.74748 2.16849 1.78463 1.6503 1.13155 0.629642 0.579233 0.217993
threshold=15.500000000000002 6.5000000000000009 1.5000000000000002 9.5000000000000018 1.0000000180025095e-35 16.500000000000004 20.500000000000004 16.500000000000004 10.500000000000002 1.0000000180025095e-35 20.500000000000004 1.0000000180025095e-35
decision_type=2 2 2 2 2 2 2 2 2 2 2 2
left_child=1 9 7 -4 8 -2 -6 -3 10 -1 -5 -11
right_child=5 2 3 4 6 -7 -8 -9 -10 11 -12 -13
leaf_value=-0.01040422051317162 0.01074274729238823 -0.0021192526910454035 -0.013151453442319674 0.0059225584668836199 0.012114324063683551 0.030010255221682398 -0.0053922962498020484 -0.017224418671067918 0.025116024109656399 -0.016103007161506901 0.017143976115419166 -0.022807960644025696
leaf_weight=36 40 40 27 23 24 23 37 33 23 27 23 22
leaf_count=36 40 40 27 23 24 23 37 33 23 27 23 22
internal_value=0 -0.00355538 0.000831141 0.00537795 0.00922637 0.0177769 0.00149555 -0.00894762 0.0160609 -0.0154248 0.0115333 -0.0191134
internal_weight=0 315 230 157 130 63 61 73 69 85 46 49
internal_count=378 315 230 157 130 63 61 73 69 85 46 49
is_linear=0
shrinkage=0.05


Tree=21
num_leaves=14
num_cat=0
split_feature=0 4 0 3 0 1 1 4 0 0 4 1 4
split_gain=8.62466 5.96969 3.17299 3.41786 1.95707 1.56588 1.56423 0.808405 0.620449 0.515791 0.421687 0.354036 0.220308
threshold=15.500000000000002 3.5000000000000004 9.5000000000000018 1.0000000180025095e-35 16.500000000000004 7.5000000000000009 13.500000000000002 10.500000000000002 11.500000000000002 11.500000000000002 1.0000000180025095e-35 22.500000000000004 5.5000000000000009
decision_type=2 2 2 2 2 2 2 2 2 2 2 2 2
left_child=1 5 -3 7 -2 9 -7 -4 -8 -1 -11 -10 -5
right_child=4 2 3 12 -6 6 8 -9 11 10 -12 -13 -14
leaf_value=-0.020271416868154819 0.01020561011566315 -0.012540882256474685 0.011793191617886936 0.0027618184508312318 0.028509742458877357 0.0036343390889027544 -0.016619939463479179 0.023860222878663438 -0.010757734063857546 -0.0076161785316171838 -0.016575985261079042 -0.0023362917968860037 -0.0039154677186161281
leaf_weight=26 40 22 35 21 23 34 21 23 24 29 24 26 30
leaf_count=26 40 22 35 21 23 34 21 23 24 29 24 26 30
internal_value=0 -0.00337761 0.00478001 0.00827597 0.0168881 -0.00918549 -0.00518458 0.0165784 -0.00940772 -0.0145032 -0.0116734 -0.00637858 -0.001166
internal_weight=0 315 131 109 63 184 105 58 71 79 53 50 51
internal_count=378 315 131 109 63 184 105 58 71 79 53 50 51
is_linear=0
shrinkage=0.05


Tree=22
num_leaves=14
num_cat=0
split_feature=3 2 4 0 1 1 4 1 0 4 1 1 4
split_gain=8.02744 6.81628 4.53687 2.65329 2.56411 3.012 2.01363 1.18381 1.02975 0.818275 0.590647 0.0989351 0.0643264
threshold=1.0000000180025095e-35 1.0000000180025095e-35 15.500000000000002 11.500000000000002 6.5000000000000009 13.500000000000002 1.5000000000000002 7.5000000000000009 12.500000000000002 7.5000000000000009 34.500000000000007 19.500000000000004 1.0000000180025095e-35
decision_type=2 2 2 2 2 2 2 2 2 2 2 2 2
left_child=1 7 3 -3 12 -6 -5 -1 10 -8 11 -7 -2
right_child=4 2 -4 6 5 8 9 -9 -10 -11 -12 -13 -14
leaf_value=-0.01206381926925755 -0.015263688511082105 -0.0070196490734815604 0.032566034561081328 0.0013918056118267554 0.008421622744450968 -0.013093556184321642 0.022141640958113551 0.0016290262065551901 0.0010038684698797408 0.010081816583194516 -0.0062082685112696268 -0.018066862085834145 -0.018753110054880381
leaf_weight=38 28 21 25 27 36 20 39 27 21 22 29 20 25
leaf_count=38 28 21 25 27 36 20 39 27 21 22 29 20 25
internal_value=0 0.00691055 0.0133555 0.00894945 -0.00768268 -0.0038015 0.0127603 -0.00637602 -0.00869074 0.0177922 -0.0116413 -0.0155802 -0.0169096
internal_weight=0 199 134 109 179 126 88 65 90 61 69 40 53
internal_count=378 199 134 109 179 126 88 65 90 61 69 40 53
is_linear=0
shrinkage=0.05


Tree=23
num_leaves=13
num_cat=0
split_feature=0 1 4 4 0 1 1 3 1 1 3 1
split_gain=7.47996 3.71286 3.60262 2.73423 3.04212 1.4179 1.10537 1.10012 1.04643 0.585014 0.505991 0.239873
threshold=13.500000000000002 6.5000000000000009 4.5000000000000009 1.5000000000000002 9.5000000000000018 8.5000000000000018 16.500000000000004 1.0000000180025095e-35 21.500000000000004 23.500000000000004 1.0000000180025095e-35 22.500000000000004
decision_type=2 2 2 2 2 2 2 2 2 2 2 2
left_child=1 10 5 6 -5 -2 -3 9 -9 -6 -1 -4
right_child=2 3 11 4 7 -7 -8 8 -10 -11 -12 -13
leaf_value=-0.0096679361936237145 -0.0025422765919938684 -0.0033625733572989706 0.018419993370771409 -0.011942471812168759 0.0071069640040929832 0.010855872508807062 -0.016721906450887523 0.010374267548322678 -0.0044922219573295319 0.017745213536545634 -0.018431622078642251 0.026071166016516236
leaf_weight=28 40 32 20 27 28 39 30 20 29 24 40 21
leaf_count=28 40 32 20 27 28 39 30 20 29 24 40 21
internal_value=0 -0.00479683 0.0103132 -0.0012085 0.00296597 0.004072 -0.00982677 0.0069514 0.00157573 0.0120169 -0.014823 0.0223389
internal_weight=0 258 120 190 128 79 62 101 49 52 68 41
internal_count=378 258 120 190 128 79 62 101 49 52 68 41
is_linear=0
shrinkage=0.05


Tree=24
num_leaves=14
num_cat=0
split_feature=0 4 0 3 0 1 1 1 0 0 4 1 4
split_gain=7.00055 4.57882 2.58411 2.49516 1.72512 1.14209 1.23174 0.613447 0.471343 0.426625 0.402384 0.308947 0.204813
threshold=15.500000000000002 3.5000000000000004 9.5000000000000018 1.0000000180025095e-35 16.500000000000004 7.5000000000000009 13.500000000000002 20.500000000000004 10.500000000000002 11.500000000000002 1.0000000180025095e-35 22.500000000000004 5.5000000000000009
decision_type=2 2 2 2 2 2 2 2 2 2 2 2 2
left_child=1 5 -3 7 -2 9 -7 -4 -8 -1 -11 -10 -5
right_child=4 2 3 12 -6 6 8 -9 11 10 -12 -13 -14
leaf_value=-0.017916979806390232 0.0089411312178708617 -0.011529808952896433 0.0086453472085010544 0.0029760252373913928 0.02612637509794339 0.0031131109441904464 -0.014965640045702458 0.018985114176757634 -0.010036642119909327 -0.0061341027664984097 -0.014886432742544762 -0.0022399649575904567 -0.0034621656564801625
leaf_weight=26 40 22 26 21 23 34 20 32 24 29 24 27 30
leaf_count=26 40 22 26 21 23 34 20 32 24 29 24 27 30
internal_value=0 -0.00304302 0.00410136 0.00725628 0.0152151 -0.00812951 -0.00471262 0.01435 -0.00846016 -0.0126709 -0.0100974 -0.00590899 -0.000811146
internal_weight=0 315 131 109 63 184 105 58 71 79 53 51 51
internal_count=378 315 131 109 63 184 105 58 71 79 53 51 51
is_linear=0
shrinkage=0.05


Tree=25
num_leaves=15
num_cat=0
split_feature=3 2 4 0 0 1 4 0 0 2 1 4 1 4
split_gain=6.37099 5.63709 3.82499 2.10299 1.99035 2.10022 1.6017 0.942174 0.940099 1.20818 0.892793 0.811528 0.56393 0.0833703
threshold=1.0000000180025095e-35 1.0000000180025095e-35 15.500000000000002 11.500000000000002 14.500000000000002 3.5000000000000004 1.5000000000000002 11.500000000000002 10.500000000000002 1.0000000180025095e-35 7.5000000000000009 7.5000000000000009 28.500000000000004 1.0000000180025095e-35
decision_type=2 2 2 2 2 2 2 2 2 2 2 2 2 2
left_child=1 7 3 -3 5 -2 -5 -1 -7 -10 -9 -8 13 -11
right_child=4 2 -4 6 -6 8 11 10 9 12 -12 -13 -14 -15
leaf_value=-0.014639928036679826 -0.021272863567407645 -0.0062451662052245369 0.029656543126329784 0.0012253218916831194 0.0068868781075529439 -0.015310851257780325 0.020183785680012827 -0.0082693463513957496 0.0037724253241762972 -0.0024245534534566107 0.0060344417206943043 0.0081737849057059407 -0.014676805098341511 -0.0065651689704898141
leaf_weight=21 28 21 25 27 23 23 39 24 33 20 20 22 21 31
leaf_count=21 28 21 25 27 23 23 39 24 33 20 20 22 21 31
internal_value=0 0.00615641 0.0120175 0.0079718 -0.00684428 -0.00886874 0.0113645 -0.00592637 -0.00615534 -0.00414985 -0.00176762 0.0158523 -0.00778089 -0.0049414
internal_weight=0 199 134 109 179 156 88 65 128 105 44 61 72 51
internal_count=378 199 134 109 179 156 88 65 128 105 44 61 72 51
is_linear=0
shrinkage=0.05


Tree=26
num_leaves=14
num_cat=0
split_feature=0 1 4 0 1 3 1 1 1 3 4 4 1
split_gain=5.95809 3.84675 2.67735 2.87914 1.53267 1.32369 1.33774 1.20409 0.670171 0.393924 0.223284 0.0693697 0.0171553
threshold=15.500000000000002 6.5000000000000009 1.5000000000000002 9.5000000000000018 9.5000000000000018 1.0000000180025095e-35 20.500000000000004 25.500000000000004 19.500000000000004 1.0000000180025095e-35 1.0000000180025095e-35 8.5000000000000018 12.500000000000002
decision_type=2 2 2 2 2 2 2 2 2 2 2 2 2
left_child=1 9 7 -4 -2 8 -7 12 -5 -1 -11 -10 -3
right_child=4 2 3 5 -6 6 -8 -9 11 10 -12 -13 -14
leaf_value=-0.0079251950244522747 0.0058572301361709839 -0.003945795304718472 -0.010627203883120308 0.0060969565396330194 0.021472432780446429 0.011143522942438722 -0.0040135258737938936 -0.016535162987808386 0.014124841917128789 -0.011767180760701497 -0.018553022636015985 0.01823938917834312 -0.0020552850345016589
leaf_weight=36 30 21 27 28 33 24 37 24 21 27 22 20 28
leaf_count=36 30 21 27 28 33 24 37 24 21 27 22 20 28
internal_value=0 -0.00280732 0.000551653 0.00423015 0.0140366 0.00731591 0.0019499 -0.00735964 0.0120598 -0.0118963 -0.0148139 0.0161319 -0.0028655
internal_weight=0 315 230 157 63 130 61 73 69 85 49 41 49
internal_count=378 315 230 157 63 130 61 73 69 85 49 41 49
is_linear=0
shrinkage=0.05


Tree=27
num_leaves=16
num_cat=0
split_feature=0 3 2 4 1 0 1 1 0 0 1 4 2 1 1
split_gain=5.46357 5.04685 3.70803 1.88758 1.68816 1.36247 0.982137 1.31642 0.769699 0.656619 0.608351 0.308822 0.107595 0.0728262 0.0280381
threshold=16.500000000000004 1.0000000180025095e-35 1.0000000180025095e-35 12.500000000000002 16.500000000000004 13.500000000000002 8.5000000000000018 13.500000000000002 11.500000000000002 12.500000000000002 34.500000000000007 3.5000000000000004 1.0000000180025095e-35 19.500000000000004 2.5000000000000004
decision_type=2 2 2 2 2 2 2 2 2 2 2 2 2 2 2
left_child=1 2 8 4 5 -4 12 -8 -1 10 13 -6 14 -9 -3
right_child=-2 6 3 -5 11 -7 7 9 -10 -11 -12 -13 -14 -15 -16
leaf_value=-0.013565300759815036 0.023616348287981492 -0.012353608161211014 0.0033450832435240351 0.020231158095411955 -0.0059864247129077005 0.019865701311321645 0.0064919866976283856 -0.011630815956741572 -0.001692201625197553 0.00033075840633717323 -0.0042529087557842769 0.0026950069889426233 -0.015321655458082324 -0.015897729215212167 -0.0097060583718121055
leaf_weight=21 23 20 24 30 21 26 21 20 39 21 29 20 23 20 20
leaf_count=21 23 20 24 30 21 26 21 20 39 21 29 20 23 20 20
internal_value=0 -0.00153007 0.00431515 0.00935463 0.00576896 0.0119358 -0.00761045 -0.00478043 -0.00584779 -0.00741066 -0.00976674 -0.00175158 -0.0125967 -0.0137643 -0.0110298
internal_weight=0 355 181 121 91 50 174 111 60 90 69 41 63 40 40
internal_count=378 355 181 121 91 50 174 111 60 90 69 41 63 40 40
is_linear=0
shrinkage=0.05


Tree=28
num_leaves=14
num_cat=0
split_feature=0 3 2 4 1 0 0 1 1 0 1 4 4
split_gain=4.93087 4.55478 3.3465 1.70354 1.52356 1.22963 0.912403 0.846486 1.10563 0.694653 0.605708 0.278712 0.174868
threshold=16.500000000000004 1.0000000180025095e-35 1.0000000180025095e-35 12.500000000000002 16.500000000000004 13.500000000000002 10.500000000000002 7.5000000000000009 16.500000000000004 11.500000000000002 34.500000000000007 3.5000000000000004 1.0000000180025095e-35
decision_type=2 2 2 2 2 2 2 2 2 2 2 2 2
left_child=1 2 9 4 5 -4 -3 12 -9 -1 -10 -6 -8
right_child=-2 6 3 -5 11 -7 7 8 10 -11 -12 -13 -14
leaf_value=-0.012887035673927695 0.022435530890589177 -0.014857003069482745 0.0031778291643907632 0.019219600126768155 -0.0056871043784277779 0.018872415993470129 -0.0078681621107865463 0.0040883997338823979 -0.011241092672571541 -0.0016075917340528509 -0.0010511152613908053 0.0025602564215660099 -0.014039610605686904
leaf_weight=21 23 32 24 30 21 26 22 36 35 39 25 20 24
leaf_count=21 23 32 24 30 21 26 22 36 35 39 25 20 24
internal_value=0 -0.00145357 0.0040994 0.0088869 0.00548051 0.011339 -0.00722993 -0.00551115 -0.00283889 -0.0055554 -0.00699527 -0.001664 -0.011088
internal_weight=0 355 181 121 91 50 174 142 96 60 60 41 46
internal_count=378 355 181 121 91 50 174 142 96 60 60 41 46
is_linear=0
shrinkage=0.05


Tree=29
num_leaves=15
num_cat=0
split_feature=4 0 1 0 3 1 1 0 1 3 1 0 0 1
split_gain=4.66066 4.54843 3.5243 2.42628 1.1227 1.0399 1.0169 0.845337 0.778787 0.56035 0.305762 0.134114 0.123789 0.216448
threshold=1.5000000000000002 14.500000000000002 6.5000000000000009 9.5000000000000018 1.0000000180025095e-35 16.500000000000004 20.500000000000004 13.500000000000002 20.500000000000004 1.0000000180025095e-35 7.5000000000000009 15.500000000000002 10.500000000000002 10.500000000000002
decision_type=2 2 2 2 2 2 2 2 2 2 2 2 2 2
left_child=7 2 -2 -4 8 -3 -6 9 -5 10 -1 -9 -11 -14
right_child=1 5 3 4 6 -7 -8 11 -10 12 -12 -13 13 -15
leaf_value=-0.0089033818989992155 -0.016803138032555582 0.022933228427427822 -0.010078815122445425 0.0045762916827308282 0.0099766761596713754 0.0088119062849066464 -0.003940774463117123 -0.0035156110348179936 0.015565860428308188 -0.014954724509946324 -0.0002650630438611621 0.0022747657517902553 -0.0067932712083513093 -0.013593358503654599
leaf_weight=20 25 32 27 28 21 22 35 20 38 22 21 20 22 25
leaf_count=20 25 32 27 28 21 22 35 20 38 22 21 20 22 25
internal_value=0 0.00450325 0.000569055 0.00348385 0.00648543 0.0171801 0.00127827 -0.00684494 0.0109036 -0.0091084 -0.00447888 -0.000620423 -0.0118593 -0.0104103
internal_weight=0 228 174 149 122 54 56 150 66 110 41 40 69 47
internal_count=378 228 174 149 122 54 56 150 66 110 41 40 69 47
is_linear=0
shrinkage=0.05


Tree=30
num_leaves=15
num_cat=0
split_feature=4 0 1 0 3 1 1 0 1 3 1 0 0 1
split_gain=4.20624 4.10496 3.18068 2.18971 1.01324 0.938505 0.917753 0.762916 0.702856 0.505716 0.27595 0.121038 0.111719 0.195344
threshold=1.5000000000000002 14.500000000000002 6.5000000000000009 9.5000000000000018 1.0000000180025095e-35 16.500000000000004 20.500000000000004 13.500000000000002 20.500000000000004 1.0000000180025095e-35 7.5000000000000009 15.500000000000002 10.500000000000002 10.500000000000002
decision_type=2 2 2 2 2 2 2 2 2 2 2 2 2 2
left_child=7 2 -2 -4 8 -3 -6 9 -5 10 -1 -9 -11 -14
right_child=1 5 3 4 6 -7 -8 11 -10 12 -12 -13 13 -15
leaf_value=-0.0084582127863541256 -0.015962980911135675 0.02178656673349906 -0.0095748738489217222 0.0043474772545908187 0.0094778421379271005 0.0083713108504360374 -0.0037437361359064069 -0.0033398305671289564 0.014787567230431656 -0.014206988085061312 -0.0002518095253478913 0.0021610279497690501 -0.0064536076377738607 -0.012913690617308023
leaf_weight=20 25 32 27 28 21 22 35 20 38 22 21 20 22 25
leaf_count=20 25 32 27 28 21 22 35 20 38 22 21 20 22 25
internal_value=0 0.00427809 0.000540602 0.00330966 0.00616115 0.0163211 0.00121436 -0.00650269 0.0103584 -0.00865298 -0.00425493 -0.000589401 -0.0112663 -0.00988982
internal_weight=0 228 174 149 122 54 56 150 66 110 41 40 69 47
internal_count=378 228 174 149 122 54 56 150 66 110 41 40 69 47
is_linear=0
shrinkage=0.05


Tree=31
num_leaves=15
num_cat=0
split_feature=0 3 2 4 1 0 1 1 4 0 4 1 1 4
split_gain=3.91454 3.53759 2.75175 1.49231 1.43897 0.981876 0.778722 1.14374 0.57268 0.519922 0.214729 0.185261 0.0997759 0.0641106
threshold=16.500000000000004 1.0000000180025095e-35 1.0000000180025095e-35 12.500000000000002 16.500000000000004 13.500000000000002 9.5000000000000018 14.500000000000002 10.500000000000002 11.500000000000002 3.5000000000000004 19.500000000000004 31.500000000000004 1.5000000000000002
decision_type=2 2 2 2 2 2 2 2 2 2 2 2 2 2
left_child=1 2 9 4 5 -4 13 -8 11 -1 -6 -9 -13 -3
right_child=-2 6 3 -5 10 -7 7 8 -10 -11 -12 12 -14 -15
leaf_value=-0.011499146799473066 0.019990092613126922 -0.01192101443069987 0.003152470523491502 0.01761084479590257 -0.0057228738353365949 0.017177085176361011 0.0058552753025045007 -0.012819261029362677 0.00086389254778623586 -0.0017408763986821168 0.0015161990001797679 -0.0044072487577795985 -0.0091890182646845158 -0.0087317532358261261
leaf_weight=21 23 40 24 30 21 26 24 20 20 39 20 20 24 26
leaf_count=21 23 40 24 30 21 26 24 20 20 39 20 20 24 26
internal_value=0 -0.00129513 0.00359865 0.00793994 0.00475173 0.0104453 -0.0063858 -0.00377095 -0.0065213 -0.00515627 -0.00219162 -0.00882917 -0.00701549 -0.0106646
internal_weight=0 355 181 121 91 50 174 108 84 60 41 64 44 66
internal_count=378 355 181 121 91 50 174 108 84 60 41 64 44 66
is_linear=0
shrinkage=0.05


Tree=32
num_leaves=16
num_cat=0
split_feature=1 0 1 1 3 4 1 1 1 0 4 0 1 0 1
split_gain=3.58777 4.1734 1.57021 1.33452 1.3402 1.25473 1.39065 0.984826 0.897665 0.88167 0.868139 0.552788 0.708376 0.329919 0.0622586
threshold=6.5000000000000009 12.500000000000002 41.500000000000007 34.500000000000007 1.0000000180025095e-35 4.5000000000000009 15.500000000000002 13.500000000000002 26.500000000000004 14.500000000000002 1.0000000180025095e-35 11.500000000000002 19.500000000000004 11.500000000000002 19.500000000000004
decision_type=2 2 2 2 2 2 2 2 2 2 2 2 2 2 2
left_child=9 2 3 4 11 6 -3 -6 -7 10 13 -2 -13 -1 -9
right_child=1 5 -4 -5 7 8 -8 14 -10 -11 -12 12 -14 -15 -16
leaf_value=-0.010909727964317426 -0.0037553465366363527 0.012056112179363317 -0.013310891762375833 0.011029965966008604 0.0016106798357906798 0.022689345311040859 -0.0046526583633385602 -0.0097880618646740917 0.0088200672343373299 0.00060241498943904178 -0.016709514295287203 0.00062408826500177385 0.01324885269626975 -0.0023679020671317215 -0.013733267863281072
leaf_weight=20 20 33 25 24 21 28 20 20 20 23 33 25 20 26 20
leaf_count=20 20 33 25 24 21 28 20 20 20 23 33 25 20 26 20
internal_value=0 0.0029613 -0.00170962 0.000223928 -0.00183436 0.0110545 0.00575092 -0.00715742 0.0169105 -0.00801293 -0.0105212 0.00316111 0.00623509 -0.00608174 -0.0117607
internal_weight=0 276 175 150 126 101 53 61 48 102 79 65 45 46 40
internal_count=378 276 175 150 126 101 53 61 48 102 79 65 45 46 40
is_linear=0
shrinkage=0.05


Tree=33
num_leaves=13
num_cat=0
split_feature=4 0 1 0 1 4 4 4 1 1 3 3
split_gain=3.41754 3.20954 2.49007 1.87738 0.804936 0.729797 1.1499 1.14342 0.709933 1.3806 0.804559 0.115559
threshold=1.5000000000000002 14.500000000000002 6.5000000000000009 9.5000000000000018 16.500000000000004 10.500000000000002 6.5000000000000009 3.5000000000000004 24.500000000000004 6.5000000000000009 1.0000000180025095e-35 1.0000000180025095e-35
decision_type=2 2 2 2 2 2 2 2 2 2 2 2
left_child=8 2 -2 -4 -3 6 7 -5 9 11 -11 -1
right_child=1 4 3 5 -6 -7 -8 -9 -10 10 -12 -13
leaf_value=-0.0071044094493669099 -0.014051019228994847 0.019566649972693997 -0.0089288389586188177 4.9026238341485302e-05 0.0071426566012881016 0.011738771274685859 -0.0058635187372565274 0.013629234858578252 -0.013553041107952597 0.0083338187852253515 -0.0036230581072980873 -0.011257892830626053
leaf_weight=33 25 32 27 31 22 35 25 31 25 24 34 34
leaf_count=33 25 32 27 31 22 35 25 31 25 24 34 34
internal_value=0 0.00385619 0.000551385 0.00300145 0.014505 0.00564176 0.00318894 0.00683913 -0.00586141 -0.00432309 0.00132462 -0.00921215
internal_weight=0 228 174 149 54 122 87 62 150 125 58 67
internal_count=378 228 174 149 54 122 87 62 150 125 58 67
is_linear=0
shrinkage=0.05


Tree=34
num_leaves=15
num_cat=0
split_feature=0 3 2 4 1 0 1 1 1 0 4 2 1 1
split_gain=3.15899 2.84519 2.24031 1.24275 1.24836 0.759286 0.591478 0.993974 0.56109 0.369033 0.155414 0.0590184 0.00562817 4.767e-05
threshold=16.500000000000004 1.0000000180025095e-35 1.0000000180025095e-35 12.500000000000002 16.500000000000004 13.500000000000002 9.5000000000000018 16.500000000000004 34.500000000000007 11.500000000000002 3.5000000000000004 1.0000000180025095e-35 2.5000000000000004 22.500000000000004
decision_type=2 2 2 2 2 2 2 2 2 2 2 2 2 2
left_child=1 2 9 4 5 -4 11 -8 13 -1 -6 12 -3 -9
right_child=-2 6 3 -5 10 -7 7 8 -10 -11 -12 -13 -14 -15
leaf_value=-0.010017979628450815 0.017957602797643 -0.0088906727125868199 0.0031229987080829843 0.015967766940593719 -0.0052382910712843855 0.015455908102628131 0.0037814257722912415 -0.010306011624634267 -0.0016185156862547957 -0.0017967569176107645 0.00092031624168157581 -0.01137268191576004 -0.0077186913007781625 -0.01041155906961016
leaf_weight=21 23 20 24 30 21 26 33 20 32 39 20 25 21 23
leaf_count=21 23 20 24 30 21 26 33 20 32 39 20 25 21 23
internal_value=0 -0.00116345 0.00322536 0.00714249 0.00423305 0.00953611 -0.00572882 -0.00344992 -0.00663171 -0.00467418 -0.00223409 -0.00945792 -0.00829039 -0.0103625
internal_weight=0 355 181 121 91 50 174 108 75 60 41 66 41 43
internal_count=378 355 181 121 91 50 174 108 75 60 41 66 41 43
is_linear=0
shrinkage=0.05


Tree=35
num_leaves=13
num_cat=0
split_feature=4 0 1 0 1 3 1 1 1 3 1 3
split_gain=2.95708 2.72039 2.15732 1.70542 0.7026 0.655931 0.74918 0.614281 1.18323 0.684403 0.559471 0.0832053
threshold=1.5000000000000002 14.500000000000002 6.5000000000000009 9.5000000000000018 16.500000000000004 1.0000000180025095e-35 20.500000000000004 24.500000000000004 6.5000000000000009 1.0000000180025095e-35 20.500000000000004 1.0000000180025095e-35
decision_type=2 2 2 2 2 2 2 2 2 2 2 2
left_child=7 2 -2 -4 -3 10 -7 8 11 -10 -5 -1
right_child=1 4 3 5 -6 6 -8 -9 9 -11 -12 -13
leaf_value=-0.0067589452814762335 -0.013047321118414402 0.018119790911441669 -0.0085458480511550559 0.0033556136701788221 0.0065123963423750616 0.0088273993205456504 -0.003118349237234465 -0.012606991961598396 0.0076717979817961654 -0.0033561565748908943 0.012670126204427921 -0.010283355639480494
leaf_weight=33 25 32 27 28 22 21 35 25 24 34 38 34
leaf_count=33 25 32 27 28 22 21 35 25 24 34 38 34
internal_value=0 0.00358702 0.00054445 0.00282495 0.0133909 0.00534144 0.00136131 -0.00545227 -0.00402132 0.00120713 0.00871851 -0.00854745
internal_weight=0 228 174 149 54 122 56 150 125 58 66 67
internal_count=378 228 174 149 54 122 56 150 125 58 66 67
is_linear=0
shrinkage=0.05


Tree=36
num_leaves=13
num_cat=0
split_feature=0 3 2 4 0 4 0 1 1 1 0 0
split_gain=2.6957 2.39162 1.9485 1.10922 0.640953 1.11836 0.511124 0.419876 0.913511 0.522375 0.296497 0.152788
threshold=16.500000000000004 1.0000000180025095e-35 1.0000000180025095e-35 1.5000000000000002 11.500000000000002 7.5000000000000009 10.500000000000002 9.5000000000000018 16.500000000000004 34.500000000000007 11.500000000000002 12.500000000000002
decision_type=2 2 2 2 2 2 2 2 2 2 2 2
left_child=1 2 10 -4 -5 -6 -3 11 -9 -10 -1 -8
right_child=-2 6 3 4 5 -7 7 8 9 -11 -12 -13
leaf_value=-0.009207975216919467 0.016588614573297297 -0.01096901062410325 -0.0019245528391209144 0.0020614110419283744 0.018157918277360938 0.0054254972721849174 -0.0048628485451141998 0.0054104373790323738 -0.0093405608300651827 0.00012252425774931909 -0.0018388824537396431 -0.010232969541819049
leaf_weight=21 23 32 29 23 34 35 27 29 35 25 39 26
leaf_count=21 23 32 29 23 34 35 27 29 35 25 39 26
internal_value=0 -0.00107476 0.00294905 0.00660217 0.00928994 0.0116994 -0.00526044 -0.003974 -0.00187589 -0.00539761 -0.00441806 -0.00749725
internal_weight=0 355 181 121 92 69 174 142 89 60 60 53
internal_count=378 355 181 121 92 69 174 142 89 60 60 53
is_linear=0
shrinkage=0.05


Tree=37
num_leaves=14
num_cat=0
split_feature=4 0 1 0 1 4 4 4 1 1 1 0 3
split_gain=2.48335 2.35144 1.89557 1.46566 0.607463 0.606461 1.0188 1.00356 0.545802 1.04102 0.235989 0.0687719 0.0593594
threshold=1.5000000000000002 14.500000000000002 6.5000000000000009 9.5000000000000018 16.500000000000004 10.500000000000002 6.5000000000000009 3.5000000000000004 24.500000000000004 12.500000000000002 6.5000000000000009 11.500000000000002 1.0000000180025095e-35
decision_type=2 2 2 2 2 2 2 2 2 2 2 2 2
left_child=8 2 -2 -4 -3 6 7 -5 9 10 11 -1 -13
right_child=1 4 3 5 -6 -7 -8 -9 -10 -11 -12 12 -14
leaf_value=-0.010074038520273778 -0.012282123073935509 0.016799098919727841 -0.0079451063854826826 -0.00023246592571658475 0.0060061380605806007 0.010486989469666566 -0.0058277746848762043 0.012490156520488523 -0.011740639925003052 0.0042979649974093327 -0.0023215760925301798 -0.0049453872944349832 -0.0086221658802103432
leaf_weight=23 25 32 27 31 22 35 25 31 25 31 27 23 21
leaf_count=23 25 32 27 31 22 35 25 31 25 31 27 23 21
internal_value=0 0.00328717 0.000458435 0.00259611 0.012402 0.00492901 0.00269303 0.00612885 -0.00499649 -0.00364766 -0.00626803 -0.00785839 -0.00670021
internal_weight=0 228 174 149 54 122 87 62 150 125 94 67 44
internal_count=378 228 174 149 54 122 87 62 150 125 94 67 44
is_linear=0
shrinkage=0.05


Tree=38
num_leaves=15
num_cat=0
split_feature=0 3 2 4 1 0 0 2 4 1 4 4 0 4
split_gain=2.30031 2.12727 1.68547 1.08787 1.08285 0.626729 0.417461 0.342322 0.995607 0.768179 0.699263 0.468508 0.233323 0.0902067
threshold=16.500000000000004 1.0000000180025095e-35 1.0000000180025095e-35 12.500000000000002 16.500000000000004 13.500000000000002 10.500000000000002 1.0000000180025095e-35 6.5000000000000009 18.500000000000004 2.5000000000000004 1.5000000000000002 11.500000000000002 3.5000000000000004
decision_type=2 2 2 2 2 2 2 2 2 2 2 2 2 2
left_child=1 2 12 4 5 -4 -3 10 9 11 -8 -9 -1 -6
right_child=-2 6 3 -5 13 -7 7 8 -10 -11 -12 -13 -14 -15
leaf_value=-0.0082988492967117408 0.015323834724562325 -0.010099482221994549 0.0025901603939322134 0.014456784129142761 -0.0048343430317583543 0.013794923833805884 -0.0049594381257790972 -0.011177825022605248 -0.015555274374783041 0.0053502360446145763 0.0064639228085676837 -0.00081604763865470895 -0.0017617848152533559 -0.00014235688373446465
leaf_weight=21 23 32 24 30 21 26 37 24 20 20 21 20 39 20
leaf_count=21 23 32 24 30 21 26 37 24 20 20 21 20 39 20
internal_value=0 -0.000992812 0.00280211 0.00619973 0.00347762 0.00841664 -0.0049404 -0.00377779 -0.00581773 -0.00277475 -0.000823394 -0.00646793 -0.00404976 -0.00254557
internal_weight=0 355 181 121 91 50 174 142 84 64 58 44 60 41
internal_count=378 355 181 121 91 50 174 142 84 64 58 44 60 41
is_linear=0
shrinkage=0.05


Tree=39
num_leaves=14
num_cat=0
split_feature=4 0 1 0 1 2 3 1 1 1 0 1 0
split_gain=2.09187 1.97106 1.6914 1.31229 0.543092 0.522456 1.46927 0.502588 0.486483 0.942631 0.267218 0.16802 0.191838
threshold=1.5000000000000002 14.500000000000002 6.5000000000000009 9.5000000000000018 16.500000000000004 1.0000000180025095e-35 1.0000000180025095e-35 21.500000000000004 24.500000000000004 12.500000000000002 14.500000000000002 5.5000000000000009 11.500000000000002
decision_type=2 2 2 2 2 2 2 2 2 2 2 2 2
left_child=8 2 -2 -4 -3 -5 7 -7 9 10 11 12 -1
right_child=1 4 3 5 -6 6 -8 -9 -10 -11 -12 -13 -14
leaf_value=-0.0097341935006192044 -0.011607773900032044 0.015519658284028993 -0.0075280785905542207 0.010649002699314484 0.005314561250534925 0.0024942268263143694 -0.0045553961864266647 0.012184104858897628 -0.01095290517807007 0.0042484637830526601 -0.010933724148198962 -0.0010843850704841315 -0.0034123118334848969
leaf_weight=21 25 32 27 28 22 23 39 32 25 31 20 25 28
leaf_count=21 25 32 27 28 22 23 39 32 25 31 20 25 28
internal_value=0 0.00301696 0.000427113 0.00244639 0.011362 0.00465385 0.00286807 0.00813197 -0.00458578 -0.00331236 -0.00580582 -0.0044199 -0.00612169
internal_weight=0 228 174 149 54 122 94 55 150 125 94 74 49
internal_count=378 228 174 149 54 122 94 55 150 125 94 74 49
is_linear=0
shrinkage=0.05


Tree=40
num_leaves=15
num_cat=0
split_feature=0 3 2 0 4 1 1 0 2 4 1 4 4 0
split_gain=1.98339 1.8334 1.46063 0.952356 1.20963 0.406041 0.508716 0.34951 0.284556 0.883708 0.705834 0.573359 0.433895 0.184215
threshold=16.500000000000004 1.0000000180025095e-35 1.0000000180025095e-35 15.500000000000002 1.5000000000000002 31.500000000000004 21.500000000000004 10.500000000000002 1.0000000180025095e-35 6.5000000000000009 18.500000000000004 2.5000000000000004 1.5000000000000002 11.500000000000002
decision_type=2 2 2 2 2 2 2 2 2 2 2 2 2 2
left_child=1 2 13 4 -4 6 -6 -3 11 10 12 -9 -10 -1
right_child=-2 7 3 -5 5 -7 -8 8 9 -11 -12 -13 -14 -15
leaf_value=-0.007552872762261402 0.014229126825280811 -0.0093072473988286223 -0.006578899822621183 0.015732398638501763 0.0047296028540586123 0.00090782158076763153 0.01424879402667284 -0.0045744989263963561 -0.010588597376287605 -0.014556784257292749 0.0052724189544096599 0.0057694617481458751 -0.00061692781746387488 -0.001744336795467788
leaf_weight=21 23 32 22 20 32 22 25 37 24 20 20 21 20 39
leaf_count=21 23 32 22 20 32 22 25 37 24 20 20 21 20 39
internal_value=0 -0.000921887 0.00260117 0.00576406 0.00379013 0.00667771 0.00890469 -0.00458668 -0.00352289 -0.00538276 -0.00251588 -0.000829272 -0.00605602 -0.00377732
internal_weight=0 355 181 121 101 79 57 174 142 84 64 58 44 60
internal_count=378 355 181 121 101 79 57 174 142 84 64 58 44 60
is_linear=0
shrinkage=0.05


Tree=41
num_leaves=13
num_cat=0
split_feature=4 1 1 1 4 4 0 4 4 1 1 4
split_gain=1.90153 1.6241 1.16089 1.64301 1.98975 1.9944 1.63603 1.11986 0.512161 0.43152 0.293891 0.165924
threshold=10.500000000000002 29.500000000000004 3.5000000000000004 16.500000000000004 7.5000000000000009 3.5000000000000004 15.500000000000002 1.0000000180025095e-35 1.0000000180025095e-35 8.5000000000000018 8.5000000000000018 1.5000000000000002
decision_type=2 2 2 2 2 2 2 2 2 2 2 2
left_child=2 -2 7 6 5 11 8 -1 9 -4 -10 -5
right_child=1 -3 3 4 -6 -7 -8 -9 10 -11 -12 -13
leaf_value=-0.0013716739314772628 0.016923597834829707 0.00066236943444784955 -0.0088445635312902077 -0.0084792905610383447 -0.01849676500562401 0.010581319997087122 0.012875767241099052 -0.014625486245689294 0.0069578686698029447 0.00087774972990155233 6.9390540011227139e-05 -0.0033310758913385461
leaf_weight=34 28 34 21 34 21 25 35 30 30 25 32 29
leaf_count=34 28 34 21 34 21 25 35 30 30 25 32 29
internal_value=0 0.00800615 -0.00157083 -4.35707e-05 -0.00466785 -0.00136777 0.00348123 -0.0075844 0.000436708 -0.0035607 0.00340253 -0.00610948
internal_weight=0 62 316 252 109 88 143 64 108 46 62 63
internal_count=378 62 316 252 109 88 143 64 108 46 62 63
is_linear=0
shrinkage=0.05


Tree=42
num_leaves=13
num_cat=0
split_feature=4 1 1 1 4 4 0 4 4 1 1 4
split_gain=1.71613 1.46575 1.0477 1.48282 1.79575 1.79995 1.47652 1.01067 0.462225 0.389447 0.265236 0.149747
threshold=10.500000000000002 29.500000000000004 3.5000000000000004 16.500000000000004 7.5000000000000009 3.5000000000000004 15.500000000000002 1.0000000180025095e-35 1.0000000180025095e-35 8.5000000000000018 8.5000000000000018 1.5000000000000002
decision_type=2 2 2 2 2 2 2 2 2 2 2 2
left_child=2 -2 7 6 5 11 8 -1 9 -4 -10 -5
right_child=1 -3 3 4 -6 -7 -8 -9 10 -11 -12 -13
leaf_value=-0.0013030901891504661 0.016077418319348776 0.00062925099833484961 -0.0084023352981256773 -0.0080553259296507092 -0.017571926977308024 0.010052254229784013 0.012231978896473136 -0.013894211573836704 0.0066099753417074684 0.00083386208862066278 6.5921165514737368e-05 -0.0031645219259220981
leaf_weight=34 28 34 21 34 21 25 35 30 30 25 32 29
leaf_count=34 28 34 21 34 21 25 35 30 30 25 32 29
internal_value=0 0.00760584 -0.00149229 -4.13921e-05 -0.00443446 -0.00129938 0.00330717 -0.00720518 0.000414873 -0.00338266 0.0032324 -0.005804
internal_weight=0 62 316 252 109 88 143 64 108 46 62 63
internal_count=378 62 316 252 109 88 143 64 108 46 62 63
is_linear=0
shrinkage=0.05


Tree=43
num_leaves=15
num_cat=0
split_feature=0 3 2 4 1 0 0 2 4 1 4 4 0 4
split_gain=1.58055 1.51221 1.15022 0.819794 0.834219 0.469974 0.306516 0.288845 0.777312 0.63727 0.450105 0.372591 0.144402 0.0440356
threshold=16.500000000000004 1.0000000180025095e-35 1.0000000180025095e-35 12.500000000000002 16.500000000000004 13.500000000000002 10.500000000000002 1.0000000180025095e-35 6.5000000000000009 17.500000000000004 2.5000000000000004 1.5000000000000002 11.500000000000002 3.5000000000000004
decision_type=2 2 2 2 2 2 2 2 2 2 2 2 2 2
left_child=1 2 12 4 5 -4 -3 10 9 11 -8 -9 -1 -6
right_child=-2 6 3 -5 13 -7 7 8 -10 -11 -12 -13 -14 -15
leaf_value=-0.0066263714716548018 0.012702167841970272 -0.0085719927650643509 0.0021099606218437355 0.012351266008336097 -0.0040654384309337255 0.011812814160321768 -0.0037595822858133331 -0.010167005846438849 -0.013632969739846885 0.0047993295740092271 0.0054053756097952529 -0.00083571393042802811 -0.001483681002775064 -0.00078720919322222476
leaf_weight=21 23 32 24 30 21 26 37 23 20 21 21 20 39 20
leaf_count=21 23 32 24 30 21 26 37 23 20 21 21 20 39 20
internal_value=0 -0.000822957 0.00237665 0.0051834 0.00282037 0.00715544 -0.00415129 -0.00315507 -0.00502892 -0.00234015 -0.000441235 -0.00582687 -0.00328362 -0.0024663
internal_weight=0 355 181 121 91 50 174 142 84 64 58 43 60 41
internal_count=378 355 181 121 91 50 174 142 84 64 58 43 60 41
is_linear=0
shrinkage=0.05


Tree=44
num_leaves=15
num_cat=0
split_feature=1 1 0 1 1 1 3 1 4 4 0 4 0 1
split_gain=1.48785 1.72568 1.11716 1.03845 0.744155 1.43648 0.645187 0.81633 0.438161 0.247723 0.23041 0.761213 0.209013 0.0187434
threshold=6.5000000000000009 43.500000000000007 12.500000000000002 34.500000000000007 28.500000000000004 19.500000000000004 1.0000000180025095e-35 13.500000000000002 6.5000000000000009 2.5000000000000004 14.500000000000002 1.0000000180025095e-35 11.500000000000002 19.500000000000004
decision_type=2 2 2 2 2 2 2 2 2 2 2 2 2 2
left_child=10 2 3 6 5 9 8 -8 -2 -4 11 12 -1 -9
right_child=1 -3 4 -5 -6 -7 7 13 -10 -11 -12 -13 -14 -15
leaf_value=-0.0061280850204639137 0.0053087974800483176 -0.012237914726138116 0.0090750624855550441 0.008876483749742781 -0.00079973958756612709 0.020989437117241324 0.0026719060859509876 -0.0084196066641015945 -0.0030216769004861518 0.0025044570182217287 -0.00075586436103786472 -0.012237049938377107 0.00067074422673053617 -0.010584289841353893
leaf_weight=20 38 20 26 29 23 20 21 20 27 32 23 33 26 20
leaf_count=20 38 20 26 29 23 20 21 20 27 32 23 33 26 20
internal_value=0 0.00190699 0.00301206 0.000345801 0.00710385 0.0094344 -0.00161761 -0.00531095 0.00184845 0.0054499 -0.0051601 -0.00644234 -0.00228527 -0.00950195
internal_weight=0 276 256 155 101 78 126 61 65 58 102 79 46 40
internal_count=378 276 256 155 101 78 126 61 65 58 102 79 46 40
is_linear=0
shrinkage=0.05


Tree=45
num_leaves=15
num_cat=0
split_feature=4 1 4 4 0 1 1 0 4 2 1 4 3 1
split_gain=1.42329 1.25503 0.845872 1.43464 1.13865 0.410776 0.809262 0.949623 0.77401 0.29634 0.150983 0.139403 0.0978783 0.0180182
threshold=10.500000000000002 29.500000000000004 7.5000000000000009 3.5000000000000004 13.500000000000002 3.5000000000000004 16.500000000000004 15.500000000000002 1.0000000180025095e-35 1.0000000180025095e-35 24.500000000000004 1.0000000180025095e-35 1.0000000180025095e-35 13.500000000000002
decision_type=2 2 2 2 2 2 2 2 2 2 2 2 2 2
left_child=2 -2 3 5 13 8 7 9 -1 -7 -8 -11 -12 -5
right_child=1 -3 -4 4 -6 6 10 -9 -10 11 12 -13 -14 -15
leaf_value=-0.00095308742259957776 0.014765572431497277 0.00047091167310581492 -0.0090656128391856331 0.00048333268146961934 0.016021579074440524 0.0028837099040467896 -0.0087213204505488928 0.010918168884448031 -0.012413301723651016 -0.00086619702245419234 -0.0011639198660850527 -0.0064444414339959628 -0.0061105928302276884 0.0025353517282106306
leaf_weight=34 28 34 32 20 20 31 23 22 26 24 20 21 20 23
leaf_count=34 28 34 32 20 20 31 23 22 26 24 20 21 20 23
internal_value=0 0.00692656 -0.00135901 -0.00049066 0.00616526 -0.00238805 -0.0010721 0.00177013 -0.00591918 -0.000877987 -0.00549334 -0.00346938 -0.00363726 0.00158092
internal_weight=0 62 316 284 63 221 161 98 60 76 63 45 40 43
internal_count=378 62 316 284 63 221 161 98 60 76 63 45 40 43
is_linear=0
shrinkage=0.05


Tree=46
num_leaves=15
num_cat=0
split_feature=4 0 1 0 1 2 1 1 1 1 0 4 1 0
split_gain=1.3417 1.30978 1.18929 1.09468 0.500331 0.489075 0.972907 0.723659 0.349902 0.828296 0.46411 0.216852 0.119646 0.140071
threshold=1.5000000000000002 14.500000000000002 6.5000000000000009 9.5000000000000018 16.500000000000004 1.0000000180025095e-35 31.500000000000004 22.500000000000004 24.500000000000004 12.500000000000002 14.500000000000002 5.5000000000000009 5.5000000000000009 11.500000000000002
decision_type=2 2 2 2 2 2 2 2 2 2 2 2 2 2
left_child=8 2 -2 -4 -3 -5 7 11 9 10 12 -7 13 -1
right_child=1 4 3 5 -6 6 -8 -9 -10 -11 -12 -13 -14 -15
leaf_value=-0.0076264083784605783 -0.0097866519540548338 0.013209443658706733 -0.0071117410298298907 0.0098148530249350854 0.0034143374047496105 -0.0018635684003432591 -0.0055231120038245415 0.01275852160912979 -0.009072464409167879 0.004494838659921961 -0.011687973356456497 0.0052398094145411798 -0.00028880910202860833 -0.0022244312592062799
leaf_weight=21 25 32 27 28 22 21 28 23 25 31 20 22 25 28
leaf_count=21 25 32 27 28 22 21 28 23 25 31 20 22 25 28
internal_value=0 0.00241618 0.000305013 0.00199825 0.00921884 0.00401439 0.00228659 0.0055998 -0.0036726 -0.00259263 -0.00492998 0.00177072 -0.0031035 -0.00453956
internal_weight=0 228 174 149 54 122 94 66 150 125 94 43 74 49
internal_count=378 228 174 149 54 122 94 66 150 125 94 43 74 49
is_linear=0
shrinkage=0.05


Tree=47
num_leaves=15
num_cat=0
split_feature=0 3 2 4 1 0 1 1 1 1 4 2 4 1
split_gain=1.2704 1.2073 0.930215 0.670289 0.732118 0.374279 0.245475 0.557573 0.394421 0.0977901 0.0832891 0.0583112 0.0307133 0.000251643
threshold=16.500000000000004 1.0000000180025095e-35 1.0000000180025095e-35 12.500000000000002 16.500000000000004 13.500000000000002 9.5000000000000018 14.500000000000002 34.500000000000007 8.5000000000000018 2.5000000000000004 1.0000000180025095e-35 3.5000000000000004 2.5000000000000004
decision_type=2 2 2 2 2 2 2 2 2 2 2 2 2 2
left_child=1 2 9 4 5 -4 11 -8 10 -1 -9 13 -6 -3
right_child=-2 6 3 -5 12 -7 7 8 -10 -11 -12 -13 -14 -15
leaf_value=-0.0013776658279066151 0.011387915312029097 -0.0050805016086087566 0.0020669874696371457 0.011126578015585741 -0.0037796409889346082 0.010725841160791998 0.0044775293829540409 -0.0047720801662653684 0.00020360248890938237 -0.0055293889635283019 -0.0087771856346754006 -0.0080173398740589624 -0.0010418495489284397 -0.0048326852509663221
leaf_weight=37 23 20 24 30 21 26 24 25 32 23 27 25 20 21
leaf_count=37 23 20 24 30 21 26 24 25 32 23 27 25 20 21
internal_value=0 -0.000737809 0.00212109 0.00464519 0.00250846 0.00656959 -0.00371172 -0.00224361 -0.00416394 -0.00296916 -0.00685165 -0.00611409 -0.00244413 -0.00495357
internal_weight=0 355 181 121 91 50 174 108 84 60 52 66 41 41
internal_count=378 355 181 121 91 50 174 108 84 60 52 66 41 41
is_linear=0
shrinkage=0.05


Tree=48
num_leaves=15
num_cat=0
split_feature=4 0 1 0 2 1 1 1 1 1 0 4 3 1
split_gain=1.17221 1.10907 1.04202 0.995251 0.462896 0.879555 0.63907 0.435554 0.306435 0.742285 0.453572 0.194423 0.105958 0.0436886
threshold=1.5000000000000002 14.500000000000002 6.5000000000000009 9.5000000000000018 1.0000000180025095e-35 31.500000000000004 22.500000000000004 16.500000000000004 24.500000000000004 12.500000000000002 14.500000000000002 5.5000000000000009 1.0000000180025095e-35 3.5000000000000004
decision_type=2 2 2 2 2 2 2 2 2 2 2 2 2 2
left_child=8 2 -2 -4 -5 6 11 -3 9 10 12 -6 -1 -14
right_child=1 7 3 4 5 -7 -8 -9 -10 -11 -12 -13 13 -15
leaf_value=-0.00060087727202523143 -0.0091304775215685363 0.01224153540970292 -0.0067857601714354969 0.0094661565630563688 -0.0017471499741077423 -0.0052834294769646866 0.012019729379402556 0.0031024795956909657 -0.0084861488062888384 0.0042872588435608535 -0.011315636843501125 0.0049788563766262756 -0.0060668916607807787 -0.0028785312209617009
leaf_weight=31 25 32 27 28 21 28 23 22 25 31 20 22 21 22
leaf_count=31 25 32 27 28 21 28 23 22 25 31 20 22 21 22
internal_value=0 0.00225843 0.000315732 0.00190067 0.00382307 0.00214215 0.0052924 0.00851822 -0.00343281 -0.00242214 -0.00463481 0.00169406 -0.00282918 -0.00443564
internal_weight=0 228 174 149 122 94 66 54 150 125 94 43 74 43
internal_count=378 228 174 149 122 94 66 54 150 125 94 43 74 43
is_linear=0
shrinkage=0.05


Tree=49
num_leaves=15
num_cat=0
split_feature=4 1 4 4 0 1 4 1 0 2 1 4 3 1
split_gain=1.13364 0.983914 0.904121 1.18448 0.924892 0.314818 0.740858 0.650365 0.802278 0.27217 0.19495 0.120914 0.0799847 0.0119571
threshold=10.500000000000002 29.500000000000004 7.5000000000000009 3.5000000000000004 13.500000000000002 3.5000000000000004 1.0000000180025095e-35 16.500000000000004 15.500000000000002 1.0000000180025095e-35 24.500000000000004 1.0000000180025095e-35 1.0000000180025095e-35 13.500000000000002
decision_type=2 2 2 2 2 2 2 2 2 2 2 2 2 2
left_child=2 -2 3 5 13 6 -1 8 9 -7 -9 -11 -12 -5
right_child=1 -3 -4 4 -6 7 -8 10 -10 11 12 -13 -14 -15
leaf_value=-0.00027188980020582677 0.013122586021199823 0.00046572828637983868 -0.0091804049981874421 0.00070693733170628552 0.014615830676630141 0.00283183878467929 -0.011483992967539682 -0.0085186124009930583 0.010069259103726257 -0.00083224015543237329 -0.00050568524748086931 -0.0060274106716471064 -0.0049773934110999112 0.0023785567184424275
leaf_weight=34 28 34 32 20 20 31 26 23 22 24 20 21 20 23
leaf_count=34 28 34 32 20 20 31 26 23 22 24 20 21 20 23
internal_value=0 0.00618173 -0.00121287 -0.000315121 0.00573273 -0.00203917 -0.00513047 -0.000887133 0.00166083 -0.000773189 -0.00485063 -0.00325665 -0.00274154 0.00160106
internal_weight=0 62 316 284 63 221 60 161 98 76 63 45 40 43
internal_count=378 62 316 284 63 221 60 161 98 76 63 45 40 43
is_linear=0
shrinkage=0.05


Tree=50
num_leaves=15
num_cat=0
split_feature=0 3 2 4 0 4 4 1 4 0 4 1 1 1
split_gain=1.06572 1.00725 0.801378 0.610245 0.490243 0.418878 0.363729 0.235571 0.605247 0.357179 0.255893 0.109189 0.108889 0.0411322
threshold=16.500000000000004 1.0000000180025095e-35 1.0000000180025095e-35 1.0000000180025095e-35 14.500000000000002 13.500000000000002 6.5000000000000009 34.500000000000007 5.5000000000000009 12.500000000000002 1.5000000000000002 10.500000000000002 8.5000000000000018 6.5000000000000009
decision_type=2 2 2 2 2 2 2 2 2 2 2 2 2 2
left_child=1 2 12 -4 5 6 -5 8 9 10 11 -3 -1 -11
right_child=-2 7 3 4 -6 -7 -8 -9 -10 13 -12 -13 -14 -15
leaf_value=-0.001109683742696369 0.010430269039067713 -0.00469118802294392 -0.0037011571251423445 0.004962409695910633 0.012868828196078539 0.010205139964818956 -0.0031161053614182908 0.00048334732855437323 -0.011889277855780991 -0.00079142578411847361 -0.0005736956207935388 -0.0092002678997814662 -0.0054906769048260612 0.0023415657395327635
leaf_weight=37 23 29 20 38 20 21 22 32 22 20 24 25 23 22
leaf_count=37 23 29 20 38 20 21 22 32 22 20 24 25 23 22
internal_value=0 -0.000675764 0.00193555 0.00427834 0.00585843 0.00412747 0.00200029 -0.00339213 -0.00426548 -0.00286778 -0.00486949 -0.00677873 -0.00278906 0.000849665
internal_weight=0 355 181 121 101 81 60 174 142 120 78 54 60 42
internal_count=378 355 181 121 101 81 60 174 142 120 78 54 60 42
is_linear=0
shrinkage=0.05


Tree=51
num_leaves=15
num_cat=0
split_feature=1 1 1 1 0 1 3 1 4 4 2 4 0 4
split_gain=1.01234 1.28007 0.77937 1.63143 1.83894 2.44768 0.328477 0.619966 0.370362 0.327474 0.179325 0.407749 0.114672 0.0506426
threshold=43.500000000000007 6.5000000000000009 34.500000000000007 29.500000000000004 12.500000000000002 21.500000000000004 1.0000000180025095e-35 13.500000000000002 6.5000000000000009 2.5000000000000004 1.0000000180025095e-35 1.0000000180025095e-35 11.500000000000002 9.5000000000000018
decision_type=2 2 2 2 2 2 2 2 2 2 2 2 2 2
left_child=1 10 3 4 6 9 8 -8 -3 -6 11 12 -1 -4
right_child=-2 2 13 -5 5 -7 7 -9 -10 -11 -12 -13 -14 -15
leaf_value=-0.0049760830146260565 -0.010947496630251408 0.0047145234195120414 0.0071306336019188168 -0.011275960388593376 0.0078596789389848709 0.023699855199083686 0.0027968485085737137 -0.0080132712610065937 -0.0037795037563358039 0.00049563479195866326 -0.00079875996312254972 -0.0097959675405535004 0.00025506563569334422 0.010688812730368228
leaf_weight=20 20 33 20 23 26 20 21 36 21 36 29 31 22 20
leaf_count=20 20 33 20 23 26 20 21 36 21 36 29 31 22 20
internal_value=0 0.000611592 0.00249882 0.00131162 0.0028117 0.00849014 -0.00138319 -0.0040306 0.00141129 0.00358378 -0.00412499 -0.00544637 -0.00223596 0.00890972
internal_weight=0 358 256 216 193 82 111 57 54 62 102 73 42 40
internal_count=378 358 256 216 193 82 111 57 54 62 102 73 42 40
is_linear=0
shrinkage=0.05


Tree=52
num_leaves=14
num_cat=0
split_feature=4 0 4 4 4 0 1 4 1 1 0 3 1
split_gain=0.948074 0.856348 0.859551 0.825386 1.17136 0.857683 1.2984 0.686627 0.269958 0.696574 0.4836 0.0894934 0.0309555
threshold=1.5000000000000002 9.5000000000000018 15.500000000000002 7.5000000000000009 10.500000000000002 14.500000000000002 6.5000000000000009 3.5000000000000004 24.500000000000004 12.500000000000002 14.500000000000002 1.0000000180025095e-35 3.5000000000000004
decision_type=2 2 2 2 2 2 2 2 2 2 2 2 2
left_child=8 -2 3 5 -5 6 -3 -8 9 10 11 -1 -13
right_child=1 2 -4 4 -6 -7 7 -9 -10 -11 -12 12 -14
leaf_value=-0.00036975501045103998 -0.0063296583515626411 -0.0083979521868362394 0.011454576117641948 -0.0098056047347684708 0.0058159599732607609 0.011103743029525505 -0.00035977387620556738 0.0097281803307752764 -0.0078302615266293285 0.0043609181989825536 -0.011180493689607829 -0.005267116387507746 -0.0025833025236021391
leaf_weight=31 27 24 27 30 20 32 31 37 25 31 20 21 22
leaf_count=31 27 24 27 30 20 32 31 37 25 31 20 21 22
internal_value=0 0.00203106 0.00315415 0.00186615 -0.00355698 0.00405289 0.00160042 0.00512926 -0.00308722 -0.00213861 -0.00428207 -0.00241763 -0.003894
internal_weight=0 228 201 174 50 124 92 68 150 125 94 74 43
internal_count=378 228 201 174 50 124 92 68 150 125 94 74 43
is_linear=0
shrinkage=0.05


Tree=53
num_leaves=15
num_cat=0
split_feature=0 3 2 4 0 4 4 1 4 0 1 1 1 1
split_gain=0.903885 0.856645 0.664425 0.532608 0.407006 0.32661 0.291024 0.190697 0.534158 0.27748 0.231749 0.25044 0.114874 0.0176922
threshold=16.500000000000004 1.0000000180025095e-35 1.0000000180025095e-35 1.0000000180025095e-35 14.500000000000002 13.500000000000002 4.5000000000000009 34.500000000000007 5.5000000000000009 12.500000000000002 13.500000000000002 3.5000000000000004 8.5000000000000018 6.5000000000000009
decision_type=2 2 2 2 2 2 2 2 2 2 2 2 2 2
left_child=1 2 12 -4 5 6 -5 8 9 10 11 -3 -1 -11
right_child=-2 7 3 4 -6 -7 -8 -9 -10 13 -12 -13 -14 -15
leaf_value=-0.00079123806019590522 0.0096057411632500603 -0.0066588664932351093 -0.0035355698922649027 0.0059218084847088908 0.011782839004881682 0.0091847683702196408 -0.0011054215487092734 0.00035945422423537825 -0.011075288379056887 -0.00039988160599023102 -0.0080064292040853101 0.00056435497011989358 -0.0052910199226892515 0.0016548710060305895
leaf_weight=37 23 20 20 26 20 21 34 32 22 20 28 30 23 22
leaf_count=37 23 20 20 26 20 21 34 32 22 20 28 30 23 22
internal_value=0 -0.000622344 0.00178585 0.00391908 0.00539524 0.00381806 0.00193971 -0.00312742 -0.00391319 -0.00260014 -0.00436444 -0.00232493 -0.00251615 0.000676417
internal_weight=0 355 181 121 101 81 60 174 142 120 78 50 60 42
internal_count=378 355 181 121 101 81 60 174 142 120 78 50 60 42
is_linear=0
shrinkage=0.05


Tree=54
num_leaves=16
num_cat=0
split_feature=1 1 1 4 4 1 4 1 2 0 1 2 4 0 4
split_gain=0.89291 1.09197 1.05203 1.54973 0.746856 0.945354 1.18111 0.29408 0.525593 1.26654 0.231066 0.162156 0.402188 0.100576 0.0329944
threshold=43.500000000000007 34.500000000000007 29.500000000000004 10.500000000000002 7.5000000000000009 6.5000000000000009 4.5000000000000009 16.500000000000004 1.0000000180025095e-35 12.500000000000002 22.500000000000004 1.0000000180025095e-35 1.0000000180025095e-35 11.500000000000002 9.5000000000000018
decision_type=2 2 2 2 2 2 2 2 2 2 2 2 2 2 2
left_child=1 2 3 4 5 11 7 8 -7 -10 -9 12 13 -1 -3
right_child=-2 14 -4 -5 -6 6 -8 10 9 -11 -12 -13 -14 -15 -16
leaf_value=-0.0043710470125370195 -0.010281452038325371 0.0069244032632559543 -0.010704524936559408 0.011588880609321808 -0.0096003431784497072 0.0080350206591762036 0.012044408876034949 -0.0068354772496968504 -0.0090574644195536777 0.0067286956253358073 0.00076494793873280295 -0.00053490295982116772 -0.0093847861199174085 0.00052805575118823481 0.009796440033242107
leaf_weight=20 20 20 23 28 22 26 27 20 24 27 20 29 30 22 20
leaf_count=20 20 20 23 28 22 26 27 20 24 27 20 29 30 22 20
internal_value=0 0.000574383 -0.000404993 0.000398021 -0.000775552 1.68781e-05 0.00261802 0.000442697 0.00224943 -0.000700086 -0.00303526 -0.00369168 -0.00496316 -0.00180485 0.00836042
internal_weight=0 358 318 295 267 245 144 117 77 51 40 101 72 42 40
internal_count=378 358 318 295 267 245 144 117 77 51 40 101 72 42 40
is_linear=0
shrinkage=0.05


Tree=55
num_leaves=14
num_cat=0
split_feature=0 3 2 4 0 4 4 4 4 1 1 1 2
split_gain=0.808092 0.745639 0.582602 0.461225 0.352489 0.277043 0.464933 0.174967 0.366879 0.264691 0.11613 0.0882772 0.238798
threshold=16.500000000000004 1.0000000180025095e-35 1.0000000180025095e-35 1.0000000180025095e-35 14.500000000000002 8.5000000000000018 4.5000000000000009 5.5000000000000009 1.5000000000000002 14.500000000000002 8.5000000000000018 17.500000000000004 1.0000000180025095e-35
decision_type=2 2 2 2 2 2 2 2 2 2 2 2 2
left_child=1 2 10 -4 5 6 -5 8 11 -10 -1 12 -3
right_child=-2 7 3 4 -6 -7 -8 -9 9 -11 -12 -13 -14
leaf_value=-0.00063577910281113672 0.0090824859677409026 -0.0024978662053506601 -0.0032812540186569097 0.0057795510036297718 0.010973981898278 0.0071802639518864456 -0.0039796122592752397 -0.0058754890858649447 0.0039023413448100626 -0.0031779704477892003 -0.0051600902179337067 -0.0014506394708795208 -0.0089351382784079777
leaf_weight=37 23 34 20 26 20 32 23 39 33 22 23 21 25
leaf_count=37 23 34 20 26 20 32 23 39 33 22 23 21 25
internal_value=0 -0.000588443 0.00165831 0.00365587 0.00502956 0.0035618 0.00119872 -0.00292558 -0.00207339 0.00107022 -0.0023701 -0.00423462 -0.00522552
internal_weight=0 355 181 121 101 81 49 174 135 55 60 80 59
internal_count=378 355 181 121 101 81 49 174 135 55 60 80 59
is_linear=0
shrinkage=0.05


Tree=56
num_leaves=16
num_cat=0
split_feature=1 1 1 4 4 1 4 1 1 1 2 4 0 0 4
split_gain=0.792642 0.995764 0.949708 1.34603 0.688395 0.860067 1.06734 0.2662 0.503411 0.208902 0.145946 0.378032 0.0893858 0.0620366 0.0260149
threshold=43.500000000000007 34.500000000000007 29.500000000000004 10.500000000000002 7.5000000000000009 6.5000000000000009 4.5000000000000009 16.500000000000004 11.500000000000002 22.500000000000004 1.0000000180025095e-35 1.0000000180025095e-35 11.500000000000002 12.500000000000002 9.5000000000000018
decision_type=2 2 2 2 2 2 2 2 2 2 2 2 2 2 2
left_child=1 2 3 4 5 10 7 8 13 -9 11 12 -1 -7 -3
right_child=-2 14 -4 -5 -6 6 -8 9 -10 -11 -12 -13 -14 -15 -16
leaf_value=-0.0040648431517183786 -0.0096869991405401385 0.0067012134985998274 -0.010179919352673967 0.010798367977674519 -0.0091972016898745849 -0.0027796028991756237 0.011477888016789048 -0.0064732743240892886 0.0075162182611945494 0.00075345030985772608 -0.00050652459352116652 -0.0089944016106892379 0.00055367520756342196 0.00078524788125203216 0.0092514530941843996
leaf_weight=20 20 20 23 28 22 23 27 20 28 20 29 30 22 26 20
leaf_count=20 20 20 23 28 22 23 27 20 28 20 29 30 22 26 20
internal_value=0 0.000541173 -0.000394067 0.000368898 -0.00072483 3.59548e-05 0.00251699 0.000449087 0.00216805 -0.00285991 -0.00350136 -0.00470761 -0.00164562 -0.000888049 0.00797633
internal_weight=0 358 318 295 267 245 144 117 77 40 101 72 42 49 40
internal_count=378 358 318 295 267 245 144 117 77 40 101 72 42 49 40
is_linear=0
shrinkage=0.05


Tree=57
num_leaves=14
num_cat=0
split_feature=0 3 2 4 4 4 0 4 4 1 1 1 1
split_gain=0.728172 0.658483 0.497334 0.408646 0.34811 0.939211 0.685102 0.169085 0.338233 0.238768 0.114407 0.0814539 0.187514
threshold=16.500000000000004 1.0000000180025095e-35 1.0000000180025095e-35 1.0000000180025095e-35 7.5000000000000009 13.500000000000002 12.500000000000002 5.5000000000000009 1.5000000000000002 14.500000000000002 8.5000000000000018 4.5000000000000009 17.500000000000004
decision_type=2 2 2 2 2 2 2 2 2 2 2 2 2
left_child=1 2 10 -4 6 -6 -5 8 11 -10 -1 -3 -13
right_child=-2 7 3 4 5 -7 -8 -9 9 -11 -12 12 -14
leaf_value=-0.00044777814229648256 0.0086216716366597345 -0.0016258609052747488 -0.0031313712149858477 0.0030593554715089726 -0.005684941364249782 0.0083153903782367707 0.014787073954939842 -0.0056547913945112858 0.0037911088361094396 -0.0029335627120665531 -0.0049384012858828775 -0.0073623658577750637 -0.0013531289262963195
leaf_weight=37 23 25 20 33 23 25 20 39 33 22 23 34 21
leaf_count=37 23 25 20 33 23 25 20 39 33 22 23 34 21
internal_value=0 -0.000558587 0.00155278 0.00339838 0.0046914 0.0016069 0.00748491 -0.00275489 -0.00191714 0.00110124 -0.00216918 -0.00399228 -0.00506793
internal_weight=0 355 181 121 101 48 53 174 135 55 60 80 55
internal_count=378 355 181 121 101 48 53 174 135 55 60 80 55
is_linear=0
shrinkage=0.05


Tree=58
num_leaves=16
num_cat=0
split_feature=1 1 1 4 4 1 4 1 2 0 1 2 4 0 4
split_gain=0.703203 0.908632 0.847222 1.20729 0.598267 0.776112 0.917229 0.239107 0.505788 1.03564 0.191125 0.125981 0.3557 0.0800305 0.0208536
threshold=43.500000000000007 34.500000000000007 29.500000000000004 10.500000000000002 7.5000000000000009 6.5000000000000009 4.5000000000000009 16.500000000000004 1.0000000180025095e-35 13.500000000000002 22.500000000000004 1.0000000180025095e-35 1.0000000180025095e-35 11.500000000000002 9.5000000000000018
decision_type=2 2 2 2 2 2 2 2 2 2 2 2 2 2 2
left_child=1 2 3 4 5 11 7 8 -7 -10 -9 12 13 -1 -3
right_child=-2 14 -4 -5 -6 6 -8 10 9 -11 -12 -13 -14 -15 -16
leaf_value=-0.0037895284686237578 -0.0091241169907152666 0.0064704990014433864 -0.0096264271632484771 0.010214338664497648 -0.0085971657217173338 0.0077549062812557598 0.010674096671519457 -0.0061420622561126946 -0.0078007460571825511 0.0064521123645827176 0.00077033377252519139 -0.00056740607391914414 -0.0086288201673111568 0.00058061761188913481 0.0087537842709571132
leaf_weight=20 20 20 23 28 22 26 27 20 26 25 20 29 30 22 20
leaf_count=20 20 20 23 28 22 26 27 20 26 25 20 29 30 22 20
internal_value=0 0.000509727 -0.000383658 0.000336964 -0.000698865 1.037e-05 0.0023672 0.000450226 0.00207936 -0.000814051 -0.00268586 -0.00334986 -0.00447058 -0.0015004 0.00761214
internal_weight=0 358 318 295 267 245 144 117 77 51 40 101 72 42 40
internal_count=378 358 318 295 267 245 144 117 77 51 40 101 72 42 40
is_linear=0
shrinkage=0.05


Tree=59
num_leaves=14
num_cat=0
split_feature=0 3 2 0 4 4 4 4 4 1 1 1 1
split_gain=0.650601 0.570954 0.436437 0.369734 0.622706 0.524939 0.50979 0.165482 0.308792 0.213191 0.114841 0.078826 0.168407
threshold=16.500000000000004 1.0000000180025095e-35 1.0000000180025095e-35 15.500000000000002 1.5000000000000002 4.5000000000000009 8.5000000000000018 5.5000000000000009 1.5000000000000002 14.500000000000002 8.5000000000000018 4.5000000000000009 17.500000000000004
decision_type=2 2 2 2 2 2 2 2 2 2 2 2 2
left_child=1 2 10 4 -4 -6 -7 8 11 -10 -1 -3 -13
right_child=-2 7 3 -5 5 6 -8 -9 9 -11 -12 12 -14
leaf_value=-0.00032393542823155186 0.0081495160120539367 -0.0013991882614791396 -0.00550262049602514 0.0093780445540323863 0.010782380215823652 -0.0042262259121660303 0.0053563413236822404 -0.0054419613085114043 0.0036813971247862684 -0.0026729041329500349 -0.0048230834386270988 -0.0069596726658774592 -0.0012648306454398804
leaf_weight=37 23 25 22 20 21 23 35 39 33 22 23 34 21
leaf_count=37 23 25 22 20 21 23 35 39 33 22 23 34 21
internal_value=0 -0.000527997 0.00143804 0.00316696 0.00193704 0.00400884 0.00155636 -0.00257313 -0.00174435 0.00113968 -0.00204861 -0.00372713 -0.00478528
internal_weight=0 355 181 121 101 79 58 174 135 55 60 80 55
internal_count=378 355 181 121 101 79 58 174 135 55 60 80 55
is_linear=0
shrinkage=0.05


Tree=60
num_leaves=16
num_cat=0
split_feature=1 1 1 4 4 1 4 1 1 1 2 4 0 0 4
split_gain=0.620323 0.834906 0.763967 1.05947 0.547224 0.711494 0.833239 0.222884 0.491964 0.173183 0.110112 0.334239 0.0716821 0.0282286 0.0162606
threshold=43.500000000000007 34.500000000000007 29.500000000000004 10.500000000000002 7.5000000000000009 6.5000000000000009 4.5000000000000009 16.500000000000004 11.500000000000002 22.500000000000004 1.0000000180025095e-35 1.0000000180025095e-35 11.500000000000002 12.500000000000002 9.5000000000000018
decision_type=2 2 2 2 2 2 2 2 2 2 2 2 2 2 2
left_child=1 2 3 4 5 10 7 8 13 -9 11 12 -1 -7 -3
right_child=-2 14 -4 -5 -6 6 -8 9 -10 -11 -12 -13 -14 -15 -16
leaf_value=-0.00353769623208791 -0.008569583310745657 0.0062788134359288957 -0.009154518507421017 0.0095596341416239738 -0.0082175285555422303 -0.0022800991028223351 0.01018865363051494 -0.0058736962080001833 0.0073040299882580128 0.00070625941269099714 -0.00060136240168378273 -0.0082812824286520488 0.0005982380699027668 0.00012460634685479679 0.0082950332388281832
leaf_weight=20 20 20 23 28 22 23 27 20 28 20 29 30 22 26 20
leaf_count=20 20 20 23 28 22 23 27 20 28 20 29 30 22 26 20
internal_value=0 0.000478748 -0.000377627 0.000306674 -0.000663674 1.46309e-05 0.00227122 0.000444116 0.00201702 -0.00258372 -0.00320268 -0.00425043 -0.00137125 -0.00100413 0.00728692
internal_weight=0 358 318 295 267 245 144 117 77 40 101 72 42 49 40
internal_count=378 358 318 295 267 245 144 117 77 40 101 72 42 49 40
is_linear=0
shrinkage=0.05


Tree=61
num_leaves=14
num_cat=0
split_feature=0 3 2 0 4 4 4 4 4 1 1 1 1
split_gain=0.586747 0.5048 0.372163 0.32735 0.554253 0.504175 0.457973 0.158902 0.285503 0.192864 0.112445 0.0787295 0.156391
threshold=16.500000000000004 1.0000000180025095e-35 1.0000000180025095e-35 15.500000000000002 1.5000000000000002 4.5000000000000009 8.5000000000000018 5.5000000000000009 1.5000000000000002 14.500000000000002 8.5000000000000018 4.5000000000000009 17.500000000000004
decision_type=2 2 2 2 2 2 2 2 2 2 2 2 2
left_child=1 2 10 4 -4 -6 -7 8 11 -10 -1 -3 -13
right_child=-2 7 3 -5 5 6 -8 -9 9 -11 -12 12 -14
leaf_value=-0.00016589251321715278 0.0077392652534636792 -0.0011923155188560486 -0.0052323613781481981 0.0087880126526579255 0.010379310067565669 -0.0041432223890138708 0.0049392864853143696 -0.0052356388515386832 0.0035783601924777031 -0.0024654141415587881 -0.0046178489680523465 -0.0066717214228607623 -0.0011837966302188025
leaf_weight=37 23 25 22 20 21 23 35 39 33 22 23 34 21
leaf_count=37 23 25 22 20 21 23 35 39 33 22 23 34 21
internal_value=0 -0.000501417 0.00134722 0.00294376 0.00178648 0.00374109 0.0013376 -0.00242442 -0.00161229 0.00116085 -0.00187248 -0.00351883 -0.00457633
internal_weight=0 355 181 121 101 79 58 174 135 55 60 80 55
internal_count=378 355 181 121 101 79 58 174 135 55 60 80 55
is_linear=0
shrinkage=0.05


Tree=62
num_leaves=16
num_cat=0
split_feature=1 1 1 4 4 1 4 1 2 0 1 2 0 4 1
split_gain=0.546812 0.767659 0.688515 0.930661 0.499808 0.653211 0.757492 0.207866 0.489832 0.842488 0.156923 0.096478 0.32557 0.0126062 0.00393718
threshold=43.500000000000007 34.500000000000007 29.500000000000004 10.500000000000002 7.5000000000000009 6.5000000000000009 4.5000000000000009 16.500000000000004 1.0000000180025095e-35 13.500000000000002 22.500000000000004 1.0000000180025095e-35 12.500000000000002 9.5000000000000018 2.5000000000000004
decision_type=2 2 2 2 2 2 2 2 2 2 2 2 2 2 2
left_child=1 2 3 4 5 11 7 8 -7 -10 -9 12 14 -3 -1
right_child=-2 13 -4 -5 -6 6 -8 10 9 -11 -12 -13 -14 -15 -16
leaf_value=-0.00091264297294875853 -0.008045811224728824 0.0060900968865462354 -0.0087038885154153995 0.0089501955679484792 -0.007850671752186662 0.0075411612167954447 0.0097279373409778439 -0.0056189020629972223 -0.0071931419929919336 0.0056621007211506372 0.00064454500563442712 -0.00063101035735473553 -0.0082614755773517713 0.0078653575666248806 -0.0018595670970777672
leaf_weight=23 20 20 23 28 22 26 27 20 26 25 20 29 28 20 21
leaf_count=23 20 20 23 28 22 26 27 20 26 25 20 29 28 20 21
internal_value=0 0.000449487 -0.000371676 0.000277954 -0.000631494 1.67587e-05 0.00217895 0.000436871 0.00195586 -0.000891552 -0.00248718 -0.00306596 -0.00404671 0.00697773 -0.00136458
internal_weight=0 358 318 295 267 245 144 117 77 51 40 101 72 40 44
internal_count=378 358 318 295 267 245 144 117 77 51 40 101 72 40 44
is_linear=0
shrinkage=0.05


Tree=63
num_leaves=14
num_cat=0
split_feature=0 3 2 4 4 4 0 4 4 1 1 1 1
split_gain=0.527909 0.439189 0.326551 0.283212 0.329218 0.706053 0.510984 0.153853 0.258382 0.170423 0.112853 0.0739605 0.139099
threshold=16.500000000000004 1.0000000180025095e-35 1.0000000180025095e-35 1.0000000180025095e-35 7.5000000000000009 13.500000000000002 12.500000000000002 5.5000000000000009 1.5000000000000002 14.500000000000002 8.5000000000000018 4.5000000000000009 17.500000000000004
decision_type=2 2 2 2 2 2 2 2 2 2 2 2 2
left_child=1 2 10 -4 6 -6 -5 8 11 -10 -1 -3 -13
right_child=-2 7 3 4 5 -7 -8 -9 9 -11 -12 12 -14
leaf_value=-5.7568042413205714e-05 0.0073409769046322813 -0.0010289501845836639 -0.002691781882895157 0.002715270867514791 -0.0055012722459176315 0.0066375151723623285 0.012843640390783548 -0.0050354947168857632 0.0034404863927964915 -0.0022408072836697102 -0.004517585103926451 -0.0062850240958676517 -0.0011093873175836745
leaf_weight=37 23 25 20 33 23 25 20 39 33 22 23 34 21
leaf_count=37 23 25 20 33 23 25 20 39 33 22 23 34 21
internal_value=0 -0.000475613 0.0012487 0.00274421 0.00382065 0.000821013 0.0065373 -0.0022693 -0.00147017 0.00116797 -0.00176724 -0.0032839 -0.00430887
internal_weight=0 355 181 121 101 48 53 174 135 55 60 80 55
internal_count=378 355 181 121 101 48 53 174 135 55 60 80 55
is_linear=0
shrinkage=0.05


Tree=64
num_leaves=16
num_cat=0
split_feature=1 1 1 4 4 1 4 1 1 1 4 0 1 4 0
split_gain=0.484169 0.702516 0.612592 0.839066 0.431458 0.591319 0.650133 0.18693 0.47755 0.143536 0.0837316 0.0842105 0.0582578 0.0100293 0.00966283
threshold=43.500000000000007 34.500000000000007 29.500000000000004 10.500000000000002 7.5000000000000009 6.5000000000000009 4.5000000000000009 16.500000000000004 11.500000000000002 22.500000000000004 1.5000000000000002 12.500000000000002 2.5000000000000004 9.5000000000000018 12.500000000000002
decision_type=2 2 2 2 2 2 2 2 2 2 2 2 2 2 2
left_child=1 2 3 4 5 10 7 8 14 -9 11 12 -1 -3 -7
right_child=-2 13 -4 -5 -6 6 -8 9 -10 -11 -12 -13 -14 -15 -16
leaf_value=-0.00071872443492923468 -0.0075709292106330402 0.0058763407252263276 -0.0082219876267987761 0.0084846090126250474 -0.007320781371725555 -0.0018503998436600619 0.0090397443915544839 -0.0053358095046132804 0.0070816734972010773 0.00065451001748442652 -0.00092317170929163701 -0.0061956323486251326 -0.0044893567729741334 0.0074597967509180312 -0.00044347920383398348
leaf_weight=21 20 20 23 28 22 23 27 20 28 20 34 26 20 20 26
leaf_count=21 20 20 23 28 22 23 27 20 28 20 34 26 20 20 26
internal_value=0 0.000422957 -0.000362592 0.000250175 -0.000613361 -1.10625e-05 0.00204614 0.000432233 0.00187269 -0.00234065 -0.00294411 -0.00396965 -0.00255806 0.00666807 -0.00110387
internal_weight=0 358 318 295 267 245 144 117 77 40 101 67 41 40 49
internal_count=378 358 318 295 267 245 144 117 77 40 101 67 41 40 49
is_linear=0
shrinkage=0.05


Tree=65
num_leaves=14
num_cat=0
split_feature=0 3 4 4 1 4 0 0 4 4 1 1 1
split_gain=0.475803 0.392278 0.313362 0.672541 0.45375 0.421217 0.188733 0.160501 0.147141 0.228604 0.148445 0.0745138 0.0617377
threshold=16.500000000000004 1.0000000180025095e-35 7.5000000000000009 1.5000000000000002 21.500000000000004 12.500000000000002 12.500000000000002 12.500000000000002 5.5000000000000009 1.5000000000000002 14.500000000000002 10.500000000000002 3.5000000000000004
decision_type=2 2 2 2 2 2 2 2 2 2 2 2 2
left_child=1 2 3 7 6 -4 -5 -1 9 11 -11 12 -3
right_child=-2 8 5 4 -6 -7 -8 -9 -10 10 -12 -13 -14
leaf_value=0.00091203830491464865 0.0069692822401006913 -0.0034475341142917223 -0.0071243870750312584 -0.00033913878723978996 0.012035265564918518 0.0016900800281401838 0.0065298590343445539 -0.00428483195185739 -0.0048519012828667964 0.0032371748873794622 -0.0020651420155032118 -0.0046754966012821043 0.0003908066276926548
leaf_weight=39 23 22 23 20 22 33 20 24 39 33 22 38 20
leaf_count=39 23 22 23 20 22 33 20 24 39 33 22 38 20
internal_value=0 -0.000451531 0.0011781 0.00257059 0.00626758 -0.00193015 0.00309536 -0.00106772 -0.00214672 -0.00136522 0.00111625 -0.00307123 -0.00161975
internal_weight=0 355 181 125 62 56 40 63 174 135 55 80 42
internal_count=378 355 181 125 62 56 40 63 174 135 55 80 42
is_linear=0
shrinkage=0.05


Tree=66
num_leaves=15
num_cat=0
split_feature=1 1 1 4 4 1 4 1 1 0 2 4 0 4
split_gain=0.442117 0.655834 0.555712 0.765181 0.364118 0.523992 0.569679 0.175056 0.463045 0.246252 0.0841835 0.336179 0.0717451 0.00873766
threshold=43.500000000000007 34.500000000000007 29.500000000000004 10.500000000000002 7.5000000000000009 6.5000000000000009 4.5000000000000009 18.500000000000004 14.500000000000002 12.500000000000002 1.0000000180025095e-35 1.0000000180025095e-35 11.500000000000002 9.5000000000000018
decision_type=2 2 2 2 2 2 2 2 2 2 2 2 2 2
left_child=1 2 3 4 5 10 7 8 9 -7 11 12 -1 -3
right_child=-2 13 -4 -5 -6 6 -8 -9 -10 -11 -12 -13 -14 -15
leaf_value=-0.00299956287490204 -0.0072346817329525942 0.0056992374709807338 -0.007840458133622356 0.0080923283472657207 -0.0067576356274499138 -0.0015723731536935602 0.0084406001148400484 0.0036768131772987548 -0.007428876770136413 0.0045070952548074625 -0.0005290392360746347 -0.0077622141052658359 0.0011381890963424336 0.0071772144641727214
leaf_weight=20 20 20 23 28 22 36 27 30 20 31 29 30 22 20
leaf_count=20 20 20 23 28 22 36 27 30 20 31 29 30 22 20
internal_value=0 0.000404172 -0.000354828 0.000228797 -0.000595843 -4.25391e-05 0.00189401 0.00038326 -0.000752448 0.00124052 -0.00280356 -0.00371969 -0.000832169 0.00643823
internal_weight=0 358 318 295 267 245 144 117 87 67 101 72 42 40
internal_count=378 358 318 295 267 245 144 117 87 67 101 72 42 40
is_linear=0
shrinkage=0.05


Tree=67
num_leaves=15
num_cat=0
split_feature=0 1 1 4 0 4 1 4 1 1 1 4 0 4
split_gain=0.431906 0.351897 0.689871 0.607827 0.629294 0.324164 0.242921 0.212499 0.154161 0.402572 0.179593 0.154351 0.0784852 0.00788574
threshold=16.500000000000004 43.500000000000007 34.500000000000007 7.5000000000000009 15.500000000000002 3.5000000000000004 10.500000000000002 10.500000000000002 10.500000000000002 6.5000000000000009 18.500000000000004 1.0000000180025095e-35 11.500000000000002 9.5000000000000018
decision_type=2 2 2 2 2 2 2 2 2 2 2 2 2 2
left_child=1 2 3 4 5 8 -7 -5 9 11 -10 12 -1 -4
right_child=-2 -3 13 7 -6 6 -8 -9 10 -11 -12 -13 -14 -15
leaf_value=-0.0028495847550220788 0.0066400144236546986 -0.0068729474395513544 0.0054142760322429245 -0.0097334677237086008 0.0071115306674920283 -0.00073588348247788176 0.0066132128339908697 -0.00327274799613016 -0.0058022146686338462 0.005670092862454199 -0.00079043195441816795 -0.0052767866971687631 0.0012829443914125916 0.0068183537200093266
leaf_weight=20 23 20 20 20 29 22 23 35 39 21 33 26 27 20
leaf_count=20 23 20 20 20 29 22 23 35 39 21 33 26 27 20
internal_value=0 -0.000430198 -4.55565e-05 -0.000881064 0.000205423 -0.000743758 0.00302032 -0.0056221 -0.00176414 -0.000430603 -0.00350515 -0.0021856 -0.000475579 0.00611631
internal_weight=0 355 335 295 240 211 45 55 166 94 72 73 47 40
internal_count=378 355 335 295 240 211 45 55 166 94 72 73 47 40
is_linear=0
shrinkage=0.05


Tree=68
num_leaves=14
num_cat=0
split_feature=0 3 4 4 1 4 0 0 4 4 1 1 1
split_gain=0.389795 0.337024 0.266183 0.572072 0.424533 0.334036 0.164067 0.162723 0.139586 0.197816 0.144357 0.0791696 0.122292
threshold=16.500000000000004 1.0000000180025095e-35 7.5000000000000009 1.5000000000000002 21.500000000000004 12.500000000000002 12.500000000000002 12.500000000000002 5.5000000000000009 1.5000000000000002 14.500000000000002 4.5000000000000009 17.500000000000004
decision_type=2 2 2 2 2 2 2 2 2 2 2 2 2
left_child=1 2 3 7 6 -4 -5 -1 9 11 -11 -3 -13
right_child=-2 8 5 4 -6 -7 -8 -9 -10 10 -12 12 -14
leaf_value=0.0010230586022281875 0.0063080136082135146 -0.00047276159934699536 -0.0063884770740633423 -0.0004757091449573636 0.011373798638074237 0.0014609802288539483 0.005928715649060905 -0.0042096559356044365 -0.0046147773997523844 0.0031810556933509582 -0.002047735909846696 -0.0057191458561539872 -0.00086624967821297193
leaf_weight=39 23 25 23 20 22 33 20 24 39 33 22 34 21
leaf_count=39 23 25 23 20 22 33 20 24 39 33 22 34 21
internal_value=0 -0.000408688 0.00110182 0.00238521 0.0057949 -0.0017629 0.0027265 -0.000970356 -0.00197996 -0.00121879 0.00108954 -0.00280577 -0.00386622
internal_weight=0 355 181 125 62 56 40 63 174 135 55 80 55
internal_count=378 355 181 125 62 56 40 63 174 135 55 80 55
is_linear=0
shrinkage=0.05


end of trees

feature_importances:
Column_1=346
Column_4=260
Column_0=207
Column_3=82
Column_2=52

parameters:
[boosting: gbdt]
[objective: regression]
[metric: l2]
[tree_learner: serial]
[device_type: cpu]
[data: ]
[valid: ]
[num_iterations: 10000]
[learning_rate: 0.05]
[num_leaves: 63]
[num_threads: 0]
[deterministic: 0]
[force_col_wise: 0]
[force_row_wise: 0]
[histogram_pool_size: -1]
[max_depth: -1]
[min_data_in_leaf: 20]
[min_sum_hessian_in_leaf: 0.001]
[bagging_fraction: 1]
[pos_bagging_fraction: 1]
[neg_bagging_fraction: 1]
[bagging_freq: 0]
[bagging_seed: 32458]
[feature_fraction: 0.9]
[feature_fraction_bynode: 1]
[feature_fraction_seed: 15412]
[extra_trees: 0]
[extra_seed: 19498]
[early_stopping_round: 0]
[first_metric_only: 0]
[max_delta_step: 0]
[lambda_l1: 0]
[lambda_l2: 0]
[linear_lambda: 0]
[min_gain_to_split: 0]
[drop_rate: 0.1]
[max_drop: 50]
[skip_drop: 0.5]
[xgboost_dart_mode: 0]
[uniform_drop: 0]
[drop_seed: 818]
[top_rate: 0.2]
[other_rate: 0.1]
[min_data_per_group: 100]
[max_cat_threshold: 32]
[cat_l2: 10]
[cat_smooth: 10]
[max_cat_to_onehot: 4]
[top_k: 20]
[monotone_constraints: ]
[monotone_constraints_method: basic]
[monotone_penalty: 0]
[feature_contri: ]
[forcedsplits_filename: ]
[refit_decay_rate: 0.9]
[cegb_tradeoff: 1]
[cegb_penalty_split: 0]
[cegb_penalty_feature_lazy: ]
[cegb_penalty_feature_coupled: ]
[path_smooth: 0]
[interaction_constraints: ]
[verbosity: -1]
[saved_feature_importance_type: 0]
[linear_tree: 0]
[max_bin: 255]
[max_bin_by_feature: ]
[min_data_in_bin: 3]
[bin_construct_sample_cnt: 200000]
[data_random_seed: 4078]
[is_enable_sparse: 1]
[enable_bundle: 1]
[use_missing: 1]
[zero_as_missing: 0]
[feature_pre_filter: 1]
[pre_partition: 0]
[two_round: 0]
[header: 0]
[label_column: ]
[weight_column: ]
[group_column: ]
[ignore_column: ]
[categorical_feature: ]
[forcedbins_filename: ]
[precise_float_parser: 0]
[parser_config_file: ]
[objective_seed: 21231]
[num_class: 1]
[is_unbalance: 0]
[scale_pos_weight: 1]
[sigmoid: 1]
[boost_from_average: 1]
[reg_sqrt: 0]
[alpha: 0.9]
[fair_c: 1]
[poisson_max_delta_step: 0.7]
[tweedie_variance_power: 1.5]
[lambdarank_truncation_level: 30]
[lambdarank_norm: 1]
[label_gain: ]
[eval_at: ]
[multi_error_top_k: 1]
[auc_mu_weights: ]
[num_machines: 1]
[local_listen_port: 12400]
[time_out: 120]
[machine_list_filename: ]
[machines: ]
[gpu_platform_id: -1]
[gpu_device_id: -1]
[gpu_use_dp: 0]
[num_gpu: 1]

end of parameters

pandas_categorical:null
