tree
version=v4
num_class=1
num_tree_per_iteration=1
label_index=0
max_feature_idx=4
objective=regression
feature_names=Column_0 Column_1 Column_2 Column_3 Column_4
feature_infos=[0:18] [1:51] [0:1] [0:1] [0:44]
tree_sizes=652 649 646 646 650 649 641 647 648 642 640 562 568 647 568 645 561 563 568 568 646 567 648 564 646 651 566 652 647 650 565 651 648 572 566 651 648 651 647 726 653 648 570 660 654 652 651 661 650 574 573 735 657 666 574 658 657 654 654 573 658 576 657 570 573

Tree=0
num_leaves=6
num_cat=0
split_feature=0 1 3 1 1
split_gain=73.5618 31.8154 28.7788 1.30516 1.13485
threshold=15.500000000000002 6.5000000000000009 1.0000000180025095e-35 21.500000000000004 24.500000000000004
decision_type=2 2 2 2 2
left_child=1 -1 4 -4 -3
right_child=-2 2 3 -5 -6
leaf_value=-0.037572328219362586 0.044334421917411784 0.021741873303349115 -0.013693220127237194 -0.024537177078189362 0.011557728812371553
leaf_weight=82 75 59 56 55 51
leaf_count=82 75 59 56 55 51
internal_value=9.01757e-10 -0.0109739 -0.00110475 -0.0190664 0.0170201
internal_weight=0 303 221 111 110
internal_count=378 303 221 111 110
is_linear=0
shrinkage=1


Tree=1
num_leaves=6
num_cat=0
split_feature=4 3 3 4 1
split_gain=58.6054 30.1505 9.50083 3.49231 0.664465
threshold=2.5000000000000004 1.0000000180025095e-35 1.0000000180025095e-35 8.5000000000000018 9.5000000000000018
decision_type=2 2 2 2 2
left_child=2 3 -1 -2 -4
right_child=1 -3 4 -5 -6
leaf_value=-0.0067733926578269661 0.0284574801634465 -0.0047065733617145415 -0.032411101248500676 0.046363844860450559 -0.024545733258128168
leaf_weight=90 56 71 58 53 50
leaf_count=90 56 71 58 53 50
internal_value=0 0.0206485 -0.0187714 0.0371642 -0.0287697
internal_weight=0 180 198 109 108
internal_count=378 180 198 109 108
is_linear=0
shrinkage=0.05


Tree=2
num_leaves=6
num_cat=0
split_feature=0 1 3 1 1
split_gain=65.2803 26.9194 23.1531 1.22857 1.10735
threshold=15.500000000000002 6.5000000000000009 1.0000000180025095e-35 21.500000000000004 24.500000000000004
decision_type=2 2 2 2 2
left_child=1 -1 4 -4 -3
right_child=-2 2 3 -5 -6
leaf_value=-0.034804136640528532 0.041764351972689233 0.019661621608913452 -0.012157239581990456 -0.022678207152269106 0.0096016466581061791
leaf_weight=82 75 59 56 55 51
leaf_count=82 75 59 56 55 51
internal_value=0 -0.0103377 -0.00125967 -0.0173703 0.0149975
internal_weight=0 303 221 111 110
internal_count=378 303 221 111 110
is_linear=0
shrinkage=0.05


Tree=3
num_leaves=6
num_cat=0
split_feature=0 4 3 0 1
split_gain=58.9154 40.0357 13.3825 6.79165 0.636245
threshold=15.500000000000002 2.5000000000000004 1.0000000180025095e-35 11.500000000000002 9.5000000000000018
decision_type=2 2 2 2 2
left_child=1 3 -3 -1 -5
right_child=-2 2 -4 4 -6
leaf_value=-0.041849049599841238 0.03967613401512305 0.023171358425288072 -0.0075898665469139818 -0.023622321202843029 -0.015945615774055698
leaf_weight=52 75 79 64 55 53
leaf_count=52 75 79 64 55 53
internal_value=0 -0.00982083 0.0094041 -0.0270031 -0.019855
internal_weight=0 303 143 160 108
internal_count=378 303 143 160 108
is_linear=0
shrinkage=0.05


Tree=4
num_leaves=6
num_cat=0
split_feature=4 3 3 4 1
split_gain=47.0163 22.9498 7.1803 3.18025 0.546716
threshold=2.5000000000000004 1.0000000180025095e-35 1.0000000180025095e-35 8.5000000000000018 9.5000000000000018
decision_type=2 2 2 2 2
left_child=2 3 -1 -2 -4
right_child=1 -3 4 -5 -6
leaf_value=-0.0063828995130542259 0.024595096275360058 -0.0036265605404763156 -0.028808232594345663 0.041682739330912544 -0.021673728525638581
leaf_weight=90 56 71 58 53 50
leaf_count=90 56 71 58 53 50
internal_value=0 0.0184946 -0.0168133 0.0329038 -0.0255052
internal_weight=0 180 198 109 108
internal_count=378 180 198 109 108
is_linear=0
shrinkage=0.05


Tree=5
num_leaves=6
num_cat=0
split_feature=4 3 3 4 1
split_gain=42.4322 20.7122 6.48022 2.87018 0.493411
threshold=2.5000000000000004 1.0000000180025095e-35 1.0000000180025095e-35 8.5000000000000018 9.5000000000000018
decision_type=2 2 2 2 2
left_child=2 3 -1 -2 -4
right_child=1 -3 4 -5 -6
leaf_value=-0.0060637544447349184 0.023365342157610162 -0.0034452331711498788 -0.027367820777801862 0.039598602928080651 -0.020590041719377044
leaf_weight=90 56 71 58 53 50
leaf_count=90 56 71 58 53 50
internal_value=0 0.0175699 -0.0159726 0.0312586 -0.02423
internal_weight=0 180 198 109 108
internal_count=378 180 198 109 108
is_linear=0
shrinkage=0.05


Tree=6
num_leaves=6
num_cat=0
split_feature=0 4 0 4 1
split_gain=51.4922 29.4704 6.11034 2.36488 0.531575
threshold=15.500000000000002 2.5000000000000004 11.500000000000002 10.500000000000002 9.5000000000000018
decision_type=2 2 2 2 2
left_child=1 2 -1 -3 -4
right_child=-2 3 4 -5 -6
leaf_value=-0.038004695391282442 0.037092451224724453 0.0023787090358220872 -0.02058649895797399 0.015691943812834206 -0.013569604510546857
leaf_weight=52 75 90 55 53 53
leaf_count=52 75 90 55 53 53
internal_value=0 -0.0091813 -0.0239231 0.00731298 -0.017143
internal_weight=0 303 160 143 108
internal_count=378 303 160 143 108
is_linear=0
shrinkage=0.05


Tree=7
num_leaves=6
num_cat=0
split_feature=0 4 3 0 1
split_gain=46.4717 26.597 9.26698 5.51458 0.479747
threshold=15.500000000000002 2.5000000000000004 1.0000000180025095e-35 11.500000000000002 9.5000000000000018
decision_type=2 2 2 2 2
left_child=1 3 -3 -1 -5
right_child=-2 2 -4 4 -6
leaf_value=-0.036104460976471624 0.035237828662308554 0.018403720466089967 -0.0071941392438020562 -0.01955717415294864 -0.012891124672133407
leaf_weight=52 75 79 64 55 53
leaf_count=52 75 79 64 55 53
internal_value=0 -0.00872223 0.00694734 -0.0227269 -0.0162859
internal_weight=0 303 143 160 108
internal_count=378 303 143 160 108
is_linear=0
shrinkage=0.05


Tree=8
num_leaves=6
num_cat=0
split_feature=4 3 3 4 1
split_gain=32.5205 16.9143 5.17749 2.4753 0.443163
threshold=2.5000000000000004 1.0000000180025095e-35 1.0000000180025095e-35 8.5000000000000018 9.5000000000000018
decision_type=2 2 2 2 2
left_child=2 3 -1 -2 -4
right_child=1 -3 4 -5 -6
leaf_value=-0.0051261741616245781 0.020421556030799235 -0.0036093813144195252 -0.024337838179881461 0.035496821855458452 -0.01791444672923535
leaf_weight=90 56 71 58 53 50
leaf_count=90 56 71 58 53 50
internal_value=0 0.0153815 -0.0139832 0.0277517 -0.021364
internal_weight=0 180 198 109 108
internal_count=378 180 198 109 108
is_linear=0
shrinkage=0.05


Tree=9
num_leaves=6
num_cat=0
split_feature=0 4 4 0 1
split_gain=41.5777 16.0455 14.6307 3.77614 2.20563
threshold=13.500000000000002 3.5000000000000004 2.5000000000000004 11.500000000000002 25.500000000000004
decision_type=2 2 2 2 2
left_child=2 -2 3 -1 -4
right_child=1 -3 4 -5 -6
leaf_value=-0.033550566418741185 0.0090166198578663179 0.045123413924127824 0.0081027504159295449 -0.016444780901074412 -0.0060216680724317073
leaf_weight=52 80 50 59 85 52
leaf_count=52 80 50 59 85 52
internal_value=0 0.0229038 -0.012006 -0.0229375 0.00148591
internal_weight=0 130 248 137 111
internal_count=378 130 248 137 111
is_linear=0
shrinkage=0.05


Tree=10
num_leaves=6
num_cat=0
split_feature=0 4 0 4 1
split_gain=38.4809 19.5213 4.39159 1.96554 0.429783
threshold=15.500000000000002 2.5000000000000004 11.500000000000002 10.500000000000002 9.5000000000000018
decision_type=2 2 2 2 2
left_child=1 2 -1 -3 -4
right_child=-2 3 4 -5 -6
leaf_value=-0.031873037680410422 0.03206546075611065 0.00098897909693833851 -0.01728340181606737 0.013126225736132771 -0.010974012301215585
leaf_weight=52 75 90 55 53 53
leaf_count=52 75 90 55 53 53
internal_value=0 -0.007937 -0.019935 0.0054874 -0.0141871
internal_weight=0 303 160 143 108
internal_count=378 303 160 143 108
is_linear=0
shrinkage=0.05


Tree=11
num_leaves=5
num_cat=0
split_feature=4 3 1 4
split_gain=25.5112 16.0302 4.63294 3.57672
threshold=1.5000000000000002 1.0000000180025095e-35 4.5000000000000009 8.5000000000000018
decision_type=2 2 2 2
left_child=2 3 -1 -2
right_child=1 -3 -4 -5
leaf_value=-0.02720300448459706 0.015172144735255575 -0.0051885587934364557 -0.0091410641644879727 0.031962038225160458
leaf_weight=56 79 93 97 53
leaf_count=56 79 93 97 53
internal_value=0 0.0107113 -0.015752 0.0219135
internal_weight=0 225 153 132
internal_count=378 225 153 132
is_linear=0
shrinkage=0.05


Tree=12
num_leaves=5
num_cat=0
split_feature=0 0 3 1
split_gain=34.1499 13.7788 15.6044 0.104984
threshold=15.500000000000002 11.500000000000002 1.0000000180025095e-35 13.500000000000002
decision_type=2 2 2 2
left_child=1 -1 -3 -4
right_child=-2 2 3 -5
leaf_value=-0.023880024299853378 0.030207143822995327 0.014826625687701087 -0.011005622140116625 -0.013963844953894113
leaf_weight=90 75 93 61 59
leaf_count=90 75 93 61 59
internal_value=0 -0.00747702 -0.000546167 -0.0124601
internal_weight=0 303 213 120
internal_count=378 303 213 120
is_linear=0
shrinkage=0.05


Tree=13
num_leaves=6
num_cat=0
split_feature=0 1 1 3 1
split_gain=30.9857 9.93823 9.47737 8.21954 1.00323
threshold=13.500000000000002 9.5000000000000018 4.5000000000000009 1.0000000180025095e-35 20.500000000000004
decision_type=2 2 2 2 2
left_child=2 -2 -1 -4 -5
right_child=1 -3 3 4 -6
leaf_value=-0.029815266486257316 0.004840090167417657 0.032571472187659573 0.0055939396059109863 -0.010313131311385518 -0.020016904357820751
leaf_weight=50 60 70 91 57 50
leaf_count=50 60 70 91 57 50
internal_value=0 0.0197724 -0.0103646 -0.00545275 -0.0148476
internal_weight=0 130 248 198 107
internal_count=378 130 248 198 107
is_linear=0
shrinkage=0.05


Tree=14
num_leaves=5
num_cat=0
split_feature=0 4 3 0
split_gain=28.8248 14.9752 5.38323 3.12035
threshold=15.500000000000002 2.5000000000000004 1.0000000180025095e-35 11.500000000000002
decision_type=2 2 2 2
left_child=1 3 -3 -1
right_child=-2 2 -4 -5
leaf_value=-0.027440780118251074 0.027752253762446347 0.013620161512701574 -0.0058897886687191208 -0.012532821827470023
leaf_weight=52 75 79 64 108
leaf_count=52 75 79 64 108
internal_value=0 -0.00686937 0.00488844 -0.0173779
internal_weight=0 303 143 160
internal_count=378 303 143 160
is_linear=0
shrinkage=0.05


Tree=15
num_leaves=6
num_cat=0
split_feature=0 4 0 4 1
split_gain=26.0144 13.5151 2.81612 1.61174 0.302852
threshold=15.500000000000002 2.5000000000000004 11.500000000000002 10.500000000000002 9.5000000000000018
decision_type=2 2 2 2 2
left_child=1 2 -1 -3 -4
right_child=-2 3 4 -5 -6
leaf_value=-0.026068741386496608 0.026364641110102338 0.00057053226356705035 -0.014505320699800824 0.011561246312065225 -0.0092089603391458403
leaf_weight=52 75 90 55 53 53
leaf_count=52 75 90 55 53 53
internal_value=0 -0.0065259 -0.016509 0.00464401 -0.0119062
internal_weight=0 303 160 143 108
internal_count=378 303 160 143 108
is_linear=0
shrinkage=0.05


Tree=16
num_leaves=5
num_cat=0
split_feature=0 4 0 4
split_gain=23.8081 12.2581 7.89355 7.38307
threshold=13.500000000000002 3.5000000000000004 11.500000000000002 2.5000000000000004
decision_type=2 2 2 2
left_child=2 -2 -1 -4
right_child=1 -3 3 -5
leaf_value=-0.020904337385048471 0.0051935965922893963 0.036752579379361126 -0.012369106165762575 0.0093102426434012314
leaf_weight=90 80 50 85 73
leaf_count=90 80 50 85 73
internal_value=0 0.0173317 -0.00908515 -0.0023527
internal_weight=0 130 248 158
internal_count=378 130 248 158
is_linear=0
shrinkage=0.05


Tree=17
num_leaves=5
num_cat=0
split_feature=4 3 1 4
split_gain=17.1278 11.1831 3.36659 2.87426
threshold=1.5000000000000002 1.0000000180025095e-35 4.5000000000000009 8.5000000000000018
decision_type=2 2 2 2
left_child=2 3 -1 -2
right_child=1 -3 -4 -5
leaf_value=-0.02266823624460293 0.012089926646757117 -0.0045035622047600891 -0.007271409040969826 0.027141037383028921
leaf_weight=56 79 93 97 53
leaf_count=56 79 93 97 53
internal_value=0 0.00877666 -0.0129068 0.0181332
internal_weight=0 225 153 132
internal_count=378 225 153 132
is_linear=0
shrinkage=0.05


Tree=18
num_leaves=5
num_cat=0
split_feature=0 0 3 1
split_gain=21.4971 9.8712 11.5458 0.176684
threshold=15.500000000000002 11.500000000000002 1.0000000180025095e-35 13.500000000000002
decision_type=2 2 2 2
left_child=1 -1 -3 -4
right_child=-2 2 3 -5
leaf_value=-0.019815909949441754 0.023966526229089749 0.013157350657087181 -0.0084272354902302626 -0.012264911844631878
leaf_weight=90 75 93 61 59
leaf_count=90 75 93 61 59
internal_value=0 -0.00593231 -6.59979e-05 -0.0103141
internal_weight=0 303 213 120
internal_count=378 303 213 120
is_linear=0
shrinkage=0.05


Tree=19
num_leaves=5
num_cat=0
split_feature=0 4 3 0
split_gain=19.4012 9.98645 4.02443 1.91982
threshold=15.500000000000002 2.5000000000000004 1.0000000180025095e-35 11.500000000000002
decision_type=2 2 2 2
left_child=1 3 -3 -1
right_child=-2 2 -4 -5
leaf_value=-0.022110326548751731 0.022768199695895119 0.011515677874153363 -0.0053532171223196201 -0.010416765049039559
leaf_weight=52 75 79 64 108
leaf_count=52 75 79 64 108
internal_value=0 -0.00563569 0.00396596 -0.0142172
internal_weight=0 303 143 160
internal_count=378 303 143 160
is_linear=0
shrinkage=0.05


Tree=20
num_leaves=6
num_cat=0
split_feature=0 4 0 4 1
split_gain=17.9729 17.9167 5.14022 5.47433 4.17584
threshold=12.500000000000002 4.5000000000000009 10.500000000000002 2.5000000000000004 7.5000000000000009
decision_type=2 2 2 2 2
left_child=2 4 -1 -4 -2
right_child=1 -3 3 -5 -6
leaf_value=-0.020666135758545034 -0.0089737736193884945 0.036564038272173902 -0.012665102835134827 0.0064186208806110215 0.010969531483939275
leaf_weight=68 53 53 84 68 52
leaf_count=68 53 53 84 68 52
internal_value=0 0.0128652 -0.00923954 -0.00412765 0.000902911
internal_weight=0 158 220 152 105
internal_count=378 158 220 152 105
is_linear=0
shrinkage=0.05


Tree=21
num_leaves=5
num_cat=0
split_feature=0 1 0 3
split_gain=16.4786 8.79982 8.51539 9.09326
threshold=15.500000000000002 6.5000000000000009 10.500000000000002 1.0000000180025095e-35
decision_type=2 2 2 2
left_child=1 -1 -3 -4
right_child=-2 2 3 -5
leaf_value=-0.019182518276772122 0.020983358849460881 -0.017697221009383122 0.017673752190312371 -0.0055553946078995648
leaf_weight=82 75 52 80 89
leaf_count=82 75 52 80 89
internal_value=0 -0.0051939 -3.55402e-06 0.00544065
internal_weight=0 303 221 169
internal_count=378 303 221 169
is_linear=0
shrinkage=0.05


Tree=22
num_leaves=6
num_cat=0
split_feature=0 4 0 3 4
split_gain=15.0543 15.768 4.19571 6.8447 0.396133
threshold=12.500000000000002 4.5000000000000009 11.500000000000002 1.0000000180025095e-35 1.5000000000000002
decision_type=2 2 2 2 2
left_child=2 4 -1 -4 -2
right_child=1 -3 3 -5 -6
leaf_value=-0.016754862773749563 -0.0026078741846825271 0.034006765975950745 0.01134060577561076 -0.012078480355035609 0.0035368625514416233
leaf_weight=90 51 53 52 78 54
leaf_count=90 51 53 52 78 54
internal_value=0 0.0117744 -0.00845613 -0.00271085 0.000552276
internal_weight=0 158 220 130 105
internal_count=378 158 220 130 105
is_linear=0
shrinkage=0.05


Tree=23
num_leaves=5
num_cat=0
split_feature=1 3 1 4
split_gain=12.473 9.45889 4.89846 3.07299
threshold=6.5000000000000009 1.0000000180025095e-35 16.500000000000004 3.5000000000000004
decision_type=2 2 2 2
left_child=-1 3 -3 -2
right_child=1 2 -4 -5
leaf_value=-0.01464520935651048 0.0054161984824621289 0.0072106630687474044 -0.01304287808145293 0.019985418866147825
leaf_weight=105 61 51 72 89
leaf_count=105 61 51 72 89
internal_value=0 0.00563277 -0.00464507 0.0140606
internal_weight=0 273 123 150
internal_count=378 273 123 150
is_linear=0
shrinkage=0.05


Tree=24
num_leaves=6
num_cat=0
split_feature=0 1 0 4 1
split_gain=13.7881 6.97809 7.08771 5.27198 0.0360298
threshold=15.500000000000002 6.5000000000000009 10.500000000000002 2.5000000000000004 22.500000000000004
decision_type=2 2 2 2 2
left_child=1 -1 -3 -4 -5
right_child=-2 2 3 4 -6
leaf_value=-0.017207800584459088 0.019194078076262184 -0.016271445415734959 -0.0061942840615908309 0.012851282519598804 0.010980889986519917
leaf_weight=82 75 52 66 51 52
leaf_count=82 75 52 66 51 52
internal_value=0 -0.00475101 -0.000129033 0.00483786 0.011907
internal_weight=0 303 221 169 103
internal_count=378 303 221 169 103
is_linear=0
shrinkage=0.05


Tree=25
num_leaves=6
num_cat=0
split_feature=0 4 0 3 1
split_gain=12.4981 13.0922 3.49194 4.31855 3.05068
threshold=12.500000000000002 4.5000000000000009 10.500000000000002 1.0000000180025095e-35 7.5000000000000009
decision_type=2 2 2 2 2
left_child=2 4 -1 -4 -2
right_child=1 -3 3 -5 -6
leaf_value=-0.017122852520140657 -0.0079392653573655859 0.030986648846751536 0.0060011780476753622 -0.010973976725602852 0.0091067640039210144
leaf_weight=68 53 53 67 85 52
leaf_count=68 53 53 67 85 52
internal_value=0 0.0107282 -0.00770483 -0.00349151 0.000502578
internal_weight=0 158 220 152 105
internal_count=378 158 220 152 105
is_linear=0
shrinkage=0.05


Tree=26
num_leaves=5
num_cat=0
split_feature=1 3 1 4
split_gain=10.0162 7.7905 4.35726 2.59491
threshold=6.5000000000000009 1.0000000180025095e-35 16.500000000000004 8.5000000000000018
decision_type=2 2 2 2
left_child=-1 3 -3 -2
right_child=1 2 -4 -5
leaf_value=-0.013123870401066684 0.0079057507619632369 0.0069018050973467977 -0.012200166340658649 0.021724283424779202
leaf_weight=105 98 51 72 52
leaf_count=105 98 51 72 52
internal_value=0 0.00504764 -0.00427984 0.0126962
internal_weight=0 273 123 150
internal_count=378 273 123 150
is_linear=0
shrinkage=0.05


Tree=27
num_leaves=6
num_cat=0
split_feature=0 1 0 3 1
split_gain=11.5471 5.51204 5.24236 5.69285 0.886281
threshold=15.500000000000002 3.5000000000000004 10.500000000000002 1.0000000180025095e-35 16.500000000000004
decision_type=2 2 2 2 2
left_child=1 -1 -3 -4 -5
right_child=-2 2 3 4 -6
leaf_value=-0.019164114370225714 0.017565147686361648 -0.014762325172445604 0.012014411618888103 -0.00072885023937983948 -0.009833527159375641
leaf_weight=52 75 56 88 55 52
leaf_count=52 75 56 88 55 52
internal_value=0 -0.00434781 -0.0012783 0.00259404 -0.00515355
internal_weight=0 303 251 195 107
internal_count=378 303 251 195 107
is_linear=0
shrinkage=0.05


Tree=28
num_leaves=6
num_cat=0
split_feature=0 1 0 4 1
split_gain=10.4213 5.11011 5.29049 4.41467 0.0280203
threshold=15.500000000000002 6.5000000000000009 10.500000000000002 2.5000000000000004 22.500000000000004
decision_type=2 2 2 2 2
left_child=1 -1 -3 -4 -5
right_child=-2 2 3 4 -6
leaf_value=-0.014790318641675319 0.016686890322715045 -0.014121599823164827 -0.0059793228311746417 0.01141766108316826 0.0097682142350374937
leaf_weight=82 75 52 66 51 52
leaf_count=82 75 52 66 51 52
internal_value=0 -0.00413042 -0.000175161 0.00411605 0.0105849
internal_weight=0 303 221 169 103
internal_count=378 303 221 169 103
is_linear=0
shrinkage=0.05


Tree=29
num_leaves=6
num_cat=0
split_feature=0 1 0 3 0
split_gain=9.52813 9.73088 2.62366 4.52126 1.71463
threshold=12.500000000000002 6.5000000000000009 11.500000000000002 1.0000000180025095e-35 15.500000000000002
decision_type=2 2 2 2 2
left_child=2 -2 -1 -4 -3
right_child=1 4 3 -5 -6
leaf_value=-0.013289763228450387 -0.0083489032254874477 0.011817821514516793 0.0092360312351956967 -0.0097976369377321161 0.024538487360741087
leaf_weight=90 52 54 52 78 52
leaf_count=90 52 54 52 78 52
internal_value=0 0.00936722 -0.00672737 -0.00218417 0.0180581
internal_weight=0 158 220 130 106
internal_count=378 158 220 130 106
is_linear=0
shrinkage=0.05


Tree=30
num_leaves=5
num_cat=0
split_feature=4 3 4 1
split_gain=7.6673 4.78356 1.7229 1.55376
threshold=1.5000000000000002 1.0000000180025095e-35 8.5000000000000018 4.5000000000000009
decision_type=2 2 2 2
left_child=3 2 -2 -1
right_child=1 -3 -4 -5
leaf_value=-0.015267011659618999 0.0073127576869122593 -0.0028134146735312479 0.018965690256423706 -0.0048071053888427921
leaf_weight=56 79 93 53 97
leaf_count=56 79 93 53 97
internal_value=0 0.00587219 0.0119916 -0.00863557
internal_weight=0 225 132 153
internal_count=378 225 132 153
is_linear=0
shrinkage=0.05


Tree=31
num_leaves=6
num_cat=0
split_feature=0 4 0 4 4
split_gain=8.44335 9.80699 2.39333 2.83563 0.173105
threshold=12.500000000000002 4.5000000000000009 10.500000000000002 2.5000000000000004 1.5000000000000002
decision_type=2 2 2 2 2
left_child=2 4 -1 -4 -2
right_child=1 -3 3 -5 -6
leaf_value=-0.014129841135924354 -0.0021213240891822852 0.026351281135993183 -0.0089892297539682624 0.0047455759732710091 0.0019406478921020474
leaf_weight=68 51 53 84 68 54
leaf_count=68 51 53 84 68 54
internal_value=0 0.00881788 -0.00633284 -0.00284471 -3.23099e-05
internal_weight=0 158 220 152 105
internal_count=378 158 220 152 105
is_linear=0
shrinkage=0.05


Tree=32
num_leaves=6
num_cat=0
split_feature=0 1 0 4 4
split_gain=7.91009 3.93346 3.53537 3.22166 0.0314017
threshold=15.500000000000002 3.5000000000000004 10.500000000000002 2.5000000000000004 7.5000000000000009
decision_type=2 2 2 2 2
left_child=1 -1 -3 -4 -5
right_child=-2 2 3 4 -6
leaf_value=-0.01611468789096062 0.014538024239242076 -0.012078752283871707 -0.0051365765268393954 0.0086842139975892175 0.0069943488076595331
leaf_weight=52 75 56 85 54 56
leaf_count=52 75 56 85 54 56
internal_value=0 -0.00359852 -0.00100553 0.00217447 0.00782392
internal_weight=0 303 251 195 110
internal_count=378 303 251 195 110
is_linear=0
shrinkage=0.05


Tree=33
num_leaves=5
num_cat=0
split_feature=0 0 3 4
split_gain=7.13885 3.31541 4.75275 0.355524
threshold=15.500000000000002 11.500000000000002 1.0000000180025095e-35 2.5000000000000004
decision_type=2 2 2 2
left_child=1 -1 -3 -4
right_child=-2 2 3 -5
leaf_value=-0.011464699486063587 0.013811123579740526 0.0084651901977517274 -0.0090973965497687468 -0.0036353307657621126
leaf_weight=90 75 93 65 55
leaf_count=90 75 93 65 55
internal_value=0 -0.00341859 -1.88323e-05 -0.00659395
internal_weight=0 303 213 120
internal_count=378 303 213 120
is_linear=0
shrinkage=0.05


Tree=34
num_leaves=5
num_cat=0
split_feature=0 1 0 3
split_gain=6.44281 3.52371 3.34955 3.96502
threshold=15.500000000000002 6.5000000000000009 10.500000000000002 1.0000000180025095e-35
decision_type=2 2 2 2
left_child=1 -1 -3 -4
right_child=-2 2 3 -5
leaf_value=-0.01209959057131328 0.013120567040517929 -0.011060328215199451 0.011529163618106394 -0.0038097994056729119
leaf_weight=82 75 52 80 89
leaf_count=82 75 52 80 89
internal_value=0 -0.00324767 3.67596e-05 0.00345125
internal_weight=0 303 221 169
internal_count=378 303 221 169
is_linear=0
shrinkage=0.05


Tree=35
num_leaves=6
num_cat=0
split_feature=0 4 1 0 3
split_gain=5.9525 8.32331 1.67077 1.58767 3.25849
threshold=12.500000000000002 4.5000000000000009 7.5000000000000009 11.500000000000002 1.0000000180025095e-35
decision_type=2 2 2 2 2
left_child=3 2 -2 -1 -5
right_child=1 -3 -4 4 -6
leaf_value=-0.010422214058020877 -0.006996836442992373 0.023556573757515201 0.0056180612018439345 0.0079119664742253164 -0.0082465162202238276
leaf_weight=90 53 53 52 52 78
leaf_count=90 53 53 52 52 78
internal_value=0 0.00740383 -0.000749459 -0.0053173 -0.00178312
internal_weight=0 158 105 220 130
internal_count=378 158 105 220 130
is_linear=0
shrinkage=0.05


Tree=36
num_leaves=6
num_cat=0
split_feature=4 0 0 4 4
split_gain=5.65721 3.14852 1.19571 1.0407 0.486829
threshold=12.500000000000002 13.500000000000002 11.500000000000002 1.5000000000000002 2.5000000000000004
decision_type=2 2 2 2 2
left_child=1 2 -1 -4 -3
right_child=-2 4 3 -5 -6
leaf_value=-0.010982392070275781 0.015666693449020386 0.0013388863169267531 -0.0076674141990604686 0.00099096217826526211 0.0079235096623261388
leaf_weight=76 50 61 67 72 52
leaf_count=76 50 61 67 72 52
internal_value=0 -0.00238822 -0.00593967 -0.0031825 0.00436898
internal_weight=0 328 215 139 113
internal_count=378 328 215 139 113
is_linear=0
shrinkage=0.05


Tree=37
num_leaves=6
num_cat=0
split_feature=1 0 3 0 0
split_gain=5.38645 7.25982 1.54442 1.13893 0.136593
threshold=6.5000000000000009 12.500000000000002 1.0000000180025095e-35 15.500000000000002 12.500000000000002
decision_type=2 2 2 2 2
left_child=4 2 -2 -3 -1
right_child=1 3 -4 -5 -6
leaf_value=-0.011410440813820318 0.0022198824185761623 0.0088499229297869745 -0.0074052529293112462 0.01921741825152332 -0.0078034957011158647
leaf_weight=53 80 54 87 52 52
leaf_count=53 80 54 87 52 52
internal_value=0 0.00370159 -0.00279441 0.0139359 -0.00962414
internal_weight=0 273 167 106 105
internal_count=378 273 167 106 105
is_linear=0
shrinkage=0.05


Tree=38
num_leaves=6
num_cat=0
split_feature=4 1 1 0 1
split_gain=4.91498 3.17781 3.72193 2.35556 0.761223
threshold=12.500000000000002 3.5000000000000004 16.500000000000004 13.500000000000002 31.500000000000004
decision_type=2 2 2 2 2
left_child=1 -1 3 -3 -4
right_child=-2 2 4 -5 -6
leaf_value=-0.012031678302269994 0.014602825269103052 -8.5608279400998185e-05 -0.0028835063254399624 0.012558730982530575 -0.0111607335690482
leaf_weight=66 50 85 61 65 51
leaf_count=66 50 85 61 65 51
internal_value=0 -0.00222604 0.000244082 0.00539361 -0.0066526
internal_weight=0 328 262 150 112
internal_count=378 328 262 150 112
is_linear=0
shrinkage=0.05


Tree=39
num_leaves=7
num_cat=0
split_feature=1 0 4 0 4 0
split_gain=4.57079 6.1978 3.39297 1.50074 1.2142 0.103255
threshold=6.5000000000000009 12.500000000000002 4.5000000000000009 10.500000000000002 2.5000000000000004 12.500000000000002
decision_type=2 2 2 2 2 2
left_child=5 3 -3 -2 -5 -1
right_child=1 2 -4 4 -6 -7
leaf_value=-0.01041865293288006 -0.0096410080459183797 0.004413196561342504 0.022333037212491039 -0.0051603213938720086 0.0051812896367209767 -0.007282615094803848
leaf_weight=53 52 56 50 51 64 52
leaf_count=53 52 56 50 51 64 52
internal_value=0 0.00340983 0.012866 -0.00259225 0.00059501 -0.00886557
internal_weight=0 273 106 167 115 105
internal_count=378 273 106 167 115 105
is_linear=0
shrinkage=0.05


Tree=40
num_leaves=6
num_cat=0
split_feature=0 1 0 3 1
split_gain=4.2325 2.26191 1.97297 2.67655 1.02911
threshold=15.500000000000002 3.5000000000000004 10.500000000000002 1.0000000180025095e-35 16.500000000000004
decision_type=2 2 2 2 2
left_child=1 -1 -3 -4 -5
right_child=-2 2 3 4 -6
leaf_value=-0.012123480444559111 0.010634409445958833 -0.0089380968844385029 0.0081689914146078416 0.0011651345342397691 -0.0086457678412373822
leaf_weight=52 75 56 88 55 52
leaf_count=52 75 56 88 55 52
internal_value=0 -0.00263228 -0.000665975 0.00170961 -0.00360278
internal_weight=0 303 251 195 107
internal_count=378 303 251 195 107
is_linear=0
shrinkage=0.05


Tree=41
num_leaves=6
num_cat=0
split_feature=4 1 1 1 1
split_gain=4.11363 2.43121 3.20605 2.06783 0.598644
threshold=12.500000000000002 3.5000000000000004 16.500000000000004 7.5000000000000009 31.500000000000004
decision_type=2 2 2 2 2
left_child=1 -1 3 -3 -4
right_child=-2 2 4 -5 -6
leaf_value=-0.010613257187475085 0.013359444678761066 -0.0031558231370022089 -0.0029343927879321588 0.0091797173792990492 -0.010274682310866375
leaf_weight=66 50 52 61 98 51
leaf_count=66 50 52 61 98 51
internal_value=0 -0.0020365 0.000124056 0.0049034 -0.00627685
internal_weight=0 328 262 150 112
internal_count=378 328 262 150 112
is_linear=0
shrinkage=0.05


Tree=42
num_leaves=5
num_cat=0
split_feature=0 1 0 3
split_gain=3.74703 1.85407 2.04164 2.55747
threshold=15.500000000000002 6.5000000000000009 10.500000000000002 1.0000000180025095e-35
decision_type=2 2 2 2
left_child=1 -1 -3 -4
right_child=-2 2 3 -5
leaf_value=-0.0088977042707705459 0.01000595695897937 -0.0087580187998425509 0.0090590623641037381 -0.0032600343753217478
leaf_weight=82 75 52 80 89
leaf_count=82 75 52 80 89
internal_value=0 -0.00247672 -9.42762e-05 0.00257149
internal_weight=0 303 221 169
internal_count=378 303 221 169
is_linear=0
shrinkage=0.05


Tree=43
num_leaves=6
num_cat=0
split_feature=4 0 4 3 2
split_gain=3.64986 1.63171 1.86345 0.660479 0.259094
threshold=12.500000000000002 11.500000000000002 1.5000000000000002 1.0000000180025095e-35 1.0000000180025095e-35
decision_type=2 2 2 2 2
left_child=1 -1 4 -4 -3
right_child=-2 2 3 -5 -6
leaf_value=-0.0083399360212273385 0.012583863541483879 -0.0075059698817009739 0.0070534996587682426 0.00025321673331917194 -0.002620422357596971
leaf_weight=76 50 51 74 69 58
leaf_count=76 50 51 74 69 58
internal_value=0 -0.00191827 1.84205e-05 0.00377224 -0.00490632
internal_weight=0 328 252 143 109
internal_count=378 328 252 143 109
is_linear=0
shrinkage=0.05


Tree=44
num_leaves=6
num_cat=0
split_feature=4 0 0 4 4
split_gain=3.294 1.5066 0.833741 1.05419 0.243929
threshold=12.500000000000002 15.500000000000002 11.500000000000002 3.5000000000000004 1.0000000180025095e-35
decision_type=2 2 2 2 2
left_child=1 2 -1 4 -4
right_child=-2 -3 3 -5 -6
leaf_value=-0.0079229392325750707 0.011954670261591673 0.0049940161091776994 -0.0020938237900005991 0.0036181995044312167 -0.0065125988490763124
leaf_weight=76 50 65 61 62 64
leaf_count=76 50 65 61 62 64
internal_value=0 -0.00182236 -0.00350701 -0.00171231 -0.00435624
internal_weight=0 328 263 187 125
internal_count=378 328 263 187 125
is_linear=0
shrinkage=0.05


Tree=45
num_leaves=6
num_cat=0
split_feature=1 0 3 1 0
split_gain=3.10937 4.4866 1.05552 0.957597 0.0211788
threshold=6.5000000000000009 12.500000000000002 1.0000000180025095e-35 16.500000000000004 12.500000000000002
decision_type=2 2 2 2 2
left_child=4 2 -2 -3 -1
right_child=1 3 -4 -5 -6
leaf_value=-0.0080155617390530853 0.001850997464498505 0.015610218410081459 -0.006106144858352926 0.0061055159758565567 -0.0065952753325781007
leaf_weight=53 80 53 87 53 52
leaf_count=53 80 53 87 53 52
internal_value=0 0.00281238 -0.00229434 0.0108579 -0.00731218
internal_weight=0 273 167 106 105
internal_count=378 273 167 106 105
is_linear=0
shrinkage=0.05


Tree=46
num_leaves=6
num_cat=0
split_feature=4 1 1 1 1
split_gain=2.90605 1.78054 2.74945 1.66359 0.433118
threshold=12.500000000000002 3.5000000000000004 16.500000000000004 9.5000000000000018 31.500000000000004
decision_type=2 2 2 2 2
left_child=1 -1 3 -3 -4
right_child=-2 2 4 -5 -6
leaf_value=-0.0090515424553869357 0.011228642456233501 -0.00042863258328642461 -0.0029472671281241002 0.010117564593035151 -0.009190826001120549
leaf_weight=66 50 79 61 71 51
leaf_count=66 50 79 61 71 51
internal_value=0 -0.00171168 0.000137289 0.00456323 -0.00579032
internal_weight=0 328 262 150 112
internal_count=378 328 262 150 112
is_linear=0
shrinkage=0.05


Tree=47
num_leaves=6
num_cat=0
split_feature=0 0 3 1 2
split_gain=2.83278 1.36177 1.80996 2.78112 0.881326
threshold=15.500000000000002 10.500000000000002 1.0000000180025095e-35 13.500000000000002 1.0000000180025095e-35
decision_type=2 2 2 2 2
left_child=1 -1 3 -3 -4
right_child=-2 2 4 -5 -6
leaf_value=-0.0083847856327124385 0.0087000422626733794 -0.0037655401799195215 0.00077199444803409281 0.012284376235170799 -0.0077533055928402719
leaf_weight=68 75 53 50 55 77
leaf_count=68 75 53 50 55 77
internal_value=0 -0.00215348 -0.000350373 0.00440803 -0.00439689
internal_weight=0 303 235 108 127
internal_count=378 303 235 108 127
is_linear=0
shrinkage=0.05


Tree=48
num_leaves=6
num_cat=0
split_feature=4 1 1 1 1
split_gain=2.56094 1.59637 2.50611 1.48824 0.356414
threshold=12.500000000000002 3.5000000000000004 16.500000000000004 9.5000000000000018 31.500000000000004
decision_type=2 2 2 2 2
left_child=1 -1 3 -3 -4
right_child=-2 2 4 -5 -6
leaf_value=-0.008556739208253214 0.010540860150009395 -0.00035201733684332313 -0.0029362701536079904 0.0096229018932077262 -0.0086000469294102763
leaf_weight=66 50 79 61 71 51
leaf_count=66 50 79 61 71 51
internal_value=0 -0.00160684 0.0001439 0.00436944 -0.00551531
internal_weight=0 328 262 150 112
internal_count=378 328 262 150 112
is_linear=0
shrinkage=0.05


Tree=49
num_leaves=5
num_cat=0
split_feature=0 0 4 4
split_gain=2.52168 1.21267 1.79754 0.345319
threshold=15.500000000000002 10.500000000000002 3.5000000000000004 1.0000000180025095e-35
decision_type=2 2 2 2
left_child=1 -1 3 -3
right_child=-2 2 -4 -5
leaf_value=-0.0079120832495391379 0.0082084259067972502 -0.0014953507262322567 0.0048856478242069179 -0.0064976653175266548
leaf_weight=68 75 69 97 69
leaf_count=68 75 69 97 69
internal_value=0 -0.00203179 -0.000330256 -0.00399651
internal_weight=0 303 235 138
internal_count=378 303 235 138
is_linear=0
shrinkage=0.05


Tree=50
num_leaves=5
num_cat=0
split_feature=0 0 4 4
split_gain=2.27582 1.09443 1.62228 0.311651
threshold=15.500000000000002 10.500000000000002 3.5000000000000004 1.0000000180025095e-35
decision_type=2 2 2 2
left_child=1 -1 3 -3
right_child=-2 2 -4 -5
leaf_value=-0.0075164790210478453 0.0077980042956769472 -0.0014205830988298725 0.0046413652339623761 -0.0061727822343211466
leaf_weight=68 75 69 97 69
leaf_count=68 75 69 97 69
internal_value=0 -0.0019302 -0.000313744 -0.00379668
internal_weight=0 303 235 138
internal_count=378 303 235 138
is_linear=0
shrinkage=0.05


Tree=51
num_leaves=7
num_cat=0
split_feature=1 0 4 0 4 0
split_gain=2.25978 3.28034 2.37849 0.708643 0.713046 0.00100426
threshold=6.5000000000000009 12.500000000000002 4.5000000000000009 10.500000000000002 2.5000000000000004 12.500000000000002
decision_type=2 2 2 2 2 2
left_child=5 3 -3 -2 -5 -1
right_child=1 2 -4 4 -6 -7
leaf_value=-0.006386831990566175 -0.0068126817914442375 0.0021998566396567703 0.017203426547348501 -0.00418932884189702 0.0037357324719778265 -0.0060775548497286553
leaf_weight=53 52 56 50 51 64 52
leaf_count=53 52 56 50 51 64 52
internal_value=0 0.00239756 0.00927701 -0.00196903 0.00022114 -0.00623367
internal_weight=0 273 106 167 115 105
internal_count=378 273 106 167 115 105
is_linear=0
shrinkage=0.05


Tree=52
num_leaves=6
num_cat=0
split_feature=1 0 1 3 0
split_gain=2.03945 2.96051 0.886071 0.838665 0.000906346
threshold=6.5000000000000009 12.500000000000002 16.500000000000004 1.0000000180025095e-35 12.500000000000002
decision_type=2 2 2 2 2
left_child=4 3 -3 -2 -1
right_child=1 2 -4 -5 -6
leaf_value=-0.006067490700043668 0.0018244731356389821 0.013384583297642475 0.0042417399725824039 -0.0052683306689342039 -0.005773677031258838
leaf_weight=53 80 53 53 87 52
leaf_count=53 80 53 53 87 52
internal_value=0 0.00227769 0.00881316 -0.00187058 -0.00592198
internal_weight=0 273 106 167 105
internal_count=378 273 106 167 105
is_linear=0
shrinkage=0.05


Tree=53
num_leaves=6
num_cat=0
split_feature=4 4 0 2 3
split_gain=2.01307 0.910641 0.569441 0.0614143 0.0378665
threshold=12.500000000000002 1.5000000000000002 13.500000000000002 1.0000000180025095e-35 1.0000000180025095e-35
decision_type=2 2 2 2 2
left_child=1 3 4 -1 -3
right_child=-2 2 -4 -5 -6
leaf_value=-0.0051501427937875547 0.0093455519303679482 -0.0022904467878534516 0.0044907021716656826 -0.003136945919444164 -0.00038195106482027838
leaf_weight=84 50 51 71 69 53
leaf_count=84 50 51 71 69 53
internal_value=0 -0.00142463 0.00103876 -0.00424223 -0.00131785
internal_weight=0 328 175 153 104
internal_count=378 328 175 153 104
is_linear=0
shrinkage=0.05


Tree=54
num_leaves=5
num_cat=0
split_feature=3 2 0 1
split_gain=1.76937 3.00086 2.29122 1.21703
threshold=1.0000000180025095e-35 1.0000000180025095e-35 12.500000000000002 14.500000000000002
decision_type=2 2 2 2
left_child=1 -1 -3 -2
right_child=3 2 -4 -5
leaf_value=-0.0057768376806514371 9.9243435331366277e-05 0.00093350264736834698 0.013913177873816013 -0.0081932324008084836
leaf_weight=63 99 68 68 80
leaf_count=63 99 68 68 80
internal_value=0 0.00324439 0.00742334 -0.00360689
internal_weight=0 199 136 179
internal_count=378 199 136 179
is_linear=0
shrinkage=0.05


Tree=55
num_leaves=6
num_cat=0
split_feature=4 1 1 1 3
split_gain=1.76951 1.13912 3.20534 0.304672 0.0485972
threshold=10.500000000000002 16.500000000000004 7.5000000000000009 3.5000000000000004 1.0000000180025095e-35
decision_type=2 2 2 2 2
left_child=1 2 3 -1 -3
right_child=-2 4 -4 -5 -6
leaf_value=-0.0071451164079145675 0.007649536229788311 -0.0047318282805813051 0.0075227130184410728 -0.002027663280471013 -0.0068934965054862768
leaf_weight=66 63 52 93 52 52
leaf_count=66 63 52 93 52 52
internal_value=0 -0.00152991 0.000581024 -0.00488997 -0.00581266
internal_weight=0 315 211 118 104
internal_count=378 315 211 118 104
is_linear=0
shrinkage=0.05


Tree=56
num_leaves=6
num_cat=0
split_feature=1 1 0 3 0
split_gain=1.59135 2.66919 2.77795 1.23255 0.000158442
threshold=6.5000000000000009 31.500000000000004 12.500000000000002 1.0000000180025095e-35 12.500000000000002
decision_type=2 2 2 2 2
left_child=4 2 3 -2 -1
right_child=1 -3 -4 -5 -6
leaf_value=-0.0051702732497053046 0.0050790431184901137 -0.005875926885100735 0.01170517361341891 -0.0056038988995607258 -0.0052931188569905674
leaf_weight=53 54 77 88 54 52
leaf_count=53 54 77 88 54 52
internal_value=0 0.00201197 0.00511078 -0.000262428 -0.00523111
internal_weight=0 273 196 108 105
internal_count=378 273 196 108 105
is_linear=0
shrinkage=0.05


Tree=57
num_leaves=6
num_cat=0
split_feature=4 1 1 1 1
split_gain=1.60732 0.912223 1.78958 1.12312 0.190366
threshold=12.500000000000002 3.5000000000000004 16.500000000000004 9.5000000000000018 31.500000000000004
decision_type=2 2 2 2 2
left_child=1 -1 3 -3 -4
right_child=-2 2 4 -5 -6
leaf_value=-0.0065266481020389072 0.0083507789112627507 -0.00048040534970881068 -0.0028469412770794067 0.0081849595715462325 -0.0069862125099034002
leaf_weight=66 50 79 61 71 51
leaf_count=66 50 79 61 71 51
internal_value=0 -0.00127298 5.04574e-05 0.0036212 -0.00473179
internal_weight=0 328 262 150 112
internal_count=378 328 262 150 112
is_linear=0
shrinkage=0.05


Tree=58
num_leaves=6
num_cat=0
split_feature=4 1 1 1 1
split_gain=1.45531 0.947313 2.45256 0.228327 0.03519
threshold=10.500000000000002 16.500000000000004 7.5000000000000009 3.5000000000000004 28.500000000000004
decision_type=2 2 2 2 2
left_child=1 2 3 -1 -3
right_child=-2 4 -4 -5 -6
leaf_value=-0.0062003157546066424 0.0069372434612540975 -0.006212768968767845 0.0066096738351368771 -0.0017701860911284503 -0.0043732978457298411
leaf_weight=66 63 52 93 52 52
leaf_count=66 63 52 93 52 52
internal_value=0 -0.00138745 0.000537579 -0.00424806 -0.00529303
internal_weight=0 315 211 118 104
internal_count=378 315 211 118 104
is_linear=0
shrinkage=0.05


Tree=59
num_leaves=5
num_cat=0
split_feature=3 2 2 4
split_gain=1.38139 2.36218 1.18406 1.10355
threshold=1.0000000180025095e-35 1.0000000180025095e-35 1.0000000180025095e-35 3.5000000000000004
decision_type=2 2 2 2
left_child=1 -1 -2 -3
right_child=2 3 -4 -5
leaf_value=-0.0051371578925422266 0.0012359281050654629 0.0014289951646479511 -0.0069259659545592121 0.010516919570600058
leaf_weight=63 82 59 97 77
leaf_count=63 82 59 97 77
internal_value=0 0.0028667 -0.003187 0.00657436
internal_weight=0 199 179 136
internal_count=378 199 179 136
is_linear=0
shrinkage=0.05


Tree=60
num_leaves=6
num_cat=0
split_feature=0 0 3 1 1
split_gain=1.37949 0.794922 1.11206 1.88816 0.481866
threshold=15.500000000000002 10.500000000000002 1.0000000180025095e-35 14.500000000000002 13.500000000000002
decision_type=2 2 2 2 2
left_child=1 -1 3 -3 -4
right_child=-2 2 4 -5 -6
leaf_value=-0.0062636862960917987 0.0060712006911635402 -0.0027659776990601264 -0.00028903209174481725 0.010465425362165732 -0.0064504783908506079
leaf_weight=68 75 56 65 52 62
leaf_count=68 75 56 65 52 62
internal_value=0 -0.00150277 -0.000125146 0.0036047 -0.00329698
internal_weight=0 303 235 108 127
internal_count=378 303 235 108 127
is_linear=0
shrinkage=0.05


Tree=61
num_leaves=5
num_cat=0
split_feature=4 0 3 0
split_gain=1.25904 2.60485 0.523916 0.0142221
threshold=1.5000000000000002 14.500000000000002 1.0000000180025095e-35 12.500000000000002
decision_type=2 2 2 2
left_child=3 2 -2 -1
right_child=1 -3 -4 -5
leaf_value=-0.0038402392570038926 0.0017389762571102447 0.011301041737121219 -0.0039135276099458638 -0.0028176250703194562
leaf_weight=102 89 60 76 51
leaf_count=102 89 60 76 51
internal_value=0 0.00237957 -0.000864601 -0.00349937
internal_weight=0 225 165 153
internal_count=378 225 165 153
is_linear=0
shrinkage=0.05


Tree=62
num_leaves=6
num_cat=0
split_feature=4 1 1 2 1
split_gain=1.17679 0.875197 2.18195 0.578794 0.0458
threshold=10.500000000000002 16.500000000000004 9.5000000000000018 1.0000000180025095e-35 28.500000000000004
decision_type=2 2 2 2 2
left_child=1 2 3 -1 -3
right_child=-2 4 -4 -5 -6
leaf_value=-0.0053334943101260024 0.0062381954568009532 -0.0060508884811917183 0.0081390543050612468 0.0011547448812052608 -0.0039523539925889611
leaf_weight=89 63 52 66 56 52
leaf_count=89 63 52 66 56 52
internal_value=0 -0.00124764 0.000602665 -0.00282769 -0.00500162
internal_weight=0 315 211 145 104
internal_count=378 315 211 145 104
is_linear=0
shrinkage=0.05


Tree=63
num_leaves=5
num_cat=0
split_feature=1 1 0 1
split_gain=1.13147 2.00508 1.71529 0.190553
threshold=31.500000000000004 7.5000000000000009 12.500000000000002 3.5000000000000004
decision_type=2 2 2 2
left_child=1 3 -3 -1
right_child=-2 2 -4 -5
leaf_value=-0.0054819218177616482 -0.0054085716692875924 0.00025038644205778839 0.0099739522617085866 -0.0014348046030276099
leaf_weight=66 77 100 83 52
leaf_count=66 77 100 83 52
internal_value=0 0.00138359 0.00466053 -0.00369845
internal_weight=0 301 183 118
internal_count=378 301 183 118
is_linear=0
shrinkage=0.05


Tree=64
num_leaves=5
num_cat=0
split_feature=0 3 1 2
split_gain=1.06203 1.46109 3.37478 1.75618
threshold=10.500000000000002 1.0000000180025095e-35 13.500000000000002 1.0000000180025095e-35
decision_type=2 2 2 2
left_child=-1 2 -2 -3
right_child=1 3 -4 -5
leaf_value=-0.0056587386150460913 -0.0022676538279943772 0.0041684379063857101 0.012104086698843289 -0.0069772189239386551
leaf_weight=68 87 60 77 86
leaf_count=68 87 60 77 86
internal_value=0 0.00124127 0.00448005 -0.00239681
internal_weight=0 310 164 146
internal_count=378 310 164 146
is_linear=0
shrinkage=0.05


end of trees

feature_importances:
Column_0=91
Column_1=90
Column_4=72
Column_3=45
Column_2=8

parameters:
[boosting: gbdt]
[objective: regression]
[metric: l2]
[tree_learner: serial]
[device_type: cpu]
[data: ]
[valid: ]
[num_iterations: 10000]
[learning_rate: 0.05]
[num_leaves: 15]
[num_threads: 0]
[deterministic: 0]
[force_col_wise: 0]
[force_row_wise: 0]
[histogram_pool_size: -1]
[max_depth: -1]
[min_data_in_leaf: 50]
[min_sum_hessian_in_leaf: 0.001]
[bagging_fraction: 0.5]
[pos_bagging_fraction: 1]
[neg_bagging_fraction: 1]
[bagging_freq: 0]
[bagging_seed: 10961]
[feature_fraction: 0.8]
[feature_fraction_bynode: 1]
[feature_fraction_seed: 53]
[extra_trees: 0]
[extra_seed: 11644]
[early_stopping_round: 0]
[first_metric_only: 0]
[max_delta_step: 0]
[lambda_l1: 0]
[lambda_l2: 0]
[linear_lambda: 0]
[min_gain_to_split: 0]
[drop_rate: 0.1]
[max_drop: 50]
[skip_drop: 0.5]
[xgboost_dart_mode: 0]
[uniform_drop: 0]
[drop_seed: 30626]
[top_rate: 0.2]
[other_rate: 0.1]
[min_data_per_group: 100]
[max_cat_threshold: 32]
[cat_l2: 10]
[cat_smooth: 10]
[max_cat_to_onehot: 4]
[top_k: 20]
[monotone_constraints: ]
[monotone_constraints_method: basic]
[monotone_penalty: 0]
[feature_contri: ]
[forcedsplits_filename: ]
[refit_decay_rate: 0.9]
[cegb_tradeoff: 1]
[cegb_penalty_split: 0]
[cegb_penalty_feature_lazy: ]
[cegb_penalty_feature_coupled: ]
[path_smooth: 0]
[interaction_constraints: ]
[verbosity: -1]
[saved_feature_importance_type: 0]
[linear_tree: 0]
[max_bin: 255]
[max_bin_by_feature: ]
[min_data_in_bin: 3]
[bin_construct_sample_cnt: 200000]
[data_random_seed: 4071]
[is_enable_sparse: 1]
[enable_bundle: 1]
[use_missing: 1]
[zero_as_missing: 0]
[feature_pre_filter: 1]
[pre_partition: 0]
[two_round: 0]
[header: 0]
[label_column: ]
[weight_column: ]
[group_column: ]
[ignore_column: ]
[categorical_feature: ]
[forcedbins_filename: ]
[precise_float_parser: 0]
[parser_config_file: ]
[objective_seed: 602]
[num_class: 1]
[is_unbalance: 0]
[scale_pos_weight: 1]
[sigmoid: 1]
[boost_from_average: 1]
[reg_sqrt: 0]
[alpha: 0.9]
[fair_c: 1]
[poisson_max_delta_step: 0.7]
[tweedie_variance_power: 1.5]
[lambdarank_truncation_level: 30]
[lambdarank_norm: 1]
[label_gain: ]
[eval_at: ]
[multi_error_top_k: 1]
[auc_mu_weights: ]
[num_machines: 1]
[local_listen_port: 12400]
[time_out: 120]
[machine_list_filename: ]
[machines: ]
[gpu_platform_id: -1]
[gpu_device_id: -1]
[gpu_use_dp: 0]
[num_gpu: 1]

end of parameters

pandas_categorical:null
