tree
version=v4
num_class=1
num_tree_per_iteration=1
label_index=0
max_feature_idx=4
objective=regression
feature_names=Column_0 Column_1 Column_2 Column_3 Column_4
feature_infos=[0:18] [1:51] [0:1] [0:1] [0:44]
tree_sizes=1063 978 977 972 981 888 884 1062 887 1061 891 888 1069 894 893 890 894 890 976 892 895 980 893 979 894 978 988 982 983 897 987 984 1069 906 987 1072 997 1064 901 1075 903 993 905 905 910 905 904 1000 995 903 903 905 913 903 915 908 993 825 995 828 996 911 916 914 827 912 827 907 1001 915 1001 1000 1005 1005 997 1001 998 1003 1003 1003 911 1001 909 1001 907 1001 912 916 996 831 910 828 914 1010 912 992 999 915 1005 913 912 1001 916 1003 914 997 911 917 1002 1007 912 917 916 996 833 1008 1002 1082 1000 1086 1007 1087 1000 1000 1081 1007 1087 919 1004 1086 1008 1087 1003 1091 1003 1007 1084 1007 1090 1083 1007 998 1095 922 1005 1010 1006 1007 1092 921 1011 917 1001 1093 1001 1003 1001 998 1011 1003 1009 1090 916 1007 1006 918 1008 1093 915 920 1091 919 1007 921 1013 1001 919 917 1095 913 1096 920 1008 832 1007 1009 1009 1012 1011 925 1005 919 1012 1000 993 918 1005 1010 913 1004 1009 1013 1010 1012 1005 920 1002 999 1010 1006 1010 1012 910 1009 1009 922 914 1003 1006 920 1005 1001 1013 1008 912 923 1008 1005 917 1009 917 841 915 1003 914 1012 1006 1012 925 926 919 1012 924 1010 924 1009 1088 1012 1007 1008 1087 916 1007 920 918 920 1010 922 923 1018 1007 1015 1009 1017 1015 918 928 1005 1002 921 1004 1007 926 1004 1009 1000 1088 1014 1009 922

Tree=0
num_leaves=11
num_cat=0
split_feature=0 4 3 0 1 3 0 4 1 1
split_gain=72.7733 46.2576 16.1872 19.0188 11.6109 5.17986 2.5465 1.87298 1.51728 1.20383
threshold=15.500000000000002 2.5000000000000004 1.0000000180025095e-35 11.500000000000002 9.5000000000000018 1.0000000180025095e-35 11.500000000000002 1.0000000180025095e-35 20.500000000000004 8.5000000000000018
decision_type=2 2 2 2 2 2 2 2 2 2
left_child=1 5 3 -3 -2 9 -7 -8 -4 -1
right_child=4 2 8 -5 -6 6 7 -9 -10 -11
leaf_value=-0.025752185792478614 0.025148942371985564 -0.008611508254479202 -0.001814975408423278 0.040879853557080334 0.065306463470268583 -0.049441898162994123 -0.023006338310364541 -0.040387188916271521 -0.016865249459016948 -0.011817856910755344
leaf_weight=31 36 30 33 55 36 30 31 31 34 31
leaf_count=31 36 30 33 55 36 30 31 31 34 31
internal_value=2.58701e-09 -0.0106418 0.00892588 0.0234123 0.0452277 -0.0299554 -0.0374832 -0.0316968 -0.00945243 -0.018785
internal_weight=0 306 152 85 72 154 92 62 67 62
internal_count=378 306 152 85 72 154 92 62 67 62
is_linear=0
shrinkage=1


Tree=1
num_leaves=10
num_cat=0
split_feature=0 4 3 0 4 0 3 4 1
split_gain=65.6779 41.7475 14.6089 17.1645 10.7769 4.82226 3.45838 1.69037 1.36935
threshold=15.500000000000002 2.5000000000000004 1.0000000180025095e-35 11.500000000000002 2.5000000000000004 11.500000000000002 1.0000000180025095e-35 1.0000000180025095e-35 20.500000000000004
decision_type=2 2 2 2 2 2 2 2 2
left_child=1 5 3 -3 -2 -1 -7 -8 -4
right_child=4 2 8 -5 -6 6 7 -9 -10
leaf_value=-0.041605831348958122 0.02415220289919022 -0.0081809352608979685 -0.0017242297628950892 0.03883585813920945 0.062855520844459542 -0.011783004111864351 -0.021856024314559276 -0.038367831947342043 -0.016021989406469993
leaf_weight=48 37 30 33 55 35 44 31 31 34
leaf_count=48 37 30 33 55 35 44 31 31 34
internal_value=0 -0.0101097 0.00847958 0.0222417 0.0429663 -0.0284576 -0.0225037 -0.0301119 -0.00897981
internal_weight=0 306 152 85 72 154 106 62 67
internal_count=378 306 152 85 72 154 106 62 67
is_linear=0
shrinkage=0.05


Tree=2
num_leaves=10
num_cat=0
split_feature=0 4 3 0 1 0 3 4 1
split_gain=59.2743 37.6771 13.1845 15.491 10.0406 4.35209 3.12119 1.52556 1.23584
threshold=15.500000000000002 2.5000000000000004 1.0000000180025095e-35 11.500000000000002 9.5000000000000018 11.500000000000002 1.0000000180025095e-35 1.0000000180025095e-35 20.500000000000004
decision_type=2 2 2 2 2 2 2 2 2
left_child=1 5 3 -3 -2 -1 -7 -8 -4
right_child=4 2 8 -5 -6 6 7 -9 -10
leaf_value=-0.039525540398123366 0.022146336501464248 -0.007771888946493468 -0.0016380177606179409 0.036894064956471663 0.059489662489957289 -0.011193853904577819 -0.02076322208609312 -0.036449440833060974 -0.015220890347571934
leaf_weight=48 36 30 33 55 36 44 31 31 34
leaf_count=48 36 30 33 55 36 44 31 31 34
internal_value=0 -0.00960424 0.00805561 0.0211296 0.040818 -0.0270347 -0.0213785 -0.0286063 -0.00853082
internal_weight=0 306 152 85 72 154 106 62 67
internal_count=378 306 152 85 72 154 106 62 67
is_linear=0
shrinkage=0.05


Tree=3
num_leaves=10
num_cat=0
split_feature=0 4 3 0 4 1 3 1 1
split_gain=53.495 34.0036 11.899 13.9806 9.3186 4.20411 3.61747 1.1193 0.258492
threshold=15.500000000000002 2.5000000000000004 1.0000000180025095e-35 11.500000000000002 2.5000000000000004 4.5000000000000009 1.0000000180025095e-35 21.500000000000004 16.500000000000004
decision_type=2 2 2 2 2 2 2 2 2
left_child=1 5 3 -3 -2 -1 -7 -4 -8
right_child=4 2 7 -5 -6 6 8 -9 -10
leaf_value=-0.038147921539208991 0.021282171538552722 -0.0073832940740976493 -0.0019248811009206944 0.035049361796541646 0.057271737264735362 -0.0085433837633988857 -0.0245973053181337 -0.014862993289716542 -0.030881553082726901
leaf_weight=47 37 30 35 55 35 41 36 32 30
leaf_count=47 37 30 35 55 35 41 36 32 30
internal_value=0 -0.00912402 0.00765283 0.0200731 0.0387771 -0.025683 -0.0202077 -0.00810428 -0.0274538
internal_weight=0 306 152 85 72 154 107 67 66
internal_count=378 306 152 85 72 154 107 67 66
is_linear=0
shrinkage=0.05


Tree=4
num_leaves=10
num_cat=0
split_feature=0 4 3 0 1 0 3 4 1
split_gain=48.2793 30.6883 10.7389 12.6175 8.68263 3.86055 2.62247 1.35885 1.01257
threshold=15.500000000000002 2.5000000000000004 1.0000000180025095e-35 11.500000000000002 9.5000000000000018 11.500000000000002 1.0000000180025095e-35 1.0000000180025095e-35 20.500000000000004
decision_type=2 2 2 2 2 2 2 2 2
left_child=1 5 3 -3 -2 -1 -7 -8 -4
right_child=4 2 8 -5 -6 6 7 -9 -10
leaf_value=-0.03616315308924338 0.019475056215499841 -0.0070141300015772387 -0.0014598721634794141 0.033296893909573556 0.054201433807611471 -0.0097360102459788326 -0.018294693845053833 -0.033099041656861387 -0.013754749495316954
leaf_weight=48 36 30 33 55 36 44 31 31 34
leaf_count=48 36 30 33 55 36 44 31 31 34
internal_value=0 -0.00866782 0.00727018 0.0190695 0.0368382 -0.0243988 -0.0190716 -0.0256969 -0.00769906
internal_weight=0 306 152 85 72 154 106 62 67
internal_count=378 306 152 85 72 154 106 62 67
is_linear=0
shrinkage=0.05


Tree=5
num_leaves=9
num_cat=0
split_feature=0 4 4 0 3 0 1 1
split_gain=44.0016 26.115 18.5726 5.62606 5.58017 7.32259 3.95301 3.04492
threshold=13.500000000000002 4.5000000000000009 2.5000000000000004 15.500000000000002 1.0000000180025095e-35 11.500000000000002 7.5000000000000009 15.500000000000002
decision_type=2 2 2 2 2 2 2 2
left_child=2 3 6 -2 5 -4 -1 -8
right_child=1 -3 4 -5 -6 -7 7 -9
leaf_value=-0.035329625786028128 -0.0057689229838359052 0.056739598471762201 -0.0066634228732436896 0.019798026852852979 -0.010255149282645161 0.026577890447869498 -0.0065972450271467951 -0.026620273602866503
leaf_weight=55 39 41 30 48 51 37 34 43
leaf_count=55 39 41 30 48 51 37 34 43
internal_value=0 0.0238409 -0.0122066 0.00833698 0.00220734 0.0116937 -0.0250917 -0.0177789
internal_weight=0 128 250 87 118 67 132 77
internal_count=378 128 250 87 118 67 132 77
is_linear=0
shrinkage=0.05


Tree=6
num_leaves=9
num_cat=0
split_feature=0 4 4 0 3 0 1 1
split_gain=39.7115 23.5688 16.7617 5.07752 5.0361 6.60863 3.56759 2.74804
threshold=13.500000000000002 4.5000000000000009 2.5000000000000004 15.500000000000002 1.0000000180025095e-35 11.500000000000002 7.5000000000000009 15.500000000000002
decision_type=2 2 2 2 2 2 2 2
left_child=2 3 6 -2 5 -4 -1 -8
right_child=1 -3 4 -5 -6 -7 7 -9
leaf_value=-0.033563144256953489 -0.0054804766598420263 0.053902618114541216 -0.0063302521097163365 0.018808126549508114 -0.0097423923137944721 0.02524899612306743 -0.0062673825880183893 -0.02528925949361089
leaf_weight=55 39 41 30 48 51 37 34 43
leaf_count=55 39 41 30 48 51 37 34 43
internal_value=0 0.0226489 -0.0115962 0.00792013 0.00209698 0.011109 -0.0238371 -0.01689
internal_weight=0 128 250 87 118 67 132 77
internal_count=378 128 250 87 118 67 132 77
is_linear=0
shrinkage=0.05


Tree=7
num_leaves=11
num_cat=0
split_feature=0 4 3 0 1 3 0 4 1 1
split_gain=36.1245 22.6138 8.05737 9.32036 7.2761 3.37024 1.69233 1.21925 1.03318 0.768541
threshold=15.500000000000002 2.5000000000000004 1.0000000180025095e-35 11.500000000000002 9.5000000000000018 1.0000000180025095e-35 11.500000000000002 1.0000000180025095e-35 21.500000000000004 8.5000000000000018
decision_type=2 2 2 2 2 2 2 2 2 2
left_child=1 5 3 -3 -2 9 -7 -8 -4 -1
right_child=4 2 8 -5 -6 6 7 -9 -10 -11
leaf_value=-0.017558143492187223 0.015970695340850702 -0.0060137395250300573 -0.00084561144933104526 0.028632324701598422 0.047760151908732951 -0.036822612509131429 -0.015344874482722051 -0.029368211055595068 -0.01327606454724446 -0.0064244915160440634
leaf_weight=31 36 30 35 55 36 30 31 31 32 31
leaf_count=31 36 30 35 55 36 30 31 31 32 31
internal_value=0 -0.00749775 0.00618378 0.0164043 0.0318654 -0.0210016 -0.0270737 -0.0223565 -0.00678254 -0.0119913
internal_weight=0 306 152 85 72 154 92 62 67 62
internal_count=378 306 152 85 72 154 92 62 67 62
is_linear=0
shrinkage=0.05


Tree=8
num_leaves=9
num_cat=0
split_feature=0 4 4 3 0 0 1 1
split_gain=32.838 20.3726 13.5682 4.0912 5.29539 3.92353 3.14175 2.44712
threshold=13.500000000000002 4.5000000000000009 2.5000000000000004 1.0000000180025095e-35 11.500000000000002 15.500000000000002 7.5000000000000009 15.500000000000002
decision_type=2 2 2 2 2 2 2 2
left_child=2 5 6 4 -4 -2 -1 -8
right_child=1 -3 3 -5 -6 -7 7 -9
leaf_value=-0.030685388875955885 -0.0048777116128267389 0.049653070213318599 -0.0057130522963901361 -0.0088961371238909515 0.022554930682117877 0.016473132639051379 -0.0050147734650903769 -0.022964991185121065
leaf_weight=55 39 41 30 51 37 48 34 43
leaf_count=55 39 41 30 51 37 48 34 43
internal_value=0 0.0205957 -0.010545 0.0017749 0.00989762 0.00690206 -0.0215583 -0.0150389
internal_weight=0 128 250 118 67 87 132 77
internal_count=378 128 250 118 67 87 132 77
is_linear=0
shrinkage=0.05


Tree=9
num_leaves=11
num_cat=0
split_feature=0 4 3 0 1 3 0 4 1 1
split_gain=29.7046 18.439 6.63315 7.60934 6.3284 3.00533 1.46676 1.09758 0.983843 0.628941
threshold=15.500000000000002 2.5000000000000004 1.0000000180025095e-35 11.500000000000002 9.5000000000000018 1.0000000180025095e-35 11.500000000000002 1.0000000180025095e-35 21.500000000000004 8.5000000000000018
decision_type=2 2 2 2 2 2 2 2 2 2
left_child=1 5 3 -3 -2 9 -7 -8 -4 -1
right_child=4 2 8 -5 -6 6 7 -9 -10 -11
leaf_value=-0.015520152137164149 0.01407200370190872 -0.0054273998178541658 -0.00041593040472694809 0.025877405767413705 0.04371899004197783 -0.033802675604820254 -0.013682560658743305 -0.026987788387604301 -0.012545945029705763 -0.0054483057270126962
leaf_weight=31 36 30 35 55 36 30 31 31 32 31
leaf_count=31 36 30 35 55 36 30 31 31 32 31
internal_value=0 -0.00679894 0.00555531 0.0148287 0.0288955 -0.0189927 -0.0247268 -0.0203352 -0.00620937 -0.0104842
internal_weight=0 306 152 85 72 154 92 62 67 62
internal_count=378 306 152 85 72 154 92 62 67 62
is_linear=0
shrinkage=0.05


Tree=10
num_leaves=9
num_cat=0
split_feature=0 4 4 0 3 0 1 1
split_gain=27.157 17.6277 10.9778 3.56254 5.71285 3.02081 2.76953 2.17924
threshold=13.500000000000002 4.5000000000000009 2.5000000000000004 10.500000000000002 1.0000000180025095e-35 15.500000000000002 7.5000000000000009 15.500000000000002
decision_type=2 2 2 2 2 2 2 2
left_child=2 5 6 -4 -5 -2 -1 -8
right_child=1 -3 3 4 -6 -7 7 -9
leaf_value=-0.028065304437821566 -0.0043443475969326805 0.045758712636988337 -0.013387478807320198 0.019304218060675671 -0.0061749484771015974 0.014389994519297034 -0.0039153384756954275 -0.020854597859257876
leaf_weight=55 39 41 30 44 44 48 34 43
leaf_count=55 39 41 30 44 44 48 34 43
internal_value=0 0.0187297 -0.00958959 0.00149206 0.00656463 0.00599184 -0.0194959 -0.0133749
internal_weight=0 128 250 118 88 87 132 77
internal_count=378 128 250 118 88 87 132 77
is_linear=0
shrinkage=0.05


Tree=11
num_leaves=9
num_cat=0
split_feature=0 4 1 3 0 4 1 1
split_gain=24.5092 15.909 9.98791 7.27211 5.32989 3.16281 3.01886 1.82921
threshold=13.500000000000002 4.5000000000000009 6.5000000000000009 1.0000000180025095e-35 10.500000000000002 2.5000000000000004 8.5000000000000018 20.500000000000004
decision_type=2 2 2 2 2 2 2 2
left_child=2 6 -1 4 -4 -5 -2 -6
right_child=1 -3 3 5 7 -7 -8 -9
leaf_value=-0.02670163076187744 -0.0035152043046599089 0.043470776853401491 -0.0099941069187480039 -0.021433969819918276 0.0066842387400327195 -0.0032195899254557764 0.015113829422828762 0.024003344036318597
leaf_weight=61 44 41 32 52 31 44 43 30
leaf_count=61 44 41 32 52 31 44 43 30
internal_value=0 0.0177932 -0.00911011 -0.00343242 0.00653226 -0.0130857 0.00569225 0.0152018
internal_weight=0 128 250 189 93 96 87 61
internal_count=378 128 250 189 93 96 87 61
is_linear=0
shrinkage=0.05


Tree=12
num_leaves=11
num_cat=0
split_feature=0 4 3 0 1 3 0 1 4 2
split_gain=22.8018 13.6539 5.14615 5.63818 5.05486 2.39871 1.22207 1.00074 0.971272 0.414576
threshold=15.500000000000002 2.5000000000000004 1.0000000180025095e-35 11.500000000000002 9.5000000000000018 1.0000000180025095e-35 11.500000000000002 20.500000000000004 1.0000000180025095e-35 1.0000000180025095e-35
decision_type=2 2 2 2 2 2 2 2 2 2
left_child=1 5 3 -3 -2 9 -7 -4 -8 -1
right_child=4 2 7 -5 -6 6 8 -9 -10 -11
leaf_value=-0.012936967546721141 0.012068214078640773 -0.0045938870194368068 0.00051443812747796371 0.022352895177900792 0.038564706609273955 -0.029856890588998798 -0.011305810637291401 -0.011708396377370638 -0.023822069826025156 -0.004759734724798511
leaf_weight=31 36 30 33 55 36 30 31 34 31 31
leaf_count=31 36 30 33 55 36 30 31 34 31 31
internal_value=0 -0.00595681 0.00467423 0.0128423 0.0253165 -0.0164498 -0.0215725 -0.00568819 -0.0175639 -0.00884835
internal_weight=0 306 152 85 72 154 92 67 62 62
internal_count=378 306 152 85 72 154 92 67 62 62
is_linear=0
shrinkage=0.05


Tree=13
num_leaves=9
num_cat=0
split_feature=0 4 4 3 0 1 3 4
split_gain=20.5786 12.3226 4.67026 4.6444 5.08846 2.28578 2.41926 0.942843
threshold=15.500000000000002 2.5000000000000004 2.5000000000000004 1.0000000180025095e-35 11.500000000000002 7.5000000000000009 1.0000000180025095e-35 5.5000000000000009
decision_type=2 2 2 2 2 2 2 2
left_child=1 5 -2 4 -3 -1 -7 -5
right_child=2 3 -4 7 -6 6 -8 -9
leaf_value=-0.022568746222488917 0.011665305923167113 -0.0043641921071684922 0.037143702909483441 0.00061674735819300017 0.021235250383192166 0.00012837607851799799 -0.016959700370558873 -0.011247241990092922
leaf_weight=67 37 30 35 33 55 34 53 34
leaf_count=67 37 30 35 33 55 34 53 34
internal_value=0 -0.00565897 0.0240506 0.00444052 0.0122002 -0.0156273 -0.0102816 -0.00540378
internal_weight=0 306 72 152 85 154 87 67
internal_count=378 306 72 152 85 154 87 67
is_linear=0
shrinkage=0.05


Tree=14
num_leaves=9
num_cat=0
split_feature=0 1 3 0 4 1 4 1
split_gain=18.5722 11.4374 7.30965 5.86965 4.71599 4.37164 2.41425 0.587422
threshold=15.500000000000002 6.5000000000000009 1.0000000180025095e-35 10.500000000000002 3.5000000000000004 9.5000000000000018 2.5000000000000004 3.5000000000000004
decision_type=2 2 2 2 2 2 2 2
left_child=1 7 3 -3 -5 -2 -4 -1
right_child=5 2 6 4 -6 -7 -8 -9
leaf_value=-0.025535474518472531 0.010527671103611486 -0.0090690113611344714 -0.016019134964740819 0.0018294885645017906 0.026065326475405267 0.035168539786445761 -0.0014665977359471615 -0.016580159282311796
leaf_weight=47 36 32 57 34 49 36 57 30
leaf_count=47 36 32 57 34 49 36 57 30
internal_value=0 -0.00537602 0.000229295 0.00912344 0.0161374 0.0228481 -0.00874287 -0.0220464
internal_weight=0 306 229 115 83 72 114 77
internal_count=378 306 229 115 83 72 114 77
is_linear=0
shrinkage=0.05


Tree=15
num_leaves=9
num_cat=0
split_feature=0 4 1 3 0 1 4 1
split_gain=17.1184 12.4817 7.25612 4.72705 4.14275 2.89953 2.28794 1.21673
threshold=13.500000000000002 6.5000000000000009 7.5000000000000009 1.0000000180025095e-35 10.500000000000002 8.5000000000000018 1.5000000000000002 3.5000000000000004
decision_type=2 2 2 2 2 2 2 2
left_child=2 5 7 4 -4 -2 -5 -1
right_child=1 -3 3 6 -6 -7 -8 -9
leaf_value=-0.027322515648005433 -0.0034903180097108303 0.040831667701165905 -0.0087273127609683622 -0.019417993743450213 0.013983748086907886 0.01407670089150391 -0.0034622779643198234 -0.014089768168923912
leaf_weight=38 46 34 31 39 57 48 53 32
leaf_count=38 46 34 31 39 57 48 53 32
internal_value=0 0.0148703 -0.00761361 -0.00230153 0.00598326 0.00548007 -0.0102261 -0.0212733
internal_weight=0 128 250 180 88 94 92 70
internal_count=378 128 250 180 88 94 92 70
is_linear=0
shrinkage=0.05


Tree=16
num_leaves=9
num_cat=0
split_feature=0 1 3 0 4 4 4 3
split_gain=15.5736 9.38436 6.05431 4.78147 4.18271 3.61125 1.9395 0.489581
threshold=15.500000000000002 6.5000000000000009 1.0000000180025095e-35 10.500000000000002 3.5000000000000004 2.5000000000000004 2.5000000000000004 1.0000000180025095e-35
decision_type=2 2 2 2 2 2 2 2
left_child=1 7 3 -3 -5 -2 -4 -1
right_child=5 2 6 4 -6 -7 -8 -9
leaf_value=-0.015295285737374799 0.010031540410567981 -0.008170816182973795 -0.014532759362472253 0.0011047149570110966 0.023929171468254788 0.032435780401740756 -0.0014893051400257831 -0.023385246089504413
leaf_weight=32 37 32 57 34 49 35 57 45
leaf_count=32 37 32 57 34 49 35 57 45
internal_value=0 -0.00492294 0.000154436 0.0082489 0.0145794 0.0209225 -0.00801103 -0.0200232
internal_weight=0 306 229 115 83 72 114 77
internal_count=378 306 229 115 83 72 114 77
is_linear=0
shrinkage=0.05


Tree=17
num_leaves=9
num_cat=0
split_feature=0 4 1 3 0 1 4 1
split_gain=14.2551 10.5767 5.97535 3.86513 3.35926 2.47089 1.92323 1.04796
threshold=13.500000000000002 6.5000000000000009 7.5000000000000009 1.0000000180025095e-35 10.500000000000002 8.5000000000000018 1.5000000000000002 3.5000000000000004
decision_type=2 2 2 2 2 2 2 2
left_child=2 5 7 4 -4 -2 -5 -1
right_child=1 -3 3 6 -6 -7 -8 -9
leaf_value=-0.024957442264023581 -0.003355048619129736 0.037467932523063879 -0.0078824068690019275 -0.017720455984370068 0.012568617014116363 0.012861614557914437 -0.0030916471596596378 -0.012676674900285435
leaf_weight=38 46 34 31 39 57 48 53 32
leaf_count=38 46 34 31 39 57 48 53 32
internal_value=0 0.0135698 -0.00694774 -0.00212721 0.00536428 0.0049258 -0.00929299 -0.0193434
internal_weight=0 128 250 180 88 94 92 70
internal_count=378 128 250 180 88 94 92 70
is_linear=0
shrinkage=0.05


Tree=18
num_leaves=10
num_cat=0
split_feature=0 4 3 1 1 4 1 1 1
split_gain=13.0623 7.72974 3.91831 3.12075 2.44732 1.91341 1.77909 0.266788 0.264317
threshold=15.500000000000002 3.5000000000000004 1.0000000180025095e-35 9.5000000000000018 4.5000000000000009 10.500000000000002 15.500000000000002 28.500000000000004 9.5000000000000018
decision_type=2 2 2 2 2 2 2 2 2
left_child=1 4 5 -2 -1 -3 8 -8 -6
right_child=3 2 -4 -5 6 -7 7 -9 -10
leaf_value=-0.020725043627376462 0.0087518373853527013 0.0057130310534765682 -0.0051226571083746175 0.029570998401484555 -0.0050761261967838638 0.022246169340796769 -0.01047257667252173 -0.01708676023108344 0.0011189767808625192
leaf_weight=49 36 42 55 36 36 30 30 31 33
leaf_count=49 36 42 55 36 36 30 30 31 33
internal_value=0 -0.00450857 0.00492588 0.0191614 -0.0112023 0.0126018 -0.00761293 -0.0138339 -0.00211325
internal_weight=0 306 127 72 179 72 130 61 69
internal_count=378 306 127 72 179 72 130 61 69
is_linear=0
shrinkage=0.05


Tree=19
num_leaves=9
num_cat=0
split_feature=0 4 1 0 3 1 4 1
split_gain=11.9336 9.16525 5.01261 3.34188 3.58849 1.52742 1.32484 0.844283
threshold=13.500000000000002 4.5000000000000009 7.5000000000000009 10.500000000000002 1.0000000180025095e-35 8.5000000000000018 2.5000000000000004 3.5000000000000004
decision_type=2 2 2 2 2 2 2 2
left_child=2 5 7 -4 -5 -2 -6 -1
right_child=1 -3 3 4 6 -7 -8 -9
leaf_value=-0.022749163955450059 -0.0033183347412639045 0.031905498396514395 -0.012630633503879204 0.011744179673239655 -0.012225538437419079 0.0099326621608397132 0.00144670677396494 -0.011726253223605454
leaf_weight=38 44 41 52 57 34 43 37 32
leaf_count=38 44 41 52 57 34 43 37 32
internal_value=0 0.0124158 -0.00635689 -0.00194175 0.00240061 0.00323101 -0.00510057 -0.0177101
internal_weight=0 128 250 180 128 87 71 70
internal_count=378 128 250 180 128 87 71 70
is_linear=0
shrinkage=0.05


Tree=20
num_leaves=9
num_cat=0
split_feature=0 1 0 4 1 4 1 3
split_gain=10.9948 6.49935 4.34554 5.3016 2.58103 1.31059 0.817713 0.431714
threshold=15.500000000000002 6.5000000000000009 10.500000000000002 10.500000000000002 9.5000000000000018 1.5000000000000002 14.500000000000002 1.0000000180025095e-35
decision_type=2 2 2 2 2 2 2 2
left_child=1 7 -3 5 -2 -4 -7 -1
right_child=4 2 3 -5 -6 6 -8 -9
leaf_value=-0.012263275707664435 0.0081130138190928843 -0.012161854241381992 -0.0066026286112214885 0.021354341842234136 0.027046494671635127 0.010054564281987649 -0.00017518807269100632 -0.019860100431574716
leaf_weight=32 36 55 53 35 36 30 56 45
leaf_count=32 36 55 53 35 36 30 56 45
internal_value=0 -0.00413641 8.90265e-05 0.00396143 0.0175798 -0.000418079 0.00339333 -0.016703
internal_weight=0 306 229 174 72 139 86 77
internal_count=378 306 229 174 72 139 86 77
is_linear=0
shrinkage=0.05


Tree=21
num_leaves=10
num_cat=0
split_feature=0 4 3 4 1 4 1 1 1
split_gain=9.92283 5.91194 3.41116 2.37317 1.80203 1.60095 1.59032 0.209454 0.203244
threshold=15.500000000000002 3.5000000000000004 1.0000000180025095e-35 2.5000000000000004 4.5000000000000009 10.500000000000002 15.500000000000002 28.500000000000004 9.5000000000000018
decision_type=2 2 2 2 2 2 2 2 2
left_child=1 4 5 -2 -1 -3 8 -8 -6
right_child=3 2 -4 -5 6 -7 7 -9 -10
leaf_value=-0.017954975382748005 0.0078719757522481525 0.0051819822063580868 -0.0050544456087730158 0.026034058045063702 -0.0041019424679689109 0.020305054796238741 -0.0096069109129408997 -0.015467457377141523 0.0013305054130879318
leaf_weight=49 37 42 55 35 36 30 30 31 33
leaf_count=49 37 42 55 35 36 30 30 31 33
internal_value=0 -0.00392959 0.00432126 0.0167008 -0.00978355 0.0114833 -0.00670355 -0.0125852 -0.00150382
internal_weight=0 306 127 72 179 72 130 61 69
internal_count=378 306 127 72 179 72 130 61 69
is_linear=0
shrinkage=0.05


Tree=22
num_leaves=9
num_cat=0
split_feature=0 4 1 3 0 4 1 1
split_gain=9.18468 7.43984 3.84391 2.78521 2.44333 1.43537 1.20161 0.651468
threshold=13.500000000000002 4.5000000000000009 7.5000000000000009 1.0000000180025095e-35 10.500000000000002 1.5000000000000002 8.5000000000000018 3.5000000000000004
decision_type=2 2 2 2 2 2 2 2
left_child=2 6 7 4 -4 -5 -2 -1
right_child=1 -3 3 5 -6 -7 -8 -9
leaf_value=-0.019945277342278706 -0.0031918550309703942 0.02845193088599822 -0.0066485041031433684 -0.015073990243940783 0.010793021870286842 -0.0024360549091449325 0.0085612028209102724 -0.010262524255085738
leaf_weight=38 44 41 31 39 57 53 43 32
leaf_count=38 44 41 31 39 57 53 43 32
internal_value=0 0.0108923 -0.00557688 -0.00171054 0.00464885 -0.00779344 0.00261713 -0.0155189
internal_weight=0 128 250 180 88 92 87 70
internal_count=378 128 250 180 88 92 87 70
is_linear=0
shrinkage=0.05


Tree=23
num_leaves=10
num_cat=0
split_feature=0 1 3 0 4 1 1 3 4
split_gain=8.3481 4.95525 3.66538 2.80316 2.78968 2.04485 1.32034 0.383066 0.341347
threshold=15.500000000000002 6.5000000000000009 1.0000000180025095e-35 10.500000000000002 3.5000000000000004 9.5000000000000018 13.500000000000002 1.0000000180025095e-35 3.5000000000000004
decision_type=2 2 2 2 2 2 2 2 2
left_child=1 7 3 -3 -5 -2 -4 -1 -8
right_child=5 2 6 4 -6 -7 8 -9 -10
leaf_value=-0.010394966701278464 0.0068921128727702638 -0.0061887515708804134 0.0019858097664409262 0.00022606139126069404 0.018866183739915797 0.0237446145956508 -0.012882831776958138 -0.017550975208481156 -0.0063425520974162378
leaf_weight=32 36 32 34 34 49 36 42 45 38
leaf_count=32 36 32 34 34 49 36 42 45 38
internal_value=0 -0.00360432 8.51994e-05 0.00638338 0.0112305 0.0153184 -0.00626823 -0.014577 -0.0097762
internal_weight=0 306 229 115 83 72 114 77 80
internal_count=378 306 229 115 83 72 114 77 80
is_linear=0
shrinkage=0.05


Tree=24
num_leaves=9
num_cat=0
split_feature=0 4 1 0 4 3 1 1
split_gain=7.65617 6.47491 3.1858 2.39179 2.93554 1.62624 1.42877 0.553056
threshold=13.500000000000002 6.5000000000000009 7.5000000000000009 9.5000000000000018 1.5000000000000002 1.0000000180025095e-35 6.5000000000000009 3.5000000000000004
decision_type=2 2 2 2 2 2 2 2
left_child=2 6 7 -4 -5 -6 -2 -1
right_child=1 -3 3 4 5 -7 -8 -9
leaf_value=-0.018221117678637568 -0.0043017349892148843 0.028643255943761155 -0.012354644518345595 -0.008675662436066791 0.013339225939758446 0.00011483453848260515 0.0082594006149780148 -0.0092996396895614463
leaf_weight=38 38 34 40 47 46 47 56 32
leaf_count=38 38 34 40 47 46 47 56 32
internal_value=0 0.00994478 -0.00509172 -0.00157189 0.0015089 0.00665593 0.00318149 -0.0141427
internal_weight=0 128 250 180 140 93 94 70
internal_count=378 128 250 180 140 93 94 70
is_linear=0
shrinkage=0.05


Tree=25
num_leaves=10
num_cat=0
split_feature=3 4 1 0 4 0 1 4 4
split_gain=7.02675 7.69487 2.21038 2.34917 1.9646 2.0514 1.15333 0.672913 0.275091
threshold=1.0000000180025095e-35 13.500000000000002 3.5000000000000004 12.500000000000002 1.5000000000000002 14.500000000000002 6.5000000000000009 2.5000000000000004 5.5000000000000009
decision_type=2 2 2 2 2 2 2 2 2
left_child=1 4 -2 7 6 8 -1 -4 -6
right_child=2 -3 3 -5 5 -7 -8 -9 -10
leaf_value=-0.0112519143614918 -0.019453416248002359 0.029706337302923203 -0.012698465033567377 0.0045863637007246523 0.0045965438068378715 0.016886737790297379 0.0017940261582326559 -0.0043261823865274589 -0.001623157570429612
leaf_weight=32 31 30 56 46 40 33 36 42 32
leaf_count=32 31 30 56 46 40 33 36 42 32
internal_value=0 0.00632954 -0.00734227 -0.00473501 0.00227576 0.00656365 -0.00434524 -0.00911034 0.00183223
internal_weight=0 203 175 144 173 105 68 98 72
internal_count=378 203 175 144 173 105 68 98 72
is_linear=0
shrinkage=0.05


Tree=26
num_leaves=10
num_cat=0
split_feature=0 1 2 3 0 1 1 4 4
split_gain=6.59802 4.49703 3.50434 3.39776 2.57486 1.9906 1.08907 0.423018 0.320084
threshold=14.500000000000002 6.5000000000000009 1.0000000180025095e-35 1.0000000180025095e-35 10.500000000000002 20.500000000000004 13.500000000000002 1.0000000180025095e-35 4.5000000000000009
decision_type=2 2 2 2 2 2 2 2 2
left_child=1 7 -2 4 -3 -6 -5 -1 -8
right_child=2 3 -4 6 5 -7 8 -9 -10
leaf_value=-0.011155668902210892 -0.0017507541924715042 -0.0058887010556645698 0.019361508873765143 0.0014013125197379851 0.0034738639025904596 0.019379469243859925 -0.012365171855146235 -0.018937247471823807 -0.0058509269701034735
leaf_weight=40 30 32 57 32 42 37 44 31 33
leaf_count=40 30 32 57 32 42 37 44 31 33
internal_value=0 -0.00361197 0.0120814 -8.09179e-05 0.00607661 0.0109233 -0.00635143 -0.0145533 -0.00957335
internal_weight=0 291 87 220 111 79 109 71 77
internal_count=378 291 87 220 111 79 109 71 77
is_linear=0
shrinkage=0.05


Tree=27
num_leaves=10
num_cat=0
split_feature=0 4 3 1 4 1 1 1 3
split_gain=5.97283 3.49414 2.04864 1.45002 1.20949 0.997032 2.18331 0.147827 0.0948703
threshold=15.500000000000002 3.5000000000000004 1.0000000180025095e-35 9.5000000000000018 10.500000000000002 7.5000000000000009 15.500000000000002 28.500000000000004 1.0000000180025095e-35
decision_type=2 2 2 2 2 2 2 2 2
left_child=1 5 4 -2 -3 8 -7 -8 -1
right_child=3 2 -4 -5 -6 6 7 -9 -10
leaf_value=-0.010014868819465242 0.0058614866187175121 0.003367731532281531 -0.0039714328148825603 0.02005275756172422 0.016512454412877558 0.0035754592415500192 -0.0082616837105403337 -0.013185137546350879 -0.013714953448350838
leaf_weight=30 36 42 55 36 30 47 30 31 41
leaf_count=30 36 42 55 36 30 47 30 31 41
internal_value=0 -0.00304873 0.00329441 0.0129571 0.0088447 -0.00754918 -0.00452355 -0.0107638 -0.0121515
internal_weight=0 306 127 72 72 179 108 61 71
internal_count=378 306 127 72 72 179 108 61 71
is_linear=0
shrinkage=0.05


Tree=28
num_leaves=10
num_cat=0
split_feature=0 4 0 3 1 1 1 2 4
split_gain=5.5349 6.01286 2.3421 2.25392 1.81926 1.74896 1.07627 1.01102 0.781496
threshold=12.500000000000002 6.5000000000000009 10.500000000000002 1.0000000180025095e-35 4.5000000000000009 13.500000000000002 15.500000000000002 1.0000000180025095e-35 2.5000000000000004
decision_type=2 2 2 2 2 2 2 2 2
left_child=2 4 7 5 -2 -4 -6 -1 -5
right_child=1 -3 3 8 6 -7 -8 -9 -10
leaf_value=-0.018424722363447978 -0.0084641479971733959 0.023955111503601075 -0.0036777861859469164 -0.011236449187466253 0.0097895880767072622 0.012325604081055836 -0.0021029666811227801 -0.0064904802292585374 -0.0014117822955761637
leaf_weight=36 33 40 31 48 52 38 30 35 35
leaf_count=36 33 40 31 48 52 38 30 35 35
internal_value=0 0.00725714 -0.0050442 -0.00154211 0.00144915 0.00513568 0.00543865 -0.0125416 -0.00709352
internal_weight=0 155 223 152 115 69 82 71 83
internal_count=378 155 223 152 115 69 82 71 83
is_linear=0
shrinkage=0.05


Tree=29
num_leaves=9
num_cat=0
split_feature=0 1 4 0 3 0 4 4
split_gain=5.07839 3.5894 3.04855 2.69644 1.5357 1.04609 0.746114 0.420523
threshold=14.500000000000002 6.5000000000000009 3.5000000000000004 12.500000000000002 1.0000000180025095e-35 10.500000000000002 2.5000000000000004 1.0000000180025095e-35
decision_type=2 2 2 2 2 2 2 2
left_child=1 7 -2 4 5 -3 -6 -1
right_child=2 3 -4 -5 6 -7 -8 -9
leaf_value=-0.0095562738343141981 0.00328250071723704 -0.0052722720050951471 0.022572052907763106 0.010751701356924099 -0.011611334597501828 0.0061363198363256679 -0.0023433884868446072 -0.017314874894556503
leaf_weight=40 54 32 33 46 49 54 39 31
leaf_count=40 54 32 33 46 49 54 39 31
internal_value=0 -0.00316884 0.0105992 -1.41851e-05 -0.00286034 0.00189126 -0.00750395 -0.0129438
internal_weight=0 291 87 220 174 86 88 71
internal_count=378 291 87 220 174 86 88 71
is_linear=0
shrinkage=0.05


Tree=30
num_leaves=10
num_cat=0
split_feature=4 0 3 0 1 0 4 1 1
split_gain=4.6639 5.27817 2.07083 1.49936 3.20314 1.10866 1.04111 1.07016 0.516292
threshold=1.5000000000000002 14.500000000000002 1.0000000180025095e-35 11.500000000000002 20.500000000000004 10.500000000000002 1.0000000180025095e-35 9.5000000000000018 20.500000000000004
decision_type=2 2 2 2 2 2 2 2 2
left_child=5 2 3 -2 -5 -1 7 -7 -4
right_child=1 -3 8 4 -6 6 -8 -9 -10
leaf_value=-0.014389163869861011 -0.0037360092325343431 0.017365201019634634 -0.0017997671170411882 -0.0016436360167121637 0.021274615675210953 -0.0064575549835960075 -0.012028550787363201 0.0051997668189661846 -0.0099944521753059234
leaf_weight=37 32 59 37 31 30 45 32 35 40
leaf_count=37 32 59 37 31 30 45 32 35 40
internal_value=0 0.00447996 8.02346e-06 0.00502939 0.00962764 -0.00688531 -0.00440636 -0.00135748 -0.00605675
internal_weight=0 229 170 93 61 149 112 80 77
internal_count=378 229 170 93 61 149 112 80 77
is_linear=0
shrinkage=0.05


Tree=31
num_leaves=10
num_cat=0
split_feature=4 0 1 0 3 1 4 4 1
split_gain=4.40428 2.73153 2.36654 1.11173 1.13572 0.959665 0.914438 0.588332 0.217627
threshold=15.500000000000002 14.500000000000002 3.5000000000000004 11.500000000000002 1.0000000180025095e-35 13.500000000000002 2.5000000000000004 3.5000000000000004 26.500000000000004
decision_type=2 2 2 2 2 2 2 2 2
left_child=1 2 -1 8 7 -6 -3 -5 -4
right_child=-2 6 3 4 5 -7 -8 -9 -10
leaf_value=-0.015047344973953887 0.016635022767715984 0.0018198106353255836 -0.0049167376422944173 0.00051437948981451016 0.002008719337616293 -0.0081974209751933813 0.012830363623233457 0.0096971240102765015 -0.010939291476582487
leaf_weight=42 36 44 30 37 42 51 33 33 30
leaf_count=42 36 44 30 37 42 51 33 33 30
internal_value=0 -0.00175106 -0.00415975 -0.00210917 3.27293e-05 -0.0035882 0.00653862 0.00484339 -0.00792801
internal_weight=0 342 265 223 163 93 77 70 60
internal_count=378 342 265 223 163 93 77 70 60
is_linear=0
shrinkage=0.05


Tree=32
num_leaves=11
num_cat=0
split_feature=3 4 1 1 1 2 4 1 4 1
split_gain=4.06462 5.36788 1.49759 1.66096 1.32149 2.89151 1.0955 0.555902 0.197037 0.00160489
threshold=1.0000000180025095e-35 13.500000000000002 3.5000000000000004 16.500000000000004 16.500000000000004 1.0000000180025095e-35 1.5000000000000002 34.500000000000007 4.5000000000000009 9.5000000000000018
decision_type=2 2 2 2 2 2 2 2 2 2
left_child=1 4 -2 6 5 -1 -4 -5 -6 -7
right_child=2 -3 3 7 8 9 -8 -9 -10 -11
leaf_value=-0.0043833695846248648 -0.015553132276381216 0.024338750615715984 -0.0037808943797196996 -0.012378469870837275 -0.0072376699156818857 0.012114670913433656 0.0086716336332205123 -0.0035102683367828529 -0.0016002748522066302 0.011605629196080068
leaf_weight=49 31 30 38 43 31 32 33 30 31 30
leaf_count=49 31 30 38 43 31 32 33 30 31 30
internal_value=0 0.00481399 -0.00558423 -0.00343814 0.00142819 0.00469417 0.0020069 -0.008734 -0.00441897 0.0118684
internal_weight=0 203 175 144 173 111 71 73 62 62
internal_count=378 203 175 144 173 111 71 73 62 62
is_linear=0
shrinkage=0.05


Tree=33
num_leaves=9
num_cat=0
split_feature=0 4 0 1 2 1 4 1
split_gain=3.9432 5.62008 1.63287 0.8366 0.795601 0.768654 0.796121 0.270163
threshold=10.500000000000002 10.500000000000002 15.500000000000002 6.5000000000000009 1.0000000180025095e-35 10.500000000000002 3.5000000000000004 18.500000000000004
decision_type=2 2 2 2 2 2 2 2
left_child=4 2 3 -2 -1 -5 7 -7
right_child=1 -3 -4 5 -6 6 -8 -9
leaf_value=-0.015837931773987495 -0.0074498440845121375 0.018570258699195541 0.0067768472987303485 0.0066612426727078863 -0.0052512049568550932 -0.0093546926494567622 0.0026240947710744959 -0.0028053595073288307
leaf_weight=36 61 46 61 30 35 31 46 32
leaf_count=36 61 46 61 30 35 31 46 32
internal_value=0 0.00245589 -0.000384192 -0.00256831 -0.0106191 -0.000426053 -0.00237668 -0.00602805
internal_weight=0 307 261 200 71 139 109 63
internal_count=378 307 261 200 71 139 109 63
is_linear=0
shrinkage=0.05


Tree=34
num_leaves=10
num_cat=0
split_feature=0 4 0 4 4 2 4 0 1
split_gain=3.55874 5.07212 1.47367 0.8171 2.32744 0.71803 0.324632 0.4621 0.2625
threshold=10.500000000000002 10.500000000000002 15.500000000000002 5.5000000000000009 3.5000000000000004 1.0000000180025095e-35 1.0000000180025095e-35 12.500000000000002 9.5000000000000018
decision_type=2 2 2 2 2 2 2 2 2
left_child=5 2 3 4 6 -1 8 -8 -2
right_child=1 -3 -4 -5 -6 -7 7 -9 -10
leaf_value=-0.01504603537808483 -0.0045679619477596136 0.017641745343723376 0.0064380044511664417 -0.0099018937517558383 0.010409991090252464 -0.0049886447616985866 -0.009739025551382275 -0.0016141069494187831 0.0019422445818781853
leaf_weight=36 32 46 61 31 35 35 42 30 30
leaf_count=36 32 46 61 31 35 35 42 30 30
internal_value=0 0.00233309 -0.000364983 -0.00243989 -0.00107112 -0.0100882 -0.00406992 -0.00635364 -0.00141786
internal_weight=0 307 261 200 169 71 134 72 62
internal_count=378 307 261 200 169 71 134 72 62
is_linear=0
shrinkage=0.05


Tree=35
num_leaves=11
num_cat=0
split_feature=3 4 1 1 1 2 4 1 4 1
split_gain=3.43974 4.36432 1.20888 1.56867 1.16047 2.44678 0.889124 0.496496 0.152568 0.0027278
threshold=1.0000000180025095e-35 13.500000000000002 3.5000000000000004 16.500000000000004 16.500000000000004 1.0000000180025095e-35 1.5000000000000002 34.500000000000007 4.5000000000000009 9.5000000000000018
decision_type=2 2 2 2 2 2 2 2 2 2
left_child=1 4 -2 6 5 -1 -4 -5 -6 -7
right_child=2 -3 3 7 8 9 -8 -9 -10 -11
leaf_value=-0.0039142120757843469 -0.014093685744991225 0.022033791467547418 -0.0031315095710421079 -0.011799779089795816 -0.0065841001488508716 0.011356700921896846 0.008086909449687511 -0.0034188079616675779 -0.0016234829300834288 0.010693054716878883
leaf_weight=49 31 30 38 43 31 32 33 30 31 30
leaf_count=49 31 30 38 43 31 32 33 30 31 30
internal_value=0 0.00442851 -0.00513708 -0.00320892 0.00137558 0.00443612 0.00208269 -0.00835554 -0.00410379 0.0110356
internal_weight=0 203 175 144 173 111 71 73 62 62
internal_count=378 203 175 144 173 111 71 73 62 62
is_linear=0
shrinkage=0.05


Tree=36
num_leaves=10
num_cat=0
split_feature=0 4 0 4 4 2 4 0 1
split_gain=3.14002 4.30402 1.27537 0.757945 2.04166 0.608192 0.295733 0.410573 0.230246
threshold=10.500000000000002 10.500000000000002 15.500000000000002 5.5000000000000009 3.5000000000000004 1.0000000180025095e-35 1.0000000180025095e-35 12.500000000000002 9.5000000000000018
decision_type=2 2 2 2 2 2 2 2 2
left_child=5 2 3 4 6 -1 8 -8 -2
right_child=1 -3 -4 -5 -6 -7 7 -9 -10
leaf_value=-0.014039040302547316 -0.0041334558220114557 0.016293495081608062 0.0060348821552012304 -0.0094109396878329504 0.0098473321353750587 -0.0047828083378928053 -0.0090852573647030779 -0.0014267164220412574 0.0019636850710958243
leaf_weight=36 32 46 61 31 35 35 42 30 30
leaf_count=36 32 46 61 31 35 35 42 30 30
internal_value=0 0.00219154 -0.000293858 -0.00222412 -0.000905833 -0.00947611 -0.0037145 -0.0058942 -0.00118323
internal_weight=0 307 261 200 169 71 134 72 62
internal_count=378 307 261 200 169 71 134 72 62
is_linear=0
shrinkage=0.05


Tree=37
num_leaves=11
num_cat=0
split_feature=3 4 1 1 1 1 4 1 0 4
split_gain=3.02335 3.7379 1.04176 1.43105 1.02632 2.18218 0.755049 0.453283 0.221453 0.129739
threshold=1.0000000180025095e-35 13.500000000000002 3.5000000000000004 16.500000000000004 16.500000000000004 6.5000000000000009 1.5000000000000002 34.500000000000007 13.500000000000002 4.5000000000000009
decision_type=2 2 2 2 2 2 2 2 2 2
left_child=1 4 -2 6 5 -1 -4 -5 -7 -6
right_child=2 -3 3 7 9 8 -8 -9 -10 -11
leaf_value=-0.003826949039406221 -0.013130609078272695 0.020444725590447587 -0.002777034722844531 -0.01123281714268202 -0.0061136969935990148 0.0072149119537789387 0.0075609975296891093 -0.0032248700472215816 0.013150490245739508 -0.0015392454521309946
leaf_weight=48 31 30 38 43 31 30 33 30 33 31
leaf_count=48 31 30 38 43 31 30 33 30 33 31
internal_value=0 0.00415183 -0.00481612 -0.00302619 0.00132647 0.00420468 0.00202797 -0.00794188 0.010324 -0.00382647
internal_weight=0 203 175 144 173 111 71 73 63 62
internal_count=378 203 175 144 173 111 71 73 63 62
is_linear=0
shrinkage=0.05


Tree=38
num_leaves=9
num_cat=0
split_feature=0 4 0 1 1 2 3 1
split_gain=2.7742 3.6508 1.1036 1.09202 0.57756 0.52034 0.493822 0.146138
threshold=10.500000000000002 10.500000000000002 14.500000000000002 6.5000000000000009 12.500000000000002 1.0000000180025095e-35 1.0000000180025095e-35 9.5000000000000018
decision_type=2 2 2 2 2 2 2 2
left_child=5 2 3 -2 -5 -1 -6 -4
right_child=1 -3 7 4 6 -7 -8 -9
leaf_value=-0.01312756639543093 -0.0081809486939825801 0.015047743730247021 0.0031199153231153656 0.0049622720481048146 0.0017900770616739296 -0.0045659182220697406 -0.0056246190401230091 0.0076668404042720796
leaf_weight=36 55 46 43 43 43 35 47 30
leaf_count=36 55 46 43 43 43 35 47 30
internal_value=0 0.00205993 -0.000229106 -0.0022551 0.000195443 -0.00890704 -0.00208204 0.00498851
internal_weight=0 307 261 188 133 71 90 73
internal_count=378 307 261 188 133 71 90 73
is_linear=0
shrinkage=0.05


Tree=39
num_leaves=11
num_cat=0
split_feature=3 4 1 2 1 1 4 1 4 1
split_gain=2.60037 3.22079 0.931632 1.98039 0.882889 1.29015 0.652118 0.40725 0.113849 0.0110059
threshold=1.0000000180025095e-35 13.500000000000002 16.500000000000004 1.0000000180025095e-35 3.5000000000000004 16.500000000000004 1.5000000000000002 34.500000000000007 4.5000000000000009 9.5000000000000018
decision_type=2 2 2 2 2 2 2 2 2 2
left_child=1 2 3 -1 -2 6 -6 -7 -4 -5
right_child=4 -3 8 9 5 7 -8 -9 -10 -11
leaf_value=-0.0035424203445602745 -0.012120816031951578 0.018974425873408717 -0.0058242537561924226 0.010552323090087157 -0.0024853420768570353 -0.010605511554451877 0.0071222237057306558 -0.0030150655470788483 -0.0015390725866440804 0.0092192825628444556
leaf_weight=49 31 30 31 32 38 43 33 30 31 30
leaf_count=49 31 30 31 32 38 43 33 30 31 30
internal_value=0 0.00385046 0.00122781 0.00397004 -0.00446654 -0.00281874 0.00198015 -0.00748615 -0.00368166 0.0099073
internal_weight=0 203 173 111 175 144 71 73 62 62
internal_count=378 203 173 111 175 144 71 73 62 62
is_linear=0
shrinkage=0.05


Tree=40
num_leaves=9
num_cat=0
split_feature=0 4 1 1 0 4 2 3
split_gain=2.44686 3.09759 0.975217 1.93836 1.8603 0.710878 0.440459 0.384796
threshold=10.500000000000002 10.500000000000002 6.5000000000000009 16.500000000000004 12.500000000000002 3.5000000000000004 1.0000000180025095e-35 1.0000000180025095e-35
decision_type=2 2 2 2 2 2 2 2
left_child=6 2 7 4 -4 -5 -1 -2
right_child=1 -3 3 5 -6 -7 -8 -9
leaf_value=-0.012248132869394289 -0.0012860389781140147 0.013897984111748014 -0.00043121437218202204 -0.0079212038569514542 0.013569392293587099 0.0013665040513794675 -0.0043710282764264519 -0.008095419870280637
leaf_weight=36 42 46 46 45 49 38 35 41
leaf_count=36 42 46 46 45 49 38 35 41
internal_value=0 0.00193459 -0.000173902 0.00191313 0.00679015 -0.003669 -0.00836505 -0.00464971
internal_weight=0 307 261 178 95 83 71 83
internal_count=378 307 261 178 95 83 71 83
is_linear=0
shrinkage=0.05


Tree=41
num_leaves=10
num_cat=0
split_feature=3 4 1 2 1 1 4 1 1
split_gain=2.22622 2.78306 0.983029 1.71224 0.720993 1.14002 0.557401 0.354038 0.0131239
threshold=1.0000000180025095e-35 12.500000000000002 16.500000000000004 1.0000000180025095e-35 3.5000000000000004 16.500000000000004 1.5000000000000002 34.500000000000007 9.5000000000000018
decision_type=2 2 2 2 2 2 2 2 2
left_child=1 2 3 -1 -2 6 -6 -7 -5
right_child=4 -3 -4 8 5 7 -8 -9 -10
leaf_value=-0.0033540441759158761 -0.011049722892142112 0.016389081209365813 -0.0044467733797143427 0.0098563703271793215 -0.0022610898840388183 -0.0099395580351525972 0.0066213890910148624 -0.0028623526419202486 0.0084007035692532858
leaf_weight=49 31 35 57 32 38 43 33 30 30
leaf_count=49 31 35 57 32 38 43 33 30 30
internal_value=0 0.0035627 0.00089054 0.00363132 -0.00413273 -0.00264366 0.00186739 -0.00703112 0.00915202
internal_weight=0 203 168 111 175 144 71 73 62
internal_count=378 203 168 111 175 144 71 73 62
is_linear=0
shrinkage=0.05


Tree=42
num_leaves=9
num_cat=0
split_feature=0 4 1 1 0 4 2 3
split_gain=2.16541 2.61677 0.960918 1.4224 1.44854 0.804279 0.368969 0.310614
threshold=10.500000000000002 12.500000000000002 6.5000000000000009 16.500000000000004 12.500000000000002 3.5000000000000004 1.0000000180025095e-35 1.0000000180025095e-35
decision_type=2 2 2 2 2 2 2 2
left_child=6 2 7 4 -4 -5 -1 -2
right_child=1 -3 3 5 -6 -7 -8 -9
leaf_value=-0.011423273164675469 -0.0013213884573252429 0.014485276293837362 5.621671942727906e-05 -0.0071930662583973674 0.012094160334627126 0.0023694967114648155 -0.0042137134075164798 -0.0074392927038233461
leaf_weight=36 42 36 49 45 51 43 35 41
leaf_count=36 42 36 49 45 51 43 35 41
internal_value=0 0.00181993 0.000137446 0.00211573 0.00619557 -0.00252045 -0.00786926 -0.00434349
internal_weight=0 307 271 188 100 88 71 83
internal_count=378 307 271 188 100 88 71 83
is_linear=0
shrinkage=0.05


Tree=43
num_leaves=9
num_cat=0
split_feature=0 4 4 0 1 4 4 1
split_gain=1.96117 2.48024 1.24134 1.60391 1.05213 1.50763 0.479962 0.839814
threshold=9.5000000000000018 12.500000000000002 1.5000000000000002 14.500000000000002 8.5000000000000018 6.5000000000000009 1.0000000180025095e-35 9.5000000000000018
decision_type=2 2 2 2 2 2 2 2
left_child=-1 2 6 4 -4 -6 7 -2
right_child=1 -3 3 -5 5 -7 -8 -9
leaf_value=-0.0094431639726735746 -0.0060482608585583943 0.013761012589222649 -0.0079450119625438347 0.010637203224367746 0.0074710200407675335 -0.0061336997605394572 -0.0089525196550633099 0.0035805764655845286
leaf_weight=48 54 36 33 46 56 32 34 39
leaf_count=48 54 36 33 46 56 32 34 39
internal_value=0 0.00137355 -0.000143281 0.00268997 -0.000331295 0.00252385 -0.00386889 -0.00201036
internal_weight=0 330 294 167 121 88 127 93
internal_count=378 330 294 167 121 88 127 93
is_linear=0
shrinkage=0.05


Tree=44
num_leaves=9
num_cat=0
split_feature=3 2 4 1 0 1 4 1
split_gain=1.85615 2.32783 3.5371 2.02206 0.550464 0.404202 0.249452 0.0191611
threshold=1.0000000180025095e-35 1.0000000180025095e-35 12.500000000000002 16.500000000000004 12.500000000000002 5.5000000000000009 1.5000000000000002 9.5000000000000018
decision_type=2 2 2 2 2 2 2 2
left_child=1 5 3 7 6 -1 -2 -3
right_child=4 2 -4 -5 -6 -7 -8 -9
leaf_value=-0.0089908196408456809 -0.0079752161598871229 0.009293142217211425 0.021419367952330504 -0.0053089820828779227 0.00015840933705538009 -0.00091234290157444782 -0.0033317068109119485 0.0075342445323864629
leaf_weight=30 61 32 32 47 59 32 55 30
leaf_count=30 61 32 32 47 59 32 55 30
internal_value=0 0.00325313 0.00680359 0.00251271 -0.00377363 -0.00482128 -0.00577355 0.00844206
internal_weight=0 203 141 109 175 62 116 62
internal_count=378 203 141 109 175 62 116 62
is_linear=0
shrinkage=0.05


Tree=45
num_leaves=9
num_cat=0
split_feature=0 3 4 4 2 1 4 0
split_gain=1.75186 2.12921 3.96859 0.71517 0.606958 1.45339 0.472862 0.231694
threshold=9.5000000000000018 1.0000000180025095e-35 10.500000000000002 1.5000000000000002 1.0000000180025095e-35 7.5000000000000009 2.5000000000000004 14.500000000000002
decision_type=2 2 2 2 2 2 2 2
left_child=-1 2 3 -2 5 -3 -6 -5
right_child=1 4 -4 7 6 -7 -8 -9
leaf_value=-0.0089250451414651863 -0.0026876872429918305 -0.0063545931531633765 0.021658026662965617 0.0026347641084742334 -0.0019211623882658261 0.0081724340695831354 -0.0092534291392399205 0.0080800682228679473
leaf_weight=48 57 36 30 56 43 33 45 30
leaf_count=48 57 36 30 56 43 33 45 30
internal_value=0 0.00129819 0.00512423 0.0016556 -0.00291777 0.000593116 -0.00567062 0.00453429
internal_weight=0 330 173 143 157 69 88 86
internal_count=378 330 173 143 157 69 88 86
is_linear=0
shrinkage=0.05


Tree=46
num_leaves=9
num_cat=0
split_feature=0 3 4 4 2 1 4 0
split_gain=1.58106 1.92162 3.58166 0.645441 0.547779 1.31168 0.434992 0.209104
threshold=9.5000000000000018 1.0000000180025095e-35 10.500000000000002 1.5000000000000002 1.0000000180025095e-35 7.5000000000000009 3.5000000000000004 14.500000000000002
decision_type=2 2 2 2 2 2 2 2
left_child=-1 2 3 -2 5 -3 -6 -5
right_child=1 4 -4 7 6 -7 -8 -9
leaf_value=-0.0084787925416700705 -0.0025533029013068268 -0.0060368635044950577 0.020575125943093252 0.0025030259209285893 -0.0025303820719204425 0.0077638124454427852 -0.00971295211996351 0.0076760643712865811
leaf_weight=48 57 36 30 56 53 33 35 30
leaf_count=48 57 36 30 56 53 33 35 30
internal_value=0 0.00123328 0.00486802 0.00157282 -0.00277188 0.00056346 -0.00538709 0.00430757
internal_weight=0 330 173 143 157 69 88 86
internal_count=378 330 173 143 157 69 88 86
is_linear=0
shrinkage=0.05


Tree=47
num_leaves=10
num_cat=0
split_feature=0 4 0 4 1 2 2 1 1
split_gain=1.44421 1.54047 0.606434 0.717088 1.46835 0.344605 0.310208 0.0896089 0.0027367
threshold=10.500000000000002 10.500000000000002 14.500000000000002 5.5000000000000009 19.500000000000004 1.0000000180025095e-35 1.0000000180025095e-35 9.5000000000000018 9.5000000000000018
decision_type=2 2 2 2 2 2 2 2 2
left_child=6 2 3 4 5 -2 -1 -4 -7
right_child=1 -3 7 -5 -6 8 -8 -9 -10
leaf_value=-0.0096853145579290072 2.426255981982598e-05 0.009922907450843765 0.0024038919185418207 -0.0084518665102340518 0.0081395569199230518 -0.0057750556835283844 -0.0030747245012649471 0.0059644014760851863 -0.0051198566852904415
leaf_weight=36 53 46 43 31 40 30 35 30 34
leaf_count=36 53 46 43 31 40 30 35 30 34
internal_value=0 0.00148628 -6.40116e-07 -0.00150248 -0.00013031 -0.00295761 -0.00642657 0.00386712 -0.00542698
internal_weight=0 307 261 188 157 117 71 73 64
internal_count=378 307 261 188 157 117 71 73 64
is_linear=0
shrinkage=0.05


Tree=48
num_leaves=10
num_cat=0
split_feature=3 2 4 1 1 0 4 1 1
split_gain=1.33931 1.84998 2.63145 1.76457 0.536398 0.978372 0.416619 0.353828 0.0253157
threshold=1.0000000180025095e-35 1.0000000180025095e-35 12.500000000000002 16.500000000000004 23.500000000000004 12.500000000000002 1.5000000000000002 5.5000000000000009 9.5000000000000018
decision_type=2 2 2 2 2 2 2 2 2
left_child=1 7 3 8 5 6 -2 -1 -3
right_child=4 2 -4 -5 -6 -7 -8 -9 -10
leaf_value=-0.0083358522116517026 -0.0078244089313860357 0.0087447058875113736 0.01853503767051734 -0.0050792489312291942 -0.007644453372720782 0.0041372479599279663 -0.00031326997404297196 -0.00077751532371621583 0.006722966833040119
leaf_weight=30 48 32 32 47 49 48 30 32 30
leaf_count=30 48 32 32 47 49 48 30 32 30
internal_value=0 0.00276335 0.00592848 0.00222748 -0.00320549 -0.00147922 -0.00493551 -0.00443478 0.00776645
internal_weight=0 203 141 109 175 126 78 62 62
internal_count=378 203 141 109 175 126 78 62 62
is_linear=0
shrinkage=0.05


Tree=49
num_leaves=9
num_cat=0
split_feature=0 3 4 4 2 1 1 1
split_gain=1.30243 1.56204 2.79155 0.576124 0.48984 1.15185 0.41315 0.165945
threshold=9.5000000000000018 1.0000000180025095e-35 10.500000000000002 1.5000000000000002 1.0000000180025095e-35 7.5000000000000009 21.500000000000004 16.500000000000004
decision_type=2 2 2 2 2 2 2 2
left_child=-1 2 3 -2 5 -3 -6 -5
right_child=1 4 -4 7 6 -7 -8 -9
leaf_value=-0.0076955069225126257 -0.0024109732661919112 -0.0055228078070083744 0.018263238966464996 0.005934702841565013 -0.0025007982224482914 0.0074097384896242265 -0.0097283354362783341 0.0014825988871355854
leaf_weight=48 57 36 30 50 58 33 30 36
leaf_count=48 57 36 30 50 58 33 30 36
internal_value=0 0.00111935 0.00439642 0.0014873 -0.00249169 0.000662323 -0.00496473 0.00407103
internal_weight=0 330 173 143 157 69 88 86
internal_count=378 330 173 143 157 69 88 86
is_linear=0
shrinkage=0.05


Tree=50
num_leaves=9
num_cat=0
split_feature=0 3 4 4 2 1 4 0
split_gain=1.17544 1.40974 2.51937 0.519952 0.442081 1.03954 0.399466 0.149917
threshold=9.5000000000000018 1.0000000180025095e-35 10.500000000000002 1.5000000000000002 1.0000000180025095e-35 7.5000000000000009 2.5000000000000004 14.500000000000002
decision_type=2 2 2 2 2 2 2 2
left_child=-1 2 3 -2 5 -3 -6 -5
right_child=1 4 -4 7 6 -7 -8 -9
leaf_value=-0.0073107312181188424 -0.0022904249896671166 -0.0052466676214761622 0.017350077265873551 0.002339516017985131 -0.0012702955420367248 0.0070392518374843135 -0.008009529733616445 0.006719679260471215
leaf_weight=48 57 36 30 56 43 33 45 30
leaf_count=48 57 36 30 56 43 33 45 30
internal_value=0 0.00106338 0.0041766 0.00141293 -0.00236711 0.000629207 -0.00471649 0.00386748
internal_weight=0 330 173 143 157 69 88 86
internal_count=378 330 173 143 157 69 88 86
is_linear=0
shrinkage=0.05


Tree=51
num_leaves=9
num_cat=0
split_feature=0 0 3 1 1 1 1 4
split_gain=1.07335 0.727658 0.895556 1.04039 0.36973 0.386323 0.331914 0.0836925
threshold=15.500000000000002 9.5000000000000018 1.0000000180025095e-35 13.500000000000002 7.5000000000000009 16.500000000000004 9.5000000000000018 6.5000000000000009
decision_type=2 2 2 2 2 2 2 2
left_child=1 -1 3 -3 -4 -6 -2 -5
right_child=6 2 4 7 5 -7 -8 -9
leaf_value=-0.0069451949539143243 0.0020979344624922507 -0.0020995637850353011 -0.0065450722539916323 0.0090959068768742407 0.0027774969728565531 -0.0037541604059827352 0.0088875691095987967 0.005446973981791719
leaf_weight=48 36 54 47 33 38 56 36 30
leaf_count=48 36 54 47 33 38 56 36 30
internal_value=0 -0.00129241 -0.000240732 0.00299314 -0.00292416 -0.0011137 0.00549275 0.00735832
internal_weight=0 306 258 117 141 94 72 63
internal_count=378 306 258 117 141 94 72 63
is_linear=0
shrinkage=0.05


Tree=52
num_leaves=9
num_cat=0
split_feature=0 0 3 1 2 1 4 4
split_gain=0.968702 0.656712 0.808239 0.938952 0.343629 0.299552 0.27623 0.0755325
threshold=15.500000000000002 9.5000000000000018 1.0000000180025095e-35 13.500000000000002 1.0000000180025095e-35 9.5000000000000018 3.5000000000000004 6.5000000000000009
decision_type=2 2 2 2 2 2 2 2
left_child=1 -1 3 -3 -4 -2 -6 -5
right_child=5 2 4 7 6 -7 -8 -9
leaf_value=-0.0065979352254847377 0.0019930380280129612 -0.0019945855804339606 9.0001635253429417e-05 0.0086411114824427801 -0.0023554256752781246 0.0084431904368102561 -0.0082497623376548285 0.0051746251798855765
leaf_weight=48 36 54 60 33 46 36 35 30
leaf_count=48 36 54 60 33 46 36 35 30
internal_value=0 -0.00122779 -0.000228695 0.00284349 -0.00277795 0.00521811 -0.00490236 0.0069904
internal_weight=0 306 258 117 141 72 81 63
internal_count=378 306 258 117 141 72 81 63
is_linear=0
shrinkage=0.05


Tree=53
num_leaves=9
num_cat=0
split_feature=0 4 1 1 0 4 1 2
split_gain=0.883601 0.941025 0.481675 1.28051 1.12519 0.642194 0.305224 0.197343
threshold=10.500000000000002 10.500000000000002 16.500000000000004 6.5000000000000009 12.500000000000002 3.5000000000000004 22.500000000000004 1.0000000180025095e-35
decision_type=2 2 2 2 2 2 2 2
left_child=6 2 3 7 -5 -4 -1 -2
right_child=1 -3 5 4 -6 -7 -8 -9
leaf_value=-0.0016069228938945077 -0.0049041780783742111 0.007756458538705888 -0.007186716630951398 -0.00018505277112126353 0.010703430885605858 0.0016409108966687009 -0.0081694028466134452 0.00017065313644707206
leaf_weight=34 53 46 45 46 49 38 37 30
leaf_count=34 53 46 45 46 49 38 37 30
internal_value=0 0.00116255 4.06925e-07 0.00146716 0.00543111 -0.00314515 -0.00502681 -0.0030699
internal_weight=0 307 261 178 95 83 71 83
internal_count=378 307 261 178 95 83 71 83
is_linear=0
shrinkage=0.05


Tree=54
num_leaves=9
num_cat=0
split_feature=0 2 1 0 4 4 4 4
split_gain=0.809209 1.31607 0.847828 0.774261 0.827763 1.19935 0.72893 0.289884
threshold=14.500000000000002 1.0000000180025095e-35 6.5000000000000009 12.500000000000002 6.5000000000000009 2.5000000000000004 1.0000000180025095e-35 1.0000000180025095e-35
decision_type=2 2 2 2 2 2 2 2
left_child=2 -2 6 4 5 7 -1 -4
right_child=1 -3 3 -5 -6 -7 -8 -9
leaf_value=-0.0015556581434793772 -0.0042457024070123835 0.0086923969876870778 0.00031621993813049897 0.0060372220124522953 -0.0059506547728889305 0.0086595280951744808 -0.011770487345394589 -0.0059382069128332661
leaf_weight=40 30 57 44 46 61 37 31 32
leaf_count=40 30 57 44 46 61 37 31 32
internal_value=0 0.00423098 -0.00126493 0.000268254 -0.00125688 0.00127693 -0.00601565 -0.00231722
internal_weight=0 87 291 220 174 113 71 76
internal_count=378 87 291 220 174 113 71 76
is_linear=0
shrinkage=0.05


Tree=55
num_leaves=9
num_cat=0
split_feature=0 4 1 1 0 4 1 2
split_gain=0.769507 0.840078 0.462335 1.05817 0.965721 0.581327 0.272091 0.164302
threshold=10.500000000000002 10.500000000000002 16.500000000000004 6.5000000000000009 12.500000000000002 3.5000000000000004 22.500000000000004 1.0000000180025095e-35
decision_type=2 2 2 2 2 2 2 2
left_child=6 2 3 7 -5 -4 -1 -2
right_child=1 -3 5 4 -6 -7 -8 -9
leaf_value=-0.0014621188644977177 -0.0043742214461331662 0.0073151020991170535 -0.0069401734153507286 -0.00017571606187392837 0.0099117200308460364 0.0014587017790242834 -0.0076581803427354716 0.00025631903360287349
leaf_weight=34 53 46 45 46 49 38 37 30
leaf_count=34 53 46 45 46 49 38 37 30
internal_value=0 0.0010849 -1.31416e-05 0.00142386 0.00502728 -0.00309491 -0.00469105 -0.00270053
internal_weight=0 307 261 178 95 83 71 83
internal_count=378 307 261 178 95 83 71 83
is_linear=0
shrinkage=0.05


Tree=56
num_leaves=10
num_cat=0
split_feature=3 2 4 1 4 4 1 1 1
split_gain=0.730727 1.24679 1.9629 1.3671 0.4748 0.415817 0.227615 0.151212 0.0483586
threshold=1.0000000180025095e-35 1.0000000180025095e-35 12.500000000000002 16.500000000000004 5.5000000000000009 1.5000000000000002 5.5000000000000009 12.500000000000002 9.5000000000000018
decision_type=2 2 2 2 2 2 2 2 2
left_child=1 6 3 8 5 7 -1 -2 -3
right_child=4 2 -4 -5 -6 -7 -8 -9 -10
leaf_value=-0.006996984642658694 -0.0050673592968710837 0.0076705117418896414 0.015527512773405762 -0.0049883040790247952 -0.0073974542244261993 0.002252627838721597 -0.00093478240887634456 -0.00064827583773876543 0.0048762505936125917
leaf_weight=30 49 32 32 47 37 57 32 32 30
leaf_count=30 49 32 32 47 37 57 32 32 30
internal_value=0 0.00204114 0.00463953 0.00144306 -0.00236772 -0.00101917 -0.00386811 -0.00332155 0.00631845
internal_weight=0 203 141 109 175 138 62 81 62
internal_count=378 203 141 109 175 138 62 81 62
is_linear=0
shrinkage=0.05


Tree=57
num_leaves=8
num_cat=0
split_feature=0 4 0 1 4 4 1
split_gain=0.684623 0.965526 1.07004 0.88453 0.693443 0.391474 0.537469
threshold=9.5000000000000018 1.5000000000000002 14.500000000000002 8.5000000000000018 6.5000000000000009 1.0000000180025095e-35 9.5000000000000018
decision_type=2 2 2 2 2 2 2
left_child=-1 5 3 -3 -5 6 -2
right_child=1 2 -4 4 -6 -7 -8
leaf_value=-0.0055793819803511731 -0.0041595831634131846 -0.0065599246867791275 0.0086219633728171052 0.0066803177610771473 -0.001223948235538873 -0.0071989339064149303 0.0035433999800051639
leaf_weight=48 54 33 59 56 55 34 39
leaf_count=48 54 33 59 56 55 34 39
internal_value=0 0.000811546 0.00295073 0.000627105 0.00276379 -0.00260778 -0.0009293
internal_weight=0 330 203 144 111 127 93
internal_count=378 330 203 144 111 127 93
is_linear=0
shrinkage=0.05


Tree=58
num_leaves=10
num_cat=0
split_feature=3 2 4 1 4 4 1 1 1
split_gain=0.643405 1.0843 1.77449 1.23555 0.429907 0.33341 0.19313 0.125837 0.0520825
threshold=1.0000000180025095e-35 1.0000000180025095e-35 12.500000000000002 16.500000000000004 5.5000000000000009 1.5000000000000002 5.5000000000000009 12.500000000000002 9.5000000000000018
decision_type=2 2 2 2 2 2 2 2 2
left_child=1 6 3 8 5 7 -1 -2 -3
right_child=4 2 -4 -5 -6 -7 -8 -9 -10
leaf_value=-0.0064775717370988183 -0.0045927886157391632 0.0073373176011955372 0.014690745639109083 -0.0048148534587643885 -0.0070077995064894904 0.001991175233157711 -0.00089344916632398967 -0.00056150317759602337 0.0044374646308521426
leaf_weight=30 49 32 32 47 37 57 32 32 30
leaf_count=30 49 32 32 47 37 57 32 32 30
internal_value=0 0.0019153 0.00433847 0.00129927 -0.00222175 -0.000938534 -0.00359544 -0.00300018 0.00593416
internal_weight=0 203 141 109 175 138 62 81 62
internal_count=378 203 141 109 175 138 62 81 62
is_linear=0
shrinkage=0.05


Tree=59
num_leaves=8
num_cat=0
split_feature=0 4 0 1 4 4 1
split_gain=0.613278 0.816427 0.927724 0.811664 0.633792 0.351916 0.464751
threshold=9.5000000000000018 1.5000000000000002 14.500000000000002 8.5000000000000018 6.5000000000000009 1.0000000180025095e-35 9.5000000000000018
decision_type=2 2 2 2 2 2 2
left_child=-1 5 3 -3 -5 6 -2
right_child=1 2 -4 4 -6 -7 -8
leaf_value=-0.005280671606305987 -0.0037885583178312691 -0.0063130424414394488 0.0080158349319945209 0.006362670971014138 -0.0011939820240844381 -0.0067291693022365085 0.0033744033891707661
leaf_weight=48 54 33 59 56 55 34 39
leaf_count=48 54 33 59 56 55 34 39
internal_value=0 0.000768098 0.00273519 0.000571598 0.00261838 -0.00237616 -0.000784736
internal_weight=0 330 203 144 111 127 93
internal_count=378 330 203 144 111 127 93
is_linear=0
shrinkage=0.05


Tree=60
num_leaves=10
num_cat=0
split_feature=3 2 4 1 1 0 4 1 1
split_gain=0.566773 0.943073 1.60479 1.11694 0.428927 0.680927 0.330806 0.163786 0.0552315
threshold=1.0000000180025095e-35 1.0000000180025095e-35 12.500000000000002 16.500000000000004 23.500000000000004 12.500000000000002 1.5000000000000002 5.5000000000000009 9.5000000000000018
decision_type=2 2 2 2 2 2 2 2 2
left_child=1 7 3 8 5 6 -2 -1 -3
right_child=4 2 -4 -5 -6 -7 -8 -9 -10
leaf_value=-0.0059958865602190298 -0.0059992407678995134 0.0070190193247981376 0.013902311937999913 -0.0046459756068330501 -0.006054692866508754 0.0041439873156681037 0.00069378883577883251 -0.0008534467429853976 0.0040327868113915121
leaf_weight=30 48 32 32 47 49 48 30 32 30
leaf_count=30 48 32 32 47 49 48 30 32 30
internal_value=0 0.00179763 0.00405748 0.00116726 -0.00208525 -0.000541575 -0.003425 -0.00334172 0.00557407
internal_weight=0 203 141 109 175 126 78 62 62
internal_count=378 203 141 109 175 126 78 62 62
is_linear=0
shrinkage=0.05


Tree=61
num_leaves=9
num_cat=0
split_feature=0 4 3 1 1 1 4 1
split_gain=0.539709 0.683361 0.818288 1.84891 1.22353 0.702163 0.315282 0.417434
threshold=9.5000000000000018 1.5000000000000002 1.0000000180025095e-35 21.500000000000004 21.500000000000004 10.500000000000002 1.0000000180025095e-35 9.5000000000000018
decision_type=2 2 2 2 2 2 2 2
left_child=-1 6 3 5 -4 -3 7 -2
right_child=1 2 4 -5 -6 -7 -8 -9
leaf_value=-0.0049538217058094844 -0.0034965666562870694 0.0047502967547877022 0.003955379906808958 0.012917893074769924 -0.0080382820634121027 -0.0053640435915440323 -0.0062762898249168171 0.0032919685604074636
leaf_weight=48 54 37 50 47 37 32 34 39
leaf_count=48 54 37 50 47 37 32 34 39
internal_value=0 0.000720556 0.00252022 0.00526942 -0.00114537 5.95882e-05 -0.00215608 -0.000649762
internal_weight=0 330 203 116 87 69 127 93
internal_count=378 330 203 116 87 69 127 93
is_linear=0
shrinkage=0.05


Tree=62
num_leaves=9
num_cat=0
split_feature=0 4 3 1 1 0 3 1
split_gain=0.487088 0.626772 0.777262 1.98305 0.663799 0.567328 0.123384 0.003557
threshold=9.5000000000000018 3.5000000000000004 1.0000000180025095e-35 21.500000000000004 16.500000000000004 15.500000000000002 1.0000000180025095e-35 5.5000000000000009
decision_type=2 2 2 2 2 2 2 2
left_child=-1 4 3 -3 5 6 -2 -8
right_child=1 2 -4 -5 -6 -7 7 -9
leaf_value=-0.0047061305454311276 0.00079739728065429845 -0.0013282652160652528 -0.0014340165904006708 0.014319678279571237 -0.0060824685047846288 0.0058475695771018146 -0.0030186639895903008 -0.0022781248218105995
leaf_weight=48 44 41 52 40 50 38 31 34
leaf_count=48 44 41 52 40 50 38 31 34
internal_value=0 0.000684528 0.00333654 0.00639911 -0.00110591 0.000586791 -0.00124724 -0.00263131
internal_weight=0 330 133 81 197 147 109 65
internal_count=378 330 133 81 197 147 109 65
is_linear=0
shrinkage=0.05


Tree=63
num_leaves=9
num_cat=0
split_feature=1 1 0 4 3 1 2 4
split_gain=0.449754 0.849366 1.27086 0.987092 0.464195 0.38821 0.129033 0.191139
threshold=29.500000000000004 6.5000000000000009 12.500000000000002 4.5000000000000009 1.0000000180025095e-35 39.500000000000007 1.0000000180025095e-35 1.0000000180025095e-35
decision_type=2 2 2 2 2 2 2 2
left_child=1 6 4 -4 -3 -2 7 -1
right_child=5 2 3 -5 -6 -7 -8 -9
leaf_value=-0.0017526419400476303 -0.0061722499487586908 0.0025935956239764996 0.0030374130225167256 0.013993534382761403 -0.0038755551380873251 0.00081088229575577899 -0.00013287520656983059 -0.0070611956738866862
leaf_weight=39 48 54 52 34 57 34 30 30
leaf_count=39 48 54 52 34 57 34 30 30
internal_value=0 0.000907764 0.00280646 0.0073689 -0.000728401 -0.0032768 -0.00287046 -0.00406071
internal_weight=0 296 197 86 111 82 99 69
internal_count=378 296 197 86 111 82 99 69
is_linear=0
shrinkage=0.05


Tree=64
num_leaves=8
num_cat=0
split_feature=0 4 0 1 4 4 1
split_gain=0.423088 0.546345 0.71304 0.731599 0.651809 0.268435 0.388491
threshold=9.5000000000000018 1.5000000000000002 14.500000000000002 8.5000000000000018 6.5000000000000009 1.0000000180025095e-35 9.5000000000000018
decision_type=2 2 2 2 2 2 2
left_child=-1 5 3 -3 -5 6 -2
right_child=1 2 -4 4 -6 -7 -8
leaf_value=-0.0043860708169328666 -0.0032905885302574865 -0.0061859393464119145 0.006876640043900175 0.0060906792338105984 -0.0015726293792778798 -0.0057359588152608278 0.003258374065327912
leaf_weight=48 54 33 59 56 55 34 39
leaf_count=48 54 33 59 56 55 34 39
internal_value=0 0.000637974 0.00224714 0.000350329 0.00229354 -0.00193416 -0.000544249
internal_weight=0 330 203 144 111 127 93
internal_count=378 330 203 144 111 127 93
is_linear=0
shrinkage=0.05


Tree=65
num_leaves=9
num_cat=0
split_feature=1 1 0 4 1 1 2 4
split_gain=0.401759 0.701059 1.08982 0.876253 0.472424 0.358659 0.116237 0.175818
threshold=29.500000000000004 6.5000000000000009 12.500000000000002 4.5000000000000009 15.500000000000002 39.500000000000007 1.0000000180025095e-35 1.0000000180025095e-35
decision_type=2 2 2 2 2 2 2 2
left_child=1 6 4 -4 -3 -2 7 -1
right_child=5 2 3 -5 -6 -7 -8 -9
leaf_value=-0.0014906491808151495 -0.0058800939737921002 0.0022627465362988841 0.0027268781698344706 0.013049566910109101 -0.0042933862097561358 0.00083199131357319228 2.3705043519536656e-05 -0.0065820066209804897
leaf_weight=39 48 61 52 34 50 34 30 30
leaf_count=39 48 61 52 34 50 34 30 30
internal_value=0 0.000857962 0.00258295 0.00680794 -0.000690466 -0.00309703 -0.00257459 -0.00370428
internal_weight=0 296 197 86 111 82 99 69
internal_count=378 296 197 86 111 82 99 69
is_linear=0
shrinkage=0.05


Tree=66
num_leaves=8
num_cat=0
split_feature=0 4 0 1 4 4 1
split_gain=0.364025 0.474467 0.593964 0.656765 0.579819 0.232315 0.347679
threshold=9.5000000000000018 1.5000000000000002 14.500000000000002 8.5000000000000018 6.5000000000000009 1.0000000180025095e-35 9.5000000000000018
decision_type=2 2 2 2 2 2 2
left_child=-1 5 3 -3 -5 6 -2
right_child=1 2 -4 4 -6 -7 -8
leaf_value=-0.0040684215530442693 -0.0031102613278630158 -0.0058328084682932862 0.0063166486541345965 0.0057826143020065501 -0.0014451224560087378 -0.0053419845147907518 0.0030851683799529642
leaf_weight=48 54 33 59 56 55 34 39
leaf_count=48 54 33 59 56 55 34 39
internal_value=0 0.00059177 0.00209135 0.000360153 0.0022013 -0.0018052 -0.000512178
internal_weight=0 330 203 144 111 127 93
internal_count=378 330 203 144 111 127 93
is_linear=0
shrinkage=0.05


Tree=67
num_leaves=9
num_cat=0
split_feature=1 1 0 4 1 1 2 4
split_gain=0.359295 0.576625 0.935012 0.778273 0.434901 0.3311 0.104768 0.161595
threshold=29.500000000000004 6.5000000000000009 12.500000000000002 4.5000000000000009 15.500000000000002 39.500000000000007 1.0000000180025095e-35 1.0000000180025095e-35
decision_type=2 2 2 2 2 2 2 2
left_child=1 6 4 -4 -3 -2 7 -1
right_child=5 2 3 -5 -6 -7 -8 -9
leaf_value=-0.0012520045871870259 -0.0056027953004255931 0.0021772587534467707 0.002443077695520165 0.012171535769148785 -0.004113121345639229 0.0008462676833219389 0.00016508500402172407 -0.0061330750028719197
leaf_weight=39 48 61 52 34 50 34 30 30
leaf_count=39 48 61 52 34 50 34 30 30
internal_value=0 0.000811355 0.00237578 0.00628921 -0.000656246 -0.00292879 -0.0023017 -0.00337421
internal_weight=0 296 197 86 111 82 99 69
internal_count=378 296 197 86 111 82 99 69
is_linear=0
shrinkage=0.05


Tree=68
num_leaves=10
num_cat=0
split_feature=1 1 1 0 3 4 0 1 1
split_gain=0.334357 1.29792 0.733674 0.8914 1.39334 0.262738 0.284642 0.177366 0.00259399
threshold=16.500000000000004 11.500000000000002 21.500000000000004 9.5000000000000018 1.0000000180025095e-35 1.5000000000000002 13.500000000000002 7.5000000000000009 3.5000000000000004
decision_type=2 2 2 2 2 2 2 2 2
left_child=1 5 -2 -4 -5 6 8 -7 -1
right_child=2 -3 3 4 -6 7 -8 -9 -10
leaf_value=-0.0001345577729807701 -0.0086214543327514555 0.0093030532367709209 -0.0070797478396664648 0.0077392651716730113 -0.0041026824680359467 -0.00051648210907398278 -0.0062779208705309904 0.0043567966331135143 -0.00076635647212352717
leaf_weight=32 31 41 34 54 46 43 31 33 33
leaf_count=32 31 41 34 54 46 43 31 33 33
internal_value=0 0.00130882 -0.00168957 -8.59291e-05 0.00229197 -0.000596777 -0.00233553 0.00159955 -0.000455317
internal_weight=0 213 165 134 100 172 96 76 65
internal_count=378 213 165 134 100 172 96 76 65
is_linear=0
shrinkage=0.05


Tree=69
num_leaves=9
num_cat=0
split_feature=1 1 0 4 3 1 2 4
split_gain=0.311029 0.488368 0.838933 0.675856 0.401229 0.30174 0.0983442 0.146552
threshold=29.500000000000004 6.5000000000000009 12.500000000000002 4.5000000000000009 1.0000000180025095e-35 39.500000000000007 1.0000000180025095e-35 1.0000000180025095e-35
decision_type=2 2 2 2 2 2 2 2
left_child=1 6 4 -4 -3 -2 7 -1
right_child=5 2 3 -5 -6 -7 -8 -9
leaf_value=-0.0011281299542110319 -0.0052776738322184739 0.002411086372686205 0.0023173977047778091 0.011383180244935349 -0.003603329531145854 0.00087881961508708833 0.00027992804534733297 -0.0057764661855374778
leaf_weight=39 48 54 52 34 57 34 30 30
leaf_count=39 48 54 52 34 57 34 30 30
internal_value=0 0.000754894 0.00219463 0.00590154 -0.000677397 -0.00272498 -0.00211003 -0.00314915
internal_weight=0 296 197 86 111 82 99 69
internal_count=378 296 197 86 111 82 99 69
is_linear=0
shrinkage=0.05


Tree=70
num_leaves=10
num_cat=0
split_feature=1 1 1 0 3 4 0 1 1
split_gain=0.301915 1.14703 0.682239 0.792261 1.21134 0.226053 0.266406 0.140555 0.00271572
threshold=16.500000000000004 11.500000000000002 21.500000000000004 9.5000000000000018 1.0000000180025095e-35 1.5000000000000002 13.500000000000002 7.5000000000000009 3.5000000000000004
decision_type=2 2 2 2 2 2 2 2 2
left_child=1 5 -2 -4 -5 6 8 -7 -1
right_child=2 -3 3 4 -6 7 -8 -9 -10
leaf_value=-1.3318902347236872e-05 -0.0082899974005657337 0.0087589034356358574 -0.0066525497528560022 0.0072617448663718446 -0.0037797333956088711 -0.00039416326123268105 -0.0059745246259075022 0.00394403294406154 -0.00065977269868281764
leaf_weight=32 31 41 34 54 46 43 31 33 33
leaf_count=32 31 41 34 54 46 43 31 33 33
internal_value=0 0.00124371 -0.00160552 -5.9106e-05 0.00218266 -0.000547703 -0.00216051 0.00148953 -0.000341519
internal_weight=0 213 165 134 100 172 96 76 65
internal_count=378 213 165 134 100 172 96 76 65
is_linear=0
shrinkage=0.05


Tree=71
num_leaves=10
num_cat=0
split_feature=1 1 1 0 3 4 0 1 1
split_gain=0.272479 1.0352 0.61572 0.715016 1.09323 0.204013 0.240432 0.126851 0.00245094
threshold=16.500000000000004 11.500000000000002 21.500000000000004 9.5000000000000018 1.0000000180025095e-35 1.5000000000000002 13.500000000000002 7.5000000000000009 3.5000000000000004
decision_type=2 2 2 2 2 2 2 2 2
left_child=1 5 -2 -4 -5 6 8 -7 -1
right_child=2 -3 3 4 -6 7 -8 -9 -10
leaf_value=-1.2653318117372692e-05 -0.0078754979245845343 0.0083209582161521776 -0.006319922066348441 0.0068986579062227443 -0.003590746621763253 -0.00037445503633555982 -0.0056757985433984193 0.0037468312477523628 -0.00062678428014006579
leaf_weight=32 31 41 34 54 46 43 31 33 33
leaf_count=32 31 41 34 54 46 43 31 33 33
internal_value=0 0.00118152 -0.00152524 -5.61505e-05 0.00207353 -0.000520318 -0.00205248 0.00141505 -0.000324443
internal_weight=0 213 165 134 100 172 96 76 65
internal_count=378 213 165 134 100 172 96 76 65
is_linear=0
shrinkage=0.05


Tree=72
num_leaves=10
num_cat=0
split_feature=1 0 3 1 4 1 1 4 1
split_gain=0.258839 0.419003 0.449351 0.277548 0.268993 0.216127 0.215261 0.213422 0.00672197
threshold=29.500000000000004 14.500000000000002 1.0000000180025095e-35 39.500000000000007 1.0000000180025095e-35 9.5000000000000018 7.5000000000000009 1.5000000000000002 14.500000000000002
decision_type=2 2 2 2 2 2 2 2 2
left_child=1 2 4 -2 -1 -3 -4 -8 -6
right_child=3 5 6 -5 8 -7 7 -9 -10
leaf_value=0.0056813076039719766 -0.0049340894969645893 0.0013690451506611914 -0.0051954290096430066 0.00097044426947832116 -0.00028898966136491961 0.0065814099760688333 -0.0035961064729182163 0.0020061753991553011 0.00070698062190786013
leaf_weight=33 48 43 47 34 36 37 34 34 32
leaf_count=33 48 43 47 34 36 37 34 34 32
internal_value=0 0.000688653 -0.000456203 -0.00248587 0.00197726 0.00377976 -0.00259342 -0.000794966 0.000179702
internal_weight=0 296 216 82 101 80 115 68 68
internal_count=378 296 216 82 101 80 115 68 68
is_linear=0
shrinkage=0.05


Tree=73
num_leaves=10
num_cat=0
split_feature=1 1 1 0 3 4 0 1 1
split_gain=0.240544 0.911997 0.573695 0.641916 0.969055 0.180803 0.226615 0.102651 0.00225547
threshold=16.500000000000004 11.500000000000002 21.500000000000004 9.5000000000000018 1.0000000180025095e-35 1.5000000000000002 13.500000000000002 7.5000000000000009 3.5000000000000004
decision_type=2 2 2 2 2 2 2 2 2
left_child=1 5 -2 -4 -5 6 8 -7 -1
right_child=2 -3 3 4 -6 7 -8 -9 -10
leaf_value=4.7136686771409589e-05 -0.0075627880831879955 0.0078112761995459846 -0.0059499594903386693 0.0065457046023328557 -0.0033300098294959122 -0.00027506339883561745 -0.0054472877897487415 0.0034323113462464377 -0.00054199581147369106
leaf_weight=32 31 41 34 54 46 43 31 33 33
leaf_count=32 31 41 34 54 46 43 31 33 33
internal_value=0 0.00111013 -0.00143308 -1.50077e-05 0.00200288 -0.000487238 -0.00192962 0.00133472 -0.000251961
internal_weight=0 213 165 134 100 172 96 76 65
internal_count=378 213 165 134 100 172 96 76 65
is_linear=0
shrinkage=0.05


Tree=74
num_leaves=10
num_cat=0
split_feature=1 0 3 1 4 1 4 1 1
split_gain=0.224698 0.383325 0.390677 0.252817 0.245913 0.192801 0.190675 0.177719 0.00715483
threshold=29.500000000000004 14.500000000000002 1.0000000180025095e-35 39.500000000000007 1.0000000180025095e-35 7.5000000000000009 1.5000000000000002 9.5000000000000018 14.500000000000002
decision_type=2 2 2 2 2 2 2 2 2
left_child=1 2 4 -2 -1 -4 -7 -3 -6
right_child=3 7 5 -5 8 6 -8 -9 -10
leaf_value=0.0053572101603177463 -0.0046527303929906338 0.0014121715076874162 -0.0049087274770074074 0.00098260841058457594 -0.0003866259267346727 -0.00339182014029254 0.0019035004983272625 0.0061387429397704238 0.00064091184467542919
leaf_weight=33 48 43 47 34 36 34 34 37 32
leaf_count=33 48 43 47 34 36 34 34 37 32
internal_value=0 0.00064163 -0.0004534 -0.00231613 0.00181563 -0.0024462 -0.00074416 0.00359821 9.69213e-05
internal_weight=0 296 216 82 101 115 68 80 68
internal_count=378 296 216 82 101 115 68 80 68
is_linear=0
shrinkage=0.05


Tree=75
num_leaves=10
num_cat=0
split_feature=1 1 1 0 3 4 0 1 1
split_gain=0.212374 0.803842 0.533909 0.576477 0.859127 0.160331 0.213728 0.0826176 0.00207842
threshold=16.500000000000004 11.500000000000002 21.500000000000004 9.5000000000000018 1.0000000180025095e-35 1.5000000000000002 13.500000000000002 7.5000000000000009 3.5000000000000004
decision_type=2 2 2 2 2 2 2 2 2
left_child=1 5 -2 -4 -5 6 8 -7 -1
right_child=2 -3 3 4 -6 7 -8 -9 -10
leaf_value=0.00010154770197914332 -0.0072598924710144926 0.007334364378802115 -0.005602843541761532 0.0062111355002141665 -0.0030875769423563846 -0.00018503804431231911 -0.0052310096956188646 0.0031409593101477985 -0.00046398910044720681
leaf_weight=32 31 41 34 54 46 43 31 33 33
leaf_count=32 31 41 34 54 46 43 31 33 33
internal_value=0 0.0010431 -0.00134655 2.14634e-05 0.00193373 -0.00045656 -0.00181483 0.00125915 -0.000185571
internal_weight=0 213 165 134 100 172 96 76 65
internal_count=378 213 165 134 100 172 96 76 65
is_linear=0
shrinkage=0.05


Tree=76
num_leaves=10
num_cat=0
split_feature=1 0 1 4 0 4 3 1 1
split_gain=0.195272 0.351059 0.343996 0.613099 0.602615 0.368022 0.425863 0.230295 0.14559
threshold=29.500000000000004 14.500000000000002 6.5000000000000009 1.0000000180025095e-35 12.500000000000002 5.5000000000000009 1.0000000180025095e-35 39.500000000000007 9.5000000000000018
decision_type=2 2 2 2 2 2 2 2 2
left_child=1 2 3 -1 5 6 -4 -2 -3
right_child=7 8 4 -5 -6 -7 -8 -9 -10
leaf_value=0.00078901963708631238 -0.0043892525330496337 0.0014489580622635955 0.005485140200471506 -0.0085791231298278422 0.0067705616053632088 -0.0051701122675748435 -0.0020600346504296694 0.00098922141991993973 0.0057270056756867751
leaf_weight=40 48 43 32 31 34 34 45 34 37
leaf_count=40 48 43 32 31 34 34 45 34 37
internal_value=0 0.000598144 -0.000449786 -0.0033013 0.00094647 -0.000837485 0.00107562 -0.00215915 0.00342756
internal_weight=0 296 216 71 145 111 77 82 80
internal_count=378 296 216 71 145 111 77 82 80
is_linear=0
shrinkage=0.05


Tree=77
num_leaves=10
num_cat=0
split_feature=1 1 1 1 4 4 0 4 1
split_gain=0.196775 0.745328 0.477992 0.711133 0.441628 0.150229 0.204159 0.0709217 0.00261092
threshold=40.500000000000007 34.500000000000007 16.500000000000004 11.500000000000002 3.5000000000000004 1.5000000000000002 13.500000000000002 3.5000000000000004 3.5000000000000004
decision_type=2 2 2 2 2 2 2 2 2
left_child=1 2 3 5 -4 6 8 -7 -1
right_child=-2 -3 4 -5 -6 7 -8 -9 -10
leaf_value=0.00017412118031643332 -0.0038854254161318144 0.0078686292826508474 -0.0067389498339678611 0.0069026280262666512 -0.00021771590329770901 0.002723234650702813 -0.0050788822643939528 -0.00033262407885411302 -0.00045973624130993176
leaf_weight=32 30 30 47 41 58 39 31 37 33
leaf_count=32 30 30 47 41 58 39 31 37 33
internal_value=0 0.00033495 -0.000375774 0.000985268 -0.00313674 -0.000425266 -0.00174005 0.00123551 -0.000147683
internal_weight=0 348 318 213 105 172 96 76 65
internal_count=378 348 318 213 105 172 96 76 65
is_linear=0
shrinkage=0.05


Tree=78
num_leaves=10
num_cat=0
split_feature=1 0 3 1 4 1 4 1 1
split_gain=0.181457 0.324061 0.313701 0.229986 0.210355 0.164037 0.164869 0.12409 0.00775603
threshold=29.500000000000004 14.500000000000002 1.0000000180025095e-35 39.500000000000007 1.0000000180025095e-35 7.5000000000000009 1.5000000000000002 9.5000000000000018 14.500000000000002
decision_type=2 2 2 2 2 2 2 2 2
left_child=1 2 4 -2 -1 -4 -7 -3 -6
right_child=3 7 5 -5 8 6 -8 -9 -10
leaf_value=0.0048785513258101706 -0.0043099799348662298 0.0014683641255075156 -0.0044873697960630381 0.0010648899437750087 -0.00049004335370328694 -0.0031079754055313331 0.0018159833093009453 0.0054179232567548759 0.00057979469856945804
leaf_weight=33 48 43 47 34 36 34 34 37 32
leaf_count=33 48 43 47 34 36 34 34 37 32
internal_value=0 0.000576597 -0.000430232 -0.00208138 0.00160301 -0.00221595 -0.000645996 0.00329504 1.34098e-05
internal_weight=0 296 216 82 101 115 68 80 68
internal_count=378 296 216 82 101 115 68 80 68
is_linear=0
shrinkage=0.05


Tree=79
num_leaves=10
num_cat=0
split_feature=1 1 1 1 4 4 0 4 1
split_gain=0.18275 0.705971 0.432352 0.627012 0.39102 0.133305 0.192774 0.0639161 0.00240106
threshold=40.500000000000007 34.500000000000007 16.500000000000004 11.500000000000002 3.5000000000000004 1.5000000000000002 13.500000000000002 3.5000000000000004 3.5000000000000004
decision_type=2 2 2 2 2 2 2 2 2
left_child=1 2 3 5 -4 6 8 -7 -1
right_child=-2 -3 4 -5 -6 7 -8 -9 -10
leaf_value=0.00021845765877515078 -0.0037443987932056187 0.0076548643348117677 -0.0063842957165647059 0.0064818810274052188 -0.00024807382985178768 0.0025778102706401395 -0.0048818694007012157 -0.00032319702472336388 -0.00038939182449019319
leaf_weight=32 30 30 47 41 58 39 31 37 33
leaf_count=32 30 30 47 41 58 39 31 37 33
internal_value=0 0.000322793 -0.000368912 0.000925522 -0.00299476 -0.000398959 -0.00163747 0.00116548 -9.01428e-05
internal_weight=0 348 318 213 105 172 96 76 65
internal_count=378 348 318 213 105 172 96 76 65
is_linear=0
shrinkage=0.05


Tree=80
num_leaves=9
num_cat=0
split_feature=1 0 1 1 4 1 1 1
split_gain=0.168905 0.299303 0.299265 0.576157 0.556413 0.484078 0.229058 0.105583
threshold=29.500000000000004 14.500000000000002 6.5000000000000009 10.500000000000002 1.0000000180025095e-35 18.500000000000004 39.500000000000007 9.5000000000000018
decision_type=2 2 2 2 2 2 2 2
left_child=1 2 4 -4 -1 -5 -2 -3
right_child=6 7 3 5 -6 -7 -8 -9
leaf_value=0.00082567461358848968 -0.0042321962149192895 0.0014838703966910715 0.0064785252697765836 -0.0041439618958975192 -0.0080988852667712406 0.0024909195192675624 0.0011318111189586274 0.0051270180558030676
leaf_weight=40 48 43 35 56 31 54 34 37
leaf_count=40 48 43 35 56 31 54 34 37
internal_value=0 0.000556297 -0.000411307 0.000891008 -0.00307096 -0.000886838 -0.0020081 0.00316883
internal_weight=0 296 216 145 71 110 82 80
internal_count=378 296 216 145 71 110 82 80
is_linear=0
shrinkage=0.05


Tree=81
num_leaves=10
num_cat=0
split_feature=1 1 1 1 4 1 1 4 0
split_gain=0.170222 0.6688 0.401261 0.587387 0.347845 0.140012 0.282901 0.268102 0.0989088
threshold=40.500000000000007 34.500000000000007 16.500000000000004 11.500000000000002 3.5000000000000004 8.5000000000000018 3.5000000000000004 1.0000000180025095e-35 12.500000000000002
decision_type=2 2 2 2 2 2 2 2 2
left_child=1 2 3 5 -4 6 7 -1 -8
right_child=-2 -3 4 -5 -6 -7 8 -9 -10
leaf_value=0.0013892363659882298 -0.0036137695610523228 0.0074479709534595422 -0.006088326059955549 0.0062632306229050572 -0.00030077741449249204 -0.0027576308150816225 0.00083980205553499127 -0.0052412164487665698 0.0047411275474587462
leaf_weight=30 30 30 47 41 58 46 33 31 32
leaf_count=30 30 30 47 41 58 46 33 31 32
internal_value=0 0.000311532 -0.000361717 0.000885307 -0.00289139 -0.00039664 0.000465309 -0.00198034 0.00276045
internal_weight=0 348 318 213 105 172 126 61 65
internal_count=378 348 318 213 105 172 126 61 65
is_linear=0
shrinkage=0.05


Tree=82
num_leaves=9
num_cat=0
split_feature=4 4 4 1 1 1 1 4
split_gain=0.163391 0.522572 0.321792 0.813572 0.442834 0.409859 0.0549971 0.0516845
threshold=7.5000000000000009 10.500000000000002 3.5000000000000004 14.500000000000002 15.500000000000002 7.5000000000000009 3.5000000000000004 1.5000000000000002
decision_type=2 2 2 2 2 2 2 2
left_child=2 -2 4 -4 5 6 -1 -6
right_child=1 -3 3 -5 7 -7 -8 -9
leaf_value=-0.001854547440368486 -0.0072476865115459078 0.00083448554427983869 -0.0017560075049528456 0.0095242821341080044 -0.0049544491675785852 0.0044062912828909855 0.00060113654349391399 -0.0022149791320164999
leaf_weight=57 30 60 33 31 36 60 38 33
leaf_count=57 30 60 33 31 36 60 38 33
internal_value=0 -0.00185957 0.000581116 0.00370788 -0.000312246 0.00117104 -0.000872274 -0.00364427
internal_weight=0 90 288 64 224 155 95 69
internal_count=378 90 288 64 224 155 95 69
is_linear=0
shrinkage=0.05


Tree=83
num_leaves=10
num_cat=0
split_feature=1 1 1 1 4 1 1 4 1
split_gain=0.156627 0.615567 0.352203 0.508444 0.319922 0.217765 0.138538 0.285096 1.30272
threshold=40.500000000000007 34.500000000000007 16.500000000000004 11.500000000000002 7.5000000000000009 23.500000000000004 8.5000000000000018 1.0000000180025095e-35 3.5000000000000004
decision_type=2 2 2 2 2 2 2 2 2
left_child=1 2 3 6 5 -4 7 -1 -9
right_child=-2 -3 4 -5 -6 -7 -8 8 -10
leaf_value=-0.002089309105313391 -0.0034664606023579836 0.0071453703784694275 0.002318774536252022 0.0058247465231433156 -0.0061652921162909128 -0.0035172434643872329 -0.0027199883069640596 -0.0048782065871261788 0.0090171315100018839
leaf_weight=58 30 30 33 41 41 31 46 31 37
leaf_count=58 30 30 33 41 41 31 46 31 37
internal_value=0 0.000298833 -0.000347067 0.000821243 -0.00271707 -0.000508047 -0.000371453 0.000485949 0.00268249
internal_weight=0 348 318 213 105 64 172 126 68
internal_count=378 348 318 213 105 64 172 126 68
is_linear=0
shrinkage=0.05


Tree=84
num_leaves=9
num_cat=0
split_feature=1 1 1 1 1 1 0 4
split_gain=0.154005 0.294524 0.418403 0.458871 0.235663 0.125031 0.280783 0.388755
threshold=29.500000000000004 22.500000000000004 16.500000000000004 11.500000000000002 39.500000000000007 8.5000000000000018 14.500000000000002 1.5000000000000002
decision_type=2 2 2 2 2 2 2 2
left_child=1 2 3 5 -2 6 7 -1
right_child=4 -3 -4 -5 -6 -7 -8 -9
leaf_value=0.0015218451169825961 -0.0041734183013128739 0.0044098116989646644 -0.0047355455070983892 0.005533509297160114 0.0012673789607908796 -0.0025839888207290487 0.00426754831037085 -0.0052335674107513008
leaf_weight=57 48 42 41 41 34 46 35 34
leaf_count=57 48 42 41 41 34 46 35 34
internal_value=0 0.000531193 -0.000110153 0.000780181 -0.00191748 -0.00035288 0.000461651 -0.00100216
internal_weight=0 296 254 213 82 172 126 91
internal_count=378 296 254 213 82 172 126 91
is_linear=0
shrinkage=0.05


Tree=85
num_leaves=10
num_cat=0
split_feature=1 1 1 1 4 4 0 4 1
split_gain=0.146848 0.584432 0.301624 0.414131 0.304986 0.138468 0.197516 0.0598569 0.00577135
threshold=40.500000000000007 34.500000000000007 16.500000000000004 11.500000000000002 3.5000000000000004 1.5000000000000002 13.500000000000002 3.5000000000000004 3.5000000000000004
decision_type=2 2 2 2 2 2 2 2 2
left_child=1 2 3 5 -4 6 8 -7 -1
right_child=-2 -3 4 -5 -6 7 -8 -9 -10
leaf_value=0.00044718902136082762 -0.0033565065575142704 0.0069605006137862802 -0.00552674116606408 0.0052568337621689753 -0.00010745727561478471 0.0026259554944072783 -0.0048815656059061092 -0.00018142174325279289 -0.00049520670052681287
leaf_weight=32 30 30 47 41 58 39 31 37 33
leaf_count=32 30 30 47 41 58 39 31 37 33
internal_value=0 0.000289354 -0.000339999 0.000741172 -0.00253323 -0.000335236 -0.0015975 0.00125921 -3.1258e-05
internal_weight=0 348 318 213 105 172 96 76 65
internal_count=378 348 318 213 105 172 96 76 65
is_linear=0
shrinkage=0.05


Tree=86
num_leaves=9
num_cat=0
split_feature=1 1 1 0 2 1 1 1
split_gain=0.143829 0.283291 0.354706 0.380637 0.342182 0.669337 0.640417 0.232615
threshold=29.500000000000004 22.500000000000004 16.500000000000004 15.500000000000002 1.0000000180025095e-35 10.500000000000002 5.5000000000000009 39.500000000000007
decision_type=2 2 2 2 2 2 2 2
left_child=1 2 3 4 6 -6 -1 -2
right_child=7 -3 -4 -5 5 -7 -8 -9
leaf_value=-0.0015937174341696149 -0.0040943476604297759 0.0043172733946925121 -0.0043744354474744415 0.0044712223425306674 0.0010860268208644096 -0.0081236968679791865 0.0076128584953645871 0.0013111472485915704
leaf_weight=51 48 42 41 51 47 34 30 34
leaf_count=51 48 42 41 51 47 34 30 34
internal_value=0 0.000513344 -0.000115653 0.000704113 -0.000481829 -0.00277978 0.00181613 -0.00185304
internal_weight=0 296 254 213 162 81 81 82
internal_count=378 296 254 213 162 81 81 82
is_linear=0
shrinkage=0.05


Tree=87
num_leaves=9
num_cat=0
split_feature=1 1 4 4 1 0 2 1
split_gain=0.138036 0.554936 0.272174 0.306955 0.335793 0.203537 0.436676 0.66639
threshold=40.500000000000007 34.500000000000007 7.5000000000000009 4.5000000000000009 15.500000000000002 14.500000000000002 1.0000000180025095e-35 3.5000000000000004
decision_type=2 2 2 2 2 2 2 2
left_child=1 2 3 4 5 6 7 -1
right_child=-2 -3 -4 -5 -6 -7 -8 -9
leaf_value=-0.0023405810046058738 -0.0032542386961479982 0.0067811562377028166 -0.0034298092786700404 0.0045758275113798484 -0.0037326228009028871 0.003520250364090316 -0.0039628819425290987 0.0073715554832509064
leaf_weight=38 30 30 58 37 55 48 49 33
leaf_count=38 30 30 58 37 55 48 49 33
internal_value=0 0.000280538 -0.000332728 0.000358159 -0.000341633 0.000768512 -0.000332183 0.00217351
internal_weight=0 348 318 260 223 168 120 71
internal_count=378 348 318 260 223 168 120 71
is_linear=0
shrinkage=0.05


Tree=88
num_leaves=10
num_cat=0
split_feature=1 1 1 1 1 4 0 4 1
split_gain=0.132974 0.275132 0.300349 0.391357 0.227763 0.117661 0.19756 0.0546661 0.0102311
threshold=29.500000000000004 22.500000000000004 16.500000000000004 11.500000000000002 39.500000000000007 1.5000000000000002 13.500000000000002 3.5000000000000004 3.5000000000000004
decision_type=2 2 2 2 2 2 2 2 2
left_child=1 2 3 5 -2 6 8 -7 -1
right_child=4 -3 -4 -5 -6 7 -8 -9 -10
leaf_value=0.00062154446895874578 -0.0039995560771785678 0.0042423480866654291 -0.0040451781812873558 0.0050178022992729051 0.0013492700387038948 0.0023575909865590243 -0.0048663351620968076 -0.00032529752147761554 -0.00063320475164800887
leaf_weight=32 48 42 41 41 34 39 31 37 33
leaf_count=32 48 42 41 41 34 39 31 37 33
internal_value=0 0.000493593 -0.00012628 0.000628062 -0.00178175 -0.00041833 -0.0015819 0.00105145 -1.54821e-05
internal_weight=0 296 254 213 82 172 96 76 65
internal_count=378 296 254 213 82 172 96 76 65
is_linear=0
shrinkage=0.05


Tree=89
num_leaves=8
num_cat=0
split_feature=1 1 4 4 1 1 1
split_gain=0.130074 0.526868 0.245172 0.277125 0.553991 0.325109 0.0368011
threshold=40.500000000000007 34.500000000000007 7.5000000000000009 3.5000000000000004 15.500000000000002 7.5000000000000009 3.5000000000000004
decision_type=2 2 2 2 2 2 2
left_child=1 2 3 4 5 6 -1
right_child=-2 -3 -4 -5 -6 -7 -8
leaf_value=-0.0016621197541673229 -0.0031589901509384319 0.0066064175676243996 -0.0032646666198631689 0.0034819859384813095 -0.0050914463326334957 0.0038426421000622214 0.00034666390029566461
leaf_weight=57 30 30 58 55 50 60 38
leaf_count=57 30 30 58 55 50 60 38
internal_value=0 0.000272327 -0.000325229 0.000330492 -0.000515031 0.000961232 -0.000858606
internal_weight=0 348 318 260 205 155 95
internal_count=378 348 318 260 205 155 95
is_linear=0
shrinkage=0.05


Tree=90
num_leaves=9
num_cat=0
split_feature=1 1 1 1 1 1 0 4
split_gain=0.12234 0.271871 0.401052 0.345699 0.222026 0.122547 0.245586 0.397491
threshold=29.500000000000004 21.500000000000004 16.500000000000004 11.500000000000002 39.500000000000007 8.5000000000000018 14.500000000000002 1.5000000000000002
decision_type=2 2 2 2 2 2 2 2
left_child=1 2 3 5 -2 6 7 -1
right_child=4 -3 -4 -5 -6 -7 -8 -9
leaf_value=0.0015533912049967944 -0.0038987134117633108 0.0037558973157921665 -0.0055396366834400169 0.0046729760674657532 0.0013823125059442484 -0.0026450620397277503 0.003929547453216011 -0.0052774973871076818
leaf_weight=57 48 52 31 41 34 46 35 34
leaf_count=57 48 52 31 41 34 46 35 34
internal_value=0 0.000473445 -0.000226094 0.000547238 -0.00170902 -0.000436223 0.000370179 -0.000998809
internal_weight=0 296 244 213 82 172 126 91
internal_count=378 296 244 213 82 172 126 91
is_linear=0
shrinkage=0.05


Tree=91
num_leaves=8
num_cat=0
split_feature=1 1 4 4 1 1 0
split_gain=0.122861 0.500111 0.221356 0.261388 0.48814 0.300431 0.0365608
threshold=40.500000000000007 34.500000000000007 7.5000000000000009 3.5000000000000004 15.500000000000002 7.5000000000000009 13.500000000000002
decision_type=2 2 2 2 2 2 2
left_child=1 2 3 4 5 6 -1
right_child=-2 -3 -4 -5 -6 -7 -8
leaf_value=-7.8395245343512092e-05 -0.003070156462490559 0.0064358256446818522 -0.0031105391741409129 0.0033662519079040395 -0.0048114412445574998 0.003640017210855149 -0.0020806077491694231
leaf_weight=57 30 30 58 55 50 60 38
leaf_count=57 30 30 58 55 50 60 38
internal_value=0 0.000264669 -0.000317516 0.000305543 -0.000515623 0.000870125 -0.00087928
internal_weight=0 348 318 260 205 155 95
internal_count=378 348 318 260 205 155 95
is_linear=0
shrinkage=0.05


Tree=92
num_leaves=9
num_cat=0
split_feature=0 2 4 4 4 1 0 1
split_gain=0.119303 0.303001 0.299966 0.357584 0.385217 0.386903 0.256738 0.402987
threshold=10.500000000000002 1.0000000180025095e-35 10.500000000000002 5.5000000000000009 3.5000000000000004 15.500000000000002 15.500000000000002 8.5000000000000018
decision_type=2 2 2 2 2 2 2 2
left_child=1 -1 3 4 5 6 7 -2
right_child=2 -3 -4 -5 -6 -7 -8 -9
leaf_value=-0.0050677608931437136 0.0021518105469344154 0.0014655902449573792 0.0041500492385872041 -0.0043960497470919135 0.0050958516959769612 -0.0042283297399990259 0.0045471431725230575 -0.0046202257967420989
leaf_weight=36 59 35 46 43 39 48 37 35
leaf_count=36 59 35 46 43 39 48 37 35
internal_value=0 -0.00184709 0.000427178 -0.00022896 0.000592989 -0.000388082 0.00101903 -0.000369692
internal_weight=0 71 307 261 218 179 131 94
internal_count=378 71 307 261 218 179 131 94
is_linear=0
shrinkage=0.05


Tree=93
num_leaves=10
num_cat=0
split_feature=1 1 1 0 3 1 2 4 1
split_gain=0.113629 0.448899 0.274839 0.408215 0.781052 0.139454 0.0858255 0.0871025 0.0737932
threshold=6.5000000000000009 10.500000000000002 13.500000000000002 9.5000000000000018 1.0000000180025095e-35 21.500000000000004 1.0000000180025095e-35 1.0000000180025095e-35 23.500000000000004
decision_type=2 2 2 2 2 2 2 2 2
left_child=6 -2 -3 -4 5 -5 7 -1 -6
right_child=1 2 3 4 8 -7 -8 -9 -10
leaf_value=-0.00086795228342406272 0.0046102899139643548 -0.0047577589502907358 -0.0044762581763033932 0.0019258227349529342 -0.00072619380953256043 0.0061332484914196871 0.00077736631307440509 -0.0044515308861931167 -0.0039658582793214384
leaf_weight=39 54 32 37 31 32 54 30 30 39
leaf_count=39 54 32 37 31 32 54 30 30 39
internal_value=0 0.000516398 -0.000466136 0.000245428 0.00136532 0.00459878 -0.0014553 -0.00242603 -0.00250573
internal_weight=0 279 225 193 156 85 99 69 71
internal_count=378 279 225 193 156 85 99 69 71
is_linear=0
shrinkage=0.05


Tree=94
num_leaves=9
num_cat=0
split_feature=4 4 4 0 1 1 1 3
split_gain=0.114194 0.40702 0.264623 0.409347 1.14613 0.164901 0.264595 0.023751
threshold=7.5000000000000009 10.500000000000002 1.5000000000000002 14.500000000000002 19.500000000000004 15.500000000000002 6.5000000000000009 1.0000000180025095e-35
decision_type=2 2 2 2 2 2 2 2
left_child=2 -2 5 4 -4 6 7 -1
right_child=1 -3 3 -5 -6 -7 -8 -9
leaf_value=-0.0031194465845601374 -0.0063098397071007645 0.00082300993361665564 -0.0039244558356824472 0.0065601300221641325 0.0068856456067140515 -0.0039250259856796928 0.0027259215760063763 -0.0011930254229810091
leaf_weight=32 30 60 61 37 41 36 49 32
leaf_count=32 30 60 61 37 41 36 49 32
internal_value=0 -0.00155461 0.000485815 0.002055 0.000420781 -0.000978053 -3.91942e-05 -0.00215624
internal_weight=0 90 288 139 102 149 113 64
internal_count=378 90 288 139 102 149 113 64
is_linear=0
shrinkage=0.05


Tree=95
num_leaves=10
num_cat=0
split_feature=1 1 0 1 4 1 1 1 1
split_gain=0.112916 0.247539 0.232422 0.210145 0.16607 0.506747 0.346633 0.0965832 0.0446043
threshold=29.500000000000004 22.500000000000004 14.500000000000002 39.500000000000007 1.5000000000000002 10.500000000000002 7.5000000000000009 3.5000000000000004 8.5000000000000018
decision_type=2 2 2 2 2 2 2 2 2
left_child=1 2 4 -2 5 7 -6 -1 -4
right_child=3 -3 8 -5 6 -7 -8 -9 -10
leaf_value=0.00099433585031268512 -0.0037721818274197485 0.0040106525539331849 0.0035811992656506067 0.0013656132334076308 -0.0070024544559419161 -0.0047940700431354346 -0.00036247749445273694 0.0048495231025299295 0.0010569077676960401
leaf_weight=33 48 42 35 34 30 32 57 32 35
leaf_count=33 48 42 35 34 30 32 57 32 35
internal_value=0 0.000454844 -0.000133124 -0.00164188 -0.00106602 0.000356573 -0.00265212 0.00289227 0.00231905
internal_weight=0 296 254 82 184 97 87 65 70
internal_count=378 296 254 82 184 97 87 65 70
is_linear=0
shrinkage=0.05


Tree=96
num_leaves=10
num_cat=0
split_feature=1 1 1 1 0 2 1 1 1
split_gain=0.117394 0.491582 0.204997 0.156378 0.254384 0.317224 0.562915 0.452912 0.00113937
threshold=40.500000000000007 34.500000000000007 24.500000000000004 18.500000000000004 14.500000000000002 1.0000000180025095e-35 10.500000000000002 5.5000000000000009 7.5000000000000009
decision_type=2 2 2 2 2 2 2 2 2
left_child=1 2 3 4 5 7 -7 -1 -6
right_child=-2 -3 -4 -5 8 6 -8 -9 -10
leaf_value=-0.0021314546960638837 -0.0030010724316040676 0.0063770192395895724 -0.003292948336397507 0.002987100978024564 0.0025840208212274218 0.00036118587595410648 -0.0078891531104604024 0.0056218870044235265 0.002161883619247061
leaf_weight=48 30 30 49 43 31 44 39 31 33
leaf_count=48 30 30 49 43 31 44 39 31 33
internal_value=0 0.000258713 -0.000318486 0.000223331 -0.000302519 -0.00135689 -0.00351548 0.000910996 0.00236636
internal_weight=0 348 318 269 226 162 83 79 64
internal_count=378 348 318 269 226 162 83 79 64
is_linear=0
shrinkage=0.05


Tree=97
num_leaves=9
num_cat=0
split_feature=4 4 4 0 1 1 1 3
split_gain=0.106856 0.365945 0.248986 0.327909 0.992042 0.134526 0.249342 0.0223769
threshold=7.5000000000000009 10.500000000000002 1.5000000000000002 14.500000000000002 19.500000000000004 15.500000000000002 6.5000000000000009 1.0000000180025095e-35
decision_type=2 2 2 2 2 2 2 2
left_child=2 -2 5 4 -4 6 7 -1
right_child=1 -3 3 -5 -6 -7 -8 -9
leaf_value=-0.0030920683640943028 -0.0060127410897985109 0.00075062940673281762 -0.0035132012436868715 0.0060242243614551183 0.0065440265189220265 -0.0036117608426138761 0.0025822129302506091 -0.0012222031713463367
leaf_weight=32 30 60 61 37 41 36 49 32
leaf_count=32 30 60 61 37 41 36 49 32
internal_value=0 -0.00150383 0.000469946 0.00199206 0.00052941 -0.000950011 -0.00010202 -0.00215714
internal_weight=0 90 288 139 102 149 113 64
internal_count=378 90 288 139 102 149 113 64
is_linear=0
shrinkage=0.05


Tree=98
num_leaves=10
num_cat=0
split_feature=1 1 1 1 1 4 1 2 4
split_gain=0.110504 0.445019 0.192923 0.140305 0.313383 0.29838 0.160849 0.0773587 0.0813326
threshold=40.500000000000007 34.500000000000007 24.500000000000004 6.5000000000000009 10.500000000000002 7.5000000000000009 14.500000000000002 1.0000000180025095e-35 1.0000000180025095e-35
decision_type=2 2 2 2 2 2 2 2 2
left_child=1 2 3 7 -5 6 -6 8 -1
right_child=-2 -3 -4 4 5 -7 -8 -9 -10
leaf_value=-0.00068493889292511043 -0.0029116677368680637 0.0060723440473278364 -0.0031837164053731431 0.0042452662217396277 -0.001311783995982763 -0.0045649361203334501 0.0030752089737992113 0.0008507585591481378 -0.0041477906269331774
leaf_weight=39 30 30 49 54 37 31 48 30 30
leaf_count=39 30 30 49 54 37 31 48 30 30
internal_value=0 0.000251006 -0.000298177 0.000227442 0.00109886 -0.000365853 0.00116558 -0.00126893 -0.00219053
internal_weight=0 348 318 269 170 116 85 99 69
internal_count=378 348 318 269 170 116 85 99 69
is_linear=0
shrinkage=0.05


Tree=99
num_leaves=9
num_cat=0
split_feature=1 1 4 1 1 1 4 1
split_gain=0.111944 0.235255 0.217881 0.211421 0.343082 0.131796 0.267852 1.11382
threshold=29.500000000000004 22.500000000000004 5.5000000000000009 16.500000000000004 11.500000000000002 8.5000000000000018 1.0000000180025095e-35 3.5000000000000004
decision_type=2 2 2 2 2 2 2 2
left_child=1 3 -2 4 5 6 -1 -8
right_child=2 -3 -4 -5 -6 -7 7 -9
leaf_value=-0.0021270347036926101 0.0013518801205126302 0.0039193406019919731 -0.0038589112837105356 -0.0034082587104199862 0.0046226674605660684 -0.0027578236069530251 -0.0044928419133347854 0.0083555659958841032
leaf_weight=58 35 42 47 41 41 46 31 37
leaf_count=58 35 42 47 41 41 46 31 37
internal_value=0 0.000452882 -0.00163479 -0.000120312 0.000512579 -0.000467151 0.000369126 0.0024982
internal_weight=0 296 82 254 213 172 126 68
internal_count=378 296 82 254 213 172 126 68
is_linear=0
shrinkage=0.05


Tree=100
num_leaves=9
num_cat=0
split_feature=1 1 1 1 1 1 4 1
split_gain=0.101029 0.218365 0.213525 0.30705 0.309631 0.118946 0.241736 1.00522
threshold=29.500000000000004 39.500000000000007 21.500000000000004 16.500000000000004 11.500000000000002 8.5000000000000018 1.0000000180025095e-35 3.5000000000000004
decision_type=2 2 2 2 2 2 2 2
left_child=2 -2 3 4 5 6 -1 -8
right_child=1 -3 -4 -5 -6 -7 7 -9
leaf_value=-0.0020206829247964098 -0.0037246234792595112 0.0015126926057478962 0.0033392255897454638 -0.0048390233348454201 0.0043915339893229851 -0.0026199322173614866 -0.0042681998663371612 0.0079377880571661775
leaf_weight=58 48 34 52 31 41 46 31 37
leaf_count=58 48 34 52 31 41 46 31 37
internal_value=0 -0.00155305 0.000430238 -0.00018971 0.00048695 -0.000443794 0.000350669 0.00237329
internal_weight=0 82 296 244 213 172 126 68
internal_count=378 82 296 244 213 172 126 68
is_linear=0
shrinkage=0.05


Tree=101
num_leaves=10
num_cat=0
split_feature=1 1 1 1 0 2 1 1 1
split_gain=0.100038 0.441154 0.182968 0.143974 0.219392 0.33593 0.472263 0.335787 0.00369869
threshold=40.500000000000007 34.500000000000007 24.500000000000004 18.500000000000004 14.500000000000002 1.0000000180025095e-35 10.500000000000002 5.5000000000000009 7.5000000000000009
decision_type=2 2 2 2 2 2 2 2 2
left_child=1 2 3 4 5 7 -7 -1 -6
right_child=-2 -3 -4 -5 8 6 -8 -9 -10
leaf_value=-0.0015657134407471556 -0.0027703587338328362 0.0060348262824118136 -0.0031180741754835662 0.0028557972635987194 0.0025700481369107541 4.9677238249304622e-05 -0.0075071989916838146 0.0051102472183805325 0.0018094656706759424
leaf_weight=48 30 30 49 43 31 44 39 31 33
leaf_count=48 30 30 49 43 31 44 39 31 33
internal_value=0 0.000238824 -0.000307969 0.000203909 -0.000300653 -0.00127982 -0.00350114 0.00105397 0.00217787
internal_weight=0 348 318 269 226 162 83 79 64
internal_count=378 348 318 269 226 162 83 79 64
is_linear=0
shrinkage=0.05


Tree=102
num_leaves=9
num_cat=0
split_feature=1 1 1 1 1 1 4 1
split_gain=0.0934032 0.211486 0.199472 0.178941 0.296837 0.105642 0.213954 0.899022
threshold=29.500000000000004 39.500000000000007 22.500000000000004 16.500000000000004 11.500000000000002 8.5000000000000018 1.0000000180025095e-35 3.5000000000000004
decision_type=2 2 2 2 2 2 2 2
left_child=2 -2 3 4 5 6 -1 -8
right_child=1 -3 -4 -5 -6 -7 7 -9
leaf_value=-0.0019253954359587152 -0.0036303795108930596 0.001523780603619183 0.0036056399744536193 -0.0031389873520266719 0.0042911898878562017 -0.0024940165458247066 -0.0040724974846647636 0.0074707466202813232
leaf_weight=58 48 34 42 41 41 46 31 37
leaf_count=58 48 34 42 41 41 46 31 37
internal_value=0 -0.00149329 0.000413681 -0.000114123 0.000468128 -0.000443183 0.000305534 0.00220839
internal_weight=0 82 296 254 213 172 126 68
internal_count=378 82 296 254 213 172 126 68
is_linear=0
shrinkage=0.05


Tree=103
num_leaves=10
num_cat=0
split_feature=1 1 1 1 0 2 1 1 1
split_gain=0.0955874 0.418733 0.166511 0.134512 0.204913 0.31944 0.420652 0.284135 0.00411844
threshold=40.500000000000007 34.500000000000007 24.500000000000004 18.500000000000004 14.500000000000002 1.0000000180025095e-35 10.500000000000002 3.5000000000000004 7.5000000000000009
decision_type=2 2 2 2 2 2 2 2 2
left_child=1 2 3 4 5 7 -7 -1 -6
right_child=-2 -3 -4 -5 8 6 -8 -9 -10
leaf_value=-0.0019300527672749014 -0.0027080298898120724 0.0058802429586648948 -0.0029800113430721877 0.0027523179765963973 0.0025105236421128917 -5.9891750358722429e-05 -0.0071919007382045194 0.0040676311267396582 0.0017079435176018513
leaf_weight=40 30 30 49 43 31 44 39 39 33
leaf_count=40 30 30 49 43 31 44 39 39 33
internal_value=0 0.000233451 -0.000299265 0.000189049 -0.000298653 -0.00124496 -0.00341108 0.00103083 0.00209669
