tree
version=v4
num_class=1
num_tree_per_iteration=1
label_index=0
max_feature_idx=4
objective=regression
feature_names=Column_0 Column_1 Column_2 Column_3 Column_4
feature_infos=[0:18] [1:51] [0:1] [0:1] [0:44]
tree_sizes=895 973 885 888 885 886 886 892 888 893 978 974 894 897 813 973 887 1065

Tree=0
num_leaves=9
num_cat=0
split_feature=0 4 3 1 0 3 4 1
split_gain=71.8517 45.7317 23.7218 10.8301 6.04646 4.02064 2.30229 1.92618
threshold=15.500000000000002 2.5000000000000004 1.0000000180025095e-35 9.5000000000000018 11.500000000000002 1.0000000180025095e-35 10.500000000000002 21.500000000000004
decision_type=2 2 2 2 2 2 2 2
left_child=1 4 6 -2 -1 -6 -3 -4
right_child=3 2 7 -5 5 -7 -8 -9
leaf_value=-0.044079893522787163 0.024531645766053954 0.019526416000820664 -0.0039914671852679618 0.06280172803778486 -0.01187363790219873 -0.031593656207105129 0.036329490451875023 -0.021145966273623772
leaf_weight=50 36 47 30 38 46 59 36 36
leaf_count=50 36 47 30 38 46 59 36 36
internal_value=4.00759e-09 -0.0107553 0.00902419 0.0441839 -0.0297691 -0.0229544 0.0268145 -0.0133485
internal_weight=0 304 149 74 155 105 83 66
internal_count=378 304 149 74 155 105 83 66
is_linear=0
shrinkage=1


Tree=1
num_leaves=10
num_cat=0
split_feature=0 4 3 4 2 3 4 1 1
split_gain=64.8461 41.2728 21.4089 9.9862 5.74233 4.35207 2.07782 1.73837 1.61827
threshold=15.500000000000002 2.5000000000000004 1.0000000180025095e-35 2.5000000000000004 1.0000000180025095e-35 1.0000000180025095e-35 10.500000000000002 21.500000000000004 3.5000000000000004
decision_type=2 2 2 2 2 2 2 2 2
left_child=1 4 6 -2 8 -6 -3 -4 -1
right_child=3 2 7 -5 5 -7 -8 -9 -10
leaf_value=-0.043888602349166334 0.023606975615729352 0.018550091635118775 -0.0037918975421537961 0.060342330948726555 -0.0042618790845153857 -0.028866264950938345 0.034513011372958619 -0.020088672544807198 -0.029802694975545531
leaf_weight=44 37 47 30 37 32 41 36 36 38
leaf_count=44 37 47 30 37 32 41 36 36 38
internal_value=0 -0.0102175 0.00857298 0.0419747 -0.0282806 -0.0180808 0.0254738 -0.012681 -0.037361
internal_weight=0 304 149 74 155 73 83 66 82
internal_count=378 304 149 74 155 73 83 66 82
is_linear=0
shrinkage=0.05


Tree=2
num_leaves=9
num_cat=0
split_feature=0 4 4 3 0 1 1 1
split_gain=59.135 28.7239 25.6904 11.0847 8.00713 4.29288 0.913289 0.548466
threshold=13.500000000000002 4.5000000000000009 2.5000000000000004 1.0000000180025095e-35 15.500000000000002 6.5000000000000009 24.500000000000004 15.500000000000002
decision_type=2 2 2 2 2 2 2 2
left_child=2 4 5 6 -2 -1 -4 -7
right_child=1 -3 3 -5 -6 7 -8 -9
leaf_value=-0.039539790513186623 -0.0059559244304322285 0.060842425514792291 0.022248891309615881 -0.014382198459218041 0.024690260143673166 -0.016828144916466305 0.010382721458952275 -0.025449871947654547
leaf_weight=58 39 43 34 52 47 35 31 39
leaf_count=58 39 43 34 52 47 35 31 39
internal_value=0 0.0274759 -0.0142345 0.00282438 0.0107926 -0.0293548 0.0165896 -0.021372
internal_weight=0 129 249 117 86 132 65 74
internal_count=378 129 249 117 86 132 65 74
is_linear=0
shrinkage=0.05


Tree=3
num_leaves=9
num_cat=0
split_feature=0 4 4 3 0 3 0 1
split_gain=53.3693 25.9233 23.1856 10.004 7.22643 3.94889 1.40191 0.824244
threshold=13.500000000000002 4.5000000000000009 2.5000000000000004 1.0000000180025095e-35 15.500000000000002 1.0000000180025095e-35 11.500000000000002 24.500000000000004
decision_type=2 2 2 2 2 2 2 2
left_child=2 4 5 7 -2 -1 -7 -4
right_child=1 -3 3 -5 -6 6 -8 -9
leaf_value=-0.017160448612860188 -0.0056581281483746495 0.05780030595528525 0.021136447261361518 -0.013663088198966132 0.02345574698708159 -0.043404346356789275 -0.029732445171102885 0.0098635859847549471
leaf_weight=52 39 43 34 52 47 30 50 31
leaf_count=52 39 43 34 52 47 30 50 31
internal_value=0 0.0261021 -0.0135228 0.00268316 0.0102529 -0.0278871 -0.0348594 0.0157602
internal_weight=0 129 249 117 86 132 80 65
internal_count=378 129 249 117 86 132 80 65
is_linear=0
shrinkage=0.05


Tree=4
num_leaves=9
num_cat=0
split_feature=0 4 3 1 0 3 4 1
split_gain=48.1846 30.53 16.165 8.64965 4.75145 3.08974 1.71684 1.65316
threshold=15.500000000000002 2.5000000000000004 1.0000000180025095e-35 9.5000000000000018 11.500000000000002 1.0000000180025095e-35 10.500000000000002 21.500000000000004
decision_type=2 2 2 2 2 2 2 2
left_child=1 4 6 -2 -1 -6 -3 -4
right_child=3 2 7 -5 5 -7 -8 -9
leaf_value=-0.037029098721686748 0.018619724052647748 0.015745633703339448 -0.002446506681541602 0.052820980884624939 -0.0085883722559589419 -0.025875426542361159 0.030255852877679804 -0.01833881663882898
leaf_weight=50 36 47 30 38 46 59 36 36
leaf_count=50 36 47 30 38 46 59 36 36
internal_value=0 -0.00880759 0.00735344 0.0361825 -0.024343 -0.0183021 0.0220392 -0.011115
internal_weight=0 304 149 74 155 105 83 66
internal_count=378 304 149 74 155 105 83 66
is_linear=0
shrinkage=0.05


Tree=5
num_leaves=9
num_cat=0
split_feature=0 4 4 3 0 1 1 1
split_gain=44.2948 22.2778 18.6347 7.97306 5.62301 3.82212 0.776064 0.467701
threshold=13.500000000000002 4.5000000000000009 2.5000000000000004 1.0000000180025095e-35 15.500000000000002 6.5000000000000009 24.500000000000004 15.500000000000002
decision_type=2 2 2 2 2 2 2 2
left_child=2 4 5 6 -2 -1 -4 -7
right_child=1 -3 3 -5 -6 7 -8 -9
leaf_value=-0.034807569644381774 -0.0049481911823535578 0.053164675149546807 0.019100295431802378 -0.012383895105897234 0.02073344017596955 -0.01346884498106582 0.0081618604640806888 -0.021430509112393248
leaf_weight=58 39 43 34 52 47 35 31 39
leaf_count=58 39 43 34 52 47 35 31 39
internal_value=0 0.0237796 -0.0123196 0.0022091 0.00908712 -0.0251973 0.0138835 -0.0176649
internal_weight=0 129 249 117 86 132 65 74
internal_count=378 129 249 117 86 132 65 74
is_linear=0
shrinkage=0.05


Tree=6
num_leaves=9
num_cat=0
split_feature=0 4 4 0 3 0 1 1
split_gain=39.976 20.1057 16.8179 8.06158 15.6158 5.07477 3.4553 0.490603
threshold=13.500000000000002 4.5000000000000009 2.5000000000000004 11.500000000000002 1.0000000180025095e-35 15.500000000000002 5.5000000000000009 13.500000000000002
decision_type=2 2 2 2 2 2 2 2
left_child=2 5 6 -4 -5 -2 -1 -8
right_child=1 -3 3 4 -6 -7 7 -9
leaf_value=-0.033813861102351205 -0.0047007815195963939 0.050506441728861699 -0.017200194826349418 0.034248544812496555 -0.0099879899860492779 0.019696767984869634 -0.01253617531619966 -0.020562644621872524
leaf_weight=53 39 43 37 38 42 47 32 47
leaf_count=53 39 43 37 38 42 47 32 47
internal_value=0 0.0225907 -0.0117036 0.00209865 0.0110244 0.00863276 -0.0239374 -0.0173114
internal_weight=0 129 249 117 80 86 132 79
internal_count=378 129 249 117 80 86 132 79
is_linear=0
shrinkage=0.05


Tree=7
num_leaves=9
num_cat=0
split_feature=0 4 4 0 3 0 3 0
split_gain=36.0784 18.1454 15.1781 7.27558 14.0933 4.57998 3.38157 1.12002
threshold=13.500000000000002 4.5000000000000009 2.5000000000000004 11.500000000000002 1.0000000180025095e-35 15.500000000000002 1.0000000180025095e-35 11.500000000000002
decision_type=2 2 2 2 2 2 2 2
left_child=2 5 6 -4 -5 -2 -1 -8
right_child=1 -3 3 4 -6 -7 7 -9
leaf_value=-0.012814276608136985 -0.0044657424617654245 0.047981120663326847 -0.016340185724500869 0.032536117641843464 -0.0094885904053669604 0.018711930576791155 -0.036830278784036635 -0.024609979189001027
leaf_weight=52 39 43 37 38 42 47 30 50
leaf_count=52 39 43 37 38 42 47 30 50
internal_value=0 0.0214611 -0.0111184 0.00199372 0.0104731 0.00820113 -0.0227405 -0.0291926
internal_weight=0 129 249 117 80 86 132 80
internal_count=378 129 249 117 80 86 132 80
is_linear=0
shrinkage=0.05


Tree=8
num_leaves=9
num_cat=0
split_feature=0 4 4 0 3 1 1 1
split_gain=32.5607 16.3762 13.6982 6.56621 12.7192 4.49243 3.16189 0.378547
threshold=13.500000000000002 4.5000000000000009 2.5000000000000004 11.500000000000002 1.0000000180025095e-35 8.5000000000000018 6.5000000000000009 15.500000000000002
decision_type=2 2 2 2 2 2 2 2
left_child=2 5 6 -4 -5 -2 -1 -8
right_child=1 -3 3 4 -6 -7 7 -9
leaf_value=-0.030344444779871867 -0.003116983696818352 0.045582064492411395 -0.015523175930453315 0.030909312163528643 -0.0090141611484189834 0.019763321590768854 -0.01097753274603747 -0.018140276953673515
leaf_weight=58 45 43 37 38 42 41 35 39
leaf_count=58 45 43 37 38 42 41 35 39
internal_value=0 0.0203881 -0.0105625 0.00189403 0.00994949 0.00779107 -0.0216035 -0.0147525
internal_weight=0 129 249 117 80 86 132 74
internal_count=378 129 249 117 80 86 132 74
is_linear=0
shrinkage=0.05


Tree=9
num_leaves=9
num_cat=0
split_feature=0 4 3 1 0 3 1 4
split_gain=30.2557 18.5353 10.4263 6.38352 3.51551 2.43182 1.56259 1.47559
threshold=15.500000000000002 2.5000000000000004 1.0000000180025095e-35 9.5000000000000018 11.500000000000002 1.0000000180025095e-35 21.500000000000004 10.500000000000002
decision_type=2 2 2 2 2 2 2 2
left_child=1 4 7 -2 -1 -6 -4 -3
right_child=3 2 6 -5 5 -7 -8 -9
leaf_value=-0.029996162243187432 0.01358362493208713 0.011572783057667077 -0.00079147508212675649 0.042965046941351732 -0.0052702094023318394 -0.020606682472270363 -0.016242335281438296 0.025024925604359146
leaf_weight=50 36 47 30 38 46 59 36 36
leaf_count=50 36 47 30 38 46 59 36 36
internal_value=0 -0.00697922 0.00561309 0.0286714 -0.0190841 -0.0138878 -0.00921922 0.0174074
internal_weight=0 304 149 74 155 105 66 83
internal_count=378 304 149 74 155 105 66 83
is_linear=0
shrinkage=0.05


Tree=10
num_leaves=10
num_cat=0
split_feature=0 4 3 1 2 3 1 4 1
split_gain=27.3058 16.7281 9.40972 5.76112 3.40486 2.95995 1.41024 1.33172 1.00096
threshold=15.500000000000002 2.5000000000000004 1.0000000180025095e-35 9.5000000000000018 1.0000000180025095e-35 1.0000000180025095e-35 21.500000000000004 10.500000000000002 3.5000000000000004
decision_type=2 2 2 2 2 2 2 2 2
left_child=1 4 7 -2 8 -6 -4 -3 -1
right_child=3 2 6 -5 5 -7 -8 -9 -10
leaf_value=-0.030255763241174544 0.012904443327958384 0.010994143604345502 -0.00075190152196834487 0.040816793917359685 0.0011206765659153462 -0.019170464734296976 -0.015430218943705163 0.023773679696023467 -0.019177617002768738
leaf_weight=44 36 47 30 38 32 41 36 36 38
leaf_count=44 36 47 30 38 32 41 36 36 38
internal_value=0 -0.00663026 0.00533243 0.0272378 -0.0181299 -0.0102757 -0.00875826 0.0165371 -0.025122
internal_weight=0 304 149 74 155 73 66 83 82
internal_count=378 304 149 74 155 73 66 83 82
is_linear=0
shrinkage=0.05


Tree=11
num_leaves=10
num_cat=0
split_feature=0 4 1 0 3 1 1 4 1
split_gain=24.7749 13.3918 9.86506 9.66038 11.4948 4.77835 3.60061 1.94197 0.489673
threshold=13.500000000000002 4.5000000000000009 6.5000000000000009 10.500000000000002 1.0000000180025095e-35 20.500000000000004 8.5000000000000018 2.5000000000000004 2.5000000000000004
decision_type=2 2 2 2 2 2 2 2 2
left_child=2 6 8 -4 5 -5 -2 -6 -1
right_child=1 -3 3 4 7 -7 -8 -9 -10
leaf_value=-0.030090334576865038 -0.0033727607503533361 0.040567165076039559 -0.021991191834819561 0.0053213374867724884 -0.019026837663841435 0.033097316767089068 0.017110979837002004 -0.0022062918624362431 -0.021593544725925687
leaf_weight=30 45 43 49 30 32 32 41 37 39
leaf_count=30 45 43 49 30 32 32 41 37 39
internal_value=0 0.0177842 -0.00921351 -0.0030517 0.00403254 0.0196573 0.00639274 -0.0100071 -0.0252878
internal_weight=0 129 249 180 131 62 86 69 69
internal_count=378 129 249 180 131 62 86 69 69
is_linear=0
shrinkage=0.05


Tree=12
num_leaves=9
num_cat=0
split_feature=0 4 3 1 0 3 1 1
split_gain=22.9156 13.8548 7.98915 4.74233 2.76889 1.76828 1.34668 1.30467
threshold=15.500000000000002 2.5000000000000004 1.0000000180025095e-35 9.5000000000000018 11.500000000000002 1.0000000180025095e-35 26.500000000000004 21.500000000000004
decision_type=2 2 2 2 2 2 2 2
left_child=1 4 6 -2 -1 -6 -3 -4
right_child=3 2 7 -5 5 -7 -8 -9
leaf_value=-0.026223680675029754 0.011947894510295657 0.020575771739883446 -0.00046971081911275785 0.03727227358735706 -0.0045793756660397937 -0.017657202066680006 0.007678830879075187 -0.014587921556085348
leaf_weight=50 36 48 30 38 46 59 35 36
leaf_count=50 36 48 30 38 46 59 35 36
internal_value=0 -0.00607392 0.00481302 0.0249523 -0.0165394 -0.0119279 0.0151373 -0.00817055
internal_weight=0 304 149 74 155 105 83 66
internal_count=378 304 149 74 155 105 83 66
is_linear=0
shrinkage=0.05


Tree=13
num_leaves=9
num_cat=0
split_feature=0 4 0 3 1 2 3 1
split_gain=20.6813 12.5039 7.73199 14.2045 4.27995 2.6655 2.23805 0.812888
threshold=15.500000000000002 2.5000000000000004 11.500000000000002 1.0000000180025095e-35 9.5000000000000018 1.0000000180025095e-35 1.0000000180025095e-35 3.5000000000000004
decision_type=2 2 2 2 2 2 2 2
left_child=1 5 -3 -4 -2 7 -7 -1
right_child=4 2 3 -5 -6 6 -8 -9
leaf_value=-0.026525402407225392 0.011350500317186946 -0.015244297260997464 0.028925236134922934 -0.0066873494460846158 0.035408659637170402 0.0011465160467196255 -0.016497578860328693 -0.016542099950541008
leaf_weight=44 36 37 56 56 38 32 41 38
leaf_count=44 36 37 56 56 38 32 41 38
internal_value=0 -0.00577022 0.00457237 0.0111189 0.0237047 -0.0157124 -0.00876318 -0.021899
internal_weight=0 304 149 112 74 155 73 82
internal_count=378 304 149 112 74 155 73 82
is_linear=0
shrinkage=0.05


Tree=14
num_leaves=8
num_cat=0
split_feature=0 4 0 3 4 0 3
split_gain=18.6649 11.2848 6.97812 12.8195 3.89256 2.42094 1.47953
threshold=15.500000000000002 2.5000000000000004 11.500000000000002 1.0000000180025095e-35 2.5000000000000004 11.500000000000002 1.0000000180025095e-35
decision_type=2 2 2 2 2 2 2
left_child=1 5 -3 -4 -2 -1 -7
right_child=4 2 3 -5 -6 6 -8
leaf_value=-0.02398218569881283 0.011051871055560943 -0.014482082758803624 0.027478974591940642 -0.0063529819649245063 0.033987040651609769 -0.0038929805787199221 -0.015855455382774442
leaf_weight=50 37 37 56 56 37 46 59
leaf_count=50 37 37 56 56 37 46 59
internal_value=0 -0.00548171 0.00434375 0.010563 0.0225195 -0.0149268 -0.0106148
internal_weight=0 304 149 112 74 155 105
internal_count=378 304 149 112 74 155 105
is_linear=0
shrinkage=0.05


Tree=15
num_leaves=10
num_cat=0
split_feature=0 4 1 0 3 1 1 1 1
split_gain=16.9303 10.1716 7.4786 7.39345 7.91329 4.06931 2.80024 1.49793 0.323645
threshold=13.500000000000002 4.5000000000000009 6.5000000000000009 10.500000000000002 1.0000000180025095e-35 20.500000000000004 8.5000000000000018 19.500000000000004 2.5000000000000004
decision_type=2 2 2 2 2 2 2 2 2
left_child=2 6 8 -4 5 -5 -2 -6 -1
right_child=1 -3 3 4 7 -7 -8 -9 -10
leaf_value=-0.025516436900943518 -0.0038383407259566919 0.034557163379111785 -0.018820392492474344 0.0036805117844293518 0.00045368471933949383 0.029312980648683151 0.014225847456425363 -0.014356739809246441 -0.01860869081141666
leaf_weight=30 45 43 49 30 31 32 41 38 39
leaf_count=30 45 43 49 30 31 32 41 38 39
internal_value=0 0.0147015 -0.00761644 -0.00225145 0.0039461 0.0169102 0.00477366 -0.00770278 -0.0216121
internal_weight=0 129 249 180 131 62 86 69 69
internal_count=378 129 249 180 131 62 86 69 69
is_linear=0
shrinkage=0.05


Tree=16
num_leaves=9
num_cat=0
split_feature=0 1 0 3 4 1 1 1
split_gain=15.6621 9.70181 8.56954 9.85578 5.79272 3.35937 2.05246 0.572086
threshold=15.500000000000002 6.5000000000000009 10.500000000000002 1.0000000180025095e-35 3.5000000000000004 9.5000000000000018 16.500000000000004 3.5000000000000004
decision_type=2 2 2 2 2 2 2 2
left_child=1 7 -3 4 -4 -2 -5 -1
right_child=5 2 3 6 -6 -7 -8 -9
leaf_value=-0.022546240533614217 0.0096834354464792553 -0.017879372968205385 0.0020872272936893364 0.0031498241046553146 0.028501665366667452 0.03099775255648542 -0.012773085497319698 -0.014079872230649926
leaf_weight=53 36 49 35 34 51 38 50 32
leaf_count=53 36 49 35 34 51 38 50 32
internal_value=0 -0.00502144 0.000543326 0.0058534 0.0177516 0.0206286 -0.0063281 -0.0193589
internal_weight=0 304 219 170 86 74 84 85
internal_count=378 304 219 170 86 74 84 85
is_linear=0
shrinkage=0.05


Tree=17
num_leaves=11
num_cat=0
split_feature=3 2 4 0 1 1 0 1 1 4
split_gain=14.4385 14.6426 8.46263 3.55972 2.83042 3.21197 3.32285 1.16587 1.04715 0.0300159
threshold=1.0000000180025095e-35 1.0000000180025095e-35 13.500000000000002 13.500000000000002 3.5000000000000004 16.500000000000004 12.500000000000002 4.5000000000000009 34.500000000000007 4.5000000000000009
decision_type=2 2 2 2 2 2 2 2 2 2
left_child=1 7 3 9 -2 6 -6 -1 -7 -3
right_child=4 2 -4 -5 5 8 -8 -9 -10 -11
leaf_value=-0.017500590648022341 -0.024014485109364617 0.0043837606534361841 0.041053385068211823 0.021329408256337046 -0.0092864092575704171 -0.020419160174205902 0.012611452175575931 -0.0038815008181457716 -0.0081760468982881116 0.0021470985086246707
leaf_weight=33 32 30 31 50 41 40 30 30 31 30
leaf_count=33 32 30 31 50 41 40 30 30 31 30
internal_value=0 0.00902493 0.0179791 0.0114763 -0.010581 -0.00755368 -3.37918e-05 -0.0110153 -0.0150736 0.00326543
internal_weight=0 204 141 110 174 142 71 63 71 60
internal_count=378 204 141 110 174 142 71 63 71 60
is_linear=0
shrinkage=0.05


end of trees

feature_importances:
Column_1=45
Column_0=39
Column_4=33
Column_3=28
Column_2=4

parameters:
[boosting: gbdt]
[objective: regression]
[metric: l2]
[tree_learner: serial]
[device_type: cpu]
[data: ]
[valid: ]
[num_iterations: 10000]
[learning_rate: 0.05]
[num_leaves: 63]
[num_threads: 0]
[deterministic: 0]
[force_col_wise: 0]
[force_row_wise: 0]
[histogram_pool_size: -1]
[max_depth: -1]
[min_data_in_leaf: 30]
[min_sum_hessian_in_leaf: 0.001]
[bagging_fraction: 0.8]
[pos_bagging_fraction: 1]
[neg_bagging_fraction: 1]
[bagging_freq: 0]
[bagging_seed: 9915]
[feature_fraction: 0.9]
[feature_fraction_bynode: 1]
[feature_fraction_seed: 13361]
[extra_trees: 0]
[extra_seed: 2437]
[early_stopping_round: 0]
[first_metric_only: 0]
[max_delta_step: 0]
[lambda_l1: 0]
[lambda_l2: 0]
[linear_lambda: 0]
[min_gain_to_split: 0]
[drop_rate: 0.1]
[max_drop: 50]
[skip_drop: 0.5]
[xgboost_dart_mode: 0]
[uniform_drop: 0]
[drop_seed: 6739]
[top_rate: 0.2]
[other_rate: 0.1]
[min_data_per_group: 100]
[max_cat_threshold: 32]
[cat_l2: 10]
[cat_smooth: 10]
[max_cat_to_onehot: 4]
[top_k: 20]
[monotone_constraints: ]
[monotone_constraints_method: basic]
[monotone_penalty: 0]
[feature_contri: ]
[forcedsplits_filename: ]
[refit_decay_rate: 0.9]
[cegb_tradeoff: 1]
[cegb_penalty_split: 0]
[cegb_penalty_feature_lazy: ]
[cegb_penalty_feature_coupled: ]
[path_smooth: 0]
[interaction_constraints: ]
[verbosity: -1]
[saved_feature_importance_type: 0]
[linear_tree: 0]
[max_bin: 255]
[max_bin_by_feature: ]
[min_data_in_bin: 3]
[bin_construct_sample_cnt: 200000]
[data_random_seed: 4091]
[is_enable_sparse: 1]
[enable_bundle: 1]
[use_missing: 1]
[zero_as_missing: 0]
[feature_pre_filter: 1]
[pre_partition: 0]
[two_round: 0]
[header: 0]
[label_column: ]
[weight_column: ]
[group_column: ]
[ignore_column: ]
[categorical_feature: ]
[forcedbins_filename: ]
[precise_float_parser: 0]
[parser_config_file: ]
[objective_seed: 29722]
[num_class: 1]
[is_unbalance: 0]
[scale_pos_weight: 1]
[sigmoid: 1]
[boost_from_average: 1]
[reg_sqrt: 0]
[alpha: 0.9]
[fair_c: 1]
[poisson_max_delta_step: 0.7]
[tweedie_variance_power: 1.5]
[lambdarank_truncation_level: 30]
[lambdarank_norm: 1]
[label_gain: ]
[eval_at: ]
[multi_error_top_k: 1]
[auc_mu_weights: ]
[num_machines: 1]
[local_listen_port: 12400]
[time_out: 120]
[machine_list_filename: ]
[machines: ]
[gpu_platform_id: -1]
[gpu_device_id: -1]
[gpu_use_dp: 0]
[num_gpu: 1]

end of parameters

pandas_categorical:null
