tree
version=v4
num_class=1
num_tree_per_iteration=1
label_index=0
max_feature_idx=4
objective=regression
feature_names=Column_0 Column_1 Column_2 Column_3 Column_4
feature_infos=[0:18] [1:51] [0:1] [0:1] [0:44]
tree_sizes=982 1059 977 977 973 973 976 887 975 885 979 893 981 896 970 896 979 978 887 985 982 887 907 983 982 979 903 903 984 904 1062 904 902 981 992 903 989 905 998 986 988 1076 989 1081 907 898 1086 986 1089 1079 906 995 993 1087 996 1086 999 912 907 1003 1000 988 912 1004 1086 992 1001 1084 999 1086 1001 1001 1004 997 993 1006 1003 992 1002 1004 914 915 911 1000 916 1004 919 914

Tree=0
num_leaves=10
num_cat=0
split_feature=0 4 3 4 0 3 4 4 1
split_gain=66.797 49.5459 20.2506 7.82769 7.16218 6.71103 2.24567 1.54951 1.42136
threshold=15.500000000000002 2.5000000000000004 1.0000000180025095e-35 2.5000000000000004 11.500000000000002 1.0000000180025095e-35 10.500000000000002 1.0000000180025095e-35 25.500000000000004
decision_type=2 2 2 2 2 2 2 2 2
left_child=1 4 6 -2 -1 -6 -3 -7 -4
right_child=3 2 8 -5 5 7 -8 -9 -10
leaf_value=-0.043686093230335017 0.028446979055090131 0.021006635110332541 -0.0027540117693404674 0.062631362389675482 -0.0065314586225263772 -0.024419191616606273 0.037746063828201337 -0.039482460617109874 -0.018145331312463712
leaf_weight=52 34 51 30 33 46 38 33 31 30
leaf_count=52 34 51 30 33 46 38 33 31 30
internal_value=2.3899e-09 -0.00975573 0.011736 0.0452841 -0.0282875 -0.0213246 0.0275828 -0.0311867 -0.0104497
internal_weight=0 311 144 67 167 115 84 69 60
internal_count=378 311 144 67 167 115 84 69 60
is_linear=0
shrinkage=1


Tree=1
num_leaves=11
num_cat=0
split_feature=0 4 3 4 3 1 0 4 4 1
split_gain=60.2843 44.7151 18.2762 7.06449 6.49957 6.30543 2.67635 2.02672 1.39843 1.28277
threshold=15.500000000000002 2.5000000000000004 1.0000000180025095e-35 2.5000000000000004 1.0000000180025095e-35 6.5000000000000009 11.500000000000002 10.500000000000002 1.0000000180025095e-35 25.500000000000004
decision_type=2 2 2 2 2 2 2 2 2 2
left_child=1 4 7 -2 5 -1 -6 -3 -8 -4
right_child=3 2 9 -5 6 -7 8 -9 -10 -11
leaf_value=-0.031605044235625573 0.027024627433103677 0.019956301342622908 -0.0026163136400282386 0.059499791716084341 -0.047515909175078079 -0.0010347101499162917 -0.023198234574987223 0.035858758806363876 -0.037508339795374102 -0.017238067338864009
leaf_weight=31 34 51 30 33 30 37 38 33 31 30
leaf_count=31 34 51 30 33 30 37 38 33 31 30
internal_value=0 -0.00926794 0.0111492 0.0430199 -0.0268731 -0.0149712 -0.0350482 0.0262037 -0.0296274 -0.00992719
internal_weight=0 311 144 67 167 68 99 84 69 60
internal_count=378 311 144 67 167 68 99 84 69 60
is_linear=0
shrinkage=0.05


Tree=2
num_leaves=10
num_cat=0
split_feature=0 4 3 1 0 3 4 4 1
split_gain=54.4066 40.3554 16.4942 6.43573 6.11382 5.65089 1.82911 1.26209 1.1577
threshold=15.500000000000002 2.5000000000000004 1.0000000180025095e-35 9.5000000000000018 11.500000000000002 1.0000000180025095e-35 10.500000000000002 1.0000000180025095e-35 25.500000000000004
decision_type=2 2 2 2 2 2 2 2 2
left_child=1 4 6 -2 -1 -6 -3 -7 -4
right_child=3 2 8 -5 5 7 -8 -9 -10
leaf_value=-0.039756516308093875 0.025139399143782534 0.018958485984773028 -0.0024854976621766886 0.056135700193836416 -0.0055218089574381067 -0.022038322321972566 0.034065820338825388 -0.035632923023114285 -0.016376164058844248
leaf_weight=52 33 51 30 34 46 38 33 31 30
leaf_count=52 33 51 30 34 46 38 33 31 30
internal_value=0 -0.00880455 0.0105917 0.0408689 -0.0255295 -0.0190963 0.0248935 -0.028146 -0.00943083
internal_weight=0 311 144 67 167 115 84 69 60
internal_count=378 311 144 67 167 115 84 69 60
is_linear=0
shrinkage=0.05


Tree=3
num_leaves=10
num_cat=0
split_feature=0 4 3 4 0 3 4 4 1
split_gain=49.1019 36.4208 14.8861 6.0639 5.51772 5.09993 1.65077 1.13903 1.04483
threshold=15.500000000000002 2.5000000000000004 1.0000000180025095e-35 2.5000000000000004 11.500000000000002 1.0000000180025095e-35 10.500000000000002 1.0000000180025095e-35 25.500000000000004
decision_type=2 2 2 2 2 2 2 2 2
left_child=1 4 6 -2 -1 -6 -3 -7 -4
right_child=3 2 8 -5 5 7 -8 -9 -10
leaf_value=-0.037768691455802098 0.024006181144539049 0.018010561591854282 -0.0023612230891982716 0.054093730585141622 -0.0052457180420827608 -0.020936405742050787 0.032362529245967213 -0.033851276353121768 -0.015557355781396229
leaf_weight=52 34 51 30 33 46 38 33 31 30
leaf_count=52 34 51 30 33 46 38 33 31 30
internal_value=0 -0.00836432 0.0100621 0.0388254 -0.024253 -0.0181415 0.0236488 -0.0267387 -0.00895929
internal_weight=0 311 144 67 167 115 84 69 60
internal_count=378 311 144 67 167 115 84 69 60
is_linear=0
shrinkage=0.05


Tree=4
num_leaves=10
num_cat=0
split_feature=0 4 4 3 0 1 3 1 1
split_gain=44.639 23.4759 19.4427 9.86741 6.48802 5.75532 7.84714 0.181882 0.0252312
threshold=13.500000000000002 2.5000000000000004 4.5000000000000009 1.0000000180025095e-35 15.500000000000002 6.5000000000000009 1.0000000180025095e-35 24.500000000000004 2.5000000000000004
decision_type=2 2 2 2 2 2 2 2 2
left_child=1 5 4 7 -2 8 -7 -3 -1
right_child=2 3 -4 -5 -6 6 -8 -9 -10
leaf_value=-0.037678696103394034 -0.0040332647713108198 0.020109322918061584 0.055534645512297344 -0.012008534084695082 0.024444839664631422 0.0035154831385420214 -0.028154405875061201 0.014884521055125423 -0.035644642347770351
leaf_weight=30 36 36 37 48 45 31 53 31 31
leaf_count=30 36 36 37 48 45 31 53 31 31
internal_value=0 -0.0115754 0.0255051 0.00529518 0.0117879 -0.0249555 -0.0164667 0.0176919 -0.036645
internal_weight=0 260 118 115 81 145 84 67 61
internal_count=378 260 118 115 81 145 84 67 61
is_linear=0
shrinkage=0.05


Tree=5
num_leaves=10
num_cat=0
split_feature=0 4 4 3 0 1 3 4 1
split_gain=40.2867 21.187 17.547 8.90534 5.85544 5.19418 7.08204 0.168672 0.0227712
threshold=13.500000000000002 2.5000000000000004 4.5000000000000009 1.0000000180025095e-35 15.500000000000002 6.5000000000000009 1.0000000180025095e-35 8.5000000000000018 2.5000000000000004
decision_type=2 2 2 2 2 2 2 2 2
left_child=1 5 4 7 -2 8 -7 -3 -1
right_child=2 3 -4 -5 -6 6 -8 -9 -10
leaf_value=-0.035794761527019242 -0.0038316012955167227 0.014479282519379114 0.052757914067321533 -0.011408107355237007 0.023222597663601241 0.0033397090410993945 -0.026746686026981138 0.019510768317887863 -0.033862410173300772
leaf_weight=30 36 36 37 48 45 31 53 31 31
leaf_count=30 36 36 37 48 45 31 53 31 31
internal_value=0 -0.0109966 0.0242298 0.00503042 0.0111985 -0.0237077 -0.0156434 0.0168073 -0.0348127
internal_weight=0 260 118 115 81 145 84 67 61
internal_count=378 260 118 115 81 145 84 67 61
is_linear=0
shrinkage=0.05


Tree=6
num_leaves=10
num_cat=0
split_feature=0 4 3 1 0 3 4 4 1
split_gain=36.5676 26.9109 11.0757 5.05384 4.66456 3.86572 1.29747 1.03127 1.0161
threshold=15.500000000000002 2.5000000000000004 1.0000000180025095e-35 9.5000000000000018 11.500000000000002 1.0000000180025095e-35 10.500000000000002 1.0000000180025095e-35 25.500000000000004
decision_type=2 2 2 2 2 2 2 2 2
left_child=1 4 6 -2 -1 -6 -3 -7 -4
right_child=3 2 8 -5 5 7 -8 -9 -10
leaf_value=-0.033302842109249185 0.019566625418762366 0.015341789378583723 -0.0012796865248431762 0.047034290354863249 -0.0040292914632869808 -0.017220718087015773 0.0280655827711929 -0.029509462055660064 -0.014293120975295705
leaf_weight=52 33 51 30 34 46 38 33 31 30
leaf_count=52 33 51 30 34 46 38 33 31 30
internal_value=0 -0.00721821 0.00862091 0.0335054 -0.0208759 -0.0152568 0.0203404 -0.0227417 -0.0077864
internal_weight=0 311 144 67 167 115 84 69 60
internal_count=378 311 144 67 167 115 84 69 60
is_linear=0
shrinkage=0.05


Tree=7
num_leaves=9
num_cat=0
split_feature=0 4 4 3 1 3 0 1
split_gain=33.3832 17.0507 15.1242 7.20757 4.6582 6.14711 4.5822 0.184095
threshold=13.500000000000002 2.5000000000000004 4.5000000000000009 1.0000000180025095e-35 5.5000000000000009 1.0000000180025095e-35 15.500000000000002 24.500000000000004
decision_type=2 2 2 2 2 2 2 2
left_child=1 4 6 7 -1 -6 -2 -3
right_child=2 3 -4 -5 5 -7 -8 -9
leaf_value=-0.032711035675103112 -0.0033378892707534961 0.017394557471076648 0.048541779758257644 -0.010421270531757426 0.0032332820934243504 -0.024150153288715767 0.020594822011060186 0.01213805717566321
leaf_weight=56 36 36 37 48 32 57 45 31
leaf_count=56 36 36 37 48 32 57 45 31
internal_value=0 -0.0100102 0.0220563 0.0043675 -0.0214132 -0.0143044 0.00995806 0.0149624
internal_weight=0 260 118 115 145 89 81 67
internal_count=378 260 118 115 145 89 81 67
is_linear=0
shrinkage=0.05


Tree=8
num_leaves=10
num_cat=0
split_feature=0 4 4 3 1 3 0 1 1
split_gain=30.1283 15.3882 13.6496 6.50483 4.21846 5.5202 4.13543 0.166146 0.0151027
threshold=13.500000000000002 2.5000000000000004 4.5000000000000009 1.0000000180025095e-35 6.5000000000000009 1.0000000180025095e-35 15.500000000000002 24.500000000000004 2.5000000000000004
decision_type=2 2 2 2 2 2 2 2 2
left_child=1 4 6 7 8 -6 -2 -3 -1
right_child=2 3 -4 -5 5 -7 -8 -9 -10
leaf_value=-0.031150048871835076 -0.0031709949822268553 0.016524829756882457 0.046114690609376979 -0.0099002068629488356 0.003684677940703208 -0.022877788490106195 0.019565081178314157 0.011531154698722306 -0.029576351343383711
leaf_weight=30 36 36 37 48 31 53 45 31 31
leaf_count=30 36 36 37 48 31 53 45 31 31
internal_value=0 -0.00950968 0.0209535 0.00414913 -0.0203425 -0.013075 0.00946016 0.0142143 -0.0303503
internal_weight=0 260 118 115 145 84 81 67 61
internal_count=378 260 118 115 145 84 81 67 61
is_linear=0
shrinkage=0.05


Tree=9
num_leaves=9
num_cat=0
split_feature=3 0 4 0 0 1 4 0
split_gain=27.4452 21.4402 17.1458 6.74804 4.55977 3.71589 3.10641 1.32329
threshold=1.0000000180025095e-35 11.500000000000002 3.5000000000000004 13.500000000000002 15.500000000000002 21.500000000000004 2.5000000000000004 11.500000000000002
decision_type=2 2 2 2 2 2 2 2
left_child=1 -1 4 6 -3 -4 7 -2
right_child=3 2 5 -5 -6 -7 -8 -9
leaf_value=-0.015825928525067867 -0.033736567460000519 -0.0012194234168938628 0.028481600607835479 0.0039161016830267055 0.022937184910600386 0.052253222816756796 -0.009405196322283399 -0.020839072696043778
leaf_weight=50 30 56 31 39 30 35 48 59
leaf_count=50 30 56 31 39 30 35 48 59
internal_value=0 0.0125759 0.0219186 -0.0144337 0.0072073 0.0410878 -0.0196573 -0.0251865
internal_weight=0 202 152 176 86 66 137 89
internal_count=378 202 152 176 86 66 137 89
is_linear=0
shrinkage=0.05


Tree=10
num_leaves=10
num_cat=0
split_feature=0 4 3 1 0 3 4 1 4
split_gain=25.105 18.1463 7.45469 3.97817 3.61383 2.65273 1.03546 0.965866 0.928172
threshold=15.500000000000002 2.5000000000000004 1.0000000180025095e-35 9.5000000000000018 11.500000000000002 1.0000000180025095e-35 10.500000000000002 25.500000000000004 1.0000000180025095e-35
decision_type=2 2 2 2 2 2 2 2 2
left_child=1 4 6 -2 -1 -6 -3 -4 -7
right_child=3 2 7 -5 5 8 -8 -9 -10
leaf_value=-0.028134160252431262 0.015394973272288387 0.012174995157379184 -9.1154097268978762e-05 0.039764806139967683 -0.0029494561199301288 -0.013212735077219182 0.023541695178683961 -0.012778851278126242 -0.024871059292702065
leaf_weight=52 33 51 30 34 46 38 33 30 31
leaf_count=52 33 51 30 34 46 38 33 30 31
internal_value=0 -0.00598083 0.0070257 0.0277618 -0.017196 -0.0122501 0.0166405 -0.006435 -0.0184505
internal_weight=0 311 144 67 167 115 84 60 69
internal_count=378 311 144 67 167 115 84 60 69
is_linear=0
shrinkage=0.05


Tree=11
num_leaves=9
num_cat=0
split_feature=0 4 4 0 3 1 3 1
split_gain=22.6718 11.2254 11.0521 4.84549 9.24646 3.79988 4.44475 3.05464
threshold=13.500000000000002 2.5000000000000004 4.5000000000000009 11.500000000000002 1.0000000180025095e-35 5.5000000000000009 1.0000000180025095e-35 8.5000000000000018
decision_type=2 2 2 2 2 2 2 2
left_child=1 5 7 -3 -5 -1 -7 -2
right_child=2 3 -4 4 -6 6 -8 -9
leaf_value=-0.027705702924036554 -0.0012933291581481003 -0.011485156267126269 0.040817490996591543 0.027700457323151524 -0.006729808368552955 0.0038317093392834069 -0.019453285854277122 0.018163249533819526
leaf_weight=56 43 37 37 39 39 32 57 38
leaf_count=56 43 37 37 39 39 32 57 38
internal_value=0 -0.00824937 0.0181766 0.00341656 0.0104853 -0.0175017 -0.0110812 0.00783445
internal_weight=0 260 118 115 78 145 89 81
internal_count=378 260 118 115 78 145 89 81
is_linear=0
shrinkage=0.05


Tree=12
num_leaves=10
num_cat=0
split_feature=0 4 3 1 1 3 4 1 3
split_gain=21.1089 14.8224 6.17671 3.22794 3.22539 2.71947 0.955386 0.877112 0.286835
threshold=15.500000000000002 2.5000000000000004 1.0000000180025095e-35 9.5000000000000018 6.5000000000000009 1.0000000180025095e-35 10.500000000000002 25.500000000000004 1.0000000180025095e-35
decision_type=2 2 2 2 2 2 2 2 2
left_child=1 4 6 -2 8 -6 -3 -4 -1
right_child=3 2 7 -5 5 -7 -8 -9 -10
leaf_value=-0.019857289822351548 0.014316755380820147 0.010733450953757355 6.3548448185125997e-05 0.036268732474897716 0.001058814035275498 -0.016348744822633373 0.021651802770793441 -0.012027163772533338 -0.026198060806131081
leaf_weight=31 33 51 30 34 37 57 33 30 42
leaf_count=31 33 51 30 34 37 57 33 30 42
internal_value=0 -0.00548421 0.00627088 0.0254566 -0.0156203 -0.00949683 0.0150228 -0.00598181 -0.0235054
internal_weight=0 311 144 67 167 94 84 60 73
internal_count=378 311 144 67 167 94 84 60 73
is_linear=0
shrinkage=0.05


Tree=13
num_leaves=9
num_cat=0
split_feature=0 4 0 3 0 4 3 4
split_gain=19.0508 13.3772 6.00768 9.85026 3.1107 2.96108 1.98371 0.83935
threshold=15.500000000000002 2.5000000000000004 11.500000000000002 1.0000000180025095e-35 11.500000000000002 2.5000000000000004 1.0000000180025095e-35 1.0000000180025095e-35
decision_type=2 2 2 2 2 2 2 2
left_child=1 4 -3 -4 -1 -2 -6 -8
right_child=5 2 3 -5 6 -7 7 -9
leaf_value=-0.024987504233453927 0.013828139459056891 -0.011409993906429895 0.026440345013647212 -0.0039339777356123219 -0.0022078034409787508 0.034853139435025778 -0.010631552297088906 -0.021718028860707436
leaf_weight=52 34 37 56 51 46 33 38 31
leaf_count=52 34 37 56 51 46 33 38 31
internal_value=0 -0.00521 0.00595734 0.0119629 -0.0148393 0.0241837 -0.0102506 -0.0156124
internal_weight=0 311 144 107 167 67 115 69
internal_count=378 311 144 107 167 67 115 69
is_linear=0
shrinkage=0.05


Tree=14
num_leaves=10
num_cat=0
split_feature=3 0 4 0 1 2 1 1 4
split_gain=17.4962 14.9657 11.8585 3.91669 3.24502 2.90031 2.012 1.33332 0.541778
threshold=1.0000000180025095e-35 11.500000000000002 3.5000000000000004 13.500000000000002 21.500000000000004 1.0000000180025095e-35 5.5000000000000009 13.500000000000002 2.5000000000000004
decision_type=2 2 2 2 2 2 2 2 2
left_child=1 -1 5 6 -4 -3 -2 -8 -9
right_child=3 2 4 -5 -6 -7 7 8 -10
leaf_value=-0.013688005600124599 -0.026050343268605714 -0.0057433910493273291 0.0220081000213301 0.00245548746524713 0.044222552116428109 0.013036819621741486 -0.0031486448397239049 -0.019918316902240385 -0.011302630789577961
leaf_weight=50 34 34 31 39 35 52 30 37 36
leaf_count=50 34 34 31 39 35 52 30 37 36
internal_value=0 0.010041 0.0178466 -0.0115243 0.0337885 0.00561209 -0.015504 -0.0120226 -0.0156695
internal_weight=0 202 152 176 66 86 137 103 73
internal_count=378 202 152 176 66 86 137 103 73
is_linear=0
shrinkage=0.05


Tree=15
num_leaves=9
num_cat=0
split_feature=0 4 0 3 1 1 1 3
split_gain=16.1948 11.1441 4.83738 7.80997 2.77189 2.55092 2.14803 0.171157
threshold=15.500000000000002 2.5000000000000004 11.500000000000002 1.0000000180025095e-35 6.5000000000000009 9.5000000000000018 16.500000000000004 1.0000000180025095e-35
decision_type=2 2 2 2 2 2 2 2
left_child=1 4 -3 -4 7 -2 -6 -1
right_child=5 2 3 -5 6 -7 -8 -9
leaf_value=-0.018084236691074989 0.012394492291478498 -0.010195123781827657 0.023669237344126619 -0.0033770374241558947 -0.00035750663819465235 0.031909087470986003 -0.015474167189739169 -0.022982285941197052
leaf_weight=31 33 37 56 51 47 34 47 42
leaf_count=31 33 37 56 51 47 34 47 42
internal_value=0 -0.00480362 0.00538909 0.010778 -0.0135926 0.0222974 -0.00791584 -0.0209023
internal_weight=0 311 144 107 167 67 94 73
internal_count=378 311 144 107 167 67 94 73
is_linear=0
shrinkage=0.05


Tree=16
num_leaves=10
num_cat=0
split_feature=4 0 3 0 1 1 1 3 4
split_gain=14.8635 11.5537 6.34268 7.89224 4.81894 3.07599 2.74454 2.33847 0.401629
threshold=1.5000000000000002 14.500000000000002 1.0000000180025095e-35 11.500000000000002 20.500000000000004 3.5000000000000004 16.500000000000004 1.0000000180025095e-35 5.5000000000000009
decision_type=2 2 2 2 2 2 2 2 2
left_child=5 2 3 -2 -5 -1 7 -7 -4
right_child=1 -3 8 4 -6 6 -8 -9 -10
leaf_value=-0.02237166852388095 -0.0098835392622277154 0.028279322417960929 -0.0063172287447378047 0.007194289928884246 0.035087981025377905 0.007804922916527306 -0.018274638026550011 -0.0098921885262825537 -0.013970391886929671
leaf_weight=47 32 55 40 32 30 35 37 40 30
leaf_count=47 32 55 40 32 30 35 37 40 30
internal_value=0 0.00844815 0.00179745 0.0102828 0.0206912 -0.0116361 -0.00713104 -0.00163354 -0.00959716
internal_weight=0 219 164 94 62 159 112 75 70
internal_count=378 219 164 94 62 159 112 75 70
is_linear=0
shrinkage=0.05


Tree=17
num_leaves=10
num_cat=0
split_feature=3 2 0 4 1 1 0 4 4
split_gain=13.4578 12.1786 6.984 4.52655 3.16504 2.47417 2.31609 1.23251 0.978334
threshold=1.0000000180025095e-35 1.0000000180025095e-35 15.500000000000002 10.500000000000002 3.5000000000000004 5.5000000000000009 12.500000000000002 2.5000000000000004 2.5000000000000004
decision_type=2 2 2 2 2 2 2 2 2
left_child=1 5 3 8 -2 -1 7 -6 -3
right_child=4 2 -4 -5 6 -7 -8 -9 -10
leaf_value=-0.019052434571494817 -0.02380996795699877 -0.0023143095105434912 0.03683949877124499 0.02711854553471009 -0.015650581568479538 0.00060944927099626511 0.003196141315147099 -0.0044799360511607903 0.0092516225660446948
leaf_weight=32 34 33 34 30 58 32 41 43 41
leaf_count=32 34 33 34 30 58 32 41 43 41
internal_value=0 0.00880628 0.017167 0.0107356 -0.0101072 -0.00922149 -0.00682626 -0.0108948 0.00409384
internal_weight=0 202 138 104 176 64 142 101 74
internal_count=378 202 138 104 176 64 142 101 74
is_linear=0
shrinkage=0.05


Tree=18
num_leaves=9
num_cat=0
split_feature=0 1 0 3 4 4 1 1
split_gain=12.4304 8.38875 7.3599 7.0736 2.91006 1.89208 1.02357 0.642518
threshold=15.500000000000002 6.5000000000000009 10.500000000000002 1.0000000180025095e-35 3.5000000000000004 2.5000000000000004 15.500000000000002 3.5000000000000004
decision_type=2 2 2 2 2 2 2 2
left_child=1 7 -3 4 -4 -2 -5 -1
right_child=5 2 3 6 -6 -7 -8 -9
leaf_value=-0.020985617990104052 0.011256935347474236 -0.015223808231315129 0.0053857394106065241 0.0032928093646963441 0.024108975623349415 0.028063551850165382 -0.0081523784646248855 -0.012146256555912689
leaf_weight=52 34 54 36 30 49 33 56 34
leaf_count=52 34 54 36 30 49 33 56 34
internal_value=0 -0.00420847 0.000868408 0.00595016 0.0161791 0.0195348 -0.00415987 -0.017491
internal_weight=0 311 225 171 85 67 86 86
internal_count=378 311 225 171 85 67 86 86
is_linear=0
shrinkage=0.05


Tree=19
num_leaves=10
num_cat=0
split_feature=4 0 3 0 1 0 3 4 1
split_gain=11.4922 9.22968 4.77342 6.57486 4.06022 2.36431 1.30753 0.371051 0.0603141
threshold=1.5000000000000002 14.500000000000002 1.0000000180025095e-35 11.500000000000002 20.500000000000004 11.500000000000002 1.0000000180025095e-35 5.5000000000000009 9.5000000000000018
decision_type=2 2 2 2 2 2 2 2 2
left_child=5 2 3 -2 -5 -1 -7 -4 -8
right_child=1 -3 7 4 -6 6 8 -9 -10
leaf_value=-0.019936178123785391 -0.0095610376272816221 0.025153355493675918 -0.0052481934148818259 0.0059565646894043315 0.031560408305376771 -0.00055400056477922655 -0.012915674522519112 -0.012604253655299545 -0.0097950643452350064
leaf_weight=45 32 55 40 32 30 52 30 30 32
leaf_count=45 32 55 40 32 30 52 30 30 32
internal_value=0 0.00742853 0.00148423 0.00884542 0.0183455 -0.0102318 -0.00640106 -0.00840079 -0.011305
internal_weight=0 219 164 94 62 159 114 70 62
internal_count=378 219 164 94 62 159 114 70 62
is_linear=0
shrinkage=0.05


Tree=20
num_leaves=10
num_cat=0
split_feature=4 0 3 0 1 1 1 3 4
split_gain=10.3717 8.32979 4.30801 5.93381 3.66435 2.2355 2.26385 1.76987 0.334874
threshold=1.5000000000000002 14.500000000000002 1.0000000180025095e-35 11.500000000000002 20.500000000000004 3.5000000000000004 16.500000000000004 1.0000000180025095e-35 5.5000000000000009
decision_type=2 2 2 2 2 2 2 2 2
left_child=5 2 3 -2 -5 -1 7 -7 -4
right_child=1 -3 8 4 -6 6 -8 -9 -10
leaf_value=-0.018872215115326517 -0.0090829855878837417 0.023895687444812873 -0.0049857837799936536 0.0056587366532767193 0.029982387675263455 0.007324553187271314 -0.016000370721559267 -0.0080714363371953372 -0.011974041064580283
leaf_weight=47 32 55 40 32 30 35 37 40 30
leaf_count=47 32 55 40 32 30 35 37 40 30
internal_value=0 0.0070571 0.00141002 0.00840315 0.0174282 -0.00972016 -0.00587957 -0.000886641 -0.00798075
internal_weight=0 219 164 94 62 159 112 75 70
internal_count=378 219 164 94 62 159 112 75 70
is_linear=0
shrinkage=0.05


Tree=21
num_leaves=9
num_cat=0
split_feature=0 1 0 3 4 1 1 1
split_gain=9.44012 6.9306 5.77015 5.11397 2.27661 1.5144 0.887516 0.488582
threshold=15.500000000000002 6.5000000000000009 10.500000000000002 1.0000000180025095e-35 3.5000000000000004 9.5000000000000018 15.500000000000002 3.5000000000000004
decision_type=2 2 2 2 2 2 2 2
left_child=1 7 -3 4 -4 -2 -5 -1
right_child=5 2 3 6 -6 -7 -8 -9
leaf_value=-0.018787942099599886 0.009393571721474557 -0.013301548741205975 0.0045974213992142016 0.0037900923502941931 0.021157966943799844 0.024429541294846466 -0.0068673402079314529 -0.01107984981225694
leaf_weight=52 33 54 36 30 49 34 56 34
leaf_count=52 33 54 36 30 49 34 56 34
internal_value=0 -0.0036675 0.000947092 0.00544666 0.0141441 0.0170238 -0.00314963 -0.0157406
internal_weight=0 311 225 171 85 67 86 86
internal_count=378 311 225 171 85 67 86 86
is_linear=0
shrinkage=0.05


Tree=22
num_leaves=9
num_cat=0
split_feature=4 0 0 1 3 0 3 1
split_gain=8.75804 7.00458 3.58271 5.21144 3.96192 1.87968 1.01717 0.0423421
threshold=1.5000000000000002 14.500000000000002 10.500000000000002 8.5000000000000018 1.0000000180025095e-35 11.500000000000002 1.0000000180025095e-35 9.5000000000000018
decision_type=2 2 2 2 2 2 2 2
left_child=5 2 -2 -4 -5 -1 -7 -8
right_child=1 -3 3 4 -6 6 7 -9
leaf_value=-0.017584893107414245 -0.013144126600202392 0.021926063736054033 -0.013191629772384961 0.019571288339793685 -0.00043355016813923918 -0.00035931337714338531 -0.011191295565416417 -0.0085766276111826304
leaf_weight=45 34 55 30 55 45 52 30 32
leaf_count=45 34 55 30 55 45 52 30 32
internal_value=0 0.00648491 0.00130648 0.00508586 0.0105691 -0.00893205 -0.00551645 -0.00984179
internal_weight=0 219 164 130 100 159 114 62
internal_count=378 219 164 130 100 159 114 62
is_linear=0
shrinkage=0.05


Tree=23
num_leaves=10
num_cat=0
split_feature=3 2 4 0 1 1 1 4 1
split_gain=8.11288 8.87874 4.91277 2.60482 2.24714 1.93798 1.51264 0.605837 0.163289
threshold=1.0000000180025095e-35 1.0000000180025095e-35 12.500000000000002 14.500000000000002 3.5000000000000004 14.500000000000002 5.5000000000000009 2.5000000000000004 34.500000000000007
decision_type=2 2 2 2 2 2 2 2 2
left_child=1 6 3 7 -2 -6 -1 -3 -7
right_child=4 2 -4 -5 5 8 -8 -9 -10
leaf_value=-0.01624227518332191 -0.019393550111528705 -0.0016596307481328645 0.031146199209615588 0.021268054490598542 0.001648035323338919 -0.012013369125391667 -0.00086861029049032376 0.0074734022575126879 -0.0074444542967037055
leaf_weight=32 34 30 32 30 61 48 32 46 33
leaf_count=32 34 30 32 30 61 48 32 46 33
internal_value=0 0.00683742 0.0139761 0.00879273 -0.0078475 -0.00508295 -0.00855544 0.00386826 -0.010152
internal_weight=0 202 138 106 176 142 64 76 81
internal_count=378 202 138 106 176 142 64 76 81
is_linear=0
shrinkage=0.05


Tree=24
num_leaves=10
num_cat=0
split_feature=0 3 4 1 2 2 1 1 1
split_gain=7.62569 7.92042 5.52105 1.92694 1.58697 1.39518 1.28446 3.5105 0.120329
threshold=11.500000000000002 1.0000000180025095e-35 3.5000000000000004 21.500000000000004 1.0000000180025095e-35 1.0000000180025095e-35 6.5000000000000009 14.500000000000002 28.500000000000004
decision_type=2 2 2 2 2 2 2 2 2
left_child=4 2 5 -4 -1 -2 -3 -8 -9
right_child=1 6 3 -5 -6 -7 7 8 -10
leaf_value=-0.019399326692024869 -0.0044244369259104138 -0.011935897000393896 0.013599209508468067 0.030717513716247466 -0.0060451749146026986 0.0086010434933436603 0.011946357693523169 -0.0063122959458269184 -0.010720030021232865
leaf_weight=45 34 43 31 35 44 52 32 32 30
leaf_count=45 34 43 31 35 44 52 32 32 30
internal_value=0 0.00394103 0.0117994 0.0226771 -0.0127973 0.00345143 -0.00477777 -0.00150331 -0.00844507
internal_weight=0 289 152 66 89 86 137 94 62
internal_count=378 289 152 66 89 86 137 94 62
is_linear=0
shrinkage=0.05


Tree=25
num_leaves=10
num_cat=0
split_feature=0 1 0 3 4 1 1 2 1
split_gain=7.00226 5.04792 4.05169 3.47763 1.68995 1.03007 0.733117 0.574506 0.00841268
threshold=15.500000000000002 7.5000000000000009 10.500000000000002 1.0000000180025095e-35 3.5000000000000004 9.5000000000000018 25.500000000000004 1.0000000180025095e-35 2.5000000000000004
decision_type=2 2 2 2 2 2 2 2 2
left_child=1 7 -3 4 -4 -2 -5 8 -1
right_child=5 2 3 6 -6 -7 -8 -9 -10
leaf_value=-0.014974984504720746 0.0083688842887623301 -0.01129221787091856 0.0039547975946749962 0.001833096204791218 0.018534095203073735 0.020769542384454432 -0.0075326987707789207 -0.0071279317419975993 -0.01612373882904649
leaf_weight=34 33 51 35 48 46 34 37 30 30
leaf_count=34 33 51 35 48 46 34 37 30 30
internal_value=0 -0.00315864 0.00103393 0.00482087 0.0122344 0.0146618 -0.00224378 -0.0128372 -0.0155135
internal_weight=0 311 217 166 81 67 85 94 64
internal_count=378 311 217 166 81 67 85 94 64
is_linear=0
shrinkage=0.05


Tree=26
num_leaves=9
num_cat=0
split_feature=4 0 0 1 3 1 1 3
split_gain=6.45991 5.49518 2.78077 4.0596 2.51543 1.32004 1.74796 1.35026
threshold=1.5000000000000002 14.500000000000002 10.500000000000002 8.5000000000000018 1.0000000180025095e-35 3.5000000000000004 16.500000000000004 1.0000000180025095e-35
decision_type=2 2 2 2 2 2 2 2
left_child=5 2 -2 -4 -5 -1 7 -7
right_child=1 -3 3 4 -6 6 -8 -9
leaf_value=-0.014703918123578139 -0.011748217264025966 0.019246112730523401 -0.011819230013837417 0.016324947373094884 0.00038493873189306924 0.0068394454848021277 -0.013613083198465208 -0.006608165774960071
leaf_weight=47 34 55 30 55 45 35 37 40
leaf_count=47 34 55 30 55 45 35 37 40
internal_value=0 0.00556947 0.000982793 0.00431244 0.00915194 -0.00767116 -0.00471991 -0.000332614
internal_weight=0 219 164 130 100 159 112 75
internal_count=378 219 164 130 100 159 112 75
is_linear=0
shrinkage=0.05


Tree=27
num_leaves=9
num_cat=0
split_feature=0 4 1 1 0 2 2 3
split_gain=5.89482 6.11284 3.11638 3.49274 3.35149 0.967178 0.933945 0.822807
threshold=10.500000000000002 10.500000000000002 6.5000000000000009 16.500000000000004 12.500000000000002 1.0000000180025095e-35 1.0000000180025095e-35 1.0000000180025095e-35
decision_type=2 2 2 2 2 2 2 2
left_child=5 2 6 4 -4 -1 -2 -5
right_child=1 -3 3 7 -6 -7 -8 -9
leaf_value=-0.019145055143299568 -0.011150186789079995 0.020005633090105321 0.0016593286524648251 0.0016777056674029502 0.021194918218645314 -0.007385755961553918 -0.00054177748015717955 -0.0082194246806293024
leaf_weight=34 59 45 46 42 42 36 32 42
leaf_count=34 59 45 46 42 42 36 32 42
internal_value=0 0.00297669 6.2987e-05 0.00402188 0.0109831 -0.0130974 -0.00741976 -0.00327086
internal_weight=0 308 263 172 88 70 91 84
internal_count=378 308 263 172 88 70 91 84
is_linear=0
shrinkage=0.05


Tree=28
num_leaves=10
num_cat=0
split_feature=3 2 4 1 1 1 1 4 1
split_gain=5.46796 6.34782 3.87785 2.33848 1.52275 1.50818 0.95647 0.186498 0.0696595
threshold=1.0000000180025095e-35 1.0000000180025095e-35 12.500000000000002 16.500000000000004 3.5000000000000004 14.500000000000002 5.5000000000000009 5.5000000000000009 9.5000000000000018
decision_type=2 2 2 2 2 2 2 2 2
left_child=1 6 3 8 -2 -6 -1 -7 -3
right_child=4 2 -4 -5 5 7 -8 -9 -10
leaf_value=-0.01351451833088504 -0.015947101210408352 0.011843141512945295 0.026904111390467736 -0.0014374560959961105 0.0017710740248134483 -0.0067493827393045646 -0.0012896107313281392 -0.011685479369254844 0.015250473770623406
leaf_weight=32 34 30 32 46 61 50 32 31 30
leaf_count=32 34 30 32 46 61 50 32 31 30
internal_value=0 0.00561329 0.0116494 0.0070442 -0.00644253 -0.00416679 -0.00740206 -0.00863851 0.0135468
internal_weight=0 202 138 106 176 142 64 81 60
internal_count=378 202 138 106 176 142 64 81 60
is_linear=0
shrinkage=0.05


Tree=29
num_leaves=9
num_cat=0
split_feature=0 4 1 1 0 2 2 3
split_gain=5.26359 5.11893 2.65583 2.92612 2.99907 0.774092 0.697953 0.692044
threshold=10.500000000000002 10.500000000000002 6.5000000000000009 16.500000000000004 12.500000000000002 1.0000000180025095e-35 1.0000000180025095e-35 1.0000000180025095e-35
decision_type=2 2 2 2 2 2 2 2
left_child=5 2 6 4 -4 -1 -2 -5
right_child=1 -3 3 7 -6 -7 -8 -9
leaf_value=-0.017786719155607419 -0.0099861219138601583 0.018395973870323764 0.0013527966428386129 0.0016644615042466849 0.019832749154219138 -0.0072665047831833368 -0.00081541255276533779 -0.007412221453463038
leaf_weight=34 59 45 46 42 42 36 32 42
leaf_count=34 59 45 46 42 42 36 32 42
internal_value=0 0.0028128 0.000146478 0.00380115 0.0101728 -0.0123763 -0.00676126 -0.00287388
internal_weight=0 308 263 172 88 70 91 84
internal_count=378 308 263 172 88 70 91 84
is_linear=0
shrinkage=0.05


Tree=30
num_leaves=11
num_cat=0
split_feature=0 1 1 3 4 1 4 2 1 1
split_gain=4.92865 3.33395 2.72561 2.30157 0.75928 0.636342 0.52298 0.276006 0.106086 0.0170871
threshold=15.500000000000002 7.5000000000000009 40.500000000000007 1.0000000180025095e-35 2.5000000000000004 9.5000000000000018 9.5000000000000018 1.0000000180025095e-35 16.500000000000004 2.5000000000000004
decision_type=2 2 2 2 2 2 2 2 2 2
left_child=1 7 3 6 -5 -2 8 9 -3 -1
right_child=5 2 -4 4 -6 -7 -8 -9 -10 -11
leaf_value=-0.011603200085022872 0.0073546592400155278 0.0081654171024759612 -0.012716315040597692 -0.0068769093075463058 0.0024071520479628816 0.017101330462815791 0.013931370913827172 -0.0065584015023584172 0.0041395547489325203 -0.013240373228521396
leaf_weight=34 33 30 32 49 40 34 30 30 36 30
leaf_count=34 33 30 32 49 40 34 30 30 36 30
internal_value=0 -0.00265 0.000757249 0.00308781 -0.0027043 0.0123007 0.00845758 -0.0105157 0.00596949 -0.0123706
internal_weight=0 311 217 185 89 67 96 94 66 64
internal_count=378 311 217 185 89 67 96 94 66 64
is_linear=0
shrinkage=0.05


Tree=31
num_leaves=9
num_cat=0
split_feature=0 4 3 0 1 1 2 3
split_gain=4.58505 4.47176 3.23469 1.85102 1.78858 0.82389 0.638314 0.441331
threshold=10.500000000000002 3.5000000000000004 1.0000000180025095e-35 15.500000000000002 21.500000000000004 6.5000000000000009 1.0000000180025095e-35 1.0000000180025095e-35
decision_type=2 2 2 2 2 2 2 2
left_child=6 3 4 5 -3 -2 -1 -7
right_child=1 2 -4 -5 -6 7 -8 -9
leaf_value=-0.01646411813220338 -0.0093594500497288877 0.0085175254519152307 0.00029433269682340325 0.0069817858548568831 0.024303064952408405 0.002460353205808335 -0.0069109901527149818 -0.0048964806317173424
leaf_weight=34 61 34 50 42 38 36 36 47
leaf_count=34 61 34 50 42 38 36 36 47
internal_value=0 0.00262525 0.0100642 -0.00225405 0.0168488 -0.00494784 -0.0115511 -0.00170556
internal_weight=0 308 122 186 72 144 70 83
internal_count=378 308 122 186 72 144 70 83
is_linear=0
shrinkage=0.05


Tree=32
num_leaves=9
num_cat=0
split_feature=0 3 2 4 1 1 1 1
split_gain=4.1384 4.38322 3.28721 2.13004 0.756269 0.680037 2.56734 0.0804218
threshold=11.500000000000002 1.0000000180025095e-35 1.0000000180025095e-35 3.5000000000000004 8.5000000000000018 6.5000000000000009 14.500000000000002 28.500000000000004
decision_type=2 2 2 2 2 2 2 2
left_child=4 2 -2 -4 -1 -3 -7 -8
right_child=1 5 3 -5 -6 6 7 -9
leaf_value=-0.015891113936280211 -0.002770645266123624 -0.0087911866475329833 0.0061555842864506232 0.020208947949244507 -0.0061408467906511437 0.010301665650331415 -0.0053930457594105977 -0.008996483571633386
leaf_weight=30 44 43 52 56 59 32 32 30
leaf_count=30 44 43 52 56 59 32 32 30
internal_value=0 0.00290326 0.00874923 0.0134425 -0.00942745 -0.00358277 -0.0012002 -0.00713664
internal_weight=0 289 152 108 89 137 94 62
internal_count=378 289 152 108 89 137 94 62
is_linear=0
shrinkage=0.05


Tree=33
num_leaves=10
num_cat=0
split_feature=0 1 1 3 4 1 4 4 1
split_gain=3.91958 2.5272 2.32005 1.72285 0.650875 0.49567 0.400434 0.228214 0.124122
threshold=15.500000000000002 7.5000000000000009 40.500000000000007 1.0000000180025095e-35 2.5000000000000004 9.5000000000000018 9.5000000000000018 1.0000000180025095e-35 16.500000000000004
decision_type=2 2 2 2 2 2 2 2 2
left_child=1 7 3 6 -5 -2 8 -1 -3
right_child=5 2 -4 4 -6 -7 -8 -9 -10
leaf_value=-0.0069002814758569011 0.0066042184356995166 0.0075974681663016482 -0.011827519425423816 -0.0061210638976522853 0.0024747249309439215 0.015206369839827805 0.012189085901093979 -0.011837632312778045 0.0032428126523478167
leaf_weight=50 33 30 32 49 40 34 30 44 36
leaf_count=50 33 30 32 49 40 34 30 44 36
internal_value=0 -0.0023632 0.000603291 0.00275349 -0.00225779 0.0109695 0.00739935 -0.00921138 0.0052222
internal_weight=0 311 217 185 89 67 96 94 66
internal_count=378 311 217 185 89 67 96 94 66
is_linear=0
shrinkage=0.05


Tree=34
num_leaves=10
num_cat=0
split_feature=0 4 4 0 1 4 2 2 1
split_gain=3.69613 3.68589 1.7051 2.27734 1.60458 0.727342 0.510759 0.361153 0.211827
threshold=10.500000000000002 10.500000000000002 1.5000000000000002 14.500000000000002 8.5000000000000018 1.0000000180025095e-35 1.0000000180025095e-35 1.0000000180025095e-35 22.500000000000004
decision_type=2 2 2 2 2 2 2 2 2
left_child=6 2 5 4 -4 7 -1 -2 -6
right_child=1 -3 3 -5 8 -7 -8 -9 -10
leaf_value=-0.014765905501896187 -0.0049119776024864146 0.01558029017204212 -0.0099881522854169211 0.013446067189960199 0.0066136381849979178 -0.010177783735303416 -0.0062204247081859253 0.0015314145057007324 0.00098518101731315255
leaf_weight=34 44 45 30 43 35 36 36 43 32
leaf_count=34 44 45 30 43 35 36 36 43 32
internal_value=0 0.00235707 9.45363e-05 0.00386814 -0.000377747 -0.00420062 -0.0103711 -0.00172731 0.00392542
internal_weight=0 308 263 140 97 123 70 87 67
internal_count=378 308 263 140 97 123 70 87 67
is_linear=0
shrinkage=0.05


Tree=35
num_leaves=9
num_cat=0
split_feature=0 4 1 1 0 2 2 4
split_gain=3.33576 3.32651 1.55026 2.48239 2.28194 0.504789 0.46096 0.338771
threshold=10.500000000000002 10.500000000000002 6.5000000000000009 16.500000000000004 12.500000000000002 1.0000000180025095e-35 1.0000000180025095e-35 3.5000000000000004
decision_type=2 2 2 2 2 2 2 2
left_child=6 2 5 4 -4 -2 -1 -5
right_child=1 -3 3 7 -6 -7 -8 -9
leaf_value=-0.014027610290384688 -0.0079303527487662902 0.014801275649159736 0.0010571524981692758 -0.0062936027026311916 0.017176962519685427 -0.00013125017212587409 -0.0059094035428845226 6.4194016158580783e-05
leaf_weight=34 59 45 46 44 42 32 36 40
leaf_count=34 59 45 46 44 42 32 36 40
internal_value=0 0.00223921 8.98094e-05 0.00288204 0.0087507 -0.00518781 -0.00985253 -0.00326608
internal_weight=0 308 263 172 88 91 70 84
internal_count=378 308 263 172 88 91 70 84
is_linear=0
shrinkage=0.05


Tree=36
num_leaves=10
num_cat=0
split_feature=3 2 0 4 1 1 1 4 4
split_gain=3.16025 3.89486 2.76072 1.65632 0.835932 1.22964 0.480146 0.365617 0.234318
threshold=1.0000000180025095e-35 1.0000000180025095e-35 15.500000000000002 10.500000000000002 3.5000000000000004 14.500000000000002 5.5000000000000009 5.5000000000000009 2.5000000000000004
decision_type=2 2 2 2 2 2 2 2 2
left_child=1 6 3 8 -2 -6 -1 -7 -3
right_child=4 2 -4 -5 5 7 -8 -9 -10
leaf_value=-0.010258421916660154 -0.011939962898545407 -0.0022017421017429145 0.021364117353497185 0.014862151431540649 0.0021498875509275766 -0.0046043621152639389 -0.0015968480322044343 -0.011515662338464492 0.0034585566521145223
leaf_weight=32 34 33 34 30 61 50 32 31 41
leaf_count=32 34 33 34 30 61 50 32 31 41
internal_value=0 0.00426742 0.00899556 0.004952 -0.00489784 -0.00321169 -0.00592763 -0.00724943 0.000934369
internal_weight=0 202 138 104 176 142 64 81 74
internal_count=378 202 138 104 176 142 64 81 74
is_linear=0
shrinkage=0.05


Tree=37
num_leaves=9
num_cat=0
split_feature=0 4 3 1 0 1 2 3
split_gain=2.95441 2.90194 2.12581 1.49957 1.10215 0.468684 0.370742 0.282424
threshold=10.500000000000002 3.5000000000000004 1.0000000180025095e-35 21.500000000000004 15.500000000000002 7.5000000000000009 1.0000000180025095e-35 1.0000000180025095e-35
decision_type=2 2 2 2 2 2 2 2
left_child=6 4 3 -3 5 -2 -1 -7
right_child=1 2 -4 -5 -6 7 -8 -9
leaf_value=-0.013016557356561809 -0.0071363782247764965 0.005971530575633926 0.00017977183870971204 0.020425554761957183 0.0053034311085606795 0.0019984910743577138 -0.0057360019690046709 -0.0039615678236536358
leaf_weight=34 63 34 50 38 42 35 36 46
leaf_count=34 63 34 50 38 42 35 36 46
internal_value=0 0.00210733 0.00809993 0.0136 -0.00182329 -0.00390192 -0.00927227 -0.00138623
internal_weight=0 308 122 72 186 144 70 81
internal_count=378 308 122 72 186 144 70 81
is_linear=0
shrinkage=0.05


Tree=38
num_leaves=10
num_cat=0
split_feature=0 4 3 1 1 4 2 2 1
split_gain=2.66636 2.64004 2.04829 1.51228 1.22325 0.637678 0.334595 0.238959 0.143087
threshold=10.500000000000002 1.5000000000000002 1.0000000180025095e-35 21.500000000000004 14.500000000000002 1.0000000180025095e-35 1.0000000180025095e-35 1.0000000180025095e-35 10.500000000000002
decision_type=2 2 2 2 2 2 2 2 2
left_child=6 5 3 8 -4 7 -1 -2 -3
right_child=1 2 4 -5 -6 -7 -8 -9 -10
leaf_value=-0.012365729947957923 -0.0039498461706733165 0.0075338315383038108 0.0066329361953060412 0.017354601858691737 -0.0060581752164072774 -0.0092718435477258439 -0.0054492021496925086 0.0012913510338728165 0.0027962178581704697
leaf_weight=34 44 34 34 44 43 36 36 43 30
leaf_count=34 44 34 34 44 43 36 36 43 30
internal_value=0 0.00200197 0.00577653 0.0102189 -0.000454308 -0.00367522 -0.00880866 -0.00135937 0.00531308
internal_weight=0 308 185 108 77 123 70 87 64
internal_count=378 308 185 108 77 123 70 87 64
is_linear=0
shrinkage=0.05


Tree=39
num_leaves=10
num_cat=0
split_feature=0 1 1 3 4 4 4 4 1
split_gain=2.44328 1.59494 1.86625 1.10932 0.439476 0.296229 0.276503 0.183965 0.13304
threshold=15.500000000000002 7.5000000000000009 40.500000000000007 1.0000000180025095e-35 2.5000000000000004 2.5000000000000004 1.0000000180025095e-35 9.5000000000000018 16.500000000000004
decision_type=2 2 2 2 2 2 2 2 2
left_child=1 6 3 7 -5 -2 -1 8 -3
right_child=5 2 -4 4 -6 -7 -8 -9 -10
leaf_value=-0.0047622958273859694 0.0053853240850217201 0.0071307272153596085 -0.010658162977779285 -0.0047763489538385556 0.0022869031853042544 0.012035366472308384 -0.010196957923471929 0.0093937620054930452 0.0026223440292394828
leaf_weight=50 34 30 32 49 40 33 44 30 36
leaf_count=50 34 30 32 49 40 33 44 30 36
internal_value=0 -0.00186581 0.000490843 0.00241932 -0.00160185 0.00866072 -0.00730618 0.00614728 0.00467161
internal_weight=0 311 217 185 89 67 94 96 66
internal_count=378 311 217 185 89 67 94 96 66
is_linear=0
shrinkage=0.05


Tree=40
num_leaves=10
num_cat=0
split_feature=0 4 4 0 1 4 1 2 1
split_gain=2.33389 2.41182 1.09582 1.69464 1.25609 0.55785 0.307838 0.209114 0.175017
threshold=10.500000000000002 10.500000000000002 1.5000000000000002 14.500000000000002 8.5000000000000018 1.0000000180025095e-35 21.500000000000004 1.0000000180025095e-35 22.500000000000004
decision_type=2 2 2 2 2 2 2 2 2
left_child=6 2 5 4 -4 7 -1 -2 -6
right_child=1 -3 3 -5 8 -7 -8 -9 -10
leaf_value=-0.0045221488584854435 -0.0036577366641722623 0.012569432000940045 -0.0090976254145304358 0.011330200577977786 0.0056561606417277034 -0.0086350788038948353 -0.011197385219379496 0.0012452521794583909 0.00054006560822017491
leaf_weight=31 44 45 30 43 35 36 39 43 32
leaf_count=31 44 45 30 43 35 36 39 43 32
internal_value=0 0.001873 4.28144e-05 0.00306798 -0.00059465 -0.00340047 -0.00824121 -0.00123442 0.00321265
internal_weight=0 308 263 140 97 123 70 87 67
internal_count=378 308 263 140 97 123 70 87 67
is_linear=0
shrinkage=0.05


Tree=41
num_leaves=11
num_cat=0
split_feature=3 2 0 4 1 2 0 1 4 1
split_gain=2.20291 2.96642 2.15868 1.25163 0.654999 1.2417 0.508031 0.342443 0.13911 0.112742
threshold=1.0000000180025095e-35 1.0000000180025095e-35 15.500000000000002 10.500000000000002 3.5000000000000004 1.0000000180025095e-35 12.500000000000002 5.5000000000000009 2.5000000000000004 20.500000000000004
decision_type=2 2 2 2 2 2 2 2 2 2
left_child=1 7 3 8 -2 -6 9 -1 -3 -7
right_child=4 2 -4 -5 5 6 -8 -9 -10 -11
leaf_value=-0.0089918566111009575 -0.01032283320245744 -0.0017952721869347221 0.018626283114666447 0.012728436266382535 0.0039463145349145634 -0.0064831764601609295 -0.00056895133728782337 -0.0016770285923485063 0.0025660260972317039 -0.01068852385506034
leaf_weight=32 34 33 34 30 48 34 30 32 41 30
leaf_count=32 34 33 34 30 48 34 30 32 41 30
internal_value=0 0.0035629 0.0076892 0.00411362 -0.00408924 -0.00259668 -0.00593779 -0.00533444 0.000621123 -0.00845443
internal_weight=0 202 138 104 176 142 94 64 74 64
internal_count=378 202 138 104 176 142 94 64 74 64
is_linear=0
shrinkage=0.05


Tree=42
num_leaves=10
num_cat=0
split_feature=0 4 4 0 1 4 1 2 4
split_gain=2.06848 2.02313 0.94341 1.43262 1.11408 0.498422 0.308103 0.171201 0.167565
threshold=10.500000000000002 10.500000000000002 1.5000000000000002 14.500000000000002 8.5000000000000018 1.0000000180025095e-35 21.500000000000004 1.0000000180025095e-35 4.5000000000000009
decision_type=2 2 2 2 2 2 2 2 2
left_child=6 2 5 4 -4 7 -1 -2 -6
right_child=1 -3 3 -5 8 -7 -8 -9 -10
leaf_value=-0.0040378046155843377 -0.0032530601559714839 0.011559949430326621 -0.008481534433861574 0.010490646499187448 0.0058066196319076328 -0.0080557593099203802 -0.010715916384315979 0.0011832562378109542 0.00079166444096093387
leaf_weight=31 44 45 30 43 31 36 39 43 36
leaf_count=31 44 45 30 43 31 36 39 43 36
internal_value=0 0.00176329 8.7053e-05 0.00289398 -0.000473618 -0.00310782 -0.00775847 -0.0010604 0.00311202
internal_weight=0 308 263 140 97 123 70 87 67
internal_count=378 308 263 140 97 123 70 87 67
is_linear=0
shrinkage=0.05


Tree=43
num_leaves=11
num_cat=0
split_feature=3 2 4 1 1 2 0 1 1 1
split_gain=1.95739 2.59065 1.91742 1.68469 0.562959 1.15171 0.436978 0.301697 0.11109 3.34084e-05
threshold=1.0000000180025095e-35 1.0000000180025095e-35 12.500000000000002 16.500000000000004 3.5000000000000004 1.0000000180025095e-35 12.500000000000002 5.5000000000000009 20.500000000000004 9.5000000000000018
decision_type=2 2 2 2 2 2 2 2 2 2
left_child=1 7 3 9 -2 -6 8 -1 -7 -3
right_child=4 2 -4 -5 5 6 -8 -9 -10 -11
leaf_value=-0.0083891792746726424 -0.0096336758065530478 0.0095329038364191862 0.017941307020373644 -0.0032227006659883519 0.0038305445605753144 -0.0060659304589909674 -0.00070940300822258 -0.0015233119862386958 -0.010240364782512189 0.0094582843532164899
leaf_weight=32 34 30 32 46 48 34 30 32 30 30
leaf_count=32 34 30 32 46 48 34 30 32 30 30
internal_value=0 0.00335848 0.00721459 0.00397633 -0.00385462 -0.00247091 -0.00568867 -0.00495625 -0.0080227 0.00949559
internal_weight=0 202 138 106 176 142 94 64 64 60
internal_count=378 202 138 106 176 142 94 64 64 60
is_linear=0
shrinkage=0.05


Tree=44
num_leaves=9
num_cat=0
split_feature=0 3 2 0 1 2 4 1
split_gain=1.84441 2.03142 1.64623 1.14854 1.28262 0.745164 0.476516 0.351064
threshold=11.500000000000002 1.0000000180025095e-35 1.0000000180025095e-35 15.500000000000002 21.500000000000004 1.0000000180025095e-35 2.5000000000000004 8.5000000000000018
decision_type=2 2 2 2 2 2 2 2
left_child=7 2 -2 4 -4 -3 -7 -1
right_child=1 5 3 -5 -6 6 -8 -9
leaf_value=-0.010697562775264185 -0.002234302014535801 0.0020252548813798721 -0.00016144618971227875 0.016846185626790806 0.013081555314023385 -0.0017776532586486567 -0.0094030245975591249 -0.0040544541923613368
leaf_weight=30 44 55 41 34 33 42 40 59
leaf_count=30 44 55 41 34 33 42 40 59
internal_value=0 0.0019382 0.00591798 0.00923928 0.00574422 -0.00247732 -0.00549735 -0.0062937
internal_weight=0 289 152 108 74 137 82 89
internal_count=378 289 152 108 74 137 82 89
is_linear=0
shrinkage=0.05


Tree=45
num_leaves=9
num_cat=0
split_feature=0 4 4 4 0 1 1 1
split_gain=1.69751 1.75599 1.46692 1.68867 0.53206 0.320914 0.265844 0.234705
threshold=10.500000000000002 3.5000000000000004 7.5000000000000009 11.500000000000002 15.500000000000002 21.500000000000004 6.5000000000000009 16.500000000000004
decision_type=2 2 2 2 2 2 2 2
left_child=5 4 -3 -4 6 -1 -2 -8
right_child=1 2 3 -5 -6 -7 7 -9
leaf_value=-0.0032311807596875778 -0.0054104281177164105 0.012727942093111136 -0.0066624485670631244 0.0087980442686545618 0.0034914331449683576 -0.010046721113105424 0.0013805904203198023 -0.0039561015308687561
leaf_weight=31 61 51 33 38 42 39 45 38
leaf_count=31 61 51 33 38 42 39 45 38
internal_value=0 0.00159737 0.00625893 0.00161218 -0.00146022 -0.00702841 -0.00290445 -0.00106271
internal_weight=0 308 122 71 186 70 144 83
internal_count=378 308 122 71 186 70 144 83
is_linear=0
shrinkage=0.05


Tree=46
num_leaves=11
num_cat=0
split_feature=3 2 4 1 1 2 0 1 1 1
split_gain=1.58631 2.07773 1.64792 1.49938 0.491587 1.00897 0.387919 0.255939 0.0902787 1.96043e-05
threshold=1.0000000180025095e-35 1.0000000180025095e-35 12.500000000000002 16.500000000000004 3.5000000000000004 1.0000000180025095e-35 12.500000000000002 5.5000000000000009 20.500000000000004 9.5000000000000018
decision_type=2 2 2 2 2 2 2 2 2 2
left_child=1 7 3 9 -2 -6 8 -1 -7 -3
right_child=4 2 -4 -5 5 6 -8 -9 -10 -11
leaf_value=-0.0075847520332899881 -0.0088703692753744467 0.0086529676115605983 0.016421122977044435 -0.0033168616218735344 0.0037210098962532356 -0.005623923094176194 -0.00049735202143589663 -0.0012609562312718482 -0.0093870823085308083 0.0087101286075388397
leaf_weight=32 34 30 32 46 48 34 30 32 30 30
leaf_count=32 34 30 32 46 48 34 30 32 30 30
internal_value=0 0.00302342 0.00647676 0.00347469 -0.00347006 -0.00217703 -0.00518879 -0.00442285 -0.0073879 0.00868155
internal_weight=0 202 138 106 176 142 94 64 64 60
internal_count=378 202 138 106 176 142 94 64 64 60
is_linear=0
shrinkage=0.05


Tree=47
num_leaves=10
num_cat=0
split_feature=0 4 4 4 0 1 1 1 1
split_gain=1.51307 1.49932 1.39611 1.43067 0.458037 0.310701 0.253358 0.553495 0.458737
threshold=10.500000000000002 3.5000000000000004 7.5000000000000009 11.500000000000002 15.500000000000002 21.500000000000004 18.500000000000004 10.500000000000002 3.5000000000000004
decision_type=2 2 2 2 2 2 2 2 2
left_child=5 4 -3 -4 6 -1 7 8 -2
right_child=1 2 3 -5 -6 -7 -8 -9 -10
leaf_value=-0.002899273238595455 -0.0054373222940529778 0.012126461102389824 -0.0063340173275774408 0.0078964851036863893 0.0032770938151294275 -0.0096054817084223042 0.0012664235458942131 -0.0093358706159051511 0.0021375074244399622
leaf_weight=31 39 51 33 38 42 39 32 32 41
leaf_count=31 39 51 33 38 42 39 32 32 41
internal_value=0 0.00150809 0.00581552 0.00128231 -0.00131722 -0.00663559 -0.00265722 -0.00377826 -0.00155522
internal_weight=0 308 122 71 186 70 144 112 80
internal_count=378 308 122 71 186 70 144 112 80
is_linear=0
shrinkage=0.05


Tree=48
num_leaves=11
num_cat=0
split_feature=1 1 1 1 0 3 3 2 4 4
split_gain=1.46453 1.86652 1.16885 1.49956 1.12018 0.964018 0.344278 0.279158 0.632544 0.0207957
threshold=41.500000000000007 6.5000000000000009 16.500000000000004 34.500000000000007 12.500000000000002 1.0000000180025095e-35 1.0000000180025095e-35 1.0000000180025095e-35 1.0000000180025095e-35 5.5000000000000009
decision_type=2 2 2 2 2 2 2 2 2 2
left_child=1 7 4 5 6 9 -3 8 -1 -4
right_child=-2 2 3 -5 -6 -7 -8 -9 -10 -11
leaf_value=-0.0023957401065589777 -0.010599927452082436 0.0067303820858679482 0.00023549096037944156 0.0093132474870585343 0.013372099877927791 -0.008854562672786415 -0.00066292582196183505 -0.00067195164156146352 -0.011720526392849524 0.0020971966845293841
leaf_weight=44 30 31 30 34 44 40 32 32 31 30
leaf_count=44 30 31 30 34 44 40 32 32 31 30
internal_value=0 0.000913787 0.00335373 0.000242153 0.00725047 -0.00284202 0.00297505 -0.00458179 -0.00624999 0.00116634
internal_weight=0 348 241 134 107 100 63 107 75 60
internal_count=378 348 241 134 107 100 63 107 75 60
is_linear=0
shrinkage=0.05


Tree=49
num_leaves=11
num_cat=0
split_feature=1 1 1 1 0 3 4 3 2 4
split_gain=1.32174 1.68453 1.05489 1.38095 1.01097 0.81766 0.359269 0.31071 0.25194 0.570871
threshold=41.500000000000007 6.5000000000000009 16.500000000000004 21.500000000000004 12.500000000000002 1.0000000180025095e-35 8.5000000000000018 1.0000000180025095e-35 1.0000000180025095e-35 1.0000000180025095e-35
decision_type=2 2 2 2 2 2 2 2 2 2
left_child=1 8 4 -4 7 6 -5 -3 9 -1
right_child=-2 2 3 5 -6 -7 -8 -9 -10 -11
leaf_value=-0.0022759530865269799 -0.010069931118438642 0.0063938631221742166 -0.0090221371922281478 0.0027064407368501027 0.012703494926575909 -0.002463566202942918 0.010322667665604968 -0.00062977933121146636 -0.00063835391410975721 -0.01113450013912253
leaf_weight=44 30 31 31 30 44 41 32 32 32 31
leaf_count=44 30 31 31 30 44 41 32 32 32 31
internal_value=0 0.000868098 0.00318604 0.000230046 0.00688795 0.00301468 0.0066374 0.0028263 -0.0043527 -0.00593749
internal_weight=0 348 241 134 107 103 62 63 107 75
internal_count=378 348 241 134 107 103 62 63 107 75
is_linear=0
shrinkage=0.05


Tree=50
num_leaves=9
num_cat=0
split_feature=0 4 0 1 4 4 1 0
split_gain=1.29393 1.29898 1.06879 1.43674 0.985533 0.413819 0.273648 0.198836
threshold=10.500000000000002 1.5000000000000002 14.500000000000002 8.5000000000000018 6.5000000000000009 1.0000000180025095e-35 21.500000000000004 12.500000000000002
decision_type=2 2 2 2 2 2 2 2
left_child=6 5 3 -3 -5 7 -1 -2
right_child=1 2 -4 4 -6 -7 -8 -9
leaf_value=-0.0026298406000639643 0.0012862202779882971 -0.0080264779039134742 0.0098850780234418147 0.0097203779490070141 -0.00022494168952107431 -0.0070961310049622419 -0.0089234819984994832 -0.003567124494778303
leaf_weight=31 51 30 55 47 53 36 39 36
leaf_count=31 51 30 55 47 53 36 39 36
internal_value=0 0.00139461 0.00404227 0.00157032 0.00444936 -0.00258764 -0.0061363 -0.00072206
internal_weight=0 308 185 130 100 123 70 87
internal_count=378 308 185 130 100 123 70 87
is_linear=0
shrinkage=0.05


Tree=51
num_leaves=10
num_cat=0
split_feature=3 2 4 1 2 4 4 1 1
split_gain=1.1767 1.63722 1.43658 1.18058 0.376319 1.37192 0.287477 0.144597 0.00117199
threshold=1.0000000180025095e-35 1.0000000180025095e-35 12.500000000000002 16.500000000000004 1.0000000180025095e-35 1.5000000000000002 2.5000000000000004 5.5000000000000009 9.5000000000000018
decision_type=2 2 2 2 2 2 2 2 2
left_child=1 7 3 8 5 -2 -6 -1 -3
right_child=4 2 -4 -5 6 -7 -8 -9 -10
leaf_value=-0.006382576271425933 -0.0056639954079493737 0.007707762017380446 0.014954294089693577 -0.0031599525048437976 -0.0024748427346348765 0.0077760660690405674 -0.0079518505979491311 -0.0016293437802232802 0.0072657989819223685
leaf_weight=32 49 30 32 46 50 31 46 32 30
leaf_count=32 49 30 32 46 50 31 46 32 30
internal_value=0 0.00260399 0.00566947 0.0028665 -0.00298866 -0.000455972 -0.00509924 -0.00400596 0.00748678
internal_weight=0 202 138 106 176 80 96 64 60
internal_count=378 202 138 106 176 80 96 64 60
is_linear=0
shrinkage=0.05


Tree=52
num_leaves=10
num_cat=0
split_feature=0 4 4 4 1 1 4 4 1
split_gain=1.15315 1.13221 1.35404 1.20429 0.401173 0.741797 0.50783 0.301946 0.26611
threshold=10.500000000000002 3.5000000000000004 7.5000000000000009 11.500000000000002 16.500000000000004 6.5000000000000009 1.0000000180025095e-35 1.0000000180025095e-35 21.500000000000004
decision_type=2 2 2 2 2 2 2 2 2
left_child=8 4 -3 -4 5 7 -7 -2 -1
right_child=1 2 3 -5 -6 6 -8 -9 -10
leaf_value=-0.002335036113002007 -4.0415763145401363e-05 0.011274811891809233 -0.0063925063971317173 0.0066636696359828902 -0.0053101611321670307 -0.00031919114291667939 0.0088062256169054772 -0.0061501226674478791 -0.008541383754270963
leaf_weight=31 42 51 33 38 44 30 31 39 39
leaf_count=31 42 51 33 38 44 30 31 39 39
internal_value=0 0.00131656 0.00505969 0.000595306 -0.00113861 0.000153979 0.00431832 -0.00298213 -0.00579286
internal_weight=0 308 122 71 186 142 61 81 70
internal_count=378 308 122 71 186 142 61 81 70
is_linear=0
shrinkage=0.05


Tree=53
num_leaves=11
num_cat=0
split_feature=1 1 1 1 2 0 3 2 4 4
split_gain=1.11433 1.3262 0.872141 1.3236 0.864784 1.74191 0.718443 0.196214 0.510407 0.00610371
threshold=41.500000000000007 6.5000000000000009 16.500000000000004 34.500000000000007 1.0000000180025095e-35 12.500000000000002 1.0000000180025095e-35 1.0000000180025095e-35 1.0000000180025095e-35 5.5000000000000009
decision_type=2 2 2 2 2 2 2 2 2 2
left_child=1 7 4 6 -3 -6 9 8 -1 -4
right_child=-2 2 3 -5 5 -7 -8 -9 -10 -11
leaf_value=-0.0017716593910749494 -0.0092461226469216246 0.01280626420150785 0.00022445843865474065 0.0086882773019811687 -0.0032992033244565477 0.012398964911699296 -0.0079221254051662984 -0.00055735078640282152 -0.010147946692943093 0.0012330635512868564
leaf_weight=44 30 34 30 34 43 30 40 32 31 30
leaf_count=44 30 34 30 34 43 30 40 32 31 30
internal_value=0 0.00079708 0.00285377 0.000165986 0.00621978 0.0031521 -0.00273159 -0.00383528 -0.00523386 0.000728761
internal_weight=0 348 241 134 107 73 100 107 75 60
internal_count=378 348 241 134 107 73 100 107 75 60
is_linear=0
shrinkage=0.05


Tree=54
num_leaves=10
num_cat=0
split_feature=0 4 4 0 1 4 2 0 4
split_gain=1.00993 1.02694 0.508345 0.99023 0.856518 0.359942 0.240486 0.205027 0.113399
threshold=10.500000000000002 10.500000000000002 1.5000000000000002 14.500000000000002 8.5000000000000018 1.0000000180025095e-35 1.0000000180025095e-35 12.500000000000002 4.5000000000000009
decision_type=2 2 2 2 2 2 2 2 2
left_child=6 2 5 4 -4 7 -1 -2 -6
right_child=1 -3 3 -5 8 -7 -8 -9 -10
leaf_value=-0.0084368438466780778 0.0014718364668535253 0.0082118382330776934 -0.0077229792919630809 0.0084140424075168242 0.0046591668539950927 -0.0065121448715217412 -0.0025731193807183046 -0.0034564865352068514 0.00053363116846109437
leaf_weight=34 51 45 30 43 31 36 36 36 36
leaf_count=34 51 45 30 43 31 36 36 36 36
internal_value=0 0.00123209 3.78413e-05 0.00209828 -0.00070149 -0.00230737 -0.00542121 -0.00056747 0.00244246
internal_weight=0 308 263 140 97 123 70 87 67
internal_count=378 308 263 140 97 123 70 87 67
is_linear=0
shrinkage=0.05


Tree=55
num_leaves=11
num_cat=0
split_feature=1 1 1 1 2 0 3 1 2 4
split_gain=0.998144 1.11461 0.815033 1.22196 0.788129 1.53659 0.622097 0.350547 0.177103 0.459127
threshold=41.500000000000007 6.5000000000000009 16.500000000000004 21.500000000000004 1.0000000180025095e-35 12.500000000000002 1.0000000180025095e-35 29.500000000000004 1.0000000180025095e-35 1.0000000180025095e-35
decision_type=2 2 2 2 2 2 2 2 2 2
left_child=1 8 4 -4 -3 -6 7 -5 9 -1
right_child=-2 2 3 6 5 -7 -8 -9 -10 -11
leaf_value=-0.0015374262891286478 -0.0087508373055607078 0.01218161243287956 -0.008661736424772009 0.0095805944799776041 -0.0030939348127969088 0.01165007877163589 -0.0021174008412877233 0.0020612977805637544 -0.00037817888205609056 -0.0094817998511115883
leaf_weight=44 30 34 31 31 43 30 41 31 32 31
leaf_count=44 30 34 31 31 43 30 41 31 32 31
internal_value=0 0.000754382 0.00263987 4.15776e-05 0.00589381 0.00296525 0.00266102 0.00582095 -0.00349238 -0.0048211
internal_weight=0 348 241 134 107 73 103 62 107 75
internal_count=378 348 241 134 107 73 103 62 107 75
is_linear=0
shrinkage=0.05


Tree=56
num_leaves=10
num_cat=0
split_feature=3 2 4 1 2 4 4 1 1
split_gain=0.915054 1.35474 1.19384 0.976692 0.359464 1.17807 0.289583 0.0646331 0.00345557
threshold=1.0000000180025095e-35 1.0000000180025095e-35 12.500000000000002 16.500000000000004 1.0000000180025095e-35 1.5000000000000002 2.5000000000000004 5.5000000000000009 9.5000000000000018
decision_type=2 2 2 2 2 2 2 2 2
left_child=1 7 3 8 5 -2 -6 -1 -3
right_child=4 2 -4 -5 6 -7 -8 -9 -10
leaf_value=-0.0053053781855851414 -0.0049862687561508957 0.007111476411325081 0.013548921709661954 -0.0029518024510015615 -0.002064297172240913 0.0074681035224198099 -0.0075613328964327991 -0.0021274986560456456 0.0063525769712092983
leaf_weight=32 49 30 32 46 50 31 46 32 30
leaf_count=32 49 30 32 46 50 31 46 32 30
internal_value=0 0.0022963 0.00508481 0.00252961 -0.00263552 -0.000160199 -0.00469829 -0.00371644 0.00673203
internal_weight=0 202 138 106 176 80 96 64 60
internal_count=378 202 138 106 176 80 96 64 60
is_linear=0
shrinkage=0.05


Tree=57
num_leaves=9
num_cat=0
split_feature=1 1 1 1 4 2 0 3
split_gain=0.893335 0.959702 0.721585 1.17356 0.796817 0.735608 1.3773 0.151924
threshold=41.500000000000007 6.5000000000000009 16.500000000000004 34.500000000000007 7.5000000000000009 1.0000000180025095e-35 12.500000000000002 1.0000000180025095e-35
decision_type=2 2 2 2 2 2 2 2
left_child=1 7 5 4 -4 -3 -7 -1
right_child=-2 2 3 -5 -6 6 -8 -9
leaf_value=-0.0012153394641354681 -0.0082786622177809487 0.011599650015191669 0.0009342465852387249 0.0080431694657925306 -0.0081762840482406309 -0.0030408529678446262 0.010918020578101277 -0.0049915156727493339
leaf_weight=50 30 34 60 34 40 43 30 57
leaf_count=50 30 34 60 34 40 43 30 57
internal_value=0 0.000713678 0.00246325 1.84418e-05 -0.00270997 0.00552497 0.00269567 -0.00322695
internal_weight=0 348 241 134 100 107 73 107
internal_count=378 348 241 134 100 107 73 107
is_linear=0
shrinkage=0.05


Tree=58
num_leaves=9
num_cat=0
split_feature=0 4 0 1 4 4 1 1
split_gain=0.854076 1.23825 0.66457 1.19818 1.03974 0.164484 0.490175 0.444553
threshold=9.5000000000000018 1.5000000000000002 14.500000000000002 8.5000000000000018 6.5000000000000009 1.0000000180025095e-35 3.5000000000000004 12.500000000000002
decision_type=2 2 2 2 2 2 2 2
left_child=-1 5 3 -3 -5 6 -2 -8
right_child=1 2 -4 4 -6 -7 7 -9
leaf_value=-0.006158462501302058 0.0036697109276428819 -0.007015804156863821 0.0081396680727431735 0.0092166048743260592 -0.00064487410455264836 -0.0055293683893978601 -0.0079284570685454782 0.00016054874215500826
leaf_weight=49 30 31 55 52 55 38 35 33
leaf_count=49 30 31 55 52 55 38 35 33
internal_value=0 0.000917218 0.00349216 0.00163989 0.00414762 -0.00273693 -0.00165415 -0.00400291
internal_weight=0 329 193 138 107 136 98 68
internal_count=378 329 193 138 107 136 98 68
is_linear=0
shrinkage=0.05


Tree=59
num_leaves=10
num_cat=0
split_feature=1 1 1 1 4 2 0 2 4
split_gain=0.797745 0.817837 0.675103 1.08873 0.690748 0.671509 1.20065 0.149583 0.424072
threshold=41.500000000000007 6.5000000000000009 16.500000000000004 34.500000000000007 7.5000000000000009 1.0000000180025095e-35 12.500000000000002 1.0000000180025095e-35 1.0000000180025095e-35
decision_type=2 2 2 2 2 2 2 2 2
left_child=1 7 5 4 -4 -3 -7 8 -1
right_child=-2 2 3 -5 -6 6 -8 -9 -10
leaf_value=-0.0010286185911602597 -0.0078232146442557375 0.011054954033084763 0.00068980781788316871 0.0076540121699080754 -0.0077926998469047245 -0.0028082754224712076 0.010224722021569809 -0.0001012813372653909 -0.008663691912079231
leaf_weight=44 30 34 60 34 40 43 30 32 31
leaf_count=44 30 34 60 34 40 43 30 32 31
internal_value=0 0.000674415 0.00228951 -7.52471e-05 -0.0027032 0.00525097 0.00254775 -0.00296331 -0.00418445
internal_weight=0 348 241 134 100 107 73 107 75
internal_count=378 348 241 134 100 107 73 107 75
is_linear=0
shrinkage=0.05


Tree=60
num_leaves=10
num_cat=0
split_feature=3 2 4 1 2 4 4 1 1
split_gain=0.782303 1.23793 1.15224 0.83619 0.312985 0.99629 0.272912 0.0318426 0.00635629
threshold=1.0000000180025095e-35 1.0000000180025095e-35 12.500000000000002 16.500000000000004 1.0000000180025095e-35 1.5000000000000002 2.5000000000000004 5.5000000000000009 9.5000000000000018
decision_type=2 2 2 2 2 2 2 2 2
left_child=1 7 3 8 5 -2 -6 -1 -3
right_child=4 2 -4 -5 6 -7 -8 -9 -10
leaf_value=-0.0047397430433193223 -0.0045652433849719112 0.0066815512844671816 0.013104124189703727 -0.0027933456854003927 -0.0018046061079949141 0.0068880152843532067 -0.0071410635130039583 -0.0025091816336498597 0.0056522887634734321
leaf_weight=32 49 30 32 46 50 31 46 32 30
leaf_count=32 49 30 32 46 50 31 46 32 30
internal_value=0 0.00212321 0.00478879 0.0022785 -0.00243686 -0.000127106 -0.00436166 -0.00362446 0.00616692
internal_weight=0 202 138 106 176 80 96 64 60
internal_count=378 202 138 106 176 80 96 64 60
is_linear=0
shrinkage=0.05


Tree=61
num_leaves=10
num_cat=0
split_feature=0 4 3 4 1 1 1 1 0
split_gain=0.75112 1.07009 0.60509 1.07183 0.767393 0.17256 0.139751 0.12542 0.0010588
threshold=9.5000000000000018 1.5000000000000002 1.0000000180025095e-35 10.500000000000002 14.500000000000002 16.500000000000004 13.500000000000002 7.5000000000000009 12.500000000000002
decision_type=2 2 2 2 2 2 2 2 2
left_child=-1 6 3 5 -4 -3 7 8 -2
right_child=1 2 4 -5 -6 -7 -8 -9 -10
leaf_value=-0.005775354665761092 -0.0025273826803911379 0.0046496964814044381 0.005560109577388229 0.013697026471296947 -0.0043927247506669832 7.0308035032616719e-05 3.7135585750404163e-05 -0.0062278510878483462 -0.0021312415810121645
leaf_weight=49 37 48 34 30 45 36 38 30 31
leaf_count=49 37 48 34 30 45 36 38 30 31
internal_value=0 0.000860159 0.00325388 0.00558445 -0.000109226 0.0026871 -0.00253681 -0.00353487 -0.00234679
internal_weight=0 329 193 114 79 84 136 98 68
internal_count=378 329 193 114 79 84 136 98 68
is_linear=0
shrinkage=0.05


Tree=62
num_leaves=9
num_cat=0
split_feature=0 4 4 4 1 0 1 4
split_gain=0.683973 0.737646 1.36482 0.908432 0.327516 0.527135 0.242669 0.242081
threshold=10.500000000000002 3.5000000000000004 7.5000000000000009 11.500000000000002 16.500000000000004 15.500000000000002 21.500000000000004 1.0000000180025095e-35
decision_type=2 2 2 2 2 2 2 2
left_child=6 4 -3 -4 5 7 -1 -2
right_child=1 2 3 -5 -6 -7 -8 -9
leaf_value=-0.0011593637417160695 0.00064022444891171509 0.010275070135043387 -0.0065159226175058975 0.0048236500533101597 -0.0047369519587267539 0.005427582499881586 -0.0070860707750305153 -0.0041523407391576587
leaf_weight=31 57 51 33 38 44 36 39 49
leaf_count=31 57 51 33 38 44 36 39 49
internal_value=0 0.00101395 0.00403526 -0.000446856 -0.000967768 0.000200148 -0.00446139 -0.00157521
internal_weight=0 308 122 71 186 142 70 106
internal_count=378 308 122 71 186 142 70 106
is_linear=0
shrinkage=0.05


Tree=63
num_leaves=10
num_cat=0
split_feature=1 1 1 1 2 0 1 3 4
split_gain=0.657806 0.709728 0.572652 1.01965 0.634207 1.03529 0.503218 0.123033 0.00617065
threshold=41.500000000000007 6.5000000000000009 16.500000000000004 21.500000000000004 1.0000000180025095e-35 12.500000000000002 28.500000000000004 1.0000000180025095e-35 8.5000000000000018
decision_type=2 2 2 2 2 2 2 2 2
left_child=1 7 4 -4 -3 -6 -5 -1 -8
right_child=-2 2 3 6 5 -7 8 -9 -10
leaf_value=-0.00096609819959849125 -0.0071039868115137022 0.01048496535376591 -0.0080112061065231131 0.0066294923595084654 -0.0027561275754123928 0.0093461680086329574 -2.7212385612074288e-05 -0.004364315506066768 -0.0010253621016939481
leaf_weight=50 30 34 31 41 43 30 32 57 30
leaf_count=50 30 34 31 41 43 30 32 57 30
internal_value=0 0.000612413 0.00211697 -6.09691e-05 0.00484449 0.00221742 0.00233182 -0.00277636 -0.000510188
internal_weight=0 348 241 134 107 73 103 107 62
internal_count=378 348 241 134 107 73 103 107 62
is_linear=0
shrinkage=0.05


Tree=64
num_leaves=11
num_cat=0
split_feature=3 2 4 1 4 4 0 4 1 1
split_gain=0.613669 1.07896 0.952534 0.674428 0.296869 0.599295 0.777804 0.392526 0.0227083 0.0065805
threshold=1.0000000180025095e-35 1.0000000180025095e-35 12.500000000000002 16.500000000000004 5.5000000000000009 2.5000000000000004 12.500000000000002 1.0000000180025095e-35 5.5000000000000009 9.5000000000000018
decision_type=2 2 2 2 2 2 2 2 2 2
left_child=1 8 3 9 5 6 7 -2 -1 -3
right_child=4 2 -4 -5 -6 -7 -8 -9 -10 -11
leaf_value=-0.0044272892409935594 -0.0027201623248402033 0.0061023856978863478 0.01192951956691104 -0.0024682832395900856 -0.0062078659267475215 0.0050172380258088874 0.003838176824032299 -0.010010884346750876 -0.002543628393323161 0.0050551272366040701
leaf_weight=32 48 30 32 46 36 31 31 30 32 30
leaf_count=32 48 30 32 46 36 31 31 30 32 30
internal_value=0 0.00188049 0.00436905 0.00208664 -0.00215829 -0.00111697 -0.00286157 -0.00552429 -0.00348546 0.00557876
internal_weight=0 202 138 106 176 140 109 78 64 60
internal_count=378 202 138 106 176 140 109 78 64 60
is_linear=0
shrinkage=0.05


Tree=65
num_leaves=10
num_cat=0
split_feature=0 4 4 1 4 4 1 1 0
split_gain=0.585117 0.869138 0.556609 1.00864 0.829842 0.578628 0.143935 0.13299 0.000135865
threshold=9.5000000000000018 1.5000000000000002 7.5000000000000009 7.5000000000000009 3.5000000000000004 13.500000000000002 13.500000000000002 7.5000000000000009 12.500000000000002
decision_type=2 2 2 2 2 2 2 2 2
left_child=-1 6 3 -3 -5 -4 7 8 -2
right_child=1 2 5 4 -6 -7 -8 -9 -10
leaf_value=-0.0050973623572867742 -0.0020270425423577028 -0.0013523626209395688 -0.0042444214473890017 0.0031233189579768059 0.013373203876544721 0.0048032365250401205 0.00030993349041397638 -0.0060882166804124916 -0.002168947142819243
leaf_weight=49 37 41 43 39 40 30 38 30 31
leaf_count=49 37 41 43 39 40 30 38 30 31
internal_value=0 0.000759182 0.00291646 0.00501076 0.00831313 -0.000526206 -0.00230226 -0.00331515 -0.00209173
internal_weight=0 329 193 120 79 73 136 98 68
internal_count=378 329 193 120 79 73 136 98 68
is_linear=0
shrinkage=0.05


Tree=66
num_leaves=10
num_cat=0
split_feature=1 1 0 4 4 1 0 4 2
split_gain=0.584298 0.835465 0.889683 0.85596 0.800021 0.563971 0.390412 0.346401 0.291846
threshold=40.500000000000007 34.500000000000007 11.500000000000002 3.5000000000000004 7.5000000000000009 16.500000000000004 15.500000000000002 1.0000000180025095e-35 1.0000000180025095e-35
decision_type=2 2 2 2 2 2 2 2 2
left_child=1 2 7 5 -5 6 8 -1 -4
right_child=-2 -3 3 4 -6 -7 -8 -9 -10
leaf_value=-0.0017719847180189625 -0.0062528964926433913 0.0085898662637919187 0.0015183804167092456 0.0099220011097548369 0.00038724791004576473 -0.0067999964396497515 0.004947653718085753 -0.009246683887566531 -0.0040270012123943639
leaf_weight=31 34 30 49 44 44 33 36 31 46
leaf_count=31 34 30 49 44 44 33 36 31 46
internal_value=0 0.000618019 -0.000143623 0.00117651 0.00515462 -0.000958084 0.000513543 -0.00550933 -0.00116675
internal_weight=0 344 314 252 88 164 131 62 95
internal_count=378 344 314 252 88 164 131 62 95
is_linear=0
shrinkage=0.05


Tree=67
num_leaves=11
num_cat=0
split_feature=3 2 1 1 4 4 1 4 1 1
split_gain=0.549504 0.954815 0.856778 1.53201 0.318099 0.28256 0.495029 0.416461 0.14297 0.0183745
threshold=1.0000000180025095e-35 1.0000000180025095e-35 31.500000000000004 21.500000000000004 2.5000000000000004 5.5000000000000009 18.500000000000004 1.5000000000000002 4.5000000000000009 5.5000000000000009
decision_type=2 2 2 2 2 2 2 2 2 2
left_child=1 9 3 4 -3 6 7 8 -2 -1
right_child=5 2 -4 -5 -6 -7 -8 -9 -10 -11
leaf_value=-0.0041155520739266649 -0.002382145871718725 0.0060664204691420311 -0.0029070378394063677 0.015451190002204386 -0.00058547620343544137 -0.0059931110513086125 0.0039342230695576684 0.0018221118882524247 -0.0069483012397540738 -0.0024211452604504303
leaf_weight=32 30 32 33 32 41 36 37 33 40 32
leaf_count=32 30 32 33 32 41 36 37 33 40 32
internal_value=0 0.00177947 0.00412048 0.00632913 0.00233042 -0.00204234 -0.00102643 -0.00280841 -0.00499138 -0.00326835
internal_weight=0 202 138 105 73 176 140 103 70 64
internal_count=378 202 138 105 73 176 140 103 70 64
is_linear=0
shrinkage=0.05


Tree=68
num_leaves=10
num_cat=0
split_feature=1 1 0 4 4 1 0 4 2
split_gain=0.516618 0.628576 0.788283 0.742766 0.737954 0.548906 0.340506 0.331321 0.276145
threshold=41.500000000000007 34.500000000000007 11.500000000000002 3.5000000000000004 7.5000000000000009 16.500000000000004 15.500000000000002 1.0000000180025095e-35 1.0000000180025095e-35
decision_type=2 2 2 2 2 2 2 2 2
left_child=1 2 7 5 -5 6 8 -1 -4
right_child=-2 -3 3 4 -6 -7 -8 -9 -10
leaf_value=-0.001552123996999956 -0.0062956128238389891 0.0070005272925995734 0.001592165442677785 0.0093705659245394857 0.0002131405519321561 -0.0066657085465549526 0.0046905099931690425 -0.0088623082501843812 -0.0038019852004135437
leaf_weight=31 30 34 49 44 44 33 36 31 46
leaf_count=31 30 34 49 44 44 33 36 31 46
internal_value=0 0.000542725 -0.000156527 0.0010861 0.00479185 -0.000902349 0.00054949 -0.00520722 -0.00101974
internal_weight=0 348 314 252 88 164 131 62 95
internal_count=378 348 314 252 88 164 131 62 95
is_linear=0
shrinkage=0.05


Tree=69
num_leaves=11
num_cat=0
split_feature=3 2 4 1 4 1 4 1 1 1
split_gain=0.490752 0.869246 0.817508 0.614613 0.265645 0.46355 0.352815 0.122866 0.016426 0.00321707
threshold=1.0000000180025095e-35 1.0000000180025095e-35 12.500000000000002 16.500000000000004 5.5000000000000009 18.500000000000004 1.5000000000000002 4.5000000000000009 5.5000000000000009 9.5000000000000018
decision_type=2 2 2 2 2 2 2 2 2 2
left_child=1 8 3 9 5 6 7 -2 -1 -3
right_child=4 2 -4 -5 -6 -7 -8 -9 -10 -11
leaf_value=-0.0039356933033559477 -0.0022598480557401977 0.005500630214810372 0.010919440537691116 -0.0025474011412133343 -0.0057607671892684377 0.0038553016486804225 0.0015925974810891081 -0.0064928049943409867 -0.0023336442978688864 0.0047683879608909291
leaf_weight=32 30 30 32 46 36 37 33 40 32 30
leaf_count=32 30 30 32 46 36 37 33 40 32 30
internal_value=0 0.00168165 0.00391531 0.00180085 -0.00193008 -0.000945041 -0.00266944 -0.00467868 -0.00313467 0.00513451
internal_weight=0 202 138 106 176 140 103 70 64 60
internal_count=378 202 138 106 176 140 103 70 64 60
is_linear=0
shrinkage=0.05


Tree=70
num_leaves=10
num_cat=0
split_feature=1 1 0 4 4 1 4 0 2
split_gain=0.477914 0.692878 0.694301 0.640165 0.681121 0.498069 0.312873 0.293865 0.262139
threshold=40.500000000000007 34.500000000000007 11.500000000000002 3.5000000000000004 7.5000000000000009 16.500000000000004 1.0000000180025095e-35 15.500000000000002 1.0000000180025095e-35
decision_type=2 2 2 2 2 2 2 2 2
left_child=1 2 6 5 -5 7 -1 8 -4
right_child=-2 -3 3 4 -6 -7 -8 -9 -10
leaf_value=-0.0013228550583364504 -0.0056550789679236275 0.007818712579707305 0.001655495522676834 0.0088706928368827154 7.2960631752556023e-05 -0.0063044750413885622 -0.008426615446355314 0.004415459051314327 -0.0036000861381383048
leaf_weight=31 34 30 49 44 44 33 31 36 46
leaf_count=31 34 30 49 44 44 33 31 36 46
internal_value=0 0.000558932 -0.000134677 0.00103153 0.00447183 -0.000814487 -0.00487474 0.000568487 -0.000889312
internal_weight=0 344 314 252 88 164 62 131 95
internal_count=378 344 314 252 88 164 62 131 95
is_linear=0
shrinkage=0.05


Tree=71
num_leaves=10
num_cat=0
split_feature=1 1 0 4 4 3 2 4 4
split_gain=0.443066 0.779667 0.679559 1.68345 1.07422 0.953452 0.139505 0.323206 0.137496
threshold=31.500000000000004 7.5000000000000009 12.500000000000002 6.5000000000000009 4.5000000000000009 1.0000000180025095e-35 1.0000000180025095e-35 1.0000000180025095e-35 10.500000000000002
decision_type=2 2 2 2 2 2 2 2 2
left_child=1 6 3 5 -4 -3 7 -1 -2
right_child=8 2 4 -5 -6 -7 -8 -9 -10
leaf_value=-0.00077814487119515739 -0.0051189987798747815 0.010771424368475424 0.0016327897772002457 -0.009457788766632157 0.013902812615657848 -0.00041789253197041239 9.750065626576543e-05 -0.0072928348513828086 -0.00081075918410093554
leaf_weight=45 46 33 44 31 30 45 40 33 31
leaf_count=45 46 33 44 31 30 45 40 33 31
internal_value=0 0.000865806 0.00290922 0.000398719 0.00660712 0.00431605 -0.00230322 -0.00353436 -0.00338451
internal_weight=0 301 183 109 74 78 118 78 77
internal_count=378 301 183 109 74 78 118 78 77
is_linear=0
shrinkage=0.05


Tree=72
num_leaves=10
num_cat=0
split_feature=3 2 4 1 2 4 4 1 1
split_gain=0.404828 0.757503 0.73252 0.533973 0.255381 0.716078 0.383839 0.00975806 0.00253636
threshold=1.0000000180025095e-35 1.0000000180025095e-35 12.500000000000002 16.500000000000004 1.0000000180025095e-35 1.5000000000000002 2.5000000000000004 5.5000000000000009 9.5000000000000018
decision_type=2 2 2 2 2 2 2 2 2
left_child=1 7 3 8 5 -2 -6 -1 -3
right_child=4 2 -4 -5 6 -7 -8 -9 -10
leaf_value=-0.0035861392563674602 -0.0034291777555469655 0.0050433380529284477 0.010242571207345464 -0.0024420000379905106 -0.00045914536691270773 0.0062807535782696744 -0.0067878680940180935 -0.0023513530322816223 0.0043931631992260613
leaf_weight=32 49 30 32 46 50 31 46 32 30
leaf_count=32 49 30 32 46 50 31 46 32 30
internal_value=0 0.00152735 0.0036125 0.00161097 -0.00175299 0.000333421 -0.00349166 -0.00296875 0.00471825
internal_weight=0 202 138 106 176 80 96 64 60
internal_count=378 202 138 106 176 80 96 64 60
is_linear=0
shrinkage=0.05


Tree=73
num_leaves=10
num_cat=0
split_feature=1 1 0 4 4 3 4 2 4
split_gain=0.405536 0.68434 0.598772 1.5394 0.936519 0.849853 0.151662 0.112854 0.305792
threshold=31.500000000000004 7.5000000000000009 12.500000000000002 6.5000000000000009 4.5000000000000009 1.0000000180025095e-35 5.5000000000000009 1.0000000180025095e-35 1.0000000180025095e-35
decision_type=2 2 2 2 2 2 2 2 2
left_child=1 7 3 5 -4 -3 -2 8 -1
right_child=6 2 4 -5 -6 -7 -8 -9 -10
leaf_value=-0.00056703471061256196 -0.00067568449585726775 0.01022676049985669 0.0015693125799192454 -0.0090391907029815262 0.01302594945455591 -0.00033718112235267962 -0.0051597354552623906 1.8607976380735638e-05 -0.0069037910268613797
leaf_weight=45 33 33 44 31 30 45 44 40 33
leaf_count=45 33 33 44 31 30 45 44 40 33
internal_value=0 0.000828325 0.00274275 0.000386193 0.0062139 0.00413218 -0.003238 -0.00214066 -0.00324797
internal_weight=0 301 183 109 74 78 77 118 78
internal_count=378 301 183 109 74 78 77 118 78
is_linear=0
shrinkage=0.05


Tree=74
num_leaves=10
num_cat=0
split_feature=0 4 4 1 4 4 1 1 0
split_gain=0.388087 0.554546 0.442571 0.841587 0.88501 0.376817 0.137769 0.15732 0.00422534
threshold=9.5000000000000018 1.5000000000000002 7.5000000000000009 9.5000000000000018 3.5000000000000004 13.500000000000002 13.500000000000002 7.5000000000000009 12.500000000000002
decision_type=2 2 2 2 2 2 2 2 2
left_child=-1 6 3 -3 -5 -4 7 8 -2
right_child=1 2 5 4 -6 -7 -8 -9 -10
leaf_value=-0.0041513410491906873 -0.0011266824990712307 -0.00074548061750829219 -0.0037288914283001144 0.0017947688924543786 0.013057283006885365 0.0035724368939797089 0.00072850800781069621 -0.0058341542654670774 -0.0019180419674563792
leaf_weight=49 37 50 43 33 37 30 38 30 31
leaf_count=49 37 50 43 33 37 30 38 30 31
internal_value=0 0.000618285 0.00234147 0.00420894 0.00774781 -0.000728346 -0.00182712 -0.00281807 -0.00148745
internal_weight=0 329 193 120 70 73 136 98 68
internal_count=378 329 193 120 70 73 136 98 68
is_linear=0
shrinkage=0.05


Tree=75
num_leaves=10
num_cat=0
split_feature=1 1 4 4 1 1 3 2 1
split_gain=0.381592 0.684352 0.54454 0.705721 0.412854 0.61838 0.464153 0.240796 0.0336325
threshold=40.500000000000007 34.500000000000007 8.5000000000000018 3.5000000000000004 16.500000000000004 7.5000000000000009 1.0000000180025095e-35 1.0000000180025095e-35 2.5000000000000004
decision_type=2 2 2 2 2 2 2 2 2
left_child=1 2 3 4 5 7 -7 8 -1
right_child=-2 -3 -4 -5 -6 6 -8 -9 -10
leaf_value=-0.0024659505861468222 -0.0050531626391388919 0.0077144148480147133 -0.0052157251771701423 0.0055018547294913966 -0.0050567976269481141 0.0084345768346931003 -0.00015859256498515606 0.0018250418982158107 -0.0046142021872635402
leaf_weight=38 34 30 46 59 43 33 30 30 35
leaf_count=38 34 30 46 59 43 33 30 30 35
internal_value=0 0.000499441 -0.000189888 0.000672755 -0.000690483 0.00044055 0.00434259 -0.00194614 -0.00349593
internal_weight=0 344 314 268 209 166 63 103 73
internal_count=378 344 314 268 209 166 63 103 73
is_linear=0
shrinkage=0.05


Tree=76
num_leaves=10
num_cat=0
split_feature=1 1 0 4 4 3 0 2 4
split_gain=0.367277 0.566084 0.503859 1.32356 0.8507 0.741637 0.149315 0.0834195 0.28596
threshold=31.500000000000004 7.5000000000000009 12.500000000000002 6.5000000000000009 4.5000000000000009 1.0000000180025095e-35 11.500000000000002 1.0000000180025095e-35 1.0000000180025095e-35
decision_type=2 2 2 2 2 2 2 2 2
left_child=1 7 3 5 -4 -3 -2 8 -1
right_child=6 2 4 -5 -6 -7 -8 -9 -10
leaf_value=-0.00027148812802301516 -0.00053906564346768639 0.009534535732007389 0.0012869652898106407 -0.0083719352740914601 0.012206072694001098 -0.00033393316850480106 -0.0049882860981266611 -5.5577449966222045e-05 -0.0063993192955174236
leaf_weight=45 33 33 44 31 30 45 44 40 33
leaf_count=45 33 33 44 31 30 45 44 40 33
internal_value=0 0.000788285 0.00252946 0.000367731 0.00571363 0.00384119 -0.00308148 -0.00191201 -0.00286403
internal_weight=0 301 183 109 74 78 77 118 78
internal_count=378 301 183 109 74 78 77 118 78
is_linear=0
shrinkage=0.05


Tree=77
num_leaves=10
num_cat=0
split_feature=0 4 4 0 1 4 1 1 0
split_gain=0.33318 0.490241 0.356956 0.793327 1.40325 0.342927 0.126574 0.183439 0.00489796
threshold=9.5000000000000018 1.5000000000000002 7.5000000000000009 14.500000000000002 8.5000000000000018 11.500000000000002 13.500000000000002 7.5000000000000009 12.500000000000002
decision_type=2 2 2 2 2 2 2 2 2
left_child=-1 6 3 4 -3 -4 7 8 -2
right_child=1 2 5 -5 -6 -7 -8 -9 -10
leaf_value=-0.0038464786940995525 -0.00085094830625363305 -0.0072174969069179031 -0.0042341725681634508 0.010205720431570496 0.0061290442426171574 0.0026358832533542927 0.00072322537629301419 -0.0059330582036636777 -0.0017029695182798372
leaf_weight=49 37 31 34 35 54 39 38 30 31
leaf_count=49 37 31 34 35 54 39 38 30 31
internal_value=0 0.00057288 0.00219308 0.00387022 0.00126148 -0.000563869 -0.00172637 -0.00267621 -0.00123937
internal_weight=0 329 193 120 85 73 136 98 68
internal_count=378 329 193 120 85 73 136 98 68
is_linear=0
shrinkage=0.05


Tree=78
num_leaves=10
num_cat=0
split_feature=1 1 1 0 4 0 2 4 1
split_gain=0.332518 0.48006 0.459236 0.532054 0.844558 0.149901 0.0787081 0.262513 0.0354787
threshold=31.500000000000004 7.5000000000000009 10.500000000000002 12.500000000000002 6.5000000000000009 11.500000000000002 1.0000000180025095e-35 1.0000000180025095e-35 17.500000000000004
decision_type=2 2 2 2 2 2 2 2 2
left_child=1 6 -3 4 8 -2 7 -1 -4
right_child=5 2 3 -5 -6 -7 -8 -9 -10
leaf_value=-0.00017737921534313097 -0.00038464403231487133 0.0075041035057178563 0.0010862674031938827 0.0052087780240421683 -0.0078618232911873264 -0.0048425803595984526 6.6630372311919932e-05 -0.0060486158779398964 0.0034295020314554373
leaf_weight=45 33 35 35 52 31 44 40 33 30
leaf_count=45 33 35 35 52 31 44 40 33 30
internal_value=0 0.000750056 0.00235349 0.00113543 -0.00107096 -0.00293204 -0.00173662 -0.00266136 0.00216776
internal_weight=0 301 183 148 96 77 118 78 65
internal_count=378 301 183 148 96 77 118 78 65
is_linear=0
shrinkage=0.05


Tree=79
num_leaves=10
num_cat=0
split_feature=1 1 4 4 1 1 3 2 1
split_gain=0.304203 0.559855 0.453661 0.597898 0.437851 0.463584 0.382487 0.194622 0.02877
threshold=41.500000000000007 34.500000000000007 8.5000000000000018 3.5000000000000004 16.500000000000004 7.5000000000000009 1.0000000180025095e-35 1.0000000180025095e-35 2.5000000000000004
decision_type=2 2 2 2 2 2 2 2 2
left_child=1 2 3 4 5 7 -7 8 -1
right_child=-2 -3 -4 -5 -6 6 -8 -9 -10
leaf_value=-0.0020532626340067704 -0.00483097846309344 0.0065110391088049197 -0.0048307833808433759 0.0049888317741579938 -0.0052074190510740118 0.0075470344248143115 -0.0002536185543673734 0.0017778024574120841 -0.0040401616805632199
leaf_weight=38 30 34 46 59 43 33 30 30 35
leaf_count=38 30 34 46 59 43 33 30 30 35
internal_value=0 0.000416464 -0.000243458 0.000543918 -0.000710866 0.000453904 0.00383244 -0.00161258 -0.00300589
internal_weight=0 348 314 268 209 166 63 103 73
internal_count=378 348 314 268 209 166 63 103 73
is_linear=0
shrinkage=0.05


Tree=80
num_leaves=9
num_cat=0
split_feature=1 1 1 0 4 4 3 1
split_gain=0.303019 0.420435 0.382405 0.478502 0.742315 0.14251 0.0709655 0.0406415
threshold=31.500000000000004 7.5000000000000009 10.500000000000002 12.500000000000002 6.5000000000000009 5.5000000000000009 1.0000000180025095e-35 17.500000000000004
decision_type=2 2 2 2 2 2 2 2
left_child=1 6 -3 4 7 -2 -1 -4
right_child=5 2 3 -5 -6 -7 -8 -9
leaf_value=-0.00034264824598243367 -0.00031515739463043937 0.0069166223348916646 0.00089150375553539822 0.0049679810913333391 -0.0073538977472532192 -0.0046618112828582525 -0.0027964099905774245 0.0033994415774941445
leaf_weight=57 33 35 35 52 31 44 61 30
leaf_count=57 33 35 35 52 31 44 61 30
internal_value=0 0.000716013 0.00221657 0.00110507 -0.000987343 -0.00279896 -0.00161112 0.00204901
internal_weight=0 301 183 148 96 77 118 65
internal_count=378 301 183 148 96 77 118 65
is_linear=0
shrinkage=0.05


Tree=81
num_leaves=9
num_cat=0
split_feature=1 1 1 1 4 2 0 1
split_gain=0.273474 0.394729 0.858085 0.915984 0.144249 0.150166 0.141171 0.0151283
threshold=31.500000000000004 21.500000000000004 16.500000000000004 11.500000000000002 1.5000000000000002 1.0000000180025095e-35 11.500000000000002 4.5000000000000009
decision_type=2 2 2 2 2 2 2 2
left_child=1 2 3 4 7 -6 -2 -1
right_child=6 -3 -4 -5 5 -7 -8 -9
leaf_value=-0.001422822417548146 -0.00018691180104559119 0.0044674752566996696 -0.0079600514783974615 0.0071922580381278359 0.0036502107325941321 -0.0010819338360115102 -0.0045130868781019344 -0.0026589907472953202
leaf_weight=55 33 56 31 46 30 38 44 45
leaf_count=55 33 56 31 46 30 38 44 45
internal_value=0 0.000680212 -0.000185448 0.00094078 -0.000770934 0.00100578 -0.00265901 -0.0019791
internal_weight=0 301 245 214 168 68 77 100
internal_count=378 301 245 214 168 68 77 100
is_linear=0
shrinkage=0.05


Tree=82
num_leaves=9
num_cat=0
split_feature=0 4 4 1 0 2 1 1
split_gain=0.275429 0.517367 0.245885 0.536217 0.196704 0.435728 0.539347 0.112116
threshold=9.5000000000000018 10.500000000000002 6.5000000000000009 18.500000000000004 14.500000000000002 1.0000000180025095e-35 3.5000000000000004 10.500000000000002
decision_type=2 2 2 2 2 2 2 2
left_child=-1 2 3 4 5 6 -2 -7
right_child=1 -3 -4 -5 -6 7 -8 -9
leaf_value=-0.0034972653030512892 -0.0029601328670867677 0.00543883992763965 -0.0042016645268137974 0.0045310743349163156 0.001699598152190447 -0.0030264158929257019 0.0057346744810216014 -0.007115301806479693
leaf_weight=49 42 46 35 57 50 38 31 30
leaf_count=49 42 46 35 57 50 38 31 30
internal_value=0 0.000520869 -0.000278518 0.000275152 -0.00099494 -0.00195045 0.000732183 -0.00483034
internal_weight=0 329 283 248 191 141 73 68
internal_count=378 329 283 248 191 141 73 68
is_linear=0
shrinkage=0.05


Tree=83
num_leaves=10
num_cat=0
split_feature=1 2 1 0 1 4 4 0 1
split_gain=0.257979 0.352775 1.8688 0.371651 0.331885 0.248915 0.531226 0.145065 0.0965957
threshold=31.500000000000004 1.0000000180025095e-35 21.500000000000004 14.500000000000002 8.5000000000000018 1.0000000180025095e-35 4.5000000000000009 11.500000000000002 2.5000000000000004
decision_type=2 2 2 2 2 2 2 2 2
left_child=1 4 3 5 8 -3 -7 -2 -1
right_child=7 2 -4 -5 -6 6 -8 -9 -10
leaf_value=-0.0013062911057204474 -7.6612332045580407e-05 0.0012693151614318293 0.011164452124733566 0.0033527452302606481 -0.0049922576235119434 -0.0088269746251171451 0.00021439898251132531 -0.0044620576187629594 0.0021073957201266707
leaf_weight=40 33 30 43 38 42 32 33 44 43
leaf_count=40 33 30 43 38 42 32 33 44 43
internal_value=0 0.00066066 0.00210322 -0.000826348 -0.00137047 -0.00249798 -0.00423674 -0.00258258 0.000462245
internal_weight=0 301 176 133 125 95 65 77 83
internal_count=378 301 176 133 125 95 65 77 83
is_linear=0
shrinkage=0.05


Tree=84
num_leaves=9
num_cat=0
split_feature=0 4 4 4 1 0 1 2
split_gain=0.25056 0.447274 0.227867 0.498963 0.185947 0.251945 0.221876 0.234258
threshold=9.5000000000000018 10.500000000000002 6.5000000000000009 3.5000000000000004 16.500000000000004 15.500000000000002 2.5000000000000004 1.0000000180025095e-35
decision_type=2 2 2 2 2 2 2 2
left_child=-1 2 3 4 5 6 -2 -8
right_child=1 -3 -4 -5 -6 -7 7 -9
leaf_value=-0.0033356477725034468 0.0026572469400586371 0.0050695028763426391 -0.0040231390230889832 0.0049862828024703522 -0.0034643392306657472 0.0037325855189313493 0.00048311485661542978 -0.0047228083925995425
leaf_weight=49 30 46 35 46 49 36 40 47
leaf_count=49 30 46 35 46 49 36 40 47
internal_value=0 0.000496799 -0.000246468 0.00028653 -0.000783711 7.47914e-05 -0.00105068 -0.00232928
internal_weight=0 329 283 248 202 153 117 87
internal_count=378 329 283 248 202 153 117 87
is_linear=0
shrinkage=0.05


Tree=85
num_leaves=10
num_cat=0
split_feature=1 1 4 4 1 1 3 2 1
split_gain=0.231167 0.708275 0.46985 0.491618 0.421329 0.38784 0.311397 0.194812 0.030518
threshold=40.500000000000007 34.500000000000007 8.5000000000000018 3.5000000000000004 16.500000000000004 7.5000000000000009 1.0000000180025095e-35 1.0000000180025095e-35 2.5000000000000004
decision_type=2 2 2 2 2 2 2 2 2
left_child=1 2 3 4 5 7 -7 8 -1
right_child=-2 -3 -4 -5 -6 6 -8 -9 -10
leaf_value=-0.0018094586079793152 -0.0039330264916369586 0.0077287255972623833 -0.004981001938753964 0.0045193034066360891 -0.0050599550351847055 0.0069354260001670241 -0.0001030742508980135 0.0019954303295041122 -0.0038558264884964695
leaf_weight=38 34 30 46 59 43 33 30 30 35
leaf_count=38 34 30 46 59 43 33 30 30 35
internal_value=0 0.000388729 -0.000312544 0.000488758 -0.000649051 0.000493532 0.00358376 -0.00139661 -0.00279059
internal_weight=0 344 314 268 209 166 63 103 73
internal_count=378 344 314 268 209 166 63 103 73
is_linear=0
shrinkage=0.05


Tree=86
num_leaves=9
num_cat=0
split_feature=1 1 1 2 1 0 3 3
split_gain=0.232144 0.335874 0.372995 0.461673 1.91559 0.144836 0.0620364 0.0444786
threshold=31.500000000000004 7.5000000000000009 10.500000000000002 1.0000000180025095e-35 21.500000000000004 11.500000000000002 1.0000000180025095e-35 1.0000000180025095e-35
decision_type=2 2 2 2 2 2 2 2
left_child=1 6 -3 -4 7 -2 -1 -5
right_child=5 2 3 4 -6 -7 -8 -9
leaf_value=-0.00026728940572132148 5.4130630186674273e-05 0.006609764738573826 -0.0042433528037851345 -0.0015151472433876153 0.010723686250749716 -0.004327843664214015 -0.0025614933176137905 -0.0040303169866092508
leaf_weight=57 33 35 34 39 43 44 61 32
leaf_count=57 33 35 34 39 43 44 61 32
internal_value=0 0.000626707 0.0019679 0.00087016 0.00239524 -0.00244985 -0.00145328 -0.00264874
internal_weight=0 301 183 148 114 77 118 71
internal_count=378 301 183 148 114 77 118 71
is_linear=0
shrinkage=0.05


Tree=87
num_leaves=9
num_cat=0
split_feature=0 4 4 1 0 2 1 1
split_gain=0.222568 0.413425 0.21434 0.482802 0.136646 0.381827 0.482158 0.0934037
threshold=9.5000000000000018 10.500000000000002 6.5000000000000009 18.500000000000004 14.500000000000002 1.0000000180025095e-35 3.5000000000000004 10.500000000000002
decision_type=2 2 2 2 2 2 2 2
left_child=-1 2 3 4 5 6 -2 -7
right_child=1 -3 -4 -5 -6 7 -8 -9
leaf_value=-0.0031438007675187321 -0.002710839506748709 0.0048645020108265078 -0.0039092221955901816 0.0043089608220677625 0.0013112233411520721 -0.0027803568733169846 0.0055100886812133182 -0.0065124640737970673
leaf_weight=49 42 46 35 57 50 38 31 30
leaf_count=49 42 46 35 57 50 38 31 30
internal_value=0 0.000468226 -0.000246363 0.000270572 -0.000934601 -0.00173099 0.00078024 -0.00442687
internal_weight=0 329 283 248 191 141 73 68
internal_count=378 329 283 248 191 141 73 68
is_linear=0
shrinkage=0.05


end of trees

feature_importances:
Column_1=270
Column_4=209
Column_0=139
Column_3=89
Column_2=70

parameters:
[boosting: gbdt]
[objective: regression]
[metric: l2]
[tree_learner: serial]
[device_type: cpu]
[data: ]
[valid: ]
[num_iterations: 10000]
[learning_rate: 0.05]
[num_leaves: 63]
[num_threads: 0]
[deterministic: 0]
[force_col_wise: 0]
[force_row_wise: 0]
[histogram_pool_size: -1]
[max_depth: -1]
[min_data_in_leaf: 30]
[min_sum_hessian_in_leaf: 0.001]
[bagging_fraction: 0.8]
[pos_bagging_fraction: 1]
[neg_bagging_fraction: 1]
[bagging_freq: 0]
[bagging_seed: 9915]
[feature_fraction: 0.9]
[feature_fraction_bynode: 1]
[feature_fraction_seed: 13361]
[extra_trees: 0]
[extra_seed: 2437]
[early_stopping_round: 0]
[first_metric_only: 0]
[max_delta_step: 0]
[lambda_l1: 0]
[lambda_l2: 0]
[linear_lambda: 0]
[min_gain_to_split: 0]
[drop_rate: 0.1]
[max_drop: 50]
[skip_drop: 0.5]
[xgboost_dart_mode: 0]
[uniform_drop: 0]
[drop_seed: 6739]
[top_rate: 0.2]
[other_rate: 0.1]
[min_data_per_group: 100]
[max_cat_threshold: 32]
[cat_l2: 10]
[cat_smooth: 10]
[max_cat_to_onehot: 4]
[top_k: 20]
[monotone_constraints: ]
[monotone_constraints_method: basic]
[monotone_penalty: 0]
[feature_contri: ]
[forcedsplits_filename: ]
[refit_decay_rate: 0.9]
[cegb_tradeoff: 1]
[cegb_penalty_split: 0]
[cegb_penalty_feature_lazy: ]
[cegb_penalty_feature_coupled: ]
[path_smooth: 0]
[interaction_constraints: ]
[verbosity: -1]
[saved_feature_importance_type: 0]
[linear_tree: 0]
[max_bin: 255]
[max_bin_by_feature: ]
[min_data_in_bin: 3]
[bin_construct_sample_cnt: 200000]
[data_random_seed: 4091]
[is_enable_sparse: 1]
[enable_bundle: 1]
[use_missing: 1]
[zero_as_missing: 0]
[feature_pre_filter: 1]
[pre_partition: 0]
[two_round: 0]
[header: 0]
[label_column: ]
[weight_column: ]
[group_column: ]
[ignore_column: ]
[categorical_feature: ]
[forcedbins_filename: ]
[precise_float_parser: 0]
[parser_config_file: ]
[objective_seed: 29722]
[num_class: 1]
[is_unbalance: 0]
[scale_pos_weight: 1]
[sigmoid: 1]
[boost_from_average: 1]
[reg_sqrt: 0]
[alpha: 0.9]
[fair_c: 1]
[poisson_max_delta_step: 0.7]
[tweedie_variance_power: 1.5]
[lambdarank_truncation_level: 30]
[lambdarank_norm: 1]
[label_gain: ]
[eval_at: ]
[multi_error_top_k: 1]
[auc_mu_weights: ]
[num_machines: 1]
[local_listen_port: 12400]
[time_out: 120]
[machine_list_filename: ]
[machines: ]
[gpu_platform_id: -1]
[gpu_device_id: -1]
[gpu_use_dp: 0]
[num_gpu: 1]

end of parameters

pandas_categorical:null
